5.591687560081481934e-02
7.526151090860366821e-02
7.218781113624572754e-02
5.085089430212974548e-02
4.052498564124107361e-02
5.775147303938865662e-02
5.647490918636322021e-02
8.574065566062927246e-02
5.557959154248237610e-02
-1.615470857359468937e-03
1.063179969787597656e-01
7.975021004676818848e-02
1.084350422024726868e-01
1.202240027487277985e-02
7.457951456308364868e-02
1.427652593702077866e-02
7.923123240470886230e-02
3.819232434034347534e-02
5.804656445980072021e-02
-4.680014029145240784e-02
4.859662428498268127e-02
5.515993386507034302e-02
4.239249974489212036e-02
3.147155046463012695e-02
4.204914346337318420e-02
-2.493090368807315826e-02
3.994562849402427673e-02
-9.416975080966949463e-03
3.550104796886444092e-02
-1.359249814413487911e-03
-2.147302031517028809e-03
-1.146111520938575268e-03
-6.807457655668258667e-03
-1.160707324743270874e-03
5.168830230832099915e-02
1.045184762915596366e-04
1.074818745255470276e-01
2.734987996518611908e-02
4.665446467697620392e-03
1.902727060951292515e-03
3.267041966319084167e-02
1.063074246048927307e-01
-1.018833834677934647e-02
3.508903458714485168e-02
-2.373562194406986237e-02
-8.300819899886846542e-04
5.540060624480247498e-02
9.330706298351287842e-02
1.258676499128341675e-02
5.998726189136505127e-02
8.822897216305136681e-04
1.037348136305809021e-01
4.592359066009521484e-02
9.297007322311401367e-02
3.517726436257362366e-02
2.268868125975131989e-02
1.000964492559432983e-01
7.710468489676713943e-04
8.590667694807052612e-02
5.708385631442070007e-02
7.847186177968978882e-02
7.344761490821838379e-02
3.924950584769248962e-02
3.474168479442596436e-02
2.935200184583663940e-02
-2.899553626775741577e-03
-4.363766405731439590e-03
-2.728408435359597206e-04
-1.481710281223058701e-02
-2.012767363339662552e-03
8.061544597148895264e-02
7.886198163032531738e-02
4.026522114872932434e-02
1.833063177764415741e-02
3.627132251858711243e-02
4.014339298009872437e-02
5.577258765697479248e-02
-1.217063982039690018e-03
1.012696921825408936e-01
-1.971115544438362122e-02
4.692847654223442078e-02
2.481811307370662689e-02
4.789139202330261469e-04
3.151663392782211304e-02
-1.234069233760237694e-03
5.585559410974383354e-04
3.720773011445999146e-02
4.819310829043388367e-02
4.480655305087566376e-03
9.646003693342208862e-02
3.261211141943931580e-02
8.576474338769912720e-02
7.971489685587584972e-04
-3.043997101485729218e-02
4.413611022755503654e-04
2.072000317275524139e-02
-4.480413335841149092e-04
-9.505077032372355461e-04
4.365232773125171661e-03
4.624957218766212463e-02
-6.086821202188730240e-03
-5.775424069724977016e-04
6.630506366491317749e-02
1.065367087721824646e-01
4.898683354258537292e-02
4.637098312377929688e-02
8.283466100692749023e-02
-4.380384460091590881e-03
5.357578769326210022e-02
7.280992576852440834e-04
2.363700652495026588e-03
-7.968332618474960327e-03
3.373077884316444397e-02
7.425246294587850571e-04
-1.153553370386362076e-02
3.452824894338846207e-03
8.791434578597545624e-03
9.259063005447387695e-02
4.488421138375997543e-03
1.152647845447063446e-02
-1.478499370932695456e-06
-1.405321527272462845e-04
-9.738936088979244232e-03
4.169781506061553955e-02
-8.498854585923254490e-04
3.480374813079833984e-02
1.066446974873542786e-01
-1.224680058658123016e-02
-2.878972736652940512e-04
-3.826904809102416039e-03
2.377658238401636481e-04
-5.787390749901533127e-03
1.048995272867614403e-05
-5.113628506660461426e-02
1.465332661609863862e-05
4.647405445575714111e-02
-4.967933055013418198e-03
4.272843897342681885e-02
6.128498911857604980e-02
6.534195691347122192e-02
6.039118394255638123e-02
-5.674163694493472576e-04
-1.236604619771242142e-02
6.882314383983612061e-02
