-2.954534888267517090e-01
4.156731128692626953e+00
3.564195394515991211e+00
3.558177709579467773e+00
7.521792650222778320e-01
3.189089000225067139e-01
3.695831060409545898e+00
4.503461360931396484e+00
4.368172168731689453e+00
2.055455207824707031e+00
3.839089870452880859e+00
2.232352495193481445e+00
1.706908106803894043e+00
3.785811185836791992e+00
-7.478165626525878906e-01
2.875633001327514648e+00
1.633452534675598145e+00
1.234534859657287598e+00
3.019998967647552490e-01
2.485641717910766602e+00
-4.854544401168823242e-01
2.044170379638671875e+00
2.942915678024291992e+00
2.286175012588500977e+00
-1.167271971702575684e+00
3.235987424850463867e+00
4.472019672393798828e+00
3.817993402481079102e+00
1.495447635650634766e+00
2.575270414352416992e+00
3.480349302291870117e+00
3.655824184417724609e+00
-1.326722025871276855e+00
2.850901603698730469e+00
3.447998046875000000e+00
2.592556476593017578e+00
4.156004905700683594e+00
-4.309097230434417725e-01
2.970727682113647461e+00
2.591276884078979492e+00
3.514358758926391602e+00
1.583081483840942383e+00
2.078178167343139648e+00
2.790187120437622070e+00
4.276364803314208984e+00
1.301814675331115723e+00
2.287246733903884888e-01
2.043454408645629883e+00
2.391820907592773438e+00
1.549452900886535645e+00
5.829096436500549316e-01
3.390006065368652344e+00
4.322725772857666016e+00
1.106184840202331543e+00
3.205821037292480469e+00
-8.052726984024047852e-01
-2.088905811309814453e+00
3.239276885986328125e+00
1.358359456062316895e+00
4.187816143035888672e+00
-3.179987668991088867e-01
9.832692742347717285e-01
3.857268333435058594e+00
2.240728616714477539e+00
3.476900577545166016e+00
-1.492906451225280762e+00
4.204357624053955078e+00
2.310365438461303711e+00
4.046540260314941406e+00
2.478361129760742188e+00
1.037634372711181641e+00
2.433988094329833984e+00
3.248352289199829102e+00
2.521814405918121338e-01
3.109993219375610352e+00
1.995275855064392090e+00
-1.012365698814392090e+00
4.343838214874267578e+00
4.483634829521179199e-01
-6.899977326393127441e-01
3.459280490875244141e+00
4.788927555084228516e+00
1.707282960414886475e-01
1.494726777076721191e+00
3.989989280700683594e+00
-7.918187975883483887e-01
4.325458049774169922e+00
-9.243609905242919922e-01
1.493998050689697266e+00
3.676528692245483398e+00
4.115637779235839844e+00
-1.232732012867927551e-01
3.087634801864624023e+00
3.607095003128051758e+00
2.293457031250000000e+00
3.168187856674194336e+00
4.031098365783691406e+00
-4.465444684028625488e-01
-1.375268101692199707e+00
6.432766318321228027e-01
4.814530313014984131e-01
1.213816761970520020e+00
3.051090240478515625e+00
3.807080507278442383e+00
3.316527843475341797e+00
3.236400187015533447e-01
4.754527509212493896e-01
5.989084839820861816e-01
-4.930916428565979004e-01
3.133807897567749023e+00
-7.156367301940917969e-01
-6.761812567710876465e-01
-1.561273813247680664e+00
3.783265590667724609e+00
-2.825461328029632568e-01
4.201627731323242188e+00
4.856205940246582031e+00
7.312696576118469238e-01
4.659616947174072266e+00
2.401264667510986328e+00
-1.090541601181030273e+00
-1.389639973640441895e+00
1.044181942939758301e+00
2.959094762802124023e+00
2.693811893463134766e+00
4.316019535064697266e+00
5.729115009307861328e-01
1.292713582515716553e-01
9.281791448593139648e-01
-2.036540985107421875e+00
8.161821961402893066e-01
2.175276756286621094e+00
3.261453866958618164e+00
3.317996025085449219e+00
2.030002355575561523e+00
3.651275157928466797e+00
-1.075089931488037109e+00
2.403819084167480469e+00
1.130911231040954590e+00
3.105620384216308594e+00
3.154357671737670898e+00
2.453809738159179688e+00
3.725617408752441406e+00
3.157805681228637695e+00
2.848188638687133789e+00
3.066362619400024414e+00
4.245275020599365234e+00
5.970907211303710938e-01
4.051831722259521484e+00
3.570908308029174805e+00
-5.732729434967041016e-01
2.702372312545776367e+00
3.102909088134765625e+00
2.531269550323486328e+00
1.776363253593444824e+00
3.690550327301025391e+00
2.871442317962646484e+00
2.571264028549194336e+00
2.083634614944458008e+00
3.251806020736694336e+00
4.019094944000244141e+00
-1.247456789016723633e+00
3.770191907882690430e+00
-1.466356754302978516e+00
3.884171247482299805e+00
2.737826347351074219e+00
3.789808511734008789e+00
1.705266118049621582e+00
-1.283631563186645508e+00
3.174521207809448242e+00
2.198542118072509766e+00
-1.206179141998291016e+00
3.529084920883178711e-01
3.443624496459960938e+00
3.506906986236572266e+00
3.277081012725830078e+00
2.025814533233642578e+00
4.025451660156250000e+00
3.441803753376007080e-01
3.851272821426391602e+00
2.154171466827392578e+00
2.018180847167968750e+00
4.178920745849609375e+00
2.258548736572265625e+00
1.018725156784057617e+00
7.667286992073059082e-01
-5.290815234184265137e-02
-9.605473875999450684e-01
-7.909086346626281738e-02
-1.703633785247802734e+00
2.485635519027709961e+00
2.137994766235351562e+00
-7.334566712379455566e-01
-1.112726092338562012e+00
3.643813848495483398e+00
4.353084564208984375e+00
3.640170335769653320e+00
-1.127092480659484863e+00
-1.632544755935668945e+00
3.737280607223510742e+00
3.563088178634643555e+00
9.812720417976379395e-01
1.335632443428039551e+00
1.385455965995788574e+00
-1.125453934073448181e-01
2.107637882232666016e+00
3.129443645477294922e+00
4.527279436588287354e-01
1.889644026756286621e+00
-6.649065613746643066e-01
3.100183010101318359e+00
1.094001054763793945e+00
2.251091241836547852e+00
4.293813228607177734e+00
2.619456768035888672e+00
6.696403026580810547e-01
3.009266376495361328e+00
1.750901579856872559e+00
4.593833923339843750e+00
2.815104722976684570e+00
2.942541122436523438e+00
4.015807628631591797e+00
2.694358825683593750e+00
2.571451187133789062e+00
1.981625676155090332e+00
6.109085083007812500e-01
4.153440475463867188e+00
3.462721109390258789e+00
2.468012571334838867e+00
1.805806279182434082e+00
1.129630684852600098e+00
-9.069069027900695801e-01
4.219298362731933594e+00
3.355276823043823242e+00
-1.743450045585632324e+00
2.125097751617431641e+00
3.672364234924316406e+00
8.490903675556182861e-02
9.010879993438720703e-01
-2.176176309585571289e+00
2.987093448638916016e+00
-1.423089981079101562e+00
3.518541336059570312e+00
3.652543783187866211e+00
8.701835274696350098e-01
1.947266936302185059e+00
3.773089885711669922e+00
2.794002056121826172e+00
-1.426905870437622070e+00
2.151103019714355469e+00
-1.021273732185363770e+00
5.825474858283996582e-01
1.022000908851623535e+00
3.611806631088256836e+00
3.867243826389312744e-01
3.757439613342285156e+00
1.819455146789550781e+00
-1.138179659843444824e+00
3.443620204925537109e+00
4.304533481597900391e+00
4.143985748291015625e+00
-1.414557695388793945e-01
2.957443237304687500e+00
3.701269865036010742e+00
3.201091051101684570e+00
3.223654329776763916e-01
1.078177452087402344e+00
9.910882711410522461e-01
3.774901151657104492e+00
4.531285285949707031e+00
2.999106168746948242e+00
6.727077532559633255e-03
5.394547581672668457e-01
3.528533220291137695e+00
3.485809564590454102e+00
-2.269088625907897949e-01
2.587265253067016602e+00
2.759088754653930664e+00
-1.967275291681289673e-01
2.589258670806884766e+00
3.849272727966308594e+00
3.370357513427734375e+00
3.277079343795776367e+00
9.932698011398315430e-01
3.483809947967529297e+00
1.097633361816406250e+00
1.436367034912109375e-01
3.495459794998168945e+00
-2.298178970813751221e-01
3.407800436019897461e+00
-4.378176927566528320e-01
3.713624000549316406e+00
4.734936237335205078e+00
1.867642164230346680e+00
-1.737998723983764648e+00
-1.526907205581665039e+00
1.817823290824890137e+00
3.586546421051025391e+00
4.068903923034667969e+00
-6.290785223245620728e-02
3.204730510711669922e+00
-6.181955803185701370e-03
4.628559112548828125e+00
-1.968724370002746582e+00
-4.170910120010375977e-01
5.921815633773803711e-01
3.601814508438110352e+00
8.823587298393249512e-01
1.330367684364318848e+00
3.864180326461791992e+00
2.873094797134399414e+00
4.262373924255371094e+00
8.905434608459472656e-01
4.840907573699951172e+00
3.473270893096923828e+00
3.830000638961791992e+00
2.743101119995117188e+00
2.471988677978515625e+00
1.176360130310058594e+00
2.172367811203002930e+00
1.648357629776000977e+00
-3.070904016494750977e-01
3.248728275299072266e+00
2.889088153839111328e+00
-1.346364617347717285e+00
3.293991327285766602e+00
2.121268510818481445e+00
-1.680547237396240234e+00
1.296367406845092773e+00
1.052728295326232910e+00
3.349995374679565430e+00
-9.810880422592163086e-01
3.076550006866455078e+00
-9.174551963806152344e-01
2.265466451644897461e-01
3.265449523925781250e+00
-7.781822681427001953e-01
3.645083904266357422e+00
2.869821786880493164e+00
2.122186660766601562e+00
2.446900844573974609e+00
-5.799848213791847229e-02
-1.425814270973205566e+00
-1.513631343841552734e+00
3.509984731674194336e+00
-1.711270093917846680e+00
1.394724965095520020e+00
-4.272717833518981934e-01
3.015447616577148438e+00
3.310356616973876953e+00
1.572725772857666016e-01
-1.573261022567749023e+00
3.952893018722534180e+00
9.905437231063842773e-01
8.516383767127990723e-01
-1.204356670379638672e+00
-1.756173849105834961e+00
-3.783626854419708252e-01
2.481088638305664062e+00
2.352724790573120117e+00
-1.980179429054260254e+00
4.211090564727783203e+00
1.975446105003356934e+00
1.176370024681091309e+00
1.232540488243103027e+00
1.092718914151191711e-01
4.224183082580566406e+00
1.397271275520324707e+00
3.743441343307495117e+00
1.148735523223876953e+00
3.019445419311523438e+00
1.210547924041748047e+00
4.704192161560058594e+00
-1.426178455352783203e+00
2.556194067001342773e+00
-6.845440268516540527e-01
1.286363482475280762e+00
3.816729545593261719e+00
4.673284053802490234e+00
3.367815494537353516e+00
2.000543832778930664e+00
2.881994724273681641e+00
1.340719103813171387e+00
1.165998578071594238e+00
2.378009080886840820e+00
3.736179828643798828e+00
3.707633495330810547e+00
1.867997646331787109e+00
-7.581757009029388428e-02
2.617816209793090820e+00
-1.254361867904663086e+00
-1.244366407394409180e+00
-8.363579511642456055e-01
4.038176834583282471e-01
5.576375722885131836e-01
-9.298200011253356934e-01
3.468182802200317383e+00
1.191992044448852539e+00
3.977257251739501953e+00
8.040001392364501953e-01
