-1.430907994508743286e-01
-1.429089605808258057e-01
-1.439999639987945557e-01
-1.405452787876129150e-01
-1.387269943952560425e-01
-1.430907845497131348e-01
-1.439999490976333618e-01
-1.458181589841842651e-01
-1.416362226009368896e-01
-1.414544135332107544e-01
-1.449090540409088135e-01
-1.434544622898101807e-01
-1.379997432231903076e-01
-1.370906084775924683e-01
-1.423635035753250122e-01
-1.443635672330856323e-01
-1.407270580530166626e-01
-1.414544135332107544e-01
-1.423635333776473999e-01
-1.419998705387115479e-01
-1.429089456796646118e-01
-1.379997432231903076e-01
-1.416362076997756958e-01
-1.427271664142608643e-01
-1.379997134208679199e-01
-1.412725895643234253e-01
-1.423635035753250122e-01
-1.401816159486770630e-01
-1.432726234197616577e-01
-1.403634548187255859e-01
-1.409089565277099609e-01
-1.423635333776473999e-01
-1.399997919797897339e-01
-1.436363011598587036e-01
-1.227268949151039124e-01
-1.203629523515701294e-01
-1.083631217479705811e-01
-1.001813784241676331e-01
-1.021810322999954224e-01
-1.123626157641410828e-01
-1.158174499869346619e-01
-1.119992285966873169e-01
-1.199991628527641296e-01
-1.201812252402305603e-01
-1.289081722497940063e-01
-1.201809272170066833e-01
-1.163627505302429199e-01
-1.127267330884933472e-01
-1.143630743026733398e-01
-1.165448725223541260e-01
-1.276357620954513550e-01
-1.394543051719665527e-01
-1.423635184764862061e-01
-1.423634886741638184e-01
-1.449090689420700073e-01
-1.443635821342468262e-01
-1.434544920921325684e-01
-1.379997283220291138e-01
-1.434544622898101807e-01
-1.425453424453735352e-01
-1.298176646232604980e-01
-1.429089754819869995e-01
-1.009086593985557556e-01
-8.872616291046142578e-02
-8.436295390129089355e-02
-9.527157247066497803e-02
-1.174528300762176514e-01
-1.314540207386016846e-01
-1.489098221063613892e-01
-1.596368700265884399e-01
-1.945468634366989136e-01
-2.145451754331588745e-01
-2.138174325227737427e-01
-1.965459585189819336e-01
-1.790927946567535400e-01
-1.567288190126419067e-01
-1.299993246793746948e-01
-1.149079129099845886e-01
-1.069079414010047913e-01
-1.034537106752395630e-01
-1.052722409367561340e-01
-1.267266571521759033e-01
-1.452727168798446655e-01
-1.414543837308883667e-01
-1.430907845497131348e-01
-1.385452300310134888e-01
-1.365451514720916748e-01
-1.367269605398178101e-01
-1.307267844676971436e-01
-8.818148076534271240e-02
-7.454467564821243286e-02
-7.308969646692276001e-02
-7.218118011951446533e-02
-9.327181428670883179e-02
-1.281822472810745239e-01
-1.530903577804565430e-01
-1.780007034540176392e-01
-2.158185988664627075e-01
-2.550938427448272705e-01
-2.783660292625427246e-01
-2.683655917644500732e-01
-2.570900022983551025e-01
-2.127277553081512451e-01
-1.618203818798065186e-01
-1.325462758541107178e-01
-1.261805742979049683e-01
-1.134529858827590942e-01
-9.890782833099365234e-02
-1.010904684662818909e-01
-1.114540398120880127e-01
-1.358178555965423584e-01
-1.427271366119384766e-01
-1.474545896053314209e-01
-1.407271027565002441e-01
-1.372724324464797974e-01
-1.229084432125091553e-01
-9.072691202163696289e-02
-6.163582950830459595e-02
-5.254484340548515320e-02
-1.818186789751052856e-02
-1.618174090981483459e-02
-5.763516202569007874e-02
-1.063638627529144287e-01
-1.549084484577178955e-01
-2.000010162591934204e-01
-2.301816642284393311e-01
-2.639997303485870361e-01
-2.721829414367675781e-01
-2.876353263854980469e-01
-2.847293615341186523e-01
-2.363620102405548096e-01
-2.105451524257659912e-01
-1.658176928758621216e-01
-1.219985112547874451e-01
-1.065427958965301514e-01
-9.127062559127807617e-02
-1.063622459769248962e-01
-9.745398908853530884e-02
-1.076358482241630554e-01
-1.401816159486770630e-01
-1.456363499164581299e-01
-1.447272300720214844e-01
-1.256356686353683472e-01
-9.418144077062606812e-02
-6.672671437263488770e-02
-1.963612623512744904e-02
2.581797353923320770e-02
5.145462602376937866e-02
4.636345431208610535e-02
-1.799982786178588867e-02
-9.818230569362640381e-02
-1.420005559921264648e-01
-1.881827414035797119e-01
-1.980005502700805664e-01
-2.325442433357238770e-01
-2.401836216449737549e-01
-2.761829197406768799e-01
-2.650918960571289062e-01
-2.027264535427093506e-01
-1.476348489522933960e-01
-1.036364883184432983e-01
-5.418174713850021362e-02
-2.290873788297176361e-02
-4.909016191959381104e-02
-8.709049224853515625e-02
-1.052722260355949402e-01
-1.030904278159141541e-01
-1.359996944665908813e-01
-1.436362713575363159e-01
-1.430907994508743286e-01
-1.134539693593978882e-01
-7.927228510379791260e-02
-2.854490838944911957e-02
2.599982172250747681e-02
5.163678154349327087e-02
4.927290230989456177e-02
2.145438082516193390e-02
-4.290925338864326477e-02
-9.763614088296890259e-02
-1.112708747386932373e-01
-1.534522324800491333e-01
-1.510894000530242920e-01
-1.127279177308082581e-01
-1.056382656097412109e-01
-1.174562051892280579e-01
-1.736345291137695312e-01
-1.185445860028266907e-01
-7.854528725147247314e-02
-4.218221455812454224e-02
3.545450419187545776e-02
2.709088660776615143e-02
8.909178897738456726e-03
-8.181636035442352295e-02
-1.110887825489044189e-01
-1.070904359221458435e-01
-1.112721785902976990e-01
-1.405452936887741089e-01
-1.238175407052040100e-01
-1.074540317058563232e-01
-6.999967992305755615e-02
1.472727395594120026e-02
7.818163931369781494e-02
1.123637109994888306e-01
9.018211066722869873e-02
2.527257241308689117e-02
-1.927269250154495239e-02
-3.054513968527317047e-02
-4.763749241828918457e-02
-1.218278985470533371e-02
5.381754413247108459e-02
1.210895180702209473e-01
1.594537198543548584e-01
9.727433323860168457e-02
3.436307609081268311e-02
-3.647169796749949455e-04
1.381841860711574554e-02
4.981792345643043518e-02
7.781793922185897827e-02
9.436317533254623413e-02
3.763607516884803772e-02
-6.781753152608871460e-02
-1.227268800139427185e-01
-1.061801239848136902e-01
-1.063631102442741394e-01
-1.423634886741638184e-01
-1.043631285429000854e-01
-9.981784224510192871e-02
-2.381781861186027527e-02
4.109083861112594604e-02
1.236363872885704041e-01
1.625455468893051147e-01
1.070908680558204651e-01
9.781821072101593018e-02
1.254551857709884644e-02
-1.527175959199666977e-02
4.618198052048683167e-02
1.550901532173156738e-01
2.039995342493057251e-01
2.207278311252593994e-01
1.781811416149139404e-01
1.332712471485137939e-01
1.239992603659629822e-01
4.108976572751998901e-02
3.490768373012542725e-02
4.781839996576309204e-02
1.105456277728080750e-01
1.349088102579116821e-01
6.072736531496047974e-02
-6.363555788993835449e-02
-1.321814060211181641e-01
-1.112723276019096375e-01
-1.129085049033164978e-01
-1.329086422920227051e-01
-1.059995070099830627e-01
-9.327220916748046875e-02
-3.181742131710052490e-02
6.818214058876037598e-02
1.396370232105255127e-01
1.556361317634582520e-01
1.089089140295982361e-01
6.618223339319229126e-02
-1.836363598704338074e-02
5.509092658758163452e-02
1.083636879920959473e-01
1.280006617307662964e-01
1.567278653383255005e-01
9.727171063423156738e-02
2.963482588529586792e-02
3.600037097930908203e-02
9.545511007308959961e-02
1.036361604928970337e-01
4.981837794184684753e-02
7.309098541736602783e-02
1.163637712597846985e-01
1.563632041215896606e-01
9.272721409797668457e-02
-5.727213621139526367e-02
-1.138167753815650940e-01
-1.076343953609466553e-01
-1.139994412660598755e-01
-1.323631852865219116e-01
-1.132721528410911560e-01
-9.509050101041793823e-02
-2.654515951871871948e-02
5.000009015202522278e-02
1.201816946268081665e-01
1.520013660192489624e-01
1.249091997742652893e-01
2.127229236066341400e-02
-3.090886399149894714e-02
5.181805789470672607e-02
7.909080386161804199e-02
1.059998124837875366e-01
9.454616159200668335e-02
-1.818710472434759140e-03
-5.145500227808952332e-02
4.400060325860977173e-02
9.309004247188568115e-02
1.321813315153121948e-01
9.800017625093460083e-02
5.927257612347602844e-02
1.303632259368896484e-01
1.410914361476898193e-01
9.527308493852615356e-02
-4.618174582719802856e-02
-1.005434766411781311e-01
-1.078174561262130737e-01
-1.145448833703994751e-01
-1.354541927576065063e-01
-1.109085530042648315e-01
-9.927239269018173218e-02
-3.727216273546218872e-02
3.545439243316650391e-02
1.001815125346183777e-01
1.018191799521446228e-01
6.054544076323509216e-02
-4.927281290292739868e-02
-2.581791393458843231e-02
3.145438432693481445e-02
5.072733759880065918e-02
4.763714224100112915e-02
1.709088869392871857e-02
-3.563576936721801758e-02
2.472735196352005005e-02
1.080006137490272522e-01
1.239997223019599915e-01
1.603628844022750854e-01
1.390914022922515869e-01
1.247275173664093018e-01
1.098186075687408447e-01
1.374545395374298096e-01
9.436354041099548340e-02
-1.509095076471567154e-02
-9.036161750555038452e-02
-9.399926662445068359e-02
-1.232720762491226196e-01
-1.383634209632873535e-01
-1.099994704127311707e-01
-1.078176051378250122e-01
-5.799952894449234009e-02
-1.454552635550498962e-03
6.599945574998855591e-02
9.090909361839294434e-02
3.999520093202590942e-03
-6.254460662603378296e-02
-2.581713721156120300e-02
3.745401278138160706e-02
4.436460882425308228e-02
6.690877676010131836e-02
-6.909073330461978912e-03
-4.436376690864562988e-02
1.018177345395088196e-01
1.290913820266723633e-01
1.194530576467514038e-01
1.639999747276306152e-01
1.789087653160095215e-01
1.336364299058914185e-01
8.654525130987167358e-02
8.636376261711120605e-02
7.599983364343643188e-02
-4.000054672360420227e-03
-7.363571226596832275e-02
-9.999919682741165161e-02
-1.267266124486923218e-01
-1.438181251287460327e-01
-1.267266571521759033e-01
-1.030902341008186340e-01
-5.999961122870445251e-02
-1.254547014832496643e-02
4.781847074627876282e-02
7.800018042325973511e-02
5.999527405947446823e-03
-3.018276393413543701e-02
1.781803183257579803e-02
2.745493687689304352e-02
4.236335679888725281e-02
2.618187107145786285e-02
-1.745538040995597839e-02
2.545484714210033417e-02
9.109006077051162720e-02
1.136354804039001465e-01
1.158181205391883850e-01
1.743632853031158447e-01
1.321816146373748779e-01
8.254555612802505493e-02
8.381830900907516479e-02
6.436353921890258789e-02
5.745439603924751282e-02
-6.000008899718523026e-03
-7.490888237953186035e-02
-1.107267662882804871e-01
-1.338178068399429321e-01
-1.359996944665908813e-01
-1.347268968820571899e-01
-9.890834242105484009e-02
-6.509060412645339966e-02
-1.509090419858694077e-02
5.690908804535865784e-02
5.236361175775527954e-02
-1.036328915506601334e-02
-2.690889127552509308e-02
1.072754710912704468e-02
3.799895569682121277e-02
5.018112435936927795e-02
7.763643562793731689e-02
-2.654609084129333496e-02
2.890777774155139923e-02
9.454479068517684937e-02
1.352718770503997803e-01
1.041804105043411255e-01
8.545596152544021606e-02
7.636354863643646240e-02
1.763603463768959045e-02
4.509108141064643860e-02
5.981819331645965576e-02
5.527267977595329285e-02
-9.090906940400600433e-03
-7.418134808540344238e-02
-1.087267622351646423e-01
-1.447272598743438721e-01
-1.418180167675018311e-01
-1.339995861053466797e-01
-1.014540791511535645e-01
-7.381760329008102417e-02
-1.509092748165130615e-02
3.654520958662033081e-02
7.036347687244415283e-02
1.272703055292367935e-02
-9.272155351936817169e-03
3.981770947575569153e-02
1.023626923561096191e-01
1.349098831415176392e-01
8.345521241426467896e-02
-2.818208374083042145e-02
-1.600075140595436096e-02
7.472883164882659912e-02
8.872755616903305054e-02
4.545433446764945984e-02
8.600015938282012939e-02
5.236404761672019958e-02
2.654446102678775787e-02
5.036323517560958862e-02
6.163633242249488831e-02
5.618197470903396606e-02
-5.272815935313701630e-03
-8.890789747238159180e-02
-1.089082509279251099e-01
-1.252720504999160767e-01
-1.456363648176193237e-01
-1.319995373487472534e-01
-9.618107229471206665e-02
-7.563478499650955200e-02
-3.200006484985351562e-02
3.090899065136909485e-02
6.090922281146049500e-02
2.927294000983238220e-02
1.200075354427099228e-02
6.345440447330474854e-02
9.909047931432723999e-02
8.454546332359313965e-02
4.236198216676712036e-02
-7.418240606784820557e-02
-2.618198096752166748e-02
1.090399455279111862e-03
3.854466602206230164e-02
1.236305572092533112e-02
6.599989533424377441e-02
7.290898263454437256e-02
1.218206435441970825e-02
1.454553473740816116e-02
5.818176269531250000e-02
7.272735983133316040e-02
-1.054550148546695709e-02
-9.327219426631927490e-02
-1.187267526984214783e-01
-1.234538927674293518e-01
-1.439999639987945557e-01
-1.330904960632324219e-01
-9.454501420259475708e-02
-7.799765467643737793e-02
-5.036325380206108093e-02
1.527270395308732986e-02
3.290903568267822266e-02
4.654522985219955444e-02
3.672680631279945374e-02
6.290969252586364746e-02
7.309099286794662476e-02
8.727321028709411621e-02
2.709138393402099609e-02
-4.272609576582908630e-02
-4.618135839700698853e-02
2.927279286086559296e-02
3.927156701683998108e-02
5.181729793548583984e-02
1.058191508054733276e-01
5.672663450241088867e-02
2.545412443578243256e-02
3.181840479373931885e-02
7.490899413824081421e-02
7.018229365348815918e-02
-4.909106064587831497e-03
-9.381782263517379761e-02
-1.099995225667953491e-01
-1.332723498344421387e-01
-1.429089754819869995e-01
-1.385452300310134888e-01
-8.836305141448974609e-02
-5.799901112914085388e-02
-1.981825940310955048e-02
1.836364157497882843e-02
1.254552509635686874e-02
1.472774706780910492e-02
2.600029297173023224e-02
4.618229344487190247e-02
2.454526722431182861e-02
1.363703049719333649e-02
-3.381690755486488342e-02
-4.927226901054382324e-02
5.309039354324340820e-02
1.696365326642990112e-01
8.436258882284164429e-02
8.563739806413650513e-02
5.727270618081092834e-02
3.981811553239822388e-02
6.545310374349355698e-03
3.127269819378852844e-02
9.400057047605514526e-02
7.345454394817352295e-02
-2.181817963719367981e-02
-9.636400640010833740e-02
-1.058177500963211060e-01
-1.281812489032745361e-01
-1.459999978542327881e-01
-1.198175475001335144e-01
-9.181711077690124512e-02
-3.999981284141540527e-02
2.181720454245805740e-03
5.472719296813011169e-02
4.727268125861883163e-03
-2.182284370064735413e-03
7.090845145285129547e-03
4.909264855086803436e-03
3.036347217857837677e-02
3.127335384488105774e-02
7.090485189110040665e-03
6.727357953786849976e-02
1.536365598440170288e-01
1.829081475734710693e-01
1.123631522059440613e-01
6.672764569520950317e-02
-1.455049379728734493e-03
-5.927296355366706848e-02
-7.635993417352437973e-03
9.636401385068893433e-02
1.320008337497711182e-01
9.345480799674987793e-02
-2.127276360988616943e-02
-8.618135750293731689e-02
-9.690868854522705078e-02
-1.358178406953811646e-01
-1.434544622898101807e-01
-1.192720979452133179e-01
-7.927216589450836182e-02
-4.090886563062667847e-02
5.636413395404815674e-02
8.200015872716903687e-02
3.581809252500534058e-02
5.454416852444410324e-03
-3.163549676537513733e-02
-3.781905025243759155e-02
1.036311686038970947e-02
4.290917888283729553e-02
9.400009363889694214e-02
1.498182564973831177e-01
2.372734397649765015e-01
1.392733454704284668e-01
2.436321601271629333e-02
-6.999999284744262695e-02
-6.345596164464950562e-02
-6.709084659814834595e-02
1.799997687339782715e-02
1.552719920873641968e-01
1.907276511192321777e-01
9.309193491935729980e-02
-1.000008545815944672e-02
-6.399984657764434814e-02
-9.399963915348052979e-02
-1.445454210042953491e-01
-1.430908441543579102e-01
-1.207266002893447876e-01
-6.890835613012313843e-02
-2.763631194829940796e-02
7.054626941680908203e-02
1.456361562013626099e-01
1.469090282917022705e-01
3.454516828060150146e-02
3.999896813184022903e-03
-7.163647562265396118e-02
-2.945382706820964813e-02
5.271238740533590317e-03
7.472709566354751587e-02
1.450927257537841797e-01
1.216359287500381470e-01
-7.269707275554537773e-04
-1.361813843250274658e-01
-1.318179965019226074e-01
-5.127115547657012939e-02
-6.545429117977619171e-03
1.038181781768798828e-01
2.374562174081802368e-01
1.809090822935104370e-01
8.309165388345718384e-02
-8.363698609173297882e-03
-6.508989632129669189e-02
-1.021813601255416870e-01
-1.401815861463546753e-01
-1.407271027565002441e-01
-1.401816010475158691e-01
-7.654500752687454224e-02
-3.127250820398330688e-02
4.654593020677566528e-02
1.238196343183517456e-01
1.874548792839050293e-01
1.310909688472747803e-01
-1.127272471785545349e-02
-1.180000528693199158e-01
-1.418174207210540771e-01
-1.489078551530838013e-01
-1.130912601947784424e-01
-9.690859913825988770e-02
-1.232741847634315491e-01
-2.056358605623245239e-01
-2.098174840211868286e-01
-1.110888421535491943e-01
-1.927216164767742157e-02
7.581802457571029663e-02
1.378186643123626709e-01
1.419999748468399048e-01
1.098187565803527832e-01
3.163629025220870972e-02
-2.799975313246250153e-02
-7.872704416513442993e-02
-1.210902631282806396e-01
-1.425453424453735352e-01
-1.427271664142608643e-01
-1.438180953264236450e-01
-9.072692692279815674e-02
-5.454509332776069641e-02
-2.254526130855083466e-02
1.963611692190170288e-02
7.345473766326904297e-02
6.727270781993865967e-02
-1.527267880737781525e-02
-1.276367157697677612e-01
-1.872715204954147339e-01
-2.269077301025390625e-01
-2.672742605209350586e-01
-2.432730048894882202e-01
-2.167261689901351929e-01
-2.094551622867584229e-01
-1.558189094066619873e-01
-1.092723011970520020e-01
-5.018198862671852112e-02
-6.000225897878408432e-03
3.272747155278921127e-03
1.090903487056493759e-02
6.727214902639389038e-03
-1.981811784207820892e-02
-5.654535070061683655e-02
-9.727235138416290283e-02
-1.323631703853607178e-01
-1.394543349742889404e-01
-1.467272788286209106e-01
-1.416362076997756958e-01
-1.261811703443527222e-01
-8.163607865571975708e-02
-6.745354831218719482e-02
-5.418027564883232117e-02
-2.254565991461277008e-02
-6.909218151122331619e-03
-5.727254599332809448e-02
-1.283634155988693237e-01
-1.936370879411697388e-01
-2.285471260547637939e-01
-2.298183590173721313e-01
-2.405459880828857422e-01
-2.545461952686309814e-01
-2.145462781190872192e-01
-1.656361669301986694e-01
-1.196375265717506409e-01
-1.063627153635025024e-01
-7.399942725896835327e-02
-6.599956750869750977e-02
-5.799929425120353699e-02
-4.472767189145088196e-02
-6.163663789629936218e-02
-8.563604950904846191e-02
-1.196357607841491699e-01
-1.390906721353530884e-01
-1.445454210042953491e-01
-1.445453912019729614e-01
-1.439999490976333618e-01
-1.438181102275848389e-01
-1.161812320351600647e-01
-9.745294600725173950e-02
-8.545295149087905884e-02
-7.817937433719635010e-02
-1.087245717644691467e-01
-1.194521933794021606e-01
-1.427270472049713135e-01
-1.567286401987075806e-01
-1.465463042259216309e-01
-1.581825017929077148e-01
-1.983634680509567261e-01
-2.218178063631057739e-01
-1.976366341114044189e-01
-1.645450294017791748e-01
-1.550912261009216309e-01
-1.412735581398010254e-01
-1.134536862373352051e-01
-9.745429456233978271e-02
-9.036321192979812622e-02
-7.418181002140045166e-02
-8.236332982778549194e-02
-1.054540723562240601e-01
-1.310904175043106079e-01
-1.356360316276550293e-01
-1.438181102275848389e-01
-1.443635821342468262e-01
-1.461818218231201172e-01
-1.430908143520355225e-01
-1.447272151708602905e-01
-1.156357899308204651e-01
-1.067262291908264160e-01
-1.152714118361473083e-01
-1.296356469392776489e-01
-1.621844917535781860e-01
-1.780021339654922485e-01
-1.861839443445205688e-01
-1.927264928817749023e-01
-2.150923460721969604e-01
-2.325464338064193726e-01
-2.263636291027069092e-01
-2.196362614631652832e-01
-1.963634192943572998e-01
-1.976360529661178589e-01
-1.730920076370239258e-01
-1.403634995222091675e-01
-1.125450804829597473e-01
-1.081810966134071350e-01
-1.059994995594024658e-01
-1.249084398150444031e-01
-1.421816796064376831e-01
-1.409089118242263794e-01
-1.427271515130996704e-01
-1.410907208919525146e-01
-1.385452002286911011e-01
-1.416362076997756958e-01
-1.421816945075988770e-01
-1.419998556375503540e-01
-1.390906870365142822e-01
-1.272721141576766968e-01
-1.156357899308204651e-01
-1.116355136036872864e-01
-1.139994412660598755e-01
-1.203628778457641602e-01
-1.403636932373046875e-01
-1.429087519645690918e-01
-1.554565429687500000e-01
-1.641837507486343384e-01
-1.696371436119079590e-01
-1.570914834737777710e-01
-1.481824219226837158e-01
-1.443632096052169800e-01
-1.241809204220771790e-01
-1.041813120245933533e-01
-1.096358448266983032e-01
-1.214539110660552979e-01
-1.270902752876281738e-01
-1.419997960329055786e-01
-1.430908143520355225e-01
-1.405452191829681396e-01
-1.416362226009368896e-01
-1.432726085186004639e-01
