3.208008129149675369e-04
-8.128696208586916327e-06
-7.060570351313799620e-05
3.337169473525136709e-04
3.465315094217658043e-04
4.139643806411186233e-06
-4.642896819859743118e-04
4.896999598713591695e-05
-5.382756353355944157e-04
4.898120096186175942e-05
-3.618471382651478052e-04
1.428962423233315349e-04
-7.767566712573170662e-04
-4.885531379841268063e-04
6.274954648688435555e-04
1.752482494339346886e-04
7.899451884441077709e-04
-2.083158615278080106e-04
-7.895037560956552625e-05
1.199645048473030329e-04
-5.978780245641246438e-05
1.430657575838267803e-04
4.212059138808399439e-04
5.102395662106573582e-04
1.990517484955489635e-04
-1.702621229924261570e-04
-3.391335776541382074e-04
-2.778946945909410715e-04
2.280688249811646529e-06
4.342068859841674566e-04
-3.452950913924723864e-04
2.726820239331573248e-04
-1.747940987115725875e-04
-2.924902364611625671e-04
-1.912130101118236780e-04
-9.588139073457568884e-05
5.344771125237457454e-05
1.560625969432294369e-04
-3.290283784735947847e-04
-1.552240428281947970e-05
2.519011904951184988e-04
2.130500888597453013e-06
5.616054404526948929e-04
2.586583432275801897e-04
1.988129806704819202e-04
4.374281343189068139e-05
6.484141922555863857e-04
-3.179543127771466970e-04
-1.363759656669571996e-04
-6.527220830321311951e-04
-2.588953357189893723e-04
4.351913230493664742e-04
-1.317686255788430572e-04
-5.686153235728852451e-05
1.994983031181618571e-04
-2.920036204159259796e-04
1.187781017506495118e-04
2.099001903843600303e-05
1.065477845259010792e-04
3.660345100797712803e-04
3.845293758786283433e-05
1.880478957900777459e-04
-6.290707387961447239e-04
4.657623358070850372e-04
7.354724948527291417e-05
-1.876391033874824643e-04
-6.966161890886723995e-05
-3.659201611299067736e-04
3.927488869521766901e-04
-5.702941507479408756e-06
-1.685184543021023273e-04
-1.950359437614679337e-04
2.934575604740530252e-04
4.310769727453589439e-04
-9.256281919078901410e-05
-6.401212885975837708e-05
2.736931492108851671e-04
-1.336228451691567898e-04
-6.241440132725983858e-05
-2.650677051860839128e-04
-4.711844303528778255e-05
1.909418460854794830e-05
-6.017461419105529785e-04
-1.246143510797992349e-04
7.345599442487582564e-05
4.007633251603692770e-04
-3.414965176489204168e-04
2.961624122690409422e-04
7.812003605067729950e-05
2.088533947244286537e-04
4.131704827159410343e-07
2.079132536891847849e-04
5.823844549013301730e-05
-4.133339971303939819e-04
3.239499928895384073e-04
-1.523764149169437587e-05
2.551123616285622120e-04
2.502556017134338617e-04
-4.749920844915322959e-05
1.359628513455390930e-04
3.527280059643089771e-04
-2.157185554096940905e-05
-5.688165547326207161e-04
3.664893156383186579e-04
-3.937617875635623932e-04
1.777280122041702271e-04
-1.623968419153243303e-04
2.659622987266629934e-04
-2.740843628998845816e-04
-4.802454441232839599e-06
-7.593162008561193943e-04
-5.076108500361442566e-04
-5.488942260853946209e-04
4.002556306659244001e-05
-5.476521982927806675e-05
-1.932017476065084338e-04
-6.124291685409843922e-04
-6.870555225759744644e-04
-4.233403597027063370e-04
2.380968362558633089e-04
3.225546097382903099e-04
1.394821738358587027e-04
-1.736548001645132899e-04
-4.074829630553722382e-04
2.365238033235073090e-04
2.335463650524616241e-04
-4.130040470045059919e-04
-3.916216883226297796e-05
-1.382206100970506668e-04
-3.894684195984154940e-04
-3.325998550280928612e-04
4.777372814714908600e-04
2.248022210551425815e-04
6.950080569367855787e-05
-4.690481873694807291e-04
-6.341658445307984948e-05
-6.350178155116736889e-04
1.141488392022438347e-04
2.407767606200650334e-04
-2.835676132235676050e-04
2.741890493780374527e-04
4.533643077593296766e-04
2.793302701320499182e-04
2.916469820775091648e-04
-2.899522078223526478e-04
2.425327547825872898e-04
-2.938666511909104884e-05
2.783879463095217943e-04
4.290052165742963552e-04
-2.352424926357343793e-04
-2.973562222905457020e-04
2.328692644368857145e-04
-2.447347505949437618e-04
3.716461942531168461e-04
6.438210839405655861e-04
-2.854788326658308506e-04
2.208660735050216317e-04
-5.986432661302387714e-04
2.389397122897207737e-04
-4.007046518381685019e-04
-7.060214993543922901e-04
3.583988873288035393e-04
6.538805901072919369e-04
-3.440142318140715361e-04
3.616694011725485325e-04
4.193782806396484375e-04
1.323963660979643464e-04
1.078093773685395718e-04
4.965707194060087204e-04
-3.801218408625572920e-04
-8.572328952141106129e-04
-2.904640277847647667e-04
-6.720809033140540123e-04
-5.502386193256825209e-05
2.556519175413995981e-04
-1.421606521034846082e-05
2.163967874366790056e-04
6.001342990202829242e-05
-2.249176031909883022e-05
7.305661711143329740e-05
4.763488541357219219e-04
2.031878102570772171e-04
2.438061492284759879e-04
1.142483961302787066e-04
-2.938815450761467218e-04
-1.833607238950207829e-04
-5.735993036068975925e-04
-9.395170491188764572e-05
-4.802232724614441395e-04
5.130678764544427395e-04
1.628612371860072017e-04
2.011918404605239630e-04
-2.463017881382256746e-04
-3.908859507646411657e-04
-4.972213646396994591e-04
-4.349456139607354999e-05
-3.097245644312351942e-05
4.440911579877138138e-04
-2.909114118665456772e-04
-1.923533127410337329e-04
4.615500511135905981e-04
2.697107847779989243e-04
-1.057415211107581854e-04
1.199496400658972561e-04
-1.583904231665655971e-04
1.390087854815647006e-04
4.068475100211799145e-04
-6.046193302609026432e-04
-7.687366451136767864e-04
-3.246709529776126146e-04
1.034855449688620865e-04
-4.428343672771006823e-04
-5.693028651876375079e-05
1.891793799586594105e-04
2.763720694929361343e-04
-7.432059646816924214e-05
2.155608235625550151e-04
5.855059498571790755e-05
4.546038981061428785e-04
-1.284948084503412247e-04
3.036073176190257072e-04
-3.442302695475518703e-04
4.216904053464531898e-04
-1.085200274246744812e-04
1.439986317564034835e-05
