1.995307684410363436e-05
3.234582836739718914e-04
3.430119832046329975e-04
-1.542859390610828996e-04
1.388008240610361099e-04
3.691915844683535397e-05
1.546987186884507537e-04
1.703438465483486652e-04
2.478927781339734793e-04
2.343667438253760338e-04
8.187875937437638640e-05
1.152161567006260157e-04
3.756590886041522026e-04
4.416770025272853673e-05
1.736598642310127616e-05
3.433452802710235119e-04
-7.768974319333210588e-05
4.366026259958744049e-04
8.654499106341972947e-05
5.388905410654842854e-04
1.141560060204938054e-04
4.060144419781863689e-04
4.285913892090320587e-04
-3.312828994239680469e-05
3.331702610012143850e-04
5.286138039082288742e-04
2.746200698311440647e-05
-4.213193460600450635e-05
1.916032924782484770e-04
3.321344047435559332e-05
1.413489953847602010e-04
2.541543799452483654e-04
-1.479327329434454441e-05
1.417891617165878415e-04
1.080324655049480498e-04
3.583891084417700768e-04
3.312948683742433786e-04
2.526834723539650440e-04
1.822743070079013705e-04
1.415814185747876763e-04
3.248928696848452091e-04
8.642009925097227097e-05
1.124783302657306194e-04
1.940279762493446469e-04
4.446554521564394236e-05
2.478037495166063309e-04
6.105240117904031649e-06
-7.268477475008694455e-06
1.235240633832290769e-04
3.589663247112184763e-04
-1.494002790423110127e-04
1.790464302757754922e-04
1.143160843639634550e-04
2.329224298591725528e-05
1.780808670446276665e-04
4.842532507609575987e-04
-2.023878369072917849e-05
5.457060615299269557e-05
3.887837810907512903e-04
4.021856293547898531e-04
-1.755691046128049493e-04
-9.020719880936667323e-05
9.920384036377072334e-05
-5.470129690365865827e-05
2.450695901643484831e-04
6.390068301698192954e-05
-2.889666357077658176e-04
-1.854861766332760453e-04
-1.243888982571661472e-04
3.670048608910292387e-04
3.244903637096285820e-04
7.850994006730616093e-05
-6.046957423677667975e-05
3.486022760625928640e-04
-2.457167429383844137e-04
2.831755846273154020e-04
-2.174480468966066837e-04
3.001624427270144224e-04
1.163120105047710240e-04
-7.425867352139903232e-06
1.057224217220209539e-04
-1.673372171353548765e-04
-1.614453212823718786e-04
-2.264794238726608455e-05
3.681820235215127468e-04
6.979333556955680251e-05
-2.292665594723075628e-04
1.344168231298681349e-05
1.342202303931117058e-04
4.270982390153221786e-05
2.406032726867124438e-04
3.038182912860065699e-04
1.778837613528594375e-04
2.464191929902881384e-04
1.126122733694501221e-04
-9.177149331662803888e-05
7.064473902573809028e-05
2.717597526498138905e-04
-1.999419328058138490e-04
2.126233739545568824e-04
2.715006121434271336e-04
2.434156776871532202e-04
2.824037801474332809e-04
4.460521449800580740e-04
-3.124738868791610003e-04
2.840712259057909250e-04
3.246361156925559044e-04
1.569498126627877355e-04
-1.442547509213909507e-04
1.868832478066906333e-04
6.271891470532864332e-05
5.328129554982297122e-05
-2.235650608781725168e-04
4.132195026613771915e-04
3.237892524339258671e-04
-1.427466213499428704e-05
2.682906633708626032e-04
-2.246157964691519737e-04
2.539784472901374102e-04
-2.388654975220561028e-04
1.813685521483421326e-04
1.907721016323193908e-04
1.251274516107514501e-04
2.587814815342426300e-04
2.388732973486185074e-04
1.181838961201719940e-04
2.578618878033012152e-04
1.239583216374740005e-04
3.000653232447803020e-04
1.798962912289425731e-04
5.587154882960021496e-04
-9.602128557162359357e-05
1.848409010563045740e-04
9.302960825152695179e-05
-7.437462045345455408e-05
2.876037906389683485e-04
3.499098820611834526e-04
2.533452352508902550e-04
1.853459543781355023e-04
2.882669796235859394e-04
2.085752057610079646e-04
3.233060488128103316e-05
-6.564447539858520031e-05
-1.500454964116215706e-04
3.429350035730749369e-04
9.134475476457737386e-06
-3.253405884606763721e-05
-5.368172787711955607e-05
1.773983676685020328e-04
1.404134090989828110e-04
1.296198461204767227e-04
3.544293576851487160e-04
1.331711682723835111e-04
-1.476102479500696063e-04
-4.912871008855290711e-05
1.824139762902632356e-04
4.064165696036070585e-04
1.690785284154117107e-04
2.321534157090354711e-05
2.799519861582666636e-04
-1.596732618054375052e-04
-6.946242501726374030e-05
-1.472599069529678673e-05
2.261185582028701901e-04
1.094428007490932941e-04
8.820844232104718685e-05
1.959986984729766846e-04
-6.667953857686370611e-05
2.566727926023304462e-04
1.508783607278019190e-04
5.261161732050823048e-06
2.237578883068636060e-04
2.950312773464247584e-05
1.827831729315221310e-04
4.826514341402798891e-04
1.464156375732272863e-04
1.864828664110973477e-04
6.247297278605401516e-04
3.365197335369884968e-04
2.764204400591552258e-04
-7.650822954019531608e-05
-3.013852619915269315e-05
-2.204509946750476956e-04
1.930299913510680199e-04
2.899256469390820712e-05
-1.120375090977177024e-04
1.653036160860210657e-04
1.873390865512192249e-04
2.009698800975456834e-05
1.301095908274874091e-04
3.758438397198915482e-04
1.132153647631639615e-05
1.717962877592071891e-04
3.472692042123526335e-04
2.438521914882585406e-04
1.210139744216576219e-04
1.756044512148946524e-04
1.147599759860895574e-04
3.586469683796167374e-04
1.836120063671842217e-04
5.136427353136241436e-04
3.271230962127447128e-04
1.552314352011308074e-04
8.331327990163117647e-05
3.677033237181603909e-04
3.504087217152118683e-04
-4.772254615090787411e-04
1.857643219409510493e-04
3.743765046237967908e-05
2.941788989119231701e-04
7.332975656026974320e-05
1.397753076162189245e-04
4.106691631022840738e-04
2.058969766949303448e-05
2.408265427220612764e-04
4.293399397283792496e-04
2.420149539830163121e-04
1.849337277235463262e-04
2.933452778961509466e-04
-1.630562474019825459e-04
1.627484016353264451e-04
-2.445622521918267012e-04
5.882038385607302189e-04
2.025089925155043602e-04
3.920096205547451973e-04
