-1.700275424809660763e-05
-2.799560206767637283e-05
-1.333222007815493271e-05
-2.296759885211940855e-05
-1.595362664374988526e-05
-2.078385477943811566e-05
-1.796793549146968871e-05
-2.273991412948817015e-05
-2.622149077069479972e-05
-1.700852953945286572e-05
-1.971995334315579385e-05
-2.339702041354030371e-05
-6.348017905111191794e-06
5.293254434945993125e-05
6.580376975762192160e-06
-1.463807529944460839e-05
-1.811948823160491884e-05
-2.047088310064282268e-05
-2.297069113410543650e-05
-1.794804120436310768e-05
-2.082200990116689354e-05
-2.072620191029272974e-05
-1.371248981740791351e-05
-1.558603253215551376e-05
-1.523003902548225597e-05
-1.709870412014424801e-05
-1.816688200051430613e-05
-3.871564331348054111e-05
-2.532534199417568743e-05
-1.603887540113646537e-05
-2.810954720189329237e-05
-1.776818680809810758e-05
-1.688206248218193650e-05
-9.315985153079964221e-06
3.757609374588355422e-05
2.171158994315192103e-04
3.393818624317646027e-04
4.953352618031203747e-04
6.654172320850193501e-04
1.074898289516568184e-03
1.451471820473670959e-03
1.518054748885333538e-03
1.644543255679309368e-03
1.575859962031245232e-03
1.716445898637175560e-03
1.545264851301908493e-03
9.261837694793939590e-04
7.108832360245287418e-04
4.872893623542040586e-04
1.506069529568776488e-04
5.206534478929825127e-05
-2.211281298514222726e-06
-3.309997919132001698e-05
-1.164469813375035301e-05
-2.372692142671439797e-05
-1.753935612214263529e-05
-1.423119920218596235e-05
-2.485210461600217968e-05
-1.166628862847574055e-05
-1.918855195981450379e-05
1.475292810937389731e-05
-1.991145381907699630e-06
2.810917503666132689e-04
7.778752478770911694e-04
4.967128625139594078e-04
9.019867138704285026e-05
2.752323052845895290e-04
-2.072122297249734402e-04
-1.132877310737967491e-03
-1.070520607754588127e-03
-1.459444058127701283e-03
-2.931084716692566872e-03
-5.829678266309201717e-04
2.321154461242258549e-04
-1.075631123967468739e-03
3.430035139899700880e-04
1.426073285983875394e-04
9.499412262812256813e-04
2.094792667776346207e-03
1.021489500999450684e-03
3.311181499157100916e-04
2.098203185596503317e-05
-1.884584162326063961e-05
-1.830046494433190674e-05
-2.486307676008436829e-05
-2.282214882143307477e-05
-6.515705081255873665e-06
-1.992368925129994750e-05
6.400655547622591257e-05
3.600241034291684628e-04
1.104291994124650955e-03
6.877874839119613171e-04
-9.097858564928174019e-04
-9.648952400311827660e-04
1.074955798685550690e-03
-7.601006072945892811e-04
-4.158258961979299784e-04
-2.570292446762323380e-03
-6.751898326911032200e-04
-1.131725846789777279e-03
-1.896546920761466026e-03
-2.079236088320612907e-03
-1.621746690943837166e-03
-1.532458933070302010e-03
8.809800783637911081e-05
1.831762841902673244e-03
1.734542194753885269e-03
2.182404743507504463e-03
1.555357011966407299e-03
2.489695907570421696e-04
5.156191036803647876e-06
-2.149831198039464653e-05
-1.958146822289563715e-05
-2.917332494689617306e-05
2.413651236565783620e-05
5.048134698881767690e-05
3.583683283068239689e-04
1.275114336749538779e-04
-1.921642106026411057e-04
-1.499053090810775757e-03
-5.030941683799028397e-03
-5.635475739836692810e-03
-6.327506154775619507e-03
-5.146571435034275055e-03
-6.141574587672948837e-03
-3.848293330520391464e-03
-4.035792313516139984e-03
-3.618292044848203659e-03
-3.283962141722440720e-03
-2.025262685492634773e-03
-5.063370335847139359e-03
-4.388173576444387436e-03
-2.204073360189795494e-03
-2.154600806534290314e-03
8.392110466957092285e-04
3.752871707547456026e-04
1.463796477764844894e-03
1.687400625087320805e-03
3.170552081428468227e-04
-1.111425717681413516e-05
-2.031326403084676713e-05
-2.474235589033924043e-05
4.120069570490159094e-05
2.526234020479023457e-04
1.789157249731943011e-04
-1.227281289175152779e-03
-1.567766070365905762e-03
-7.722087670117616653e-03
-8.626787923276424408e-03
-7.599832490086555481e-03
-5.230769049376249313e-03
-4.025081638246774673e-03
-4.897955805063247681e-04
1.287685590796172619e-03
1.149612726294435561e-04
-1.127065159380435944e-03
3.921085226465947926e-05
-4.150031018070876598e-04
-1.705633942037820816e-03
-3.666494041681289673e-03
-4.610620904713869095e-03
-6.243119947612285614e-03
-3.269197652116417885e-03
-5.089051555842161179e-04
7.053144508972764015e-04
2.525399671867489815e-03
1.448238617740571499e-03
1.538268588774371892e-05
-2.296919410582631826e-05
-1.399682878400199115e-05
2.281167544424533844e-04
1.118933199904859066e-03
5.969401099719107151e-04
-2.180321840569376945e-03
-4.684001207351684570e-03
-7.293561939150094986e-03
-7.535003125667572021e-03
-5.519929807633161545e-03
-3.089444478973746300e-03
-1.657954999245703220e-03
-1.271854736842215061e-03
7.676167297177016735e-05
1.734154182486236095e-03
2.333791693672537804e-03
1.153466990217566490e-03
1.287475461140275002e-03
-8.802240481600165367e-04
-3.423949470743536949e-03
-5.832899361848831177e-03
-9.781762026250362396e-03
-7.319785654544830322e-03
-5.084328819066286087e-03
-1.933821476995944977e-03
-3.407516342122107744e-04
1.918601104989647865e-03
2.063526044366881251e-04
-1.651422098802868277e-05
1.416106242686510086e-04
9.205653332173824310e-04
3.865390899591147900e-04
-1.028646482154726982e-03
-5.201538559049367905e-03
-3.722321707755327225e-03
-6.040919572114944458e-03
-4.981696140021085739e-03
-2.278609201312065125e-03
-8.393392199650406837e-04
-9.447908960282802582e-04
1.851306442404165864e-04
8.145281462930142879e-04
1.748969778418540955e-03
8.288111712317913771e-05
7.630965556018054485e-04
3.198594640707597136e-05
6.846730830147862434e-04
-2.571129705756902695e-03
-3.067213110625743866e-03
-7.719445507973432541e-03
-6.802740041166543961e-03
-5.953347310423851013e-03
-4.047418478876352310e-03
2.698006283026188612e-04
1.868944964371621609e-03
2.495476510375738144e-04
-3.589585730878752656e-06
4.217347013764083385e-04
8.830091101117432117e-04
4.099826619494706392e-04
4.351513925939798355e-04
-2.044769469648599625e-03
-3.236337099224328995e-03
-4.534602165222167969e-03
-4.069148562848567963e-03
-2.221307018771767616e-03
-2.374473726376891136e-03
-2.221351751359179616e-04
2.050950657576322556e-03
2.590688411146402359e-03
2.966999541968107224e-03
1.084697782061994076e-03
-5.712618585675954819e-04
9.548633825033903122e-04
1.699165673926472664e-03
9.970080573111772537e-04
-3.111870726570487022e-03
-6.179704796522855759e-03
-4.540359135717153549e-03
-4.486683756113052368e-03
-2.693554619327187538e-03
-6.182543002068996429e-04
2.014535246416926384e-03
2.176711714128032327e-04
2.967180989799089730e-05
5.147019983269274235e-04
1.710477052256464958e-03
1.334133907221257687e-03
-4.326913622207939625e-04
-3.578571602702140808e-03
-3.187355585396289825e-03
-4.054968710988759995e-03
-3.777087433263659477e-03
-2.032596152275800705e-03
-2.224847907200455666e-03
-6.732165347784757614e-04
1.045296434313058853e-03
3.468760056421160698e-03
4.244326846674084663e-04
-7.841048063710331917e-04
2.878830127883702517e-04
-1.666331081651151180e-04
7.953070453368127346e-04
-6.309254968073219061e-05
-2.974976086989045143e-03
-5.243538878858089447e-03
-2.770008286461234093e-03
-4.580643493682146072e-03
-1.868369989097118378e-03
-4.461679491214454174e-04
2.103926846757531166e-03
2.761332434602081776e-04
6.088873851695097983e-05
7.158451480790972710e-04
1.823378144763410091e-03
1.368114608339965343e-03
-6.812035571783781052e-04
-1.841581542976200581e-03
-4.751581232994794846e-03
-3.587977960705757141e-03
-4.304974805563688278e-03
-4.888340830802917480e-03
-2.273629186674952507e-03
-6.365741719491779804e-04
-7.683361181989312172e-04
-9.276311611756682396e-04
4.907161346636712551e-04
-2.840621164068579674e-03
-4.234371241182088852e-03
7.280925055965781212e-04
1.009610481560230255e-03
6.893682293593883514e-04
-6.662906380370259285e-04
-2.731934422627091408e-03
-2.603248227387666702e-03
-5.082291550934314728e-03
-6.932514952495694160e-05
1.219450961798429489e-03
2.046990208327770233e-03
1.822003105189651251e-04
5.294991206028498709e-05
6.423101294785737991e-04
2.043625572696328163e-03
1.581031130626797676e-03
-2.249923767521977425e-03
-2.968052169308066368e-03
-2.112105954438447952e-03
-3.364474512636661530e-03
-2.183372387662529945e-03
-3.900346346199512482e-03
-1.405442482791841030e-03
-5.965463788015767932e-05
-2.778765279799699783e-03
-2.747355727478861809e-03
-4.362208768725395203e-03
-7.786511909216642380e-03
-2.161635318771004677e-03
-9.029765496961772442e-04
1.325268181972205639e-03
-9.256055345758795738e-04
-4.040187224745750427e-03
-1.416388317011296749e-03
-3.467994043603539467e-03
-2.440771320834755898e-03
3.128836979158222675e-04
9.176153107546269894e-04
1.282771467231214046e-03
6.299595406744629145e-05
2.480392504367046058e-05
3.830977657344192266e-04
1.531846122816205025e-03
1.890300540253520012e-03
-1.633256790228188038e-03
-6.325959693640470505e-04
-3.463592147454619408e-03
-3.835616633296012878e-03
-4.103940445929765701e-03
-2.157212002202868462e-03
-2.177029848098754883e-03
1.211007824167609215e-03
-2.390984911471605301e-03
-3.913666587322950363e-03
-3.312675282359123230e-03
-3.051694249734282494e-03
-8.099148981273174286e-04
1.584905083291232586e-03
2.287599345436319709e-04
-3.049576887860894203e-03
-2.536577405408024788e-03
-2.237608889117836952e-03
-2.381647704169154167e-03
-1.461608568206429482e-03
1.508243381977081299e-03
1.823181286454200745e-03
7.835978176444768906e-04
7.598545926157385111e-05
-9.159586625173687935e-06
7.913335866760462523e-05
5.939101683907210827e-04
7.324615144170820713e-04
-5.878451629541814327e-04
-1.608910621143877506e-03
-2.936123870313167572e-03
-5.282969214022159576e-03
-8.195520495064556599e-04
-3.854661015793681145e-03
-1.567570376209914684e-03
-2.830056007951498032e-03
-2.891664858907461166e-03
-3.044975223019719124e-03
-4.442641045898199081e-03
4.765923076774924994e-04
2.509462879970669746e-03
1.226974185556173325e-03
-1.490825903601944447e-03
-3.659791313111782074e-03
-1.755134435370564461e-03
-1.520204707048833370e-03
-2.115574199706315994e-03
-3.350759216118603945e-04
2.300756052136421204e-03
2.142981160432100296e-03
9.188962285406887531e-04
9.961002069758251309e-05
1.519721536169527099e-06
3.331304469611495733e-05
4.316962440498173237e-04
1.086190459318459034e-03
-8.392800809815526009e-04
2.821474336087703705e-04
-2.874905476346611977e-03
-2.482372801750898361e-03
-1.874298090115189552e-03
-4.245647869538515806e-04
-5.470442702062427998e-04
-3.494087141007184982e-03
-3.216356271877884865e-03
-1.702016335912048817e-03
2.131236215063836426e-05
2.471250714734196663e-03
3.299246774986386299e-03
3.160325111821293831e-03
-9.423965093446895480e-05
-3.852326190099120140e-03
-1.786598237231373787e-03
-2.342226449400186539e-03
-3.167681163176894188e-03
-5.067705642431974411e-04
1.615034765563905239e-03
1.737830112688243389e-03
9.793873177841305733e-04
4.244971023581456393e-06
-1.091145168174989522e-05
9.554250027576927096e-06
2.908893511630594730e-04
1.208201167173683643e-03
-3.375445259734988213e-03
-3.081665141507983208e-03
-3.749514697119593620e-03
-3.747622249647974968e-04
-1.572942244820296764e-03
-1.788002788089215755e-03
-3.546394174918532372e-03
-2.582385670393705368e-03
-2.908423310145735741e-03
-5.750862183049321175e-04
2.078699879348278046e-03
3.189926501363515854e-03
4.140399396419525146e-03
1.848403830081224442e-03
1.693441299721598625e-04
-3.332656342536211014e-03
-1.900745206512510777e-03
-4.532185848802328110e-03
-2.728081773966550827e-03
-2.877975581213831902e-03
1.669124816544353962e-03
1.709651201963424683e-03
1.353218918666243553e-03
5.961958959233015776e-05
-1.127207269746577367e-05
5.477315880852984264e-06
6.909730727784335613e-04
1.267871470190584660e-03
-2.325754147022962570e-03
-2.236634725704789162e-03
-3.466276917606592178e-03
-1.457943464629352093e-03
-4.598187282681465149e-03
-5.547350738197565079e-03
-4.830043297260999680e-03
-3.323932178318500519e-03
-1.413681544363498688e-03
2.851373981684446335e-03
3.491453360766172409e-03
3.448765724897384644e-03
-1.185352448374032974e-03
-7.306882762350142002e-04
4.329393268562853336e-04
-2.977445488795638084e-03
-2.897162223234772682e-03
-1.325025339610874653e-03
-4.420707467943429947e-03
-3.722485387697815895e-03
1.301835873164236546e-03
1.637787441723048687e-03
1.508981455117464066e-03
8.407633140450343490e-05
-1.953864739334676415e-05
3.668434874271042645e-05
7.905456586740911007e-04
5.342641379684209824e-04
-1.386731746606528759e-03
-3.975380212068557739e-03
-2.926934743300080299e-03
-4.382294602692127228e-03
-4.944003187119960785e-03
-4.680464509874582291e-03
-4.225233104079961777e-03
-2.968790009617805481e-03
-4.761348245665431023e-04
2.460962394252419472e-03
2.256365958601236343e-03
1.301976968534290791e-03
-3.307400736957788467e-03
-1.542065059766173363e-03
2.772453881334513426e-04
-2.035611774772405624e-03
-3.673667553812265396e-03
-1.888857688754796982e-03
-5.266482476145029068e-03
-1.101203612051904202e-03
1.643958617933094501e-03
9.532703552395105362e-04
1.724407076835632324e-03
4.509009886533021927e-05
2.450400643283501267e-06
7.737984560662880540e-06
1.022408949211239815e-03
-6.681780796498060226e-04
-2.295449376106262207e-03
-1.997266430407762527e-03
-2.652622759342193604e-03
-2.693076618015766144e-03
-3.267545253038406372e-03
-4.270285367965698242e-03
-6.552909966558218002e-03
-5.225826520472764969e-03
-2.299933461472392082e-03
3.495961718726903200e-04
2.744813682511448860e-04
-9.257307974621653557e-04
-6.188152474351227283e-04
-1.360472291707992554e-03
-1.715518534183502197e-03
-1.211737748235464096e-03
-2.650159643962979317e-03
-3.366794204339385033e-03
-2.158125163987278938e-03
-1.452306634746491909e-03
7.413596031256020069e-04
1.495688338764011860e-04
1.188677968457341194e-03
4.665426240535452962e-05
-1.292544857278699055e-05
9.206875984091311693e-05
8.259060559794306755e-04
-5.494307843036949635e-04
-3.266577376052737236e-03
-3.411739133298397064e-03
-1.204477157443761826e-03
-2.246636431664228439e-03
-2.552838064730167389e-03
-5.033484660089015961e-03
-7.094162516295909882e-03
-7.672563660889863968e-03
-4.633496515452861786e-03
-1.668430399149656296e-03
-4.543284885585308075e-04
-1.602106203790754080e-04
-1.250703004188835621e-03
-3.516475844662636518e-04
1.474636956118047237e-03
-6.567107047885656357e-04
-5.330755375325679779e-03
-3.952992148697376251e-03
-2.674362156540155411e-03
-1.158651430159807205e-03
-3.646446275524795055e-04
2.596323902253061533e-04
1.227862667292356491e-03
1.537913522042799741e-05
-2.018169107032008469e-05
1.020992713165469468e-04
4.875333106610924006e-04
-1.523626269772648811e-03
-3.853099886327981949e-03
-3.026458667591214180e-03
-2.474250504747033119e-03
1.599543174961581826e-04
-8.093648939393460751e-04
-1.149927498772740364e-03
-6.011068355292081833e-03
-4.247441887855529785e-03
-1.385626499541103840e-03
3.046969359274953604e-04
1.494221040047705173e-03
8.560207788832485676e-04
1.839490490965545177e-03
1.517589204013347626e-03
-1.003610901534557343e-03
-4.352551419287919998e-03
-3.217960242182016373e-03
-2.831623656675219536e-03
-4.790875595062971115e-03
-1.907151192426681519e-03
-2.032349118962883949e-03
-3.411383318052685354e-07
1.001939177513122559e-03
-1.017084832710679621e-05
-1.412022811564384028e-05
3.267497959313914180e-05
-2.477378002367913723e-04
-2.109487541019916534e-03
-3.847474232316017151e-03
-2.886049449443817139e-03
-5.410008598119020462e-03
-2.461222466081380844e-03
-1.181362546049058437e-03
-1.181247062049806118e-03
-1.665590563789010048e-03
-2.910677576437592506e-04
2.471884246915578842e-03
1.533953822217881680e-03
5.075060180388391018e-04
3.380617126822471619e-03
3.405561903491616249e-03
-5.613239482045173645e-04
-3.185134846717119217e-04
-3.325220663100481033e-03
-4.009541589766740799e-03
-2.737132832407951355e-03
-3.471062751486897469e-03
-8.894872735254466534e-04
9.822264837566763163e-05
-1.718079583952203393e-04
4.512968298513442278e-04
-1.531695852463599294e-05
-1.922169030876830220e-05
-6.135591775091597810e-06
-7.170394528657197952e-04
-2.902377396821975708e-03
-2.557252300903201103e-03
-4.296923521906137466e-03
-6.396946962922811508e-03
-3.551691537722945213e-03
-3.933462430723011494e-04
-6.440552533604204655e-04
-2.227134391432628036e-04
1.285215548705309629e-04
3.060942690353840590e-04
2.251573372632265091e-03
2.271493198350071907e-03
1.770625007338821888e-03
-3.865014004986733198e-04
-1.402731286361813545e-03
-3.108020406216382980e-03
-3.090432379394769669e-03
-2.746277488768100739e-03
-4.611577372997999191e-03
-2.396291354671120644e-03
-8.287982200272381306e-04
-5.549299530684947968e-04
2.234642306575551629e-04
1.036930843838490546e-04
-2.621317980810999870e-05
-1.863173565652687103e-05
-1.110235916712554172e-05
1.536869822302833200e-04
-2.771618776023387909e-03
-3.353033680468797684e-03
-3.324843477457761765e-03
-4.914731252938508987e-03
-5.356545094400644302e-03
-3.865231061354279518e-03
-9.104381315410137177e-04
-3.407533280551433563e-03
-3.504419932141900063e-03
-3.286385908722877502e-03
-1.593644265085458755e-03
-4.409757093526422977e-04
-4.960577352903783321e-04
-2.167586470022797585e-03
-2.083429833874106407e-03
-4.155745264142751694e-03
-4.726082086563110352e-03
-4.506060387939214706e-03
-3.363237949088215828e-03
-2.849584911018610001e-03
-2.414657268673181534e-03
-1.757935970090329647e-04
2.084110601572319865e-04
6.963455234654247761e-05
-2.082629180222284049e-05
-2.093743569275829941e-05
-1.970397534023504704e-05
8.585878094891086221e-05
-3.878122079186141491e-04
-1.093158149160444736e-03
-2.287682145833969116e-03
-4.889343399554491043e-03
-3.355096327140927315e-03
-5.945181939750909805e-03
-7.023721933364868164e-03
-5.967590957880020142e-03
-5.638432689011096954e-03
-6.947463843971490860e-03
-6.565563380718231201e-03
-6.081473082304000854e-03
-5.600619129836559296e-03
-6.211549043655395508e-03
-4.473833367228507996e-03
-3.697747830301523209e-03
-2.417532727122306824e-03
-1.570075633935630322e-03
-1.552989357151091099e-03
-1.818199874833226204e-03
-4.184081335552036762e-04
5.959921982139348984e-04
1.711373479338362813e-04
-3.543129196259542368e-06
-1.507562501501524821e-05
-1.333956879534525797e-05
-1.722791785141453147e-05
-1.519642137282062322e-05
9.173476428259164095e-05
6.977336015552282333e-04
4.772559041157364845e-04
-3.503718762658536434e-04
-9.106033248826861382e-04
-1.038384158164262772e-03
-3.015002701431512833e-03
-4.280291963368654251e-03
-5.702617578208446503e-03
-4.727539140731096268e-03
-5.295322276651859283e-03
-5.153108853846788406e-03
-1.741378335282206535e-03
-2.178588649258017540e-03
-1.843790640123188496e-03
-8.927677990868687630e-04
-1.460844796383753419e-04
-6.716236384818330407e-05
1.319399743806570768e-04
-4.827788507100194693e-04
-1.169026072602719069e-04
3.940235546906478703e-05
1.698553387541323900e-05
-2.631636743899434805e-05
-1.861393138824496418e-05
-1.182487449113978073e-05
-1.973298822122160345e-05
-2.233533996331971139e-05
-2.339600723644252867e-05
2.160862641176208854e-04
4.578442021738737822e-04
2.405181439826264977e-04
6.871685618534684181e-04
-1.791083370335400105e-03
-1.657543936744332314e-03
-3.841548459604382515e-03
-3.464927431195974350e-03
-2.098683966323733330e-03
-3.841554280370473862e-03
-2.721806755289435387e-03
-2.584872767329216003e-03
-9.787859162315726280e-04
1.251663343282416463e-04
1.278479583561420441e-03
1.290141255594789982e-03
8.792662410996854305e-04
6.591715500690042973e-04
4.080802609678357840e-04
3.416381514398381114e-05
-1.643576433707494289e-05
-3.369554178789258003e-06
-1.869630250439513475e-05
-2.599937943159602582e-05
-2.026361107709817588e-05
-2.779666101559996605e-05
-1.809724744816776365e-05
-1.504693773313192651e-05
-1.183900894830003381e-05
1.039079215843230486e-04
3.282648103777319193e-04
7.936373585835099220e-04
9.895416442304849625e-04
8.547608158551156521e-04
5.611738888546824455e-04
2.276448067277669907e-04
1.269365602638572454e-04
1.254169037565588951e-04
-1.943950919667258859e-04
1.552455214550718665e-04
1.039784052409231663e-03
1.311307656578719616e-03
1.430129981599748135e-03
5.754476296715438366e-04
4.163602134212851524e-04
1.302037999266758561e-04
9.208518895320594311e-05
-1.688685733824968338e-05
-2.051468072750139982e-05
-1.495974174758885056e-05
-2.353516902076080441e-05
-1.675914245424792171e-05
