-3.275077790021896362e-03
-1.001472934149205685e-03
-2.094199182465672493e-03
-1.352183404378592968e-03
1.625068718567490578e-03
1.514094416052103043e-03
-2.450245199725031853e-03
-2.147248247638344765e-03
6.568931275978684425e-04
-1.509132795035839081e-03
-6.871757213957607746e-04
3.586848906707018614e-04
1.268157153390347958e-03
-9.350137552246451378e-04
9.859123565547633916e-06
-7.078430498950183392e-04
-2.399266377324238420e-04
1.399537664838135242e-03
-1.250165514647960663e-03
9.261879022233188152e-04
-1.476060017012059689e-03
1.381398178637027740e-03
2.478016074746847153e-03
-8.441192330792546272e-04
7.245960296131670475e-04
7.209210161818191409e-05
-1.037243404425680637e-03
6.211738218553364277e-04
-3.284631529822945595e-03
-8.315184968523681164e-04
-1.080792164430022240e-03
-2.313670469447970390e-03
1.547537249280139804e-05
4.802256080438382924e-05
-4.308180883526802063e-03
5.096199456602334976e-04
-3.271574620157480240e-03
5.274950526654720306e-04
-4.749911604449152946e-04
-7.557280478067696095e-04
-6.229906575754284859e-04
-2.170682419091463089e-03
-5.907799932174384594e-04
1.989991869777441025e-03
1.374829480482731014e-05
5.300145130604505539e-04
-6.483567995019257069e-05
1.188806258141994476e-03
1.715852180495858192e-03
9.123871568590402603e-04
-3.868950298056006432e-03
2.675401919987052679e-04
9.596372547093778849e-05
3.620459665398811921e-06
-2.033325145021080971e-03
7.903775258455425501e-05
5.968883051536977291e-04
-1.173195545561611652e-03
1.658735563978552818e-04
-2.585143549367785454e-03
-2.874249592423439026e-03
-2.077314537018537521e-03
-3.504173364490270615e-04
-1.274189213290810585e-03
-1.274411079066339880e-05
-1.987512456253170967e-03
6.489242991847277153e-07
-2.612275769934058189e-03
-1.596774905920028687e-03
1.973933540284633636e-03
-3.911820240318775177e-03
5.023835110478103161e-04
2.693182905204594135e-04
4.778463789989473298e-06
2.381890546530485153e-03
-3.823782899416983128e-04
-1.239835401065647602e-04
-1.029771985486149788e-03
6.264338153414428234e-04
-2.563714049756526947e-03
-6.467092898674309254e-04
1.349374186247587204e-03
7.093911408446729183e-04
-2.277321415022015572e-03
-5.246183718554675579e-04
-2.287543145939707756e-03
-1.747745700413361192e-04
4.735581460408866405e-04
8.218139410018920898e-04
3.034704059245996177e-05
-8.069062605500221252e-04
2.430282300338149071e-03
6.002123118378221989e-04
-1.192611744045279920e-04
5.682520713889971375e-05
-1.162940636277198792e-03
-2.294580452144145966e-03
-1.123932597693055868e-04
1.542443875223398209e-03
-3.405624534934759140e-03
-1.880669966340065002e-03
-1.526949927210807800e-04
-8.529585902579128742e-04
-2.112674294039607048e-03
-3.079096088185906410e-03
-4.025733505841344595e-04
1.609818427823483944e-04
1.300862873904407024e-03
-2.974602393805980682e-04
-1.929149002535268664e-04
9.919843080297141569e-08
-1.319627972407033667e-05
-2.359421225264668465e-03
-1.724337926134467125e-03
-2.546812174841761589e-03
7.529134563810657710e-06
3.364493604749441147e-04
-2.207391196861863136e-03
9.185986709780991077e-04
-6.461263983510434628e-04
2.257870743051171303e-03
-3.425050759688019753e-03
7.613499765284359455e-04
1.112270911107771099e-05
4.719714634120464325e-03
-3.229416674003005028e-03
-2.858974505215883255e-03
-7.215665391413494945e-05
-1.090990379452705383e-03
-9.076958522200584412e-04
-2.177895512431859970e-03
-4.481251351535320282e-03
-9.671328007243573666e-04
-4.745739570353180170e-04
-4.292623780202120543e-04
-1.426207018084824085e-03
-7.487439870601519942e-05
2.974140625155996531e-05
-8.001354872249066830e-04
2.574368845671415329e-04
2.058551181107759476e-04
6.571416406586649828e-07
8.608292555436491966e-04
-1.846646540798246861e-03
-1.191105111502110958e-03
8.141573052853345871e-04
-9.757241350598633289e-04
-4.635443910956382751e-03
1.909355432871961966e-06
-4.239122790750116110e-04
1.238558557815849781e-03
-5.325108650140464306e-04
1.296242135140346363e-05
-9.586277883499860764e-04
-4.286884504836052656e-04
1.766521017998456955e-04
-1.218083431012928486e-03
-2.625324064865708351e-03
1.400384004227817059e-03
1.484786753280786797e-05
4.857822204940021038e-04
-3.988263053145146841e-09
-1.984991831704974174e-03
4.844285082072019577e-03
-2.092805225402116776e-03
3.729951276909559965e-04
8.729723631404340267e-04
1.374294282868504524e-03
9.042888450494501740e-06
-6.633403827436268330e-04
1.919563885621755617e-08
-2.353782067075371742e-03
6.083280368329724297e-06
5.367561243474483490e-04
-8.764765807427465916e-04
-1.939843175932765007e-03
2.140081487596035004e-03
-9.255122859030961990e-04
-3.090182552114129066e-03
1.007633283734321594e-03
-9.609346161596477032e-04
-4.865439768764190376e-05
2.496131695806980133e-03
-1.960540656000375748e-03
1.157074166258098558e-05
6.813954096287488937e-04
7.219934486784040928e-04
-5.306632257997989655e-03
-1.022287877276539803e-03
-5.050679203122854233e-03
4.094601899851113558e-04
2.138469280907884240e-04
-3.258509794250130653e-03
1.488181878812611103e-03
-9.633008739911019802e-04
5.894572041142964736e-06
-5.201552994549274445e-03
7.007013191469013691e-04
-5.152295852894894779e-05
6.625905167311429977e-03
-2.143675228580832481e-03
-3.976528241764754057e-04
-4.375756543595343828e-04
1.761918538250029087e-03
8.347335387952625751e-04
-1.107277814298868179e-03
9.234496974386274815e-05
-5.918859387747943401e-04
5.230343085713684559e-04
-5.188749055378139019e-04
3.306493861600756645e-03
1.963045633601723239e-06
-1.746804802678525448e-03
7.364010525634512305e-05
-9.692494058981537819e-04
1.280478272747131996e-06
-1.612419844605028629e-03
-4.044524393975734711e-04
-8.051780168898403645e-04
-2.039686311036348343e-03
-1.783885672921314836e-04
1.274882350116968155e-03
2.071284543490037322e-04
1.697895349934697151e-03
-2.104003913700580597e-03
1.284172230953117833e-05
-7.454056292772293091e-03
-9.273962350562214851e-04
3.953225314035080373e-05
1.610264182090759277e-03
-2.613089280202984810e-03
-6.721320678479969501e-04
-1.371698221191763878e-03
6.494047120213508606e-04
-5.686922231689095497e-04
2.916017001552972943e-05
-1.932598534040153027e-04
9.043536847457289696e-04
4.532661478151567280e-06
-4.134857736062258482e-04
-8.838234352879226208e-04
1.072327358997426927e-05
-3.975011408329010010e-03
7.761579472571611404e-04
-3.902232274413108826e-04
7.743305177427828312e-04
1.147274975664913654e-03
-3.551873611286282539e-03
-4.156060051172971725e-03
-1.102045760490000248e-03
-2.285662107169628143e-03
2.009739109780639410e-04
3.743858309462666512e-03
1.984560949495062232e-04
9.995102523419063800e-10
-6.052840035408735275e-04
-2.195264212787151337e-03
5.336848553270101547e-04
-3.259405493736267090e-04
2.978045085910707712e-04
-6.811362982261925936e-05
9.617432951927185059e-04
-1.707589020952582359e-03
-1.460643601603806019e-03
-8.858223736751824617e-05
7.321796379983425140e-03
-1.973353559151291847e-03
2.830756711773574352e-04
-1.929798512719571590e-03
-4.672508221119642258e-04
-3.884871024638414383e-03
-1.344841322861611843e-03
7.024319984338944778e-06
2.593145007267594337e-03
-8.682169136591255665e-04
-8.140783756971359253e-04
1.158277609647484496e-05
9.129530517384409904e-04
-4.717163741588592529e-03
1.753950840793550014e-03
2.081636921502649784e-06
-1.567486324347555637e-03
1.186866029456723481e-06
3.078202780670835637e-06
-5.025121383368968964e-03
-1.103185764961267523e-09
-1.081939088180661201e-03
4.551745078060775995e-04
5.738278268836438656e-04
-2.602613531053066254e-03
1.357662491500377655e-03
1.546431914903223515e-03
-4.245296004228293896e-04
4.291753612051252276e-06
-9.344072896055877209e-04
2.799501875415444374e-03
-1.356153050437569618e-03
-1.473903539590537548e-04
-6.788501050323247910e-04
3.928109363187104464e-04
1.783704078661685344e-06
3.857566916849464178e-04
2.504281932488083839e-03
-2.844355767592787743e-04
-4.599514883011579514e-03
6.179433057695860043e-06
9.350916952826082706e-04
1.295880996622145176e-03
-5.449542775750160217e-03
-1.694899867288768291e-03
-1.793886302039027214e-03
8.943867174648900686e-11
-1.181229250505566597e-03
1.273589441552758217e-03
2.254785977129358798e-05
1.099064029403962195e-04
2.828639408107846975e-04
1.737825106829404831e-03
8.545580785721540451e-04
3.955197753384709358e-04
-3.395854029804468155e-03
-5.607293569482862949e-04
3.057097084820270538e-03
1.066243043169379234e-03
-4.940598155371844769e-04
1.034573415381601080e-05
8.338832994922995567e-04
-2.732030116021633148e-04
-1.598697504960000515e-03
2.403598773526027799e-05
6.919446750544011593e-04
1.538002397865056992e-03
-4.507218021899461746e-03
3.539735189406201243e-06
-3.092238679528236389e-03
8.287992677651345730e-04
2.997188175868359394e-06
-1.044549630023539066e-03
-2.503531686670612544e-05
6.610232521779835224e-04
-3.366952878423035145e-04
9.309562155976891518e-04
-5.058743408881127834e-04
-5.967144854366779327e-03
9.186051902361214161e-04
-5.298244650475680828e-04
1.559821073897182941e-03
9.303035852781249559e-08
-9.565431973896920681e-04
7.498492486774921417e-04
6.679305224679410458e-04
-1.444911002181470394e-03
7.572731988148007076e-07
-5.875197704881429672e-03
-1.029394406941719353e-04
3.478006505019948236e-08
1.905453973449766636e-05
1.961284782737493515e-03
1.113972975872457027e-03
2.009179443120956421e-03
-2.061633625999093056e-03
3.041313320863991976e-04
-3.342143492773175240e-03
-4.116431344300508499e-03
-1.126397168263792992e-03
-5.440987879410386086e-04
-3.954167550546117127e-05
-2.032539108768105507e-03
1.188981987070292234e-04
3.321268013678491116e-04
3.847092157229781151e-04
1.388295786455273628e-03
-2.585849259048700333e-03
-4.250023048371076584e-03
-1.601023832336068153e-03
2.576739061623811722e-03
-7.102592498995363712e-04
2.271729521453380585e-03
-2.822849666699767113e-03
-1.806765329092741013e-03
-1.631855731830000877e-03
-7.793555269017815590e-04
2.032373487281802227e-07
-2.130442997440695763e-03
-1.986119197681546211e-03
1.092944992706179619e-03
6.420958088710904121e-04
1.248628791472583544e-06
3.043621545657515526e-04
1.409985823556780815e-03
1.988158037420362234e-04
1.702396184555254877e-05
-1.907797297462821007e-03
-9.234884055331349373e-04
-1.725745620205998421e-03
-2.384323161095380783e-03
1.070584545459496439e-07
1.415914273820817471e-03
2.973983995616436005e-03
1.312536483055737335e-06
