4.492529260460287333e-04
-2.779107075184583664e-03
-1.315942849032580853e-03
-3.493919037282466888e-03
4.933236632496118546e-03
7.060443516820669174e-03
-3.479100298136472702e-03
8.334383368492126465e-03
5.439371336251497269e-03
-2.136707073077559471e-03
1.738105202093720436e-03
-2.256391569972038269e-03
4.887514282017946243e-03
4.746110644191503525e-03
4.916114266961812973e-03
-2.940808888524770737e-03
6.507732905447483063e-03
5.499785766005516052e-03
5.076549947261810303e-03
2.437851624563336372e-03
4.404178354889154434e-03
6.194224581122398376e-03
-2.143308054655790329e-03
2.529193880036473274e-04
-7.358710747212171555e-03
3.610003739595413208e-03
2.284063724800944328e-03
-1.360657974146306515e-03
6.852536927908658981e-03
5.312764085829257965e-03
5.542280850932002068e-04
-8.555756649002432823e-04
3.224166575819253922e-03
6.145874038338661194e-03
3.556560259312391281e-03
-4.868386778980493546e-03
-3.981352783739566803e-03
-3.540960140526294708e-03
-1.120310975238680840e-03
3.691960358992218971e-03
-1.575886155478656292e-03
-1.537724863737821579e-03
-5.589791726379189640e-06
-2.553091151639819145e-03
4.191092215478420258e-03
-8.427837165072560310e-04
-2.046703360974788666e-03
5.037723109126091003e-03
2.360795158892869949e-03
8.145193720887622391e-12
-1.848097774200141430e-03
9.829340269789099693e-04
6.193495355546474457e-03
4.594352561980485916e-03
9.355485439300537109e-03
-2.891276497393846512e-03
2.282856032252311707e-03
-3.207576693966984749e-03
4.925250541418790817e-03
-4.611448850482702255e-03
2.273076912388205528e-03
2.304618479683995247e-03
9.141058544628322124e-04
6.918581202626228333e-03
-1.851191278547048569e-03
6.927674636244773865e-03
6.060222163796424866e-03
-2.299384732395992614e-06
-1.963197952136397362e-03
-3.327553626149892807e-03
5.461733788251876831e-03
3.524739993736147881e-03
6.040582084096968174e-04
-5.179365631192922592e-03
5.803397390991449356e-03
1.123539288528263569e-03
-4.760345444083213806e-03
4.652126692235469818e-03
-3.155363257974386215e-03
5.108328536152839661e-03
4.708369728177785873e-03
7.448634598404169083e-03
4.035038407891988754e-03
6.738565280102193356e-04
3.723748726770281792e-03
6.572280544787645340e-03
6.529328413307666779e-03
-3.694680053740739822e-03
4.362699110060930252e-03
-1.662992523051798344e-03
6.489786319434642792e-03
1.429385738447308540e-04
5.847033113241195679e-03
-3.358619986101984978e-03
-2.282724715769290924e-03
-1.201786217279732227e-03
6.467501167207956314e-03
4.903868772089481354e-03
-4.194648354314267635e-04
-4.886179231107234955e-03
