-5.601604003459215164e-03
-9.784615831449627876e-04
-3.822681537712924182e-05
-5.666945595294237137e-03
1.844547688961029053e-03
-2.892479998990893364e-03
-9.302044287323951721e-03
-7.603209232911467552e-04
-1.044642273336648941e-02
-9.348310413770377636e-04
-5.375301465392112732e-03
4.299249500036239624e-03
-1.225716201588511467e-03
-1.613338594324886799e-03
-6.048674229532480240e-03
-8.945191279053688049e-03
1.466413362266605347e-12
-4.532651044428348541e-03
1.250239554792642593e-03
3.063526004552841187e-03
-3.193147946149110794e-03
2.163514262065291405e-03
1.923207491927314550e-06
5.798016674816608429e-03
-4.316249396651983261e-03
5.721252915869001754e-10
-8.863272145390510559e-03
-2.631137380376458168e-03
6.405197782441973686e-04
-1.974693732336163521e-03
-4.071554634720087051e-03
-8.716037264093756676e-04
4.383474122732877731e-03
-1.134772319346666336e-03
-2.951010130345821381e-03
-3.354160347953438759e-03
3.631139406934380531e-03
1.025626086629927158e-03
-8.208501967601478100e-04
-1.595196663402020931e-03
-1.790525158867239952e-03
-3.858950687572360039e-03
-9.159759618341922760e-03
-4.945653490722179413e-03
-3.236816497519612312e-03
-6.720358505845069885e-04
-6.137070711702108383e-03
-1.298385031986981630e-04
-2.173424465581774712e-03
1.171039184555411339e-03
-3.311331151053309441e-03
4.281074274331331253e-03
-5.562881939113140106e-03
2.912828233093023300e-03
-5.529233254492282867e-03
4.686730115111004125e-09
-1.668227603659033775e-03
-3.446699818596243858e-03
-7.311875000596046448e-03
-4.223799332976341248e-03
3.042937256395816803e-03
-6.838547997176647186e-04
5.973745603114366531e-03
-3.099327208474278450e-03
