-2.708142697811126709e-01
-2.778701782226562500e-01
-2.788073122501373291e-01
-2.711153328418731689e-01
-2.900449633598327637e-01
-2.752058804035186768e-01
-2.770973742008209229e-01
-2.762343883514404297e-01
-2.720693647861480713e-01
-2.743874490261077881e-01
-2.747055590152740479e-01
-2.722516655921936035e-01
-2.605697810649871826e-01
-2.417582273483276367e-01
-2.556326985359191895e-01
-2.769617736339569092e-01
-2.785972058773040771e-01
-2.713421583175659180e-01
-2.863637208938598633e-01
-2.700869739055633545e-01
-2.842900753021240234e-01
-2.835175096988677979e-01
-2.735241651535034180e-01
-2.748876214027404785e-01
-2.752792537212371826e-01
-2.844719290733337402e-01
-2.847446203231811523e-01
-2.766885757446289062e-01
-2.918913364410400391e-01
-2.694055140018463135e-01
-2.710411548614501953e-01
-2.661953270435333252e-01
-2.762796878814697266e-01
-2.894993424415588379e-01
-2.452433109283447266e-01
-2.522942423820495605e-01
-2.130074054002761841e-01
-2.543081045150756836e-01
-2.704898416996002197e-01
-2.926379442214965820e-01
-2.901331484317779541e-01
-2.757088243961334229e-01
-2.769801616668701172e-01
-3.101936876773834229e-01
-3.657574057579040527e-01
-3.315877020359039307e-01
-2.670173346996307373e-01
-2.829522490501403809e-01
-2.600672841072082520e-01
-2.193590104579925537e-01
-2.477622777223587036e-01
-2.822095155715942383e-01
-2.857443988323211670e-01
-2.870168983936309814e-01
-2.727515697479248047e-01
-2.845624983310699463e-01
-2.808073163032531738e-01
-2.759157121181488037e-01
-2.806256413459777832e-01
-2.838355898857116699e-01
-2.178176641464233398e-01
-2.704505920410156250e-01
-2.029782086610794067e-01
-2.093512266874313354e-01
-2.033223211765289307e-01
-2.435240447521209717e-01
-2.941553890705108643e-01
-3.145340979099273682e-01
-3.771698474884033203e-01
-3.765373528003692627e-01
-4.121515750885009766e-01
-4.765720367431640625e-01
-4.753289222717285156e-01
-4.214861392974853516e-01
-3.607333600521087646e-01
-3.759882450103759766e-01
-3.045745790004730225e-01
-2.847191691398620605e-01
-2.571680545806884766e-01
-2.424968928098678589e-01
-2.193088084459304810e-01
-2.276674360036849976e-01
-2.836080193519592285e-01
-2.844259738922119141e-01
-2.877272367477416992e-01
-2.995838820934295654e-01
-2.228808552026748657e-01
-2.289821803569793701e-01
-2.373212426900863647e-01
-1.922026872634887695e-01
-1.971858590841293335e-01
-1.737104058265686035e-01
-1.595822870731353760e-01
-2.432924807071685791e-01
-3.346326947212219238e-01
-4.402392506599426270e-01
-4.024874269962310791e-01
-5.543084144592285156e-01
-5.662897229194641113e-01
-5.765842199325561523e-01
-5.664778351783752441e-01
-5.402678847312927246e-01
-4.999601840972900391e-01
-4.604243934154510498e-01
-3.245463967323303223e-01
-2.898083627223968506e-01
-2.288198471069335938e-01
-2.139155864715576172e-01
-2.196838557720184326e-01
-2.134784013032913208e-01
-2.340554445981979370e-01
-2.680418789386749268e-01
-2.928001284599304199e-01
-2.838355004787445068e-01
-2.664612233638763428e-01
-2.246120870113372803e-01
-2.302272319793701172e-01
-1.257435828447341919e-01
-1.120454967021942139e-01
3.920601680874824524e-03
-8.642026036977767944e-02
-2.426498830318450928e-01
-4.048463404178619385e-01
-4.615449607372283936e-01
-5.566678047180175781e-01
-4.843410551548004150e-01
-5.873667597770690918e-01
-6.093148589134216309e-01
-5.963243842124938965e-01
-6.798637509346008301e-01
-6.952720284461975098e-01
-7.995203137397766113e-01
-6.058086156845092773e-01
-2.882758975028991699e-01
-2.153526842594146729e-01
-1.433143168687820435e-01
-1.943082958459854126e-01
-2.098026871681213379e-01
-2.328543215990066528e-01
-2.828070223331451416e-01
-2.837614119052886963e-01
-2.713140845298767090e-01
-2.302761524915695190e-01
-2.122914195060729980e-01
-1.893615275621414185e-01
-1.093445718288421631e-01
-8.405501395463943481e-02
-3.662250190973281860e-02
-1.029051095247268677e-01
-3.498443961143493652e-01
-5.368027091026306152e-01
-4.281062185764312744e-01
-5.122107267379760742e-01
-6.596100926399230957e-01
-8.948169350624084473e-01
-7.173344492912292480e-01
-8.704415559768676758e-01
-9.935054779052734375e-01
-8.027350306510925293e-01
-7.622944116592407227e-01
-5.490542650222778320e-01
-1.849479526281356812e-01
-1.412984579801559448e-01
-8.509815484285354614e-02
-2.023858875036239624e-01
-2.194182425737380981e-01
-2.423684597015380859e-01
-2.447863817214965820e-01
-2.783243954181671143e-01
-2.705415785312652588e-01
-2.157411426305770874e-01
-1.726130694150924683e-01
-1.391070932149887085e-01
-8.204241096973419189e-02
-5.218885093927383423e-02
-4.624242335557937622e-02
-1.299586445093154907e-01
-4.415893256664276123e-01
-1.746113002300262451e-01
-3.102515637874603271e-02
1.828776150941848755e-01
2.473054081201553345e-02
5.209346860647201538e-02
-1.921166777610778809e-01
-3.247036337852478027e-01
-7.251482009887695312e-01
-5.999549627304077148e-01
-7.647472620010375977e-01
-4.934636354446411133e-01
-2.911553084850311279e-01
-1.562970876693725586e-01
-1.186847090721130371e-01
-2.656734585762023926e-01
-2.763447761535644531e-01
-2.777613997459411621e-01
-2.496651262044906616e-01
-2.911354601383209229e-01
-2.551014721393585205e-01
-2.157222777605056763e-01
-2.036805748939514160e-01
-8.605683594942092896e-02
-3.553482145071029663e-02
3.060159832239151001e-02
8.804906904697418213e-02
-2.151220105588436127e-03
1.128950342535972595e-02
2.292540371417999268e-01
3.339563012123107910e-01
6.770808696746826172e-01
7.249943614006042480e-01
5.060985088348388672e-01
3.397361934185028076e-01
5.658461898565292358e-02
-1.499641686677932739e-01
-4.854215681552886963e-02
-9.944760799407958984e-02
-1.843147277832031250e-01
-1.509552597999572754e-01
-8.624413609504699707e-02
-7.151016592979431152e-02
-2.472364157438278198e-01
-2.551877796649932861e-01
-2.730043232440948486e-01
-2.412559390068054199e-01
-2.776430249214172363e-01
-2.421772032976150513e-01
-1.864555329084396362e-01
-1.149175614118576050e-01
-1.525183953344821930e-02
1.139336377382278442e-01
3.094094991683959961e-01
1.646472960710525513e-01
1.870907694101333618e-01
4.436339139938354492e-01
6.569133996963500977e-01
4.806952178478240967e-01
7.816240191459655762e-01
6.325955390930175781e-01
5.647672414779663086e-01
2.554003000259399414e-01
8.363918215036392212e-02
2.767125666141510010e-01
-1.129827499389648438e-01
5.434165149927139282e-02
3.115301430225372314e-01
2.800086438655853271e-01
-2.882443740963935852e-02
-2.447912693023681641e-01
-4.050827026367187500e-01
-3.527435660362243652e-01
-2.828750014305114746e-01
-2.679242491722106934e-01
-2.335661202669143677e-01
-2.421049326658248901e-01
-1.910586655139923096e-01
-1.748238503932952881e-01
5.458406638354063034e-03
1.636611223220825195e-01
3.090642690658569336e-01
2.272421419620513916e-01
4.750499427318572998e-01
7.273100018501281738e-01
7.153847217559814453e-01
5.665276646614074707e-01
2.458494007587432861e-01
3.613256514072418213e-01
4.809492528438568115e-01
1.073914468288421631e-01
-1.908016204833984375e-01
-3.970430698245763779e-03
1.681083142757415771e-01
2.452304065227508545e-01
3.197497427463531494e-01
2.303202450275421143e-01
9.732216596603393555e-02
-8.455916494131088257e-02
-3.791365921497344971e-01
-3.589508533477783203e-01
-2.900936603546142578e-01
-2.607777416706085205e-01
-2.483598142862319946e-01
-2.481329292058944702e-01
-2.217097580432891846e-01
-1.636767238378524780e-01
3.436362743377685547e-02
1.842283159494400024e-01
3.998135328292846680e-01
3.976980149745941162e-01
6.379019618034362793e-01
8.166189193725585938e-01
4.594890773296356201e-01
2.611615061759948730e-01
5.059167742729187012e-02
3.399285972118377686e-01
2.578676939010620117e-01
-1.862182766199111938e-01
-1.289968937635421753e-01
-1.380893290042877197e-01
1.657348275184631348e-01
5.083293914794921875e-01
4.079569578170776367e-01
8.033935725688934326e-02
1.134097725152969360e-01
-9.020924568176269531e-02
-3.226949274539947510e-01
-2.893705368041992188e-01
-3.027885258197784424e-01
-2.224965244531631470e-01
-2.503876686096191406e-01
-2.409865409135818481e-01
-2.724782228469848633e-01
-1.761818677186965942e-01
-6.829041242599487305e-02
2.031676322221755981e-01
2.504128217697143555e-01
4.231000542640686035e-01
7.202116847038269043e-01
7.084797620773315430e-01
4.244042336940765381e-01
-2.747623026371002197e-01
-3.689885139465332031e-01
2.118784785270690918e-01
-1.162741631269454956e-01
-3.162983357906341553e-01
-4.907324016094207764e-01
-3.640823960304260254e-01
2.449342757463455200e-01
4.769344627857208252e-01
4.812699556350708008e-01
2.644695043563842773e-01
1.358953118324279785e-01
1.863644458353519440e-03
-2.495657652616500854e-01
-2.939646542072296143e-01
-2.547742128372192383e-01
-2.311960458755493164e-01
-2.665067613124847412e-01
-2.719989120960235596e-01
-2.728963196277618408e-01
-2.236571013927459717e-01
-7.714715600013732910e-02
-4.227280151098966599e-03
1.710874885320663452e-01
2.775363326072692871e-01
6.025863885879516602e-01
6.317399144172668457e-01
3.082744479179382324e-01
-1.641875505447387695e-01
-1.769606918096542358e-01
-4.869128167629241943e-01
-4.929884374141693115e-01
-3.786589503288269043e-01
-4.578144848346710205e-01
-1.290535628795623779e-01
2.893946170806884766e-01
6.316906809806823730e-01
5.909999608993530273e-01
3.803038001060485840e-01
1.190103292465209961e-01
-3.129651397466659546e-02
-2.238112092018127441e-01
-2.046429216861724854e-01
-2.205952554941177368e-01
-2.291117310523986816e-01
-2.724334299564361572e-01
-2.606642246246337891e-01
-2.502843439579010010e-01
-2.296019047498703003e-01
-1.163498014211654663e-01
1.877485215663909912e-02
1.247643679380416870e-01
1.421080380678176880e-01
2.913073599338531494e-01
1.433797180652618408e-01
-2.562094926834106445e-01
-1.732974648475646973e-01
-3.787105977535247803e-01
-2.345860153436660767e-01
-2.521137595176696777e-01
8.757695555686950684e-02
1.014785170555114746e-01
3.711796700954437256e-01
8.480067849159240723e-01
9.928753376007080078e-01
7.415356636047363281e-01
2.974536120891571045e-01
7.832843810319900513e-02
2.266810089349746704e-02
-1.860151588916778564e-01
-2.145781964063644409e-01
-2.481326609849929810e-01
-2.397584617137908936e-01
-2.419016659259796143e-01
-2.422863543033599854e-01
-2.399349063634872437e-01
-1.851409375667572021e-01
-1.371636837720870972e-01
-1.279738917946815491e-02
7.083507627248764038e-02
2.005698531866073608e-01
2.937938272953033447e-02
-1.840264797210693359e-01
-1.961239725351333618e-01
-4.708837270736694336e-01
-5.012020468711853027e-01
2.305570989847183228e-02
-6.034445762634277344e-02
1.846710741519927979e-01
4.732951223850250244e-01
7.542049288749694824e-01
8.548251390457153320e-01
1.089804649353027344e+00
4.162128865718841553e-01
1.714250743389129639e-01
1.721888631582260132e-01
-1.117084734141826630e-02
-2.498285323381423950e-01
-2.467043548822402954e-01
-2.800644338130950928e-01
-2.788982391357421875e-01
-2.780974209308624268e-01
-2.476393431425094604e-01
-2.358140945434570312e-01
-1.917048394680023193e-01
-9.965258836746215820e-02
-1.395010389387607574e-03
2.799959182739257812e-01
2.410932034254074097e-01
8.511331677436828613e-02
-2.294434905052185059e-01
-2.950454950332641602e-01
-1.016522049903869629e-01
-6.232436895370483398e-01
-3.968302905559539795e-02
-1.124163568019866943e-01
2.425774335861206055e-01
2.718513607978820801e-01
7.506099343299865723e-01
7.703415751457214355e-01
6.029264330863952637e-01
5.810031294822692871e-01
4.543482065200805664e-01
1.169427633285522461e-01
-6.188891828060150146e-02
-2.174059152603149414e-01
-3.088161945343017578e-01
-2.410258501768112183e-01
-2.295592874288558960e-01
-2.709050774574279785e-01
-2.548875808715820312e-01
-2.899241745471954346e-01
-1.931124627590179443e-01
-1.141308695077896118e-01
-5.956179462373256683e-03
-1.537794619798660278e-02
2.031929343938827515e-01
1.353204101324081421e-01
5.037924647331237793e-02
-1.767777800559997559e-01
-2.892192304134368896e-01
-6.036296486854553223e-02
-4.010098278522491455e-01
-1.976265609264373779e-01
1.351352408528327942e-02
3.576697707176208496e-01
5.290234088897705078e-01
6.051864624023437500e-01
7.168175578117370605e-01
3.846229314804077148e-01
3.377808928489685059e-01
9.345417469739913940e-02
2.155590802431106567e-02
-1.154701411724090576e-01
-2.783817052841186523e-01
-2.620743513107299805e-01
-2.523180544376373291e-01
-2.805350422859191895e-01
-2.284472882747650146e-01
-2.965693175792694092e-01
-2.094624191522598267e-01
-2.866152822971343994e-01
-1.076901108026504517e-01
5.178007483482360840e-02
2.972521185874938965e-01
3.854968845844268799e-01
2.489391341805458069e-02
-1.511636376380920410e-01
-1.280888617038726807e-01
-4.605788290500640869e-01
-2.716150283813476562e-01
-5.192174911499023438e-01
1.042628884315490723e-01
3.839410245418548584e-01
3.675301671028137207e-01
7.151598930358886719e-01
7.358695864677429199e-01
4.498518109321594238e-01
3.439856469631195068e-01
-8.685220032930374146e-03
-1.176872402429580688e-01
-9.476782381534576416e-02
-3.463521003723144531e-01
-2.832142710685729980e-01
-2.721185684204101562e-01
-2.784605920314788818e-01
-2.371748536825180054e-01
-2.917733490467071533e-01
-2.767235934734344482e-01
-2.139232009649276733e-01
-3.335076868534088135e-01
-1.214872896671295166e-01
6.688369810581207275e-02
1.341747343540191650e-01
6.120156496763229370e-02
-2.231367379426956177e-01
-1.503378152847290039e-01
-5.190713405609130859e-01
-5.120610594749450684e-01
-5.958706736564636230e-01
2.217949032783508301e-01
4.652717411518096924e-01
7.092575430870056152e-01
8.115168809890747070e-01
6.420266628265380859e-01
4.861664175987243652e-01
8.335917443037033081e-02
-7.157067954540252686e-02
-1.101066917181015015e-01
-3.775586783885955811e-01
-3.435724377632141113e-01
-2.879852056503295898e-01
-2.613633275032043457e-01
-2.828980982303619385e-01
-2.511540949344635010e-01
-2.871004045009613037e-01
-3.230355381965637207e-01
-3.146775960922241211e-01
-3.438625037670135498e-01
-1.423713266849517822e-01
2.296875715255737305e-01
3.168050944805145264e-02
-2.107749134302139282e-01
2.762526646256446838e-02
1.538242399692535400e-01
-1.495901793241500854e-01
-3.927259743213653564e-01
-5.901510119438171387e-01
-8.925216272473335266e-03
5.642116069793701172e-01
1.118242859840393066e+00
1.059212684631347656e+00
6.693216562271118164e-01
3.903747797012329102e-01
2.086368352174758911e-01
-7.075805217027664185e-02
-1.417933851480484009e-01
-3.210072219371795654e-01
-3.543807864189147949e-01
-2.454707026481628418e-01
-2.697551250457763672e-01
-2.733421325683593750e-01
-2.262411117553710938e-01
-2.729073464870452881e-01
-3.084321320056915283e-01
-1.577250808477401733e-01
-3.547402322292327881e-01
-2.319416254758834839e-01
1.491369456052780151e-01
3.841272741556167603e-02
-4.028859734535217285e-01
9.249360114336013794e-02
1.753334403038024902e-01
-1.507074534893035889e-01
-3.971312642097473145e-01
-1.684867739677429199e-01
3.768309056758880615e-01
8.031765222549438477e-01
1.089258670806884766e+00
9.607361555099487305e-01
5.492322444915771484e-01
1.890561580657958984e-01
1.016695201396942139e-01
1.106975227594375610e-02
-1.411810964345932007e-01
-2.406061738729476929e-01
-2.500740587711334229e-01
-2.414972037076950073e-01
-2.927552163600921631e-01
-2.733879089355468750e-01
-2.374792546033859253e-01
-2.285090237855911255e-01
-2.125279605388641357e-01
-6.576653569936752319e-02
-4.942587018013000488e-02
-5.903118848800659180e-02
-5.841901898384094238e-02
-7.200968265533447266e-02
-2.464960366487503052e-01
3.766500949859619141e-02
-5.668542813509702682e-03
-3.454150855541229248e-01
-2.402559220790863037e-01
-6.617280840873718262e-02
2.724791467189788818e-01
6.718255877494812012e-01
7.499222159385681152e-01
5.240173339843750000e-01
4.711832106113433838e-02
1.326342970132827759e-01
1.338033825159072876e-01
2.740789949893951416e-02
-6.865287572145462036e-02
-1.622461825609207153e-01
-2.295999825000762939e-01
-2.137362807989120483e-01
-2.695415914058685303e-01
-2.685872018337249756e-01
-2.797161638736724854e-01
-2.424388676881790161e-01
-1.515227705240249634e-01
-1.851819828152656555e-02
-3.079508990049362183e-02
-1.553396135568618774e-01
-3.621001243591308594e-01
-7.165269255638122559e-01
-7.564485073089599609e-01
-8.593940138816833496e-01
-1.121222257614135742e+00
-8.701614141464233398e-01
-6.416152715682983398e-01
7.958155125379562378e-03
-1.560647040605545044e-01
2.764400243759155273e-01
3.332003355026245117e-01
5.135396867990493774e-02
-3.862597048282623291e-02
6.783011555671691895e-02
6.900781393051147461e-02
6.487214565277099609e-02
-5.317904055118560791e-02
-1.143103986978530884e-01
-2.058161646127700806e-01
-2.150492072105407715e-01
-2.703879773616790771e-01
-2.894996702671051025e-01
-2.608037590980529785e-01
-2.630723416805267334e-01
-1.551208347082138062e-01
-1.385078728199005127e-01
-1.290808469057083130e-01
-3.481855988502502441e-01
-5.350336432456970215e-01
-5.982139706611633301e-01
-8.854850530624389648e-01
-1.270127058029174805e+00
-1.130360603332519531e+00
-1.224034905433654785e+00
-7.207710742950439453e-01
-1.959450989961624146e-01
-1.894341856241226196e-01
-5.928288400173187256e-02
-1.342946141958236694e-01
-4.960204362869262695e-01
-2.357881069183349609e-01
-7.136646658182144165e-02
-4.763546586036682129e-02
-3.904545307159423828e-02
-1.331125199794769287e-01
-1.487355977296829224e-01
-2.018105387687683105e-01
-2.539332211017608643e-01
-2.729788124561309814e-01
-2.670871019363403320e-01
-2.698599100112915039e-01
-2.428878694772720337e-01
-2.402798384428024292e-01
-2.000339329242706299e-01
-2.654902338981628418e-01
-2.753573358058929443e-01
-2.874083817005157471e-01
-4.504106044769287109e-01
-6.507051587104797363e-01
-7.584414482116699219e-01
-7.804479002952575684e-01
-8.980452418327331543e-01
-7.819777727127075195e-01
-3.621762096881866455e-01
-4.842424392700195312e-01
-2.369738221168518066e-01
-3.163855373859405518e-01
-2.425414323806762695e-01
-1.363878995180130005e-01
-1.525526791810989380e-01
-1.740522831678390503e-01
-1.704536080360412598e-01
-1.779070049524307251e-01
-2.017246782779693604e-01
-2.077031731605529785e-01
-2.139787524938583374e-01
-2.709333300590515137e-01
-2.771424055099487305e-01
-2.646501362323760986e-01
-2.865168452262878418e-01
-2.315525114536285400e-01
-1.994603276252746582e-01
-2.136927545070648193e-01
-2.269581854343414307e-01
-3.053137958049774170e-01
-3.614238500595092773e-01
-4.620532095432281494e-01
-5.544258952140808105e-01
-5.594777464866638184e-01
-6.944586634635925293e-01
-5.720335245132446289e-01
-4.126393496990203857e-01
-2.794163823127746582e-01
-2.074117660522460938e-01
-2.815503776073455811e-01
-2.272432148456573486e-01
-2.076764404773712158e-01
-1.696270108222961426e-01
-2.335426658391952515e-01
-1.622588485479354858e-01
-2.010336220264434814e-01
-1.999976336956024170e-01
-2.200733274221420288e-01
-2.343738824129104614e-01
-2.768703699111938477e-01
-2.801257073879241943e-01
-2.722972333431243896e-01
-2.779437601566314697e-01
-2.823978364467620850e-01
-2.510728240013122559e-01
-2.761272490024566650e-01
-2.943403422832489014e-01
-3.551561236381530762e-01
-4.599708318710327148e-01
-5.227558612823486328e-01
-5.445087552070617676e-01
-6.314134597778320312e-01
-7.087243795394897461e-01
-5.930811166763305664e-01
-5.800905823707580566e-01
-5.339747071266174316e-01
-4.113983511924743652e-01
-3.750561177730560303e-01
-3.728512525558471680e-01
-3.233148157596588135e-01
-2.738477289676666260e-01
-2.643078267574310303e-01
-2.541635334491729736e-01
-2.358603477478027344e-01
-2.753252089023590088e-01
-2.889091670513153076e-01
-2.709788978099822998e-01
-2.679961323738098145e-01
-2.751888036727905273e-01
-2.771883606910705566e-01
-2.676326036453247070e-01
-2.916642129421234131e-01
-2.364016920328140259e-01
-2.334689199924468994e-01
-2.447257637977600098e-01
-2.685404419898986816e-01
-2.668321430683135986e-01
-3.023005425930023193e-01
-3.426071107387542725e-01
-3.455685973167419434e-01
-3.631110191345214844e-01
-3.518747389316558838e-01
-3.438446521759033203e-01
-3.197317421436309814e-01
-2.699142098426818848e-01
-2.542811930179595947e-01
-2.300234735012054443e-01
-2.326786518096923828e-01
-2.487876713275909424e-01
-2.418810427188873291e-01
-2.376611232757568359e-01
-2.765066921710968018e-01
-2.887268364429473877e-01
-2.794439494609832764e-01
-2.732967436313629150e-01
-2.762341797351837158e-01
