8.208683013916015625e+00
2.781059026718139648e+00
-4.273775577545166016e+00
9.374773979187011719e+00
1.677522087097167969e+01
5.975173950195312500e+00
3.081155776977539062e+00
-2.630674123764038086e+00
1.447983741760253906e+00
1.072350883483886719e+01
3.053210020065307617e+00
6.795486450195312500e+00
2.760383367538452148e+00
2.875232219696044922e+00
3.717431068420410156e+00
7.093801498413085938e-01
5.106594562530517578e+00
1.656062889099121094e+01
5.977739810943603516e+00
1.459515476226806641e+01
-3.299715995788574219e+00
4.438804149627685547e+00
9.472628593444824219e+00
-1.514375805854797363e+00
7.128144741058349609e+00
-4.105618000030517578e+00
4.981483459472656250e+00
6.443086147308349609e+00
1.437998580932617188e+01
-4.828616142272949219e+00
3.054485321044921875e+00
2.376479148864746094e+00
1.543771457672119141e+01
3.666203022003173828e+00
1.371708679199218750e+01
4.227515697479248047e+00
2.133932352066040039e+00
2.494978904724121094e+00
3.661840915679931641e+00
-1.833715558052062988e+00
2.935266494750976562e+00
3.098239660263061523e+00
2.661164999008178711e+00
-4.662006378173828125e+00
-7.061192989349365234e+00
1.362928581237792969e+01
4.692365169525146484e+00
3.292985439300537109e+00
1.391604328155517578e+01
-8.200205802917480469e+00
2.176838397979736328e+00
3.577140569686889648e+00
-4.107940673828125000e+00
7.136627674102783203e+00
-1.183520030975341797e+01
4.411734938621520996e-01
-3.579414129257202148e+00
4.962007999420166016e-01
8.435224890708923340e-01
-3.884338378906250000e+00
6.434616565704345703e+00
4.689920425415039062e+00
8.806957006454467773e-01
1.248695182800292969e+01
-4.254103004932403564e-01
6.205366134643554688e+00
-1.595365285873413086e+00
-4.657048225402832031e+00
7.719430923461914062e+00
-5.881742477416992188e+00
7.054997920989990234e+00
3.047006607055664062e+00
1.328141927719116211e+00
5.203035831451416016e+00
4.044843316078186035e-01
8.914942145347595215e-01
5.823403358459472656e+00
-8.478583335876464844e+00
7.564674377441406250e+00
6.120977401733398438e+00
-3.610446214675903320e+00
3.344538688659667969e+00
-4.764609038829803467e-01
1.497764825820922852e+00
4.425911426544189453e+00
1.186300659179687500e+01
5.453294754028320312e+00
5.468141078948974609e+00
-1.441136002540588379e-01
-4.730298995971679688e+00
6.434769153594970703e+00
3.985321521759033203e+00
-1.986998319625854492e+00
1.583192706108093262e+00
5.919531822204589844e+00
-5.469023704528808594e+00
7.502367496490478516e+00
8.122583389282226562e+00
-9.896748065948486328e-01
3.880929946899414062e+00
-6.676398277282714844e+00
-9.172032356262207031e+00
-3.194055557250976562e+00
4.166456222534179688e+00
6.822263717651367188e+00
-4.316124916076660156e+00
7.589992523193359375e+00
9.991105794906616211e-01
-1.048034191131591797e+01
1.344351196289062500e+01
1.255106544494628906e+01
1.648720169067382812e+01
8.790643692016601562e+00
1.385189723968505859e+01
1.064539432525634766e+01
1.153484439849853516e+01
3.414824485778808594e+00
-5.009302139282226562e+00
4.546341419219970703e+00
1.274256515502929688e+01
7.553180694580078125e+00
-1.107638001441955566e+00
2.966765880584716797e+00
4.029059886932373047e+00
-5.249514102935791016e+00
4.089248657226562500e+00
3.940560817718505859e+00
3.669011116027832031e+00
-1.089745640754699707e+00
1.273045825958251953e+01
-4.389528274536132812e+00
-3.843295574188232422e+00
-3.196110010147094727e+00
5.949617385864257812e+00
2.714860677719116211e+00
5.581836700439453125e+00
-2.583451867103576660e-01
1.459564685821533203e+00
6.697434902191162109e+00
1.818929433822631836e+00
-9.362430572509765625e+00
3.528164625167846680e+00
-8.827202320098876953e-01
5.848242282867431641e+00
-4.163184463977813721e-01
1.088760137557983398e+00
9.945216178894042969e+00
1.042616271972656250e+01
-5.024412155151367188e+00
2.762407779693603516e+00
4.244002819061279297e+00
2.568737506866455078e+00
-5.773598194122314453e+00
-2.251036882400512695e+00
2.224956274032592773e+00
1.986105728149414062e+01
6.850818395614624023e-01
9.480217933654785156e+00
1.340799999237060547e+01
-2.490549802780151367e+00
2.615459442138671875e+00
-1.213414072990417480e+00
4.077408790588378906e+00
2.205898284912109375e+00
3.455589771270751953e+00
5.609166145324707031e+00
-8.989171028137207031e+00
9.191330909729003906e+00
4.310066223144531250e+00
5.893561363220214844e+00
-3.193577766418457031e+00
2.679509639739990234e+00
1.369436025619506836e+00
-1.888968467712402344e+00
1.149174332618713379e+00
4.037869453430175781e+00
3.312072038650512695e+00
8.756649017333984375e+00
9.842650890350341797e-01
-6.180579662322998047e+00
6.384022712707519531e+00
9.746500015258789062e+00
9.029194831848144531e+00
1.042079067230224609e+01
-6.204726219177246094e+00
4.309464931488037109e+00
6.438819885253906250e+00
1.450744152069091797e+01
-6.040915250778198242e-01
7.023955345153808594e+00
-3.936288595199584961e+00
-5.999944210052490234e-01
7.618724346160888672e+00
-1.360159111022949219e+01
6.399803161621093750e+00
4.241497039794921875e+00
5.514908790588378906e+00
7.664534568786621094e+00
3.827079296112060547e+00
1.350946903228759766e+01
1.583126425743103027e+00
-3.807631134986877441e-01
-1.541175991296768188e-01
-1.130344271659851074e+00
1.099046516418457031e+01
6.108385562896728516e+00
-1.119311690330505371e+00
1.064630031585693359e+01
3.650608360767364502e-01
-5.330922126770019531e+00
1.293167018890380859e+01
-5.045550346374511719e+00
-5.563970565795898438e+00
3.366424083709716797e+00
1.421411132812500000e+01
3.324619770050048828e+00
-6.746122360229492188e+00
8.241494178771972656e+00
7.249352931976318359e+00
2.927369475364685059e-01
6.535491943359375000e+00
-3.217116355895996094e+00
-4.149299144744873047e+00
4.071590423583984375e+00
8.061777114868164062e+00
