-3.599997982382774353e-02
-3.999997302889823914e-02
-3.572725132107734680e-02
-3.527270630002021790e-02
-3.790906816720962524e-02
-3.772725164890289307e-02
-3.881815820932388306e-02
-3.627270832657814026e-02
-3.290907293558120728e-02
-3.272725269198417664e-02
-3.727270662784576416e-02
-3.372725471854209900e-02
-3.686949610710144043e-02
-3.424774855375289917e-02
-3.260746598243713379e-02
-3.841922804713249207e-02
-3.354543820023536682e-02
-3.499998152256011963e-02
-3.290907293558120728e-02
-3.754543513059616089e-02
-3.736361488699913025e-02
-3.572725132107734680e-02
-3.654543310403823853e-02
-3.745452314615249634e-02
-3.763634338974952698e-02
-3.399998322129249573e-02
-3.345452621579170227e-02
-3.718179464340209961e-02
-3.409089148044586182e-02
-3.627270832657814026e-02
-3.572725132107734680e-02
-3.845452144742012024e-02
-3.448269143700599670e-02
-3.709088638424873352e-02
-3.401708602905273438e-02
-3.176432847976684570e-02
-3.805986046791076660e-02
-3.218856826424598694e-02
-3.245235607028007507e-02
-3.406982123851776123e-02
-3.227374330163002014e-02
-3.712686523795127869e-02
-3.749441727995872498e-02
-3.842954337596893311e-02
-3.504984453320503235e-02
-3.783914446830749512e-02
-3.400104865431785583e-02
-3.732082620263099670e-02
-3.686520457267761230e-02
-3.229695558547973633e-02
-3.244418650865554810e-02
-3.455541655421257019e-02
-3.418179973959922791e-02
-3.645452484488487244e-02
-3.499998152256011963e-02
-3.599997982382774353e-02
-3.645452484488487244e-02
-3.363634645938873291e-02
-3.743170574307441711e-02
-3.622493520379066467e-02
-3.698250278830528259e-02
-3.585238009691238403e-02
-2.924312278628349304e-02
-2.393151447176933289e-02
-2.653398364782333374e-02
-2.950438484549522400e-02
-4.417316988110542297e-02
-4.905733838677406311e-02
-5.441135540604591370e-02
-5.015216767787933350e-02
-5.017501115798950195e-02
-6.515789031982421875e-02
-6.899134814739227295e-02
-6.762305647134780884e-02
-5.959494784474372864e-02
-5.924264714121818542e-02
-5.395569652318954468e-02
-4.467371851205825806e-02
-3.511828556656837463e-02
-3.408944979310035706e-02
-3.207305446267127991e-02
-3.601566329598426819e-02
-3.672724962234497070e-02
-3.854542970657348633e-02
-3.572725132107734680e-02
-3.754543140530586243e-02
-3.482029214501380920e-02
-3.652011603116989136e-02
-3.571762144565582275e-02
-3.126376494765281677e-02
-2.505982667207717896e-02
-2.504234015941619873e-02
-2.901169098913669586e-02
-4.065836220979690552e-02
-4.714429751038551331e-02
-4.478632658720016479e-02
-4.121447354555130005e-02
-4.590924456715583801e-02
-5.273591354489326477e-02
-6.396118551492691040e-02
-7.805352658033370972e-02
-7.525712996721267700e-02
-6.794568151235580444e-02
-6.529750674962997437e-02
-6.128864362835884094e-02
-4.850294813513755798e-02
-4.373747855424880981e-02
-3.361169993877410889e-02
-2.988763712346553802e-02
-3.296040371060371399e-02
-3.625987097620964050e-02
-3.799997642636299133e-02
-3.618179634213447571e-02
-3.428411483764648438e-02
-3.189837187528610229e-02
-3.454614803194999695e-02
-3.345664963126182556e-02
-2.906835451722145081e-02
-2.945013903081417084e-02
-2.981060743331909180e-02
-3.009867668151855469e-02
-3.151891753077507019e-02
-3.499223664402961731e-02
-3.366770595312118530e-02
-2.456885762512683868e-02
-2.478973008692264557e-02
-3.355142101645469666e-02
-4.783297702670097351e-02
-5.433604866266250610e-02
-8.091482520103454590e-02
-9.049879759550094604e-02
-7.714066654443740845e-02
-5.608102306723594666e-02
-4.456560313701629639e-02
-4.685052111744880676e-02
-4.799168929457664490e-02
-4.758632183074951172e-02
-3.077604249119758606e-02
-3.235968202352523804e-02
-3.628376126289367676e-02
-3.845452144742012024e-02
-3.427270799875259399e-02
-3.469944000244140625e-02
-3.205379843711853027e-02
-3.167978301644325256e-02
-2.989545464515686035e-02
-3.962093964219093323e-02
-3.362692147493362427e-02
-3.164829313755035400e-02
-3.047370351850986481e-02
-2.210986055433750153e-02
-1.529924385249614716e-02
-1.198400743305683136e-03
9.038628078997135162e-03
4.829950165003538132e-03
7.027762476354837418e-04
-7.113239727914333344e-03
-6.339498795568943024e-03
-7.809691596776247025e-03
-2.150388318113982677e-04
2.554690930992364883e-03
-4.777116235345602036e-03
-1.976269856095314026e-02
-4.122085869312286377e-02
-5.568541958928108215e-02
-4.671967402100563049e-02
-3.093398362398147583e-02
-3.689979761838912964e-02
-3.390907123684883118e-02
-3.446843102574348450e-02
-3.200104832649230957e-02
-3.006234019994735718e-02
-2.989761158823966980e-02
-3.565622866153717041e-02
-2.917345613241195679e-02
-3.795334324240684509e-02
-2.372318878769874573e-02
-2.247194759547710419e-02
-1.552525674924254417e-03
1.217836607247591019e-02
2.577917091548442841e-02
2.705622650682926178e-02
2.655770629644393921e-02
3.450969234108924866e-02
2.079531364142894745e-02
1.520882127806544304e-03
-3.767907619476318359e-03
8.232316002249717712e-03
1.424856670200824738e-02
1.278431620448827744e-02
-7.226662244647741318e-03
-2.742754667997360229e-02
-5.054681375622749329e-02
-5.207907035946846008e-02
-3.802846372127532959e-02
-3.791691362857818604e-02
-3.418179973959922791e-02
-3.342742472887039185e-02
-3.333756700158119202e-02
-4.452864825725555420e-02
-4.374041408300399780e-02
-3.835104033350944519e-02
-3.209244832396507263e-02
-2.564409375190734863e-02
-2.208195067942142487e-02
9.548506932333111763e-04
1.134814228862524033e-02
1.899567432701587677e-02
3.472728282213211060e-02
2.580464258790016174e-02
2.397807687520980835e-02
2.238061651587486267e-02
2.022663503885269165e-02
1.114872284233570099e-02
3.759232640732079744e-04
-6.905530113726854324e-03
3.253582864999771118e-03
1.134500466287136078e-02
1.356373075395822525e-03
-1.922535896301269531e-02
-5.024330317974090576e-02
-5.247196927666664124e-02
-3.775069862604141235e-02
-3.176397457718849182e-02
-3.833758831024169922e-02
-3.349443525075912476e-02
-4.221421852707862854e-02
-4.671003296971321106e-02
-4.112252220511436462e-02
-3.086970560252666473e-02
-2.756542526185512543e-02
-1.999656111001968384e-02
-1.765885576605796814e-02
-3.187795169651508331e-03
7.362082600593566895e-03
1.635899022221565247e-02
1.234394963830709457e-02
1.086413580924272537e-02
8.574655279517173767e-03
1.639388129115104675e-02
2.423741482198238373e-02
2.065061964094638824e-02
7.104657590389251709e-03
1.153812510892748833e-03
9.254479780793190002e-03
2.101181261241436005e-02
1.578246988356113434e-02
-1.004958059638738632e-02
-4.322873428463935852e-02
-5.122310295701026917e-02
-3.600952401757240295e-02
-3.220960497856140137e-02
-3.457858785986900330e-02
-3.607305511832237244e-02
-4.074897617101669312e-02
-4.375606402754783630e-02
-2.968865633010864258e-02
-1.924827508628368378e-02
-1.498569082468748093e-02
-2.107234671711921692e-02
-1.351824589073657990e-02
-2.271647099405527115e-04
1.211019605398178101e-02
9.713036008179187775e-03
1.263850647956132889e-02
1.607582904398441315e-02
1.978187449276447296e-02
2.475336380302906036e-02
2.331256121397018433e-02
2.554406970739364624e-02
4.333397373557090759e-03
-1.173186465166509151e-03
5.489036906510591507e-03
1.755406521260738373e-02
1.521380059421062469e-02
2.745758276432752609e-03
-3.666979074478149414e-02
-4.332649707794189453e-02
-3.428938239812850952e-02
-3.384844958782196045e-02
-3.418322280049324036e-02
-3.371653705835342407e-02
-4.118459299206733704e-02
-4.153933003544807434e-02
-2.384697645902633667e-02
-1.631779223680496216e-02
-1.116358116269111633e-02
-1.838388293981552124e-02
-5.129174795001745224e-03
1.215396681800484657e-03
1.163463108241558075e-02
2.678344212472438812e-02
3.304270654916763306e-02
4.160570353269577026e-02
3.260065242648124695e-02
2.682998776435852051e-02
2.248553559184074402e-02
2.210007235407829285e-02
1.527178566902875900e-03
-3.649570513516664505e-03
1.380155561491847038e-03
1.151013560593128204e-02
1.438490860164165497e-02
7.459074724465608597e-03
-2.341167256236076355e-02
-3.160022571682929993e-02
-3.230830654501914978e-02
-3.538143634796142578e-02
-3.785630688071250916e-02
-3.130513802170753479e-02
-3.220137953758239746e-02
-3.198675066232681274e-02
-1.877068728208541870e-02
-7.069694809615612030e-03
-1.217533741146326065e-02
-1.481162570416927338e-02
-1.313052885234355927e-02
4.820456728339195251e-03
2.312692999839782715e-02
4.410973563790321350e-02
5.429095402359962463e-02
4.618266597390174866e-02
2.845052629709243774e-02
1.699654385447502136e-02
9.229985065758228302e-03
1.067729201167821884e-02
4.739269148558378220e-03
-3.185285604558885098e-04
-5.380046204663813114e-04
1.222014054656028748e-02
1.307967305183410645e-02
1.076566893607378006e-02
-1.321701705455780029e-02
-1.985337398946285248e-02
-2.741564996540546417e-02
-3.497608751058578491e-02
-3.633581101894378662e-02
-3.339854627847671509e-02
-3.263699263334274292e-02
-3.022272512316703796e-02
-2.450330741703510284e-02
-1.458375714719295502e-02
-1.007617358118295670e-02
-2.275663614273071289e-02
-1.689293608069419861e-02
1.189679466187953949e-02
3.770912438631057739e-02
4.898492991924285889e-02
4.775290563702583313e-02
1.997141167521476746e-02
6.020898930728435516e-03
3.427511546760797501e-04
3.492403309792280197e-03
1.419946458190679550e-02
2.130616456270217896e-02
1.457014493644237518e-02
1.242654584348201752e-02
1.070488523691892624e-02
2.637566532939672470e-03
8.798820897936820984e-03
-8.201326243579387665e-03
-1.994821801781654358e-02
-3.035929799079895020e-02
-3.597145900130271912e-02
-4.238499701023101807e-02
-3.339356184005737305e-02
-3.019924461841583252e-02
-2.657391130924224854e-02
-2.215252444148063660e-02
-1.585682481527328491e-02
-1.216453779488801956e-02
-1.593196950852870941e-02
-1.344187650829553604e-02
1.366368029266595840e-02
3.666487336158752441e-02
3.777101635932922363e-02
2.441936545073986053e-02
4.336177371442317963e-03
-1.185666769742965698e-02
-4.567611496895551682e-03
1.283256895840167999e-02
2.379754371941089630e-02
1.755251735448837280e-02
2.406807802617549896e-02
1.848458498716354370e-02
8.392574265599250793e-03
3.518494544550776482e-03
5.145012401044368744e-03
-1.149828173220157623e-02
-1.622631587088108063e-02
-2.927981317043304443e-02
-3.445345535874366760e-02
-3.676967695355415344e-02
-3.178964182734489441e-02
-3.494613245129585266e-02
-2.345411479473114014e-02
-2.688977867364883423e-02
-1.670779101550579071e-02
-7.309928536415100098e-03
-1.410014927387237549e-02
-5.784142762422561646e-03
2.069430425763130188e-02
3.888079151511192322e-02
2.716211974620819092e-02
1.429701596498489380e-02
1.202507968991994858e-02
2.854175632819533348e-03
1.799914799630641937e-02
3.341235220432281494e-02
3.279861807823181152e-02
2.828438952565193176e-02
1.857640407979488373e-02
1.765285432338714600e-02
3.695278894156217575e-03
-5.753487348556518555e-03
-5.915579386055469513e-03
-1.474285218864679337e-02
-2.268193289637565613e-02
-2.985341846942901611e-02
-3.785844892263412476e-02
-3.561994805932044983e-02
-3.524596616625785828e-02
-3.100140579044818878e-02
-3.149044886231422424e-02
-3.734289109706878662e-02
-2.251878753304481506e-02
-9.127341210842132568e-03
-4.655756056308746338e-04
3.543108468875288963e-03
3.505995869636535645e-02
3.998162597417831421e-02
3.233608603477478027e-02
3.247902542352676392e-02
3.512221202254295349e-02
3.542971611022949219e-02
4.087292402982711792e-02
4.117942601442337036e-02
3.399813920259475708e-02
1.943142525851726532e-02
2.498135901987552643e-02
1.364436279982328415e-02
-4.770245403051376343e-03
-6.583056878298521042e-03
-1.276368368417024612e-02
-2.315174043178558350e-02
-2.889155410230159760e-02
-2.836109139025211334e-02
-3.321495652198791504e-02
-3.835648298263549805e-02
-3.631691262125968933e-02
-3.024951182305812836e-02
-2.800169028341770172e-02
-4.855963587760925293e-02
-2.622819133102893829e-02
-1.209772005677223206e-02
8.933344855904579163e-03
2.110876701772212982e-02
3.504307568073272705e-02
3.723213076591491699e-02
4.274488985538482666e-02
4.289323464035987854e-02
3.958835452795028687e-02
3.393327444791793823e-02
2.824836596846580505e-02
2.717313915491104126e-02
2.433369867503643036e-02
1.593330688774585724e-02
9.003113023936748505e-03
2.882221248000860214e-03
-1.190996542572975159e-02
-1.561654452234506607e-02
-2.169774658977985382e-02
-2.775355428457260132e-02
-3.229331970214843750e-02
-3.159493580460548401e-02
-3.503598272800445557e-02
-3.454543650150299072e-02
-3.555612638592720032e-02
-3.032045811414718628e-02
-3.505125641822814941e-02
-4.997239261865615845e-02
-2.605915069580078125e-02
-7.324441801756620407e-03
5.412805825471878052e-03
7.075123023241758347e-03
1.153377164155244827e-02
1.861801929771900177e-02
3.114260733127593994e-02
3.810542821884155273e-02
3.004403784871101379e-02
1.325489953160285950e-02
9.547605179250240326e-03
1.560714468359947205e-02
1.553456019610166550e-02
6.385650485754013062e-03
-2.754767425358295441e-03
-7.111045066267251968e-03
-6.106438115239143372e-03
-1.616457290947437286e-02
-1.974554359912872314e-02
-2.699983119964599609e-02
-4.114282503724098206e-02
-3.067265450954437256e-02
-3.499605879187583923e-02
-3.289517015218734741e-02
-3.676075488328933716e-02
-3.475429490208625793e-02
-4.300633445382118225e-02
-4.951393976807594299e-02
-2.093077823519706726e-02
-1.387660298496484756e-02
-1.570380479097366333e-02
-1.732424646615982056e-02
-1.361854746937751770e-02
4.084595944732427597e-03
2.333791553974151611e-02
2.735837548971176147e-02
2.304703183472156525e-02
1.531108375638723373e-02
1.440315973013639450e-02
1.352441124618053436e-02
1.659846678376197815e-02
4.011015407741069794e-03
-7.014349102973937988e-03
-1.123871654272079468e-02
-2.975657815113663673e-03
-1.582339033484458923e-02
-2.552777342498302460e-02
-3.259098902344703674e-02
-4.393357783555984497e-02
-3.030117787420749664e-02
-3.592938929796218872e-02
-3.282351046800613403e-02
-3.490621969103813171e-02
-3.601451218128204346e-02
-4.141062870621681213e-02
-4.083305597305297852e-02
-2.219175733625888824e-02
-2.640702202916145325e-02
-3.991548717021942139e-02
-2.908810600638389587e-02
-1.498739793896675110e-02
4.233777057379484177e-03
2.457544766366481781e-02
2.510683238506317139e-02
1.939051039516925812e-02
1.893542334437370300e-02
9.518811479210853577e-03
1.157516986131668091e-02
7.624867372214794159e-03
-3.958361689001321793e-03
-9.184521622955799103e-03
-1.097361464053392410e-02
-8.674534037709236145e-03
-9.769682772457599640e-03
-1.420767419040203094e-02
-3.664340078830718994e-02
-4.008050635457038879e-02
-2.881173044443130493e-02
-3.604917600750923157e-02
-3.609088808298110962e-02
-3.659427538514137268e-02
-4.218495264649391174e-02
-4.281664639711380005e-02
-3.286400809884071350e-02
-2.967803739011287689e-02
-2.726873382925987244e-02
-3.473928943276405334e-02
-1.849329099059104919e-02
5.715146195143461227e-03
2.498591691255569458e-02
2.565672807395458221e-02
2.940916642546653748e-02
1.629315316677093506e-02
1.569687202572822571e-02
1.580560579895973206e-02
1.437416858971118927e-02
1.329751405864953995e-02
4.460581694729626179e-04
-6.943766027688980103e-03
-4.565979354083538055e-03
-8.645485155284404755e-03
-9.630743414163589478e-03
-2.018454298377037048e-02
-3.310220688581466675e-02
-3.350076079368591309e-02
-2.950547821819782257e-02
-3.760568425059318542e-02
-3.745380789041519165e-02
-3.094686008989810944e-02
-3.646695241332054138e-02
-3.998886421322822571e-02
-3.617206215858459473e-02
-3.458149358630180359e-02
-2.056829631328582764e-02
-2.004915662109851837e-02
6.702795159071683884e-03
2.589320577681064606e-02
2.424359880387783051e-02
2.227919176220893860e-02
1.409334409981966019e-02
6.657137535512447357e-03
1.994234882295131683e-02
1.359919738024473190e-02
1.610267162322998047e-02
8.752088993787765503e-03
-9.304576669819653034e-04
-5.991543177515268326e-03
4.758227150887250900e-04
8.482334669679403305e-05
-7.335652597248554230e-03
-2.266655489802360535e-02
-3.009615838527679443e-02
-2.773217484354972839e-02
-3.012509271502494812e-02
-3.305024653673171997e-02
-3.691405802965164185e-02
-3.848161920905113220e-02
-3.444237262010574341e-02
-3.680060431361198425e-02
-3.919240832328796387e-02
-3.509459644556045532e-02
-2.559490315616130829e-02
-1.224867068231105804e-02
4.822708200663328171e-03
2.735616266727447510e-02
3.173590824007987976e-02
2.016512490808963776e-02
1.482204720377922058e-02
1.244314853101968765e-02
1.319344900548458099e-02
1.632699859328567982e-03
7.698531728237867355e-03
9.590114932507276535e-04
-4.538433626294136047e-03
-1.167925726622343063e-02
-7.636016700416803360e-03
-1.843154802918434143e-02
-1.848223805427551270e-02
-2.398065850138664246e-02
-2.906977012753486633e-02
-2.836429141461849213e-02
-3.439497947692871094e-02
-3.713473677635192871e-02
-3.827270492911338806e-02
-3.572725132107734680e-02
-3.333258256316184998e-02
-3.465802967548370361e-02
-4.458139464259147644e-02
-4.287872835993766785e-02
-4.357232153415679932e-02
-2.664726972579956055e-02
-1.702910661697387695e-02
5.292177200317382812e-03
7.846270687878131866e-03
9.794187732040882111e-03
6.965868175029754639e-03
1.974402926862239838e-03
-2.037619939073920250e-03
-1.306325849145650864e-02
-8.682556450366973877e-03
-1.418917905539274216e-02
-2.134169824421405792e-02
-2.496938779950141907e-02
-2.824796363711357117e-02
-2.709793858230113983e-02
-2.706514671444892883e-02
-2.885767258703708649e-02
-2.595820091664791107e-02
-2.656180597841739655e-02
-3.492047637701034546e-02
-3.445452824234962463e-02
-3.272725641727447510e-02
-3.972724825143814087e-02
-3.485452756285667419e-02
-3.463776037096977234e-02
-3.730222210288047791e-02
-4.448481649160385132e-02
-4.244874790310859680e-02
-3.428468480706214905e-02
-3.224668279290199280e-02
-1.889641769230365753e-02
-2.418139204382896423e-02
-1.625713147222995758e-02
-1.184848789125680923e-02
-1.621638610959053040e-02
-3.185285255312919617e-02
-2.602526545524597168e-02
-2.278092503547668457e-02
-2.493329159915447235e-02
-2.782472036778926849e-02
-2.757346257567405701e-02
-2.948231995105743408e-02
-3.461987525224685669e-02
-3.104981593787670135e-02
-2.691365405917167664e-02
-2.501564472913742065e-02
-3.470264375209808350e-02
-3.831690922379493713e-02
-3.536361455917358398e-02
-3.663634136319160461e-02
-3.718179836869239807e-02
-3.722136467695236206e-02
-3.355256468057632446e-02
-3.564415872097015381e-02
-3.705732151865959167e-02
-4.480314999818801880e-02
-5.172649770975112915e-02
-5.917918309569358826e-02
-4.924190416932106018e-02
-5.289526283740997314e-02
-4.338353127241134644e-02
-4.997862875461578369e-02
-4.922923445701599121e-02
-6.038369610905647278e-02
-5.126358196139335632e-02
-4.704939946532249451e-02
-4.689043015241622925e-02
-4.861159995198249817e-02
-4.770431295037269592e-02
-4.835390672087669373e-02
-3.650293499231338501e-02
-3.162453323602676392e-02
-2.733257040381431580e-02
-3.414721041917800903e-02
-3.415363281965255737e-02
-3.259927034378051758e-02
-3.409089148044586182e-02
-3.445452451705932617e-02
-3.681815788149833679e-02
-3.581816330552101135e-02
-3.809088468551635742e-02
-3.084061108529567719e-02
-3.265164792537689209e-02
-4.290899634361267090e-02
-5.283379182219505310e-02
-5.440599471330642700e-02
-5.784801021218299866e-02
-5.801912769675254822e-02
-5.747161060571670532e-02
-5.178133770823478699e-02
-6.130864098668098450e-02
-6.997354328632354736e-02
-5.824984610080718994e-02
-5.918562412261962891e-02
-6.196144223213195801e-02
-5.817643180489540100e-02
-5.367585644125938416e-02
-4.038351774215698242e-02
-3.527233004570007324e-02
-3.371797502040863037e-02
-3.726200759410858154e-02
-3.593366965651512146e-02
-3.593616932630538940e-02
-3.954543173313140869e-02
-3.527270630002021790e-02
-3.499998152256011963e-02
-3.809088841080665588e-02
-3.654543310403823853e-02
-3.772724792361259460e-02
-3.477323800325393677e-02
-3.721031919121742249e-02
-3.463242575526237488e-02
-3.267910704016685486e-02
-2.821173332631587982e-02
-3.728836029767990112e-02
-4.530863836407661438e-02
-4.567901045083999634e-02
-5.201700329780578613e-02
-5.461236089468002319e-02
-5.603444203734397888e-02
-5.172077193856239319e-02
-4.477211460471153259e-02
-4.471649974584579468e-02
-3.696998581290245056e-02
-3.224809840321540833e-02
-3.392510116100311279e-02
-3.654435649514198303e-02
-3.580318763852119446e-02
-3.742600604891777039e-02
-3.727270290255546570e-02
-3.745452314615249634e-02
-3.554543480277061462e-02
-3.690906986594200134e-02
