-1.259328518062829971e-02
1.359690632671117783e-02
4.977626726031303406e-03
-2.808788418769836426e-02
3.494724165648221970e-03
-1.555842231027781963e-03
3.748889128019072814e-07
1.281567104160785675e-02
-8.288028184324502945e-04
-3.077685832977294922e-03
1.199620077386498451e-03
-1.277910545468330383e-03
-9.272376075387001038e-03
4.080464714206755161e-05
1.988613075809553266e-05
-7.088335603475570679e-02
8.696698932908475399e-05
6.609787988054449670e-07
7.133047329261898994e-04
-3.444248437881469727e-02
1.453192904591560364e-03
2.079877303913235664e-03
7.147910655476152897e-04
3.361667972058057785e-03
6.868847179930526181e-08
2.618015743792057037e-03
3.451439784839749336e-03
1.191436638237064471e-07
2.045590803027153015e-02
7.632842753082513809e-04
-1.205283682793378830e-02
-8.505226112902164459e-03
-1.959126815199851990e-02
9.253430180251598358e-03
1.637815963476896286e-03
-3.776477824430912733e-04
-7.538583129644393921e-03
4.322023130953311920e-03
2.232022779935505241e-05
-3.687036223709583282e-04
1.571960638102609664e-06
-5.865489365532994270e-04
4.257203443103207974e-07
4.523333529959927546e-07
3.043008968234062195e-03
9.752286714501678944e-04
1.899433641483483370e-06
-5.778250843286514282e-02
1.986685581505298615e-02
-8.668870432302355766e-04
4.692526999861001968e-03
-2.271213941276073456e-02
8.585472241975367069e-04
1.034957949741510674e-05
-1.136283576488494873e-02
2.067995723336935043e-03
3.540610196068882942e-03
1.801048777997493744e-02
1.019778778754698578e-06
-1.357721979729831219e-03
4.840060137212276459e-04
1.305939047597348690e-03
7.065911195240914822e-04
-2.272163517773151398e-02
-1.145390700548887253e-02
1.472913136240094900e-04
-1.088700536638498306e-02
1.196145196445286274e-03
-4.649543669074773788e-03
5.235568387433886528e-04
-6.001613568514585495e-03
-6.659638136625289917e-02
-1.865438930690288544e-02
-2.711173438001424074e-04
-2.362120151519775391e-02
4.458445124328136444e-03
2.889784751459956169e-03
-4.279237473383545876e-04
-7.220543920993804932e-03
-1.161740906536579132e-02
4.326120484620332718e-03
-9.544753469526767731e-03
-4.245433490723371506e-03
-4.007201641798019409e-03
5.308135878294706345e-03
-2.090427879011258483e-04
1.665659874561242759e-05
1.388703100383281708e-02
-2.459632046520709991e-02
-2.031203621299937367e-04
5.978848785161972046e-04
-1.905834360513836145e-04
-4.005454480648040771e-03
1.903414812431947212e-07
-3.747893869876861572e-02
-1.883840595837682486e-04
-1.523067010566592216e-03
1.311561791226267815e-04
3.431253135204315186e-02
-1.575549715198576450e-03
7.408901117742061615e-03
5.948008038103580475e-04
-1.641117595136165619e-02
1.270469329028856009e-05
-6.789119448512792587e-03
-9.745305404067039490e-03
2.102667465806007385e-03
4.160641765338368714e-06
-2.997535979375243187e-03
-2.100414410233497620e-02
-7.870346307754516602e-03
4.084616648469818756e-06
-9.818304330110549927e-03
4.865423761657439172e-07
9.957720976672135293e-07
-5.847445572726428509e-04
2.149573390397563344e-07
-1.211632043123245239e-02
5.422412868938408792e-06
2.600873704068362713e-04
-2.679850440472364426e-03
-1.560663338750600815e-03
3.128300188109278679e-03
7.053191773593425751e-03
-5.672902986407279968e-02
2.354749012738466263e-03
9.555140510201454163e-03
-2.532524056732654572e-03
-1.599211245775222778e-02
-6.766473525203764439e-04
5.727526731789112091e-03
-3.704017028212547302e-02
3.971721604466438293e-02
2.116748731850748300e-07
9.331589099019765854e-04
3.189760027453303337e-04
-3.104468993842601776e-02
-3.017199225723743439e-02
-1.341876108199357986e-03
8.449474989902228117e-05
3.810310736298561096e-03
9.270044392906129360e-05
7.226901594549417496e-03
3.589737694710493088e-03
-2.437281981110572815e-02
3.364231702107645106e-07
6.026524677872657776e-02
-1.254584640264511108e-03
-4.098994657397270203e-03
-1.619780622422695160e-02
-1.226338837295770645e-02
-4.543555551208555698e-04
-2.523421077057719231e-03
7.976679131388664246e-03
7.685473246965557337e-05
2.473375201225280762e-02
-6.477525923401117325e-03
2.366429660469293594e-03
-1.728306990116834641e-03
1.643945506657473743e-05
2.528771199285984039e-02
-6.596036721020936966e-03
2.113126101903617382e-04
3.272248723078519106e-04
7.277449185494333506e-07
3.340351162478327751e-03
5.642934702336788177e-04
1.184323988854885101e-02
3.018925599462818354e-05
6.457564234733581543e-02
4.879535936197498813e-06
-3.146526217460632324e-02
-1.127662719227373600e-03
3.354631830006837845e-03
-6.261997856199741364e-03
-4.745325818657875061e-02
1.889034028863534331e-04
3.143633366562426090e-04
1.559997093863785267e-03
2.788957544908043928e-07
-8.628358133137226105e-03
8.994832683129061479e-07
3.408158954698592424e-04
6.615430174861103296e-05
1.617021858692169189e-02
1.572551322169601917e-03
1.084729935973882675e-02
3.928147270926274359e-05
8.265326730906963348e-03
-1.590122133493423462e-01
1.002755016088485718e-04
6.317192310234531760e-05
-8.103205822408199310e-03
1.408135358360596001e-05
8.290121331810951233e-05
1.106167746911523864e-05
4.328695591539144516e-03
4.406498745083808899e-03
-2.550617791712284088e-02
-4.427799140103161335e-04
-1.677917549386620522e-03
6.872397847473621368e-03
-4.113845154643058777e-02
-9.937103837728500366e-03
5.721187221752188634e-07
3.815046278759837151e-03
9.570049121975898743e-03
-1.272378140129148960e-03
-1.138817824539728463e-04
1.355526393354011816e-07
2.542556785556371324e-06
-1.464651245623826981e-02
-7.784791523590683937e-04
9.728496661409735680e-05
-1.114646065980195999e-02
-1.186314388178288937e-03
-4.593286197632551193e-03
2.085230080410838127e-03
-3.990773402620106936e-04
7.602593996125506237e-06
7.359620067290961742e-04
5.023908452130854130e-04
4.911346477456390858e-04
3.122354391962289810e-04
1.162705384194850922e-02
-2.777580730617046356e-02
1.899064809549599886e-04
-5.152915790677070618e-02
-3.554703667759895325e-02
-1.714681158773601055e-03
1.893759239464998245e-03
4.970045294612646103e-03
-1.040666457265615463e-02
-6.013752426952123642e-04
-7.988625206053256989e-03
-1.438645063899457455e-03
-1.711014192551374435e-03
1.253357827663421631e-01
2.546204486861824989e-03
8.657340913487132639e-06
6.051710806787014008e-04
9.209886193275451660e-03
-2.291908301413059235e-02
1.569221541285514832e-02
6.202787062647985294e-06
7.135641761124134064e-03
-2.608777722343802452e-04
3.052069132536416873e-06
-1.997682079672813416e-02
-1.033178158104419708e-02
-8.786305785179138184e-03
-9.529865346848964691e-04
2.045914903283119202e-02
-5.486687878146767616e-04
2.493044361472129822e-02
1.700426917523145676e-03
1.153578632511198521e-03
-1.701628603041172028e-02
-1.169066317379474640e-02
3.134666942059993744e-03
4.764097742736339569e-03
-9.125628857873380184e-04
4.081157840118976310e-06
-2.552559599280357361e-04
8.091239258646965027e-03
2.788098715245723724e-02
-4.392860457301139832e-03
7.179705891758203506e-03
-1.242629718035459518e-02
-5.728694377467036247e-04
4.646787488127301913e-07
1.878462535387370735e-05
5.507132969796657562e-03
2.894287653987248632e-08
1.876672861556016869e-08
6.370151822920888662e-05
-1.258927863091230392e-02
-2.425734512507915497e-02
1.066854805685579777e-03
-2.355937100946903229e-02
7.943511093344568508e-08
-7.201374508440494537e-03
1.914056576788425446e-02
4.539309156825765967e-05
5.920335184782743454e-03
-2.414881251752376556e-02
2.333707874640822411e-03
1.895629428327083588e-02
3.549595421645790339e-04
5.328395869582891464e-03
-1.921045221388339996e-02
1.932702616613823920e-05
-2.888045832514762878e-02
1.983102556550875306e-04
1.592257613083347678e-04
-1.402127556502819061e-02
-8.328778669238090515e-03
-2.942234277725219727e-02
-1.853754185140132904e-02
2.101807296276092529e-02
-1.861650124192237854e-02
8.153422822942957282e-05
1.277304291725158691e-01
1.594629883766174316e-02
2.114751935005187988e-02
-1.712843186396639794e-05
1.070306552719557658e-05
-3.550931811332702637e-03
-2.839724998921155930e-03
-4.463548585772514343e-02
4.014763107988983393e-04
9.988445788621902466e-03
4.391719121485948563e-04
8.207160979509353638e-02
-2.131722681224346161e-02
-3.634955734014511108e-02
3.491975134238600731e-03
-7.768698196741752326e-06
-2.016155794262886047e-02
-1.348991971462965012e-02
1.356943976134061813e-04
2.466525649651885033e-03
-1.500358805060386658e-03
7.734114769846200943e-03
-7.180303335189819336e-03
-8.282530470751225948e-04
2.824653347488492727e-04
2.411060966551303864e-02
-5.109034245833754539e-04
4.093890264630317688e-02
1.201325133442878723e-01
-7.012098096311092377e-03
1.675269566476345062e-03
1.315485746999911498e-07
6.988322129473090172e-04
-1.256500557065010071e-02
2.326008304953575134e-02
1.535004936158657074e-02
6.991816684603691101e-03
-3.714643826242536306e-04
7.177271763794124126e-04
-5.366708710789680481e-02
1.317760092206299305e-03
1.661776332184672356e-05
-8.081206033239141107e-05
-2.019720524549484253e-02
-1.930936559801921248e-04
4.348053596913814545e-03
8.996619144454598427e-04
2.805734751746058464e-03
7.964015007019042969e-03
-8.556135930120944977e-03
3.548601642251014709e-02
-5.049752653576433659e-04
6.183043005876243114e-04
1.110809072852134705e-01
-2.812030538916587830e-02
-1.963239046745002270e-04
-1.831781864166259766e-02
7.236525416374206543e-04
2.692545298486948013e-03
-2.562377043068408966e-02
-4.447037354111671448e-03
3.880065307021141052e-02
-1.232988759875297546e-02
-5.331913474947214127e-03
-1.822664402425289154e-02
-6.209335988387465477e-04
7.500010542571544647e-05
-1.009543077088892460e-03
1.459677332604769617e-05
-1.189861912280321121e-03
-2.325125038623809814e-02
-1.847721450030803680e-02
-2.626011334359645844e-02
1.078628656614455394e-06
-1.607167534530162811e-02
1.503295730799436569e-02
-4.998904466629028320e-02
-1.820275746285915375e-02
-9.402720257639884949e-03
7.368170190602540970e-04
-1.113974861800670624e-02
1.105474802898243070e-04
-4.759804159402847290e-02
-2.905125438701361418e-04
8.128555491566658020e-03
-1.666085328906774521e-03
4.019971005618572235e-03
1.116080768406391144e-02
-5.520068807527422905e-04
2.207767010986572132e-06
7.931115105748176575e-03
-5.271629244089126587e-02
-7.501623034477233887e-02
1.007739920169115067e-02
1.188012220154632814e-06
-1.184015534818172455e-03
7.670806953683495522e-04
-3.323151730000972748e-03
