-3.497386351227760315e-02
-3.526708111166954041e-02
-3.555389493703842163e-02
-5.548070743680000305e-02
-2.701717428863048553e-02
-4.151929914951324463e-02
-3.846012800931930542e-02
-4.940083995461463928e-02
-2.460861392319202423e-02
6.502195447683334351e-02
-3.174618631601333618e-02
-1.829710230231285095e-02
-5.225577950477600098e-02
-2.717722579836845398e-02
-2.416719123721122742e-02
-4.353886470198631287e-02
-5.470434576272964478e-02
-2.802971750497817993e-02
-3.130998089909553528e-02
-3.899515792727470398e-02
-3.016370907425880432e-02
-3.764584288001060486e-02
6.448531895875930786e-02
-3.791244328022003174e-02
-4.127293452620506287e-02
-6.073684617877006531e-02
-2.325009368360042572e-02
-3.692187368869781494e-02
7.897087186574935913e-02
-2.941389381885528564e-02
-6.319872289896011353e-02
-2.630092017352581024e-02
-3.357635065913200378e-02
-1.438573934137821198e-02
7.916688174009323120e-02
-5.754985660314559937e-02
8.693711459636688232e-02
5.976965278387069702e-02
-3.100039064884185791e-02
8.020617812871932983e-02
8.824121952056884766e-02
8.231435716152191162e-02
-4.184699431061744690e-02
-2.880834788084030151e-02
-5.605798587203025818e-02
-6.779042631387710571e-02
-1.932863891124725342e-02
-5.338930338621139526e-02
7.321987301111221313e-02
-4.026997089385986328e-02
-2.383233606815338135e-02
-5.747195705771446228e-02
1.519944984465837479e-02
7.544293999671936035e-02
-2.636475488543510437e-02
-6.340987235307693481e-02
-2.622357197105884552e-02
4.854865744709968567e-02
5.990260839462280273e-02
-2.504164166748523712e-02
1.005459129810333252e-01
-3.800071775913238525e-02
-2.872207015752792358e-02
-4.984655231237411499e-02
-4.842564463615417480e-02
-3.839755803346633911e-02
-4.568629339337348938e-02
-3.011868707835674286e-02
-4.552366957068443298e-02
6.507303565740585327e-02
-2.646432444453239441e-02
-2.862138487398624420e-02
-3.040118515491485596e-02
8.224525302648544312e-02
-4.795579612255096436e-02
-3.823326155543327332e-02
8.051785826683044434e-02
4.983715340495109558e-02
7.466820068657398224e-03
-5.061387270689010620e-02
-2.923983149230480194e-03
-4.920557886362075806e-02
-3.201126679778099060e-02
-3.537266328930854797e-02
-3.029031492769718170e-02
-3.199264779686927795e-02
6.840132921934127808e-02
-3.941318020224571228e-02
-9.034917503595352173e-02
-5.656489357352256775e-02
7.270717620849609375e-02
-3.595985844731330872e-02
-4.676884785294532776e-02
-1.037593372166156769e-02
-2.764704823493957520e-02
-1.946324855089187622e-02
-2.169218100607395172e-02
-5.609587207436561584e-02
-5.979838967323303223e-02
-2.773995138704776764e-02
