-1.825137909860094498e-02
-2.789987636558356049e-02
-1.001329949449225772e-02
3.756944436647807056e-02
-1.104549255204025082e-02
-1.413346564292273025e-02
-4.189942406101564805e-04
1.691729940490512007e-02
2.454125405412162925e-02
-3.544927405291763926e-03
8.320986092113616048e-03
4.043953351549927277e-04
1.287884140159009996e-02
2.767401960790053655e-02
2.738215371231259715e-02
5.658765010274365188e-03
-3.491220761460332028e-03
-2.834129095247555838e-02
2.225592169301529588e-02
-1.769795702017556288e-02
-2.049222596282669617e-02
-3.516264977617550996e-02
2.365827976309570549e-02
-2.651256436166944327e-02
-1.545240748032675540e-02
-1.630479207153476620e-02
3.568701549608759016e-02
-1.079082577535082910e-02
2.509685696513692943e-02
-3.640351024660765794e-02
-3.641033970434607442e-02
1.837180680688548645e-02
-2.613353506083470126e-02
-3.056477600213725878e-04
-2.482625774459159759e-02
-2.633162978915147556e-02
1.551094145526516616e-02
2.723926986587268603e-02
3.208987129494701718e-02
1.024547835852633766e-02
1.831827329526096795e-02
-3.522685569468773925e-02
-1.714792465632306376e-02
-2.799861997850205605e-02
-4.031530675669504904e-02
1.894569516027828351e-03
-3.935344934667369537e-02
-1.334197750859776425e-02
2.578649723561154614e-02
1.467118495023278860e-02
7.492970502397455074e-03
-8.741483936438782833e-04
-3.577254383418117939e-02
-2.232730237649733010e-02
1.088460225122470787e-02
2.897044545366183818e-02
2.757819166452479126e-02
-1.048301472769612788e-02
1.920622836244666523e-02
-2.894884686060443871e-02
-2.308731637428582117e-02
-2.048671784881025623e-02
2.904206510143925168e-02
-3.301803047405781760e-02
1.629519371386948731e-02
2.777741275230981299e-02
3.752257200766011269e-02
1.968138684061953095e-02
2.932684230263769842e-02
2.442125392439703155e-02
-2.734613819752529026e-02
8.647489937707086849e-03
-1.344998973660239917e-03
2.273132275691265233e-02
-3.061053950989367500e-02
-1.356053929146770060e-02
2.386351383100928508e-02
-2.287756177817604555e-03
-1.839437402072309838e-02
1.493870402380405478e-02
3.070999137300308920e-02
3.269263745394367787e-02
2.822266912962556953e-02
3.253491907377942943e-02
-2.429421217972110511e-02
-1.604499257891688763e-02
1.163227514213025469e-02
-2.048398596142647632e-02
-2.287059620991898842e-02
1.174338632593004833e-02
-2.271224892215556717e-03
2.920820625329913559e-02
2.376096880976004411e-02
-2.938583303770972086e-02
3.436196380999730071e-02
1.379887206034239276e-02
-1.114146366205428715e-02
-1.517075164003402199e-02
3.277373104243996860e-02
-2.468374551211779261e-02
-2.409162683578272221e-02
-3.111429983184772069e-02
7.104642462098176119e-03
2.134514662406441707e-02
-2.647235515379421297e-02
-1.668230917155471074e-02
2.523249161114221248e-02
-4.433809964791932123e-02
-1.635316667801802945e-02
-1.360537673791542557e-02
-2.771278501138122602e-02
-1.836514515059989652e-02
2.390379866440995454e-02
1.733631175479130940e-02
3.210086693569261934e-02
8.295616564423544809e-03
-2.090317578622481048e-03
-2.849571855222161887e-02
1.455020441627287789e-02
4.278348438613836097e-02
-1.227438223385795071e-02
-2.517695168787181109e-02
2.401552812708643292e-02
-1.959467583435613863e-02
3.432648372224601091e-02
6.051007503897309903e-03
3.268039082462614181e-02
1.848075301593866612e-02
1.532489630021202295e-02
-2.559113899054269933e-02
-3.405818187151655324e-02
5.435171899836800484e-03
-1.033329215070086411e-02
-1.742100859669035509e-02
1.854296056025325420e-02
-1.944004869407075023e-02
-8.638024230502184403e-03
7.883658141759957924e-03
-1.086066824541912293e-02
-1.867255864959899668e-03
-2.090442339071255096e-02
-1.436765660248496071e-02
-1.421269605379681805e-02
-2.676688977584037663e-02
-3.255354810337453275e-02
2.562226446015015285e-02
8.111668469045628556e-04
1.469577287491837143e-02
-3.393639730536443522e-02
3.020875133683674496e-02
2.138419937373959787e-02
2.566215509260108552e-02
-3.654570841034367190e-02
1.548891099631432948e-02
-5.534518463381597406e-03
-3.014556348340556580e-02
1.329716297043465924e-02
-3.384274743682542247e-02
-1.569562085131939386e-02
2.616391762972462842e-02
-3.287471565815247576e-02
3.420274067117900357e-02
-3.503555297384447140e-03
2.978763165759786349e-02
-2.393546644521553357e-02
3.301344648087903982e-02
-1.247574804237093493e-02
-2.754035830222419795e-02
3.796106161303884619e-02
-1.178402508738357612e-02
3.855255615069734521e-02
1.626638720493258847e-02
8.481840665456596984e-03
-1.037595246624591072e-02
2.944798231698650057e-02
-1.896754131944564450e-02
-2.639000403381297835e-02
-1.095825137416738676e-02
-2.747918846284408759e-02
3.601957862687434064e-02
-3.559896200448599887e-04
3.717135850690358317e-02
3.736187491566074492e-02
2.436484893587138531e-02
-3.452290052157962197e-02
-3.149529862987473366e-02
-4.151842017073976120e-03
3.432368643235232664e-02
-3.545866220330905899e-02
-1.415211346951837472e-02
-3.320866255950587209e-02
3.031710311898909091e-02
-7.580114295474520278e-04
1.824947751365661036e-03
2.935427768170750795e-02
4.226372530300705199e-03
2.093993081523756392e-02
1.324679531595956451e-02
-8.440558569923036630e-03
1.353837504207290078e-02
-2.017840710642671356e-02
2.782179727061681943e-02
-1.547191625499267330e-02
2.547472328873033945e-02
-2.073384501206367372e-02
1.597077149875228419e-02
-2.706563724050231948e-02
2.241622994373029462e-02
1.843974741250585872e-02
4.090297385920945057e-03
-2.648770209744661860e-02
-2.833655873923026508e-02
-2.516787946740081314e-02
-2.129184000321460157e-02
3.600534228363638095e-02
1.792953344621153397e-02
2.047960778090649955e-02
1.378549152304871239e-02
3.090045406718845006e-02
2.541480322424409868e-02
2.084140989839883620e-02
-1.232999349353571319e-02
-3.967510241156335660e-02
-9.339834630898503562e-03
2.688855680317912139e-02
1.788064056659425388e-02
-2.796150982201088889e-02
-3.546143666219251506e-04
-1.919895268072127625e-02
-8.999221305713400731e-03
2.407365356898042916e-02
-2.845730735733722691e-02
-1.552946373039616398e-02
5.676637005789610980e-03
-5.469590065496928930e-03
-3.600955705828948195e-02
3.472517224016865439e-02
-4.266252144514249417e-03
2.007455853046951136e-02
-3.254155545022478085e-02
-1.301118868720597607e-02
1.993504376484061050e-02
2.917648249200446506e-02
2.683057159470856115e-02
1.944401517405951879e-02
-3.652974925751913821e-02
1.457195488210179420e-03
1.705848653799588860e-02
-6.586729406858754521e-03
4.433933897361832556e-03
2.114894191106842999e-02
-2.719891464414344803e-02
2.593375008068683069e-02
-2.912273465485929261e-02
-1.449189070337430010e-02
2.428625541023259060e-02
1.855783692881138661e-02
2.218141737138885558e-02
2.940987924721839494e-02
-2.174243864188524222e-02
-3.849844932366876943e-02
-2.206179033485496446e-02
2.565136759901830155e-02
-2.345764010527920038e-02
2.960642728504494017e-02
1.697359767004662928e-02
3.090023800306648978e-03
1.764339925894786157e-03
1.558390743080342346e-02
2.615730211314620107e-02
-3.180106782479727445e-02
3.784557369832949186e-02
-4.557065304573250202e-03
1.889140756898108689e-02
-1.679188755903152086e-02
3.571959622244454818e-02
3.512147054377564442e-02
1.188707879662815811e-02
1.980219761668944312e-02
2.520616133406340317e-02
-2.161494882049794231e-02
-3.557034113679472670e-02
-4.182336038398493799e-02
-6.576731864400740812e-03
-7.087215560819161084e-03
-1.554764762917289211e-02
3.670119437198352680e-02
1.177096703530946219e-02
3.084966413489845238e-02
7.387533881882192219e-03
-1.481751699853419736e-02
-2.889535069132174658e-02
2.802037065548617159e-02
-3.597957064705870067e-02
-6.786738857148937390e-03
-2.761222165615215274e-02
2.880447121013063674e-02
-1.610646350672731431e-02
-2.365644283922397825e-02
3.092977655362358705e-02
1.636321747595998258e-02
-2.408720754702597597e-02
7.036214708547258029e-03
-1.477214819505470386e-02
2.728674350050759242e-02
2.928531938763135820e-02
2.507661187368013730e-02
-1.835152337693578273e-02
3.612289173610718634e-02
3.317902681035954371e-02
7.584334973592827753e-03
2.218457778283695805e-03
4.324645918942704274e-03
5.334246072313357512e-03
2.652438296086890440e-02
-1.665369920083381236e-02
-2.565616282251882360e-02
1.561593218175211586e-02
3.475039839160648514e-02
-2.892139269782691841e-02
2.840857264339872665e-02
3.061534548339639103e-02
-7.608003695909402488e-03
-1.932831765184473555e-02
2.180087108709834534e-02
-2.776112816336378381e-02
-2.162834273629520715e-02
1.730255362886361226e-02
1.773371647212936345e-02
1.173355222095692481e-04
-8.002129906193354916e-03
1.718120496501892788e-02
2.498466099549411998e-02
-3.074023265393108044e-04
8.179158348942111925e-03
2.679678232778390928e-02
4.305977393818944537e-02
-2.301668393880822866e-02
3.543294530582812712e-02
2.800148599283874828e-02
1.453659560443668411e-02
3.354542677519330857e-02
3.449321448875912466e-02
-2.966281038123486785e-02
-1.031821520370490748e-02
-3.717345672283084435e-02
2.278526375520262270e-02
-1.408966482403730888e-03
-2.903757438011089070e-02
-3.892937240969288060e-02
1.874319919630288225e-02
3.192052936054182860e-02
1.435122958023369102e-02
-2.416370902896209857e-02
2.647050218863777546e-02
-2.722034218545900039e-02
2.791568927785844853e-02
-1.675364855458110966e-02
9.588772008158495327e-03
2.464562703810870004e-02
-2.083474022126647479e-02
-2.899943855743592619e-02
-1.986067546329215588e-02
4.583556112448226860e-03
1.228953059184636175e-02
-2.523441476498469033e-02
2.411623668506245044e-02
-5.059889181330491995e-03
1.948444138699321690e-02
3.917009811376945955e-02
3.526406130624278740e-02
3.950899708538622990e-02
1.697084661213896922e-02
3.463877793930963955e-02
-3.476914884355138124e-02
-1.959024553994968137e-02
2.930588497824936252e-03
3.709471495113576128e-02
2.219711268990438857e-02
-6.015179778366875132e-03
-7.198680058227950943e-03
-3.399097849272758598e-02
-1.778456422039320292e-02
3.817609748825908506e-02
-3.545897320838308636e-02
1.139300747765058762e-02
2.816709831183543747e-02
1.707616553537229589e-02
3.063781625687644547e-02
6.785959500296012345e-03
-4.897347856951617985e-03
2.433663072206584607e-02
2.149438386514832336e-02
-2.900433694607166060e-02
-6.132492513724548816e-03
2.519632947957997290e-02
-2.754780340256083454e-02
1.674614845414278824e-02
2.882646440490706230e-02
-2.244410806444580020e-02
3.073057923568597513e-02
-1.631992128340931450e-02
-1.875883447494572365e-02
-3.315412119648007000e-02
1.854527015570778953e-02
-2.716577333403482133e-02
-1.107458418615271493e-02
-1.672348641333983726e-02
2.811082714394350091e-02
-3.037267210605813436e-02
-2.243635539506590171e-02
2.131188828961911447e-02
2.642205951929400484e-02
3.494449405603681363e-02
2.118435380873442617e-02
3.220313709899987747e-02
-2.871966406929660209e-02
3.340307621348641287e-02
-2.746684188622778786e-02
-1.840979634832665135e-02
1.066857644863726876e-02
8.222740626113812790e-03
-1.465419373681865062e-02
-1.900750845038238004e-02
-7.884439850145655293e-03
3.331552261108922108e-02
-3.207093389315282539e-03
-4.364996005125167111e-02
-6.874843029525621804e-03
2.083332514208892025e-02
2.934237794670275720e-02
2.286020953570137501e-02
-2.670840994247906247e-02
-4.204656469498608586e-03
-3.231631841102441949e-02
1.938261149554110566e-02
2.155113649131663173e-02
-1.446904236250669100e-02
-6.738536712384943402e-03
2.286855064787271519e-02
3.206222439045693789e-02
-1.264255632137639696e-03
-4.016105932497189557e-03
-2.166470478149957329e-02
3.264840664324156205e-02
2.616866403907096988e-02
5.723065377064802395e-03
2.400381427972032508e-02
3.367932348872618858e-02
-2.620836022676557159e-02
2.693539730971313342e-02
1.835194955823836113e-02
2.243779975859006709e-02
-2.817628660769215532e-02
3.825494426605454551e-03
2.811131341186151600e-02
2.949746929729459705e-03
2.598457775977300321e-02
-2.531771673610071216e-02
-3.012951613463336203e-02
-1.836977008316494769e-02
-1.237198138162881079e-02
3.803753895525420481e-02
2.165130178670721453e-02
-2.578592015808694321e-02
3.193249815262892005e-02
-3.677411800439864351e-03
3.575575084543860388e-02
3.036319209901090083e-02
-3.502362227584954191e-02
-8.529701022688183573e-03
2.893248769543193405e-02
5.603711456357535897e-03
3.940726506913599242e-02
-3.037568104792061699e-02
-2.463545847119913076e-02
2.827486086915823038e-02
1.026372350621176238e-02
2.741763851489886078e-02
3.404154742210221962e-02
1.662267945889418785e-02
2.021834497840009973e-02
-2.560556549100555940e-02
-3.051538655109561557e-02
3.160793097024718057e-02
1.368040068606695553e-02
-3.384429461949731849e-02
2.269421063230222385e-02
-3.328465087057898286e-02
1.589839944028996477e-02
-1.709437305890328107e-02
2.871715523613751347e-02
1.342613329084271431e-02
-1.874200572682120994e-02
1.622604709054126931e-02
-3.059004602230103176e-02
-4.075099974541025738e-02
2.347570023742816259e-02
-1.150947730706358696e-02
1.840489841269353152e-02
