1.743753403425216675e-01
4.936261177062988281e-01
8.976966142654418945e-01
1.546904563903808594e+00
1.707310795783996582e+00
1.921782255172729492e+00
-1.938220262527465820e-01
1.083375453948974609e+00
4.159092009067535400e-01
2.302343368530273438e+00
-1.867284476757049561e-01
1.544245362281799316e+00
7.284061312675476074e-01
4.142397642135620117e-01
1.514120936393737793e+00
3.352949917316436768e-01
7.646363973617553711e-01
3.586700439453125000e+00
-1.094733238220214844e+00
-1.007006168365478516e+00
-8.370384573936462402e-02
-1.475448846817016602e+00
-6.766889691352844238e-01
4.833879947662353516e+00
1.598656296730041504e+00
-2.615295171737670898e+00
-9.195128083229064941e-02
-4.767951667308807373e-01
1.387417197227478027e+00
7.947378754615783691e-01
-1.797005236148834229e-01
1.043620586395263672e+00
6.175771355628967285e-01
2.828203916549682617e+00
-3.012531757354736328e+00
2.972495079040527344e+00
8.006988167762756348e-01
-3.213981399312615395e-04
-1.545133709907531738e+00
1.311328887939453125e+00
-1.974220633506774902e+00
-3.408973515033721924e-01
-5.792010426521301270e-01
1.616325527429580688e-01
6.031180024147033691e-01
-1.719454169273376465e+00
-8.527188301086425781e+00
-1.345824599266052246e+00
2.787028074264526367e+00
6.878460645675659180e-01
1.226036846637725830e-01
3.323807954788208008e+00
6.360167860984802246e-01
1.101743698120117188e+00
-4.791526794433593750e-01
-1.763925433158874512e+00
8.630049824714660645e-01
1.897529959678649902e+00
1.491978764533996582e-01
3.884714603424072266e+00
8.350670337677001953e-01
1.663361489772796631e-01
3.733618259429931641e-01
1.168305128812789917e-01
-6.941749453544616699e-01
5.639678835868835449e-01
-5.898579955101013184e-01
8.230856657028198242e-01
-2.396785974502563477e+00
1.773801326751708984e+00
-2.368215769529342651e-01
-1.258627653121948242e+00
2.872554302215576172e+00
-2.058926075696945190e-01
-3.611377179622650146e-01
1.300998926162719727e-01
-3.456951379776000977e-01
2.188296794891357422e+00
1.287253618240356445e+00
-7.582716643810272217e-02
-3.828713893890380859e+00
-3.695547878742218018e-01
4.708704352378845215e-01
-3.022082567214965820e+00
-1.273476123809814453e+00
-1.092703580856323242e+00
1.020334243774414062e+00
6.864552497863769531e-01
3.374243736267089844e+00
6.667332649230957031e-01
-2.673807144165039062e+00
-3.988256454467773438e-01
1.084781885147094727e+00
1.916736066341400146e-01
-1.125681757926940918e+00
-5.057778954505920410e-01
1.475311368703842163e-01
9.755075573921203613e-01
4.752792716026306152e-01
2.500174522399902344e+00
3.666013777256011963e-01
-3.282147943973541260e-01
3.958917260169982910e-01
8.304583430290222168e-01
-3.267130374908447266e+00
3.209819197654724121e-01
1.404613494873046875e+00
-4.656926393508911133e-01
-1.656822443008422852e+00
-6.992805480957031250e+00
-1.419785171747207642e-01
2.883382439613342285e-01
6.769221305847167969e+00
-2.806817591190338135e-01
-1.377072334289550781e-01
-4.500006139278411865e-01
-1.894454360008239746e+00
1.004048705101013184e+00
3.751325368881225586e+00
-1.429560035467147827e-01
-1.366569697856903076e-01
6.565199792385101318e-02
-3.803830862045288086e+00
-2.603432178497314453e+00
-8.567939400672912598e-01
-3.563319444656372070e-01
2.803168058395385742e+00
-1.237515926361083984e+00
3.273202419281005859e+00
4.721614360809326172e+00
4.070952236652374268e-01
4.384247303009033203e+00
-5.197804421186447144e-04
1.510104370117187500e+01
7.571343332529067993e-02
1.655885934829711914e+00
-5.380054116249084473e-01
1.152594327926635742e+00
-6.532779693603515625e+00
-1.875162005424499512e+00
2.180966138839721680e+00
1.135258316993713379e+00
9.392282485961914062e+00
-9.241601228713989258e-01
2.941137254238128662e-01
-5.408726334571838379e-01
1.154701828956604004e+00
3.802714943885803223e-01
1.451093912124633789e+00
-4.491382539272308350e-01
-6.825211644172668457e-01
-2.824299097061157227e+00
2.365007251501083374e-01
5.043370276689529419e-02
-1.639377236366271973e+00
-2.060479402542114258e+00
-3.539360284805297852e+00
1.092653870582580566e+00
-1.425930857658386230e+00
4.924262166023254395e-01
4.036146998405456543e-01
3.393268287181854248e-01
-1.774500012397766113e+00
2.758259057998657227e+00
-1.548105359077453613e+00
2.990947484970092773e+00
-1.028472661972045898e+00
-4.627658054232597351e-03
1.185413599014282227e+00
5.484017729759216309e-01
2.007796987891197205e-02
8.637068271636962891e-01
1.252955079078674316e+00
2.614282608032226562e+00
8.975230455398559570e-01
-1.393668174743652344e+00
-1.760404855012893677e-01
1.087166404724121094e+01
-1.493319422006607056e-01
-2.695020198822021484e+00
-1.286216378211975098e+00
4.292039394378662109e+00
3.509052097797393799e-01
-1.861615896224975586e+00
9.186362475156784058e-02
-6.989420652389526367e-01
-2.636558413505554199e-01
1.020459651947021484e+00
2.406195163726806641e+00
1.882960051298141479e-01
3.435322761535644531e+00
8.272172808647155762e-01
1.811866760253906250e+00
4.176396131515502930e-02
-4.423213899135589600e-01
-2.849142074584960938e+00
6.301505565643310547e-01
1.297969222068786621e+00
1.484774708747863770e+00
1.463435769081115723e+00
-9.182158857583999634e-02
-1.576804071664810181e-01
-1.572220563888549805e+00
1.239569664001464844e+00
2.615559577941894531e+00
-2.775731384754180908e-01
6.959909439086914062e+00
-3.244311213493347168e-01
-1.581448793411254883e+00
2.186090230941772461e+00
1.095137357711791992e+00
1.089064240455627441e+00
-3.519670963287353516e-01
-2.584224641323089600e-01
7.599855661392211914e-01
2.058541536331176758e+00
3.586829900741577148e-01
-7.192972302436828613e-01
1.080585479736328125e+00
-1.460398733615875244e-01
-7.207029461860656738e-01
-3.855494260787963867e+00
1.520381212234497070e+00
-5.747042298316955566e-01
3.800879120826721191e-01
2.227533578872680664e+00
1.925044655799865723e+00
2.985700845718383789e+00
-1.555793404579162598e+00
1.614184737205505371e+00
-3.353019654750823975e-01
2.446400165557861328e+00
-1.418032497167587280e-01
3.380700588226318359e+00
-1.852566599845886230e-01
6.546347141265869141e-01
7.733018398284912109e-01
9.109076112508773804e-02
-1.427078843116760254e-01
1.630511403083801270e+00
7.154670357704162598e-01
6.677072644233703613e-01
4.641758918762207031e+00
-5.143456459045410156e-01
-4.670044779777526855e-01
5.257460117340087891e+00
-3.656530678272247314e-01
3.121819734573364258e+00
-2.396019220352172852e+00
4.556142985820770264e-01
7.139590382575988770e-01
9.732590913772583008e-01
3.888047337532043457e-01
-8.911504149436950684e-01
2.318174540996551514e-01
3.054490387439727783e-01
5.729274153709411621e-01
6.882784962654113770e-01
-3.074294328689575195e-01
1.039015173912048340e+00
3.219544172286987305e+00
2.457072019577026367e+00
-1.381391048431396484e+00
2.352745056152343750e+00
-1.104513645172119141e+01
1.286862850189208984e+00
1.808663010597229004e+00
-2.701380848884582520e-01
1.437964439392089844e+00
-3.924340009689331055e-02
9.863685369491577148e-01
-9.840907156467437744e-02
4.769427180290222168e-01
1.074804425239562988e+00
-1.448577493429183960e-01
9.648504257202148438e-01
1.586231589317321777e+00
1.744548231363296509e-02
-5.812453031539916992e-01
3.263604640960693359e+00
6.083980202674865723e-01
-1.344063878059387207e+00
4.125953018665313721e-01
3.884222745895385742e+00
-1.855168342590332031e-01
-1.392358183860778809e+00
7.126871347427368164e-01
-2.944731712341308594e-01
-3.800381422042846680e+00
6.712976098060607910e-01
-2.253414392471313477e+00
1.687180757522583008e+00
5.894176363945007324e-01
-2.378526926040649414e-01
1.074068427085876465e+00
8.539823815226554871e-03
2.355571746826171875e+00
1.552719235420227051e+00
-4.095919430255889893e-01
4.057147979736328125e+00
-5.736463069915771484e-01
1.049035117030143738e-01
1.233327746391296387e+00
-5.024858474731445312e+00
-3.899313807487487793e-01
6.001535058021545410e-01
2.084886074066162109e+00
2.225911140441894531e+00
6.434795260429382324e-01
-6.155968308448791504e-01
-1.932972818613052368e-01
1.304982662200927734e+00
1.225976109504699707e+00
9.051045775413513184e-01
2.602590560913085938e+00
1.179702997207641602e+00
-7.089272141456604004e-02
2.826520502567291260e-01
-3.895188331604003906e+00
1.043803468346595764e-01
-3.061303496360778809e-02
3.447268009185791016e-01
2.683770060539245605e-01
2.286838531494140625e+00
4.002829551696777344e+00
5.451661109924316406e+00
1.259453535079956055e+00
-3.731796979904174805e+00
1.839526295661926270e-01
-3.563914448022842407e-02
2.809667289257049561e-01
5.762269496917724609e-01
8.418722152709960938e-01
7.434055209159851074e-01
-1.022422671318054199e+00
4.977200627326965332e-01
-2.769604623317718506e-01
3.828809261322021484e-01
1.276929259300231934e+00
1.439615726470947266e+00
3.352552652359008789e-01
-5.835915207862854004e-01
7.126768231391906738e-01
9.496557116508483887e-01
1.672556847333908081e-01
8.121644854545593262e-01
2.048532009124755859e+00
1.257675170898437500e+00
1.656675934791564941e+00
-9.706419706344604492e-01
4.527926921844482422e+00
-2.697890400886535645e-01
1.066598510742187500e+01
4.790467321872711182e-01
8.728732168674468994e-02
3.969147920608520508e+00
1.552878618240356445e+00
8.312404900789260864e-02
2.666387259960174561e-01
7.984230518341064453e-01
7.739301919937133789e-01
3.112210892140865326e-02
-3.757075667381286621e-01
-6.595384329557418823e-02
1.057292699813842773e+00
6.371843069791793823e-02
4.982497096061706543e-01
2.817403078079223633e-01
1.711305022239685059e+00
3.501383364200592041e-01
1.649054884910583496e-01
9.691140055656433105e-01
8.178877234458923340e-01
-2.952409982681274414e-01
7.894470095634460449e-01
-1.103623151779174805e+00
-1.953332543373107910e+00
-2.597717344760894775e-01
6.655445694923400879e-01
-5.898717045783996582e-01
4.560984611511230469e+00
-7.648851275444030762e-01
1.315468311309814453e+00
1.021031379699707031e+00
1.611652255058288574e+00
-8.112035691738128662e-02
1.666037440299987793e-01
5.855796933174133301e-01
1.617287248373031616e-01
1.955140352249145508e+00
1.974561452865600586e+00
3.623675704002380371e-01
2.288741588592529297e+00
1.436058759689331055e+00
1.958429574966430664e+00
1.328163743019104004e-01
2.779748439788818359e+00
2.380738496780395508e+00
8.799481391906738281e-01
5.300629734992980957e-01
1.375419616699218750e+00
-3.014307022094726562e-01
-2.991998195648193359e-01
6.630518436431884766e-01
7.724813818931579590e-01
-2.394425868988037109e+00
8.043951392173767090e-01
-3.477719724178314209e-01
9.350100755691528320e-01
-6.888681888580322266e+00
2.343859910964965820e+00
-2.825678884983062744e-01
3.714106082916259766e-01
-3.697791993618011475e-01
1.921507418155670166e-01
2.765906572341918945e+00
1.079804778099060059e+00
4.906594455242156982e-01
5.922764539718627930e-01
-4.977596282958984375e+00
3.823889493942260742e-01
5.537430644035339355e-01
3.963212296366691589e-02
5.390560030937194824e-01
7.309922575950622559e-01
9.790384173393249512e-01
3.361383378505706787e-01
1.425942063331604004e+00
2.195010900497436523e+00
9.754046797752380371e-01
1.497417330741882324e+00
4.193571805953979492e-01
1.404510021209716797e+00
1.140095114707946777e+00
4.259755611419677734e-01
1.901293635368347168e+00
5.829752683639526367e-01
2.639230966567993164e+00
3.269137442111968994e-01
6.162925362586975098e-01
7.960571646690368652e-01
1.414345264434814453e+00
4.720328152179718018e-01
1.410084247589111328e+00
2.534656822681427002e-01
1.727149248123168945e+00
3.159666359424591064e-01
2.208723127841949463e-02
-2.392424821853637695e+00
1.736016273498535156e-01
6.058644652366638184e-01
-6.901941448450088501e-02
1.738974571228027344e+00
2.351896613836288452e-01
2.321960687637329102e+00
5.011849999427795410e-01
6.394491195678710938e-01
2.674431562423706055e+00
-2.163267374038696289e+00
3.501826524734497070e+00
6.335209608078002930e-01
2.639283180236816406e+00
6.833326816558837891e-02
-7.101933658123016357e-02
5.168551206588745117e-01
1.434279441833496094e+00
6.687628626823425293e-01
3.988307476043701172e+00
6.833901405334472656e-01
-5.708522200584411621e-01
-6.658357381820678711e-01
1.555039167404174805e+00
9.047278761863708496e-01
1.663207560777664185e-01
-1.304833143949508667e-01
7.624443054199218750e+00
8.109301924705505371e-01
1.025653630495071411e-01
8.210886269807815552e-02
1.964994549751281738e+00
3.381062671542167664e-02
9.273753166198730469e-01
4.556573927402496338e-01
2.055059194564819336e+00
-8.435279875993728638e-02
4.853392243385314941e-01
3.480091094970703125e-01
3.489804267883300781e+00
-6.178079843521118164e-01
3.266167342662811279e-01
-5.430127382278442383e-01
5.441047549247741699e-01
1.785260438919067383e-01
2.000690698623657227e+00
1.992298841476440430e+00
1.673689484596252441e+00
-7.617940902709960938e-01
-2.887957692146301270e-01
-1.731444931030273438e+01
1.766302227973937988e+00
