-7.272724509239196777e-01
-1.036363244056701660e+00
-8.999996185302734375e-01
-1.072726845741271973e+00
-1.109090447425842285e+00
-1.018181324005126953e+00
-9.818177223205566406e-01
-9.818177223205566406e-01
-1.127272248268127441e+00
-9.181814193725585938e-01
-9.909086227416992188e-01
-1.163635849952697754e+00
-9.365770816802978516e-01
-1.051157951354980469e+00
-9.510154724121093750e-01
-8.805344700813293457e-01
-9.909086227416992188e-01
-1.109090447425842285e+00
-8.636360168457031250e-01
-1.054544925689697266e+00
-8.999996185302734375e-01
-1.254544854164123535e+00
-1.018181324005126953e+00
-7.181816101074218750e-01
-9.272723197937011719e-01
-1.045454025268554688e+00
-8.999996185302734375e-01
-1.027272224426269531e+00
-1.018181443214416504e+00
-1.190908432006835938e+00
-9.545450806617736816e-01
-9.909086227416992188e-01
-9.886270761489868164e-01
-8.830654621124267578e-01
-1.002388000488281250e+00
-8.976820111274719238e-01
-1.184526205062866211e+00
-8.914428949356079102e-01
-8.611038923263549805e-01
-8.081629872322082520e-01
-9.198550581932067871e-01
-7.617462873458862305e-01
-1.193118214607238770e+00
-9.317994713783264160e-01
-8.565039634704589844e-01
-1.051335811614990234e+00
-8.204624652862548828e-01
-8.713717460632324219e-01
-9.230295419692993164e-01
-8.924773335456848145e-01
-1.061247229576110840e+00
-9.424952268600463867e-01
-1.118181228637695312e+00
-1.372726678848266602e+00
-7.636360526084899902e-01
-7.727269530296325684e-01
-9.727268218994140625e-01
-8.454542160034179688e-01
-1.063600182533264160e+00
-1.157646298408508301e+00
-9.942598938941955566e-01
-7.736899852752685547e-01
-1.004277467727661133e+00
-1.008555412292480469e+00
-7.193920016288757324e-01
-1.152083396911621094e+00
-1.561707854270935059e+00
-5.905845761299133301e-01
-3.668066859245300293e-01
-1.673829555511474609e+00
-3.861656188964843750e-01
-1.720455169677734375e+00
-1.917109131813049316e+00
-1.112403392791748047e+00
-2.038067102432250977e+00
-1.016610503196716309e+00
-1.402171969413757324e+00
-9.753979444503784180e-01
-7.988210320472717285e-01
-9.593569040298461914e-01
-6.963275074958801270e-01
-9.443129301071166992e-01
-1.036363244056701660e+00
-1.209090352058410645e+00
-7.909087538719177246e-01
-1.045454144477844238e+00
-9.632437229156494141e-01
-1.040854930877685547e+00
-1.170765876770019531e+00
-7.242418527603149414e-01
-6.898735761642456055e-01
-6.551837921142578125e-01
-1.162135720252990723e+00
-7.442014813423156738e-01
-1.605053782463073730e+00
-2.939572334289550781e+00
-6.539698839187622070e-01
-2.556710720062255859e+00
-2.823106348514556885e-01
-1.005375623703002930e+00
-3.420278072357177734e+00
-3.057392597198486328e+00
-1.448192954063415527e+00
-1.679137825965881348e+00
-6.683387160301208496e-01
-2.402710437774658203e+00
-3.810681998729705811e-01
-1.089802265167236328e+00
-9.227085113525390625e-01
-8.987872600555419922e-01
-1.157860517501831055e+00
-1.027272343635559082e+00
-1.163635849952697754e+00
-8.400354385375976562e-01
-9.008193016052246094e-01
-8.403205871582031250e-01
-7.768262624740600586e-01
-5.385728478431701660e-01
-5.736516714096069336e-01
-3.641654253005981445e-01
-5.155376195907592773e-01
-3.464751318097114563e-02
-1.888875246047973633e+00
-1.856357693672180176e+00
4.683563411235809326e-01
-1.469321012496948242e+00
-2.488824844360351562e+00
-4.152247428894042969e+00
-1.627539753913879395e+00
-3.077452182769775391e+00
-2.957962751388549805e+00
-3.320627212524414062e+00
-2.865342378616333008e+00
-1.212508678436279297e+00
-1.007481694221496582e+00
-5.901597738265991211e-01
-1.068838953971862793e+00
-1.028769254684448242e+00
-9.463095664978027344e-01
-1.000783920288085938e+00
-9.454541802406311035e-01
-9.909087419509887695e-01
-1.204384326934814453e+00
-8.683770298957824707e-01
-8.180381059646606445e-01
-1.029935851693153381e-01
-7.167881131172180176e-01
-1.268479943275451660e+00
-1.036571264266967773e+00
-4.022490978240966797e+00
-2.640909671783447266e+00
-3.118447780609130859e+00
-1.590346693992614746e+00
-5.384304523468017578e-01
-3.393866777420043945e+00
-6.468361616134643555e-01
-1.612789988517761230e+00
-9.479475021362304688e-01
-1.264671087265014648e+00
-7.755925059318542480e-01
-3.519972860813140869e-01
-2.350433826446533203e+00
-7.923288345336914062e-01
-2.790685594081878662e-01
-1.605203151702880859e+00
-1.147271871566772461e+00
-8.018172979354858398e-01
-1.053261399269104004e+00
-1.027272343635559082e+00
-9.166128635406494141e-01
-7.974324226379394531e-01
-4.151146709918975830e-01
-9.799616932868957520e-01
-3.138653635978698730e-01
-4.061996936798095703e-01
-5.151446461677551270e-01
-2.302983045578002930e+00
-2.742655038833618164e+00
-1.698480725288391113e+00
-3.102463960647583008e+00
-6.954283714294433594e-01
2.781986296176910400e-01
-6.886410713195800781e-01
4.009198546409606934e-01
3.243764340877532959e-01
-4.974129498004913330e-01
-1.357350349426269531e+00
-4.245885089039802551e-02
-2.026603937149047852e+00
-2.386438608169555664e+00
-9.041223526000976562e-01
1.102073550224304199e+00
-1.262064337730407715e+00
-4.933663606643676758e-01
-8.381797671318054199e-01
-1.041888833045959473e+00
-1.027272224426269531e+00
-8.857392668724060059e-01
-3.230653107166290283e-01
-2.831360101699829102e-01
-4.508329629898071289e-01
-9.682658910751342773e-01
-4.605633616447448730e-01
5.147706866264343262e-01
-9.271852374076843262e-01
-2.179723501205444336e+00
-2.879950284957885742e+00
2.945931255817413330e-01
-1.393949747085571289e+00
2.813846766948699951e-01
-2.465640902519226074e-01
-3.827474713325500488e-01
3.220108985900878906e+00
7.738263607025146484e-01
-2.385468244552612305e+00
-1.179095864295959473e+00
8.353288173675537109e-01
-2.419551134109497070e+00
-9.375948309898376465e-01
-1.936321258544921875e+00
-9.424563646316528320e-01
-7.074457406997680664e-01
-9.926542043685913086e-01
-6.742956638336181641e-01
-9.742598533630371094e-01
-8.461303710937500000e-01
-1.158323407173156738e+00
-1.164594650268554688e+00
3.495571613311767578e-01
7.740776054561138153e-03
2.036090791225433350e-01
-1.171431183815002441e+00
-1.694414138793945312e+00
-1.134015917778015137e+00
1.334590673446655273e+00
1.326224684715270996e+00
2.869439601898193359e+00
8.487635254859924316e-01
1.116820335388183594e+00
1.185518622398376465e+00
-2.077262163162231445e+00
2.258816242218017578e+00
1.909723758697509766e+00
1.203758716583251953e+00
-2.273973464965820312e+00
-1.003898024559020996e+00
-1.880802512168884277e+00
-7.825933098793029785e-01
-1.865373730659484863e+00
-1.212224841117858887e+00
-1.098641514778137207e+00
-1.056398749351501465e+00
-9.445983767509460449e-01
-1.064741015434265137e+00
-9.499086141586303711e-01
-9.369658827781677246e-01
-9.942737966775894165e-02
2.736606299877166748e-01
-1.049092784523963928e-01
-9.133890867233276367e-01
-1.379366517066955566e+00
-3.188339710235595703e+00
1.375888586044311523e-01
2.677418470382690430e+00
3.231252908706665039e+00
2.811422824859619141e+00
1.847568631172180176e+00
2.618125200271606445e+00
2.033818960189819336e+00
3.871717929840087891e+00
2.348469972610473633e+00
2.841401815414428711e+00
-3.532609701156616211e+00
-1.773198366165161133e+00
-2.030750989913940430e+00
-8.858394622802734375e-01
-1.292471528053283691e+00
-1.670759677886962891e+00
-6.842761635780334473e-01
-9.336178302764892578e-01
-1.179322004318237305e+00
-9.553285837173461914e-01
-9.088389277458190918e-01
-4.966818094253540039e-01
-2.974662482738494873e-01
2.702019810676574707e-01
-5.952721089124679565e-02
-1.802155971527099609e+00
-6.469922065734863281e-01
-2.448871612548828125e+00
2.189249038696289062e+00
1.615564107894897461e+00
4.227948486804962158e-01
-5.650550723075866699e-01
7.119123935699462891e-01
1.294302940368652344e+00
1.835804224014282227e+00
2.699802398681640625e+00
3.452244043350219727e+00
1.904077887535095215e+00
2.416744828224182129e-01
1.306855529546737671e-01
-1.912518292665481567e-01
-4.896551966667175293e-01
6.348332762718200684e-01
-9.183331578969955444e-02
-7.575738430023193359e-01
-7.669873237609863281e-01
-1.149232864379882812e+00
-1.081461429595947266e+00
-9.587859511375427246e-01
-1.143595099449157715e+00
-1.113897442817687988e+00
-8.683373332023620605e-01
5.572264790534973145e-01
-2.465370416641235352e+00
1.428659558296203613e+00
-1.779135227203369141e+00
4.089277982711791992e-01
2.711348533630371094e+00
7.507371306419372559e-01
3.980359077453613281e+00
2.856155633926391602e+00
1.115764379501342773e+00
2.742864847183227539e+00
3.106650114059448242e+00
4.104298114776611328e+00
-1.112219214439392090e+00
-2.785768508911132812e-01
-4.791585803031921387e-01
3.827563524246215820e-01
8.334109187126159668e-01
-1.448809355497360229e-01
-6.907991766929626465e-01
-6.741876602172851562e-01
-6.704812049865722656e-01
-9.856679439544677734e-01
-8.220317363739013672e-01
-9.206395149230957031e-01
-1.379353880882263184e+00
-8.760740160942077637e-01
3.868845105171203613e-01
2.535820379853248596e-02
6.212408840656280518e-02
-1.986911773681640625e+00
-4.894382953643798828e-01
-3.555175781250000000e+00
-4.190246760845184326e-01
2.954406440258026123e-01
2.430877447128295898e+00
8.004727959632873535e-01
2.961369991302490234e+00
2.577419996261596680e+00
-2.801536321640014648e-01
-7.930538058280944824e-02
-1.093756437301635742e+00
8.751420974731445312e-01
-2.372385740280151367e+00
6.473909616470336914e-01
-1.424984574317932129e+00
-5.746679380536079407e-02
-7.958974838256835938e-01
-7.253118753433227539e-01
-1.008519887924194336e+00
-8.772545456886291504e-01
-1.011764645576477051e+00
-1.194152235984802246e+00
-8.895149230957031250e-01
-1.379104375839233398e+00
-1.277176737785339355e+00
-9.591660499572753906e-01
5.931096076965332031e-01
-2.568264245986938477e+00
-3.330605030059814453e+00
-9.636228680610656738e-01
2.589774608612060547e+00
-4.307932853698730469e-01
1.641222119331359863e+00
2.246404409408569336e+00
2.361417770385742188e+00
-1.025992631912231445e+00
1.386090993881225586e+00
-2.016347408294677734e+00
-2.887905836105346680e+00
-6.570494771003723145e-01
-1.308502793312072754e+00
-1.102876901626586914e+00
-3.167844414710998535e-01
-2.770378589630126953e-01
-4.114058017730712891e-01
-9.484478235244750977e-01
-1.116113662719726562e+00
-7.657039165496826172e-01
-1.273938655853271484e+00
-8.426735997200012207e-01
-8.934026360511779785e-01
-6.456191092729568481e-02
-3.839164078235626221e-01
1.029317378997802734e+00
-1.316338181495666504e+00
-2.123774528503417969e+00
-6.784940958023071289e-01
-1.011787414550781250e+00
7.882099151611328125e-01
2.291993856430053711e+00
3.168155193328857422e+00
4.055143833160400391e+00
2.771657705307006836e+00
-7.187098264694213867e-02
2.380352020263671875e+00
-3.415696620941162109e+00
-8.433811068534851074e-01
-7.656055092811584473e-01
6.341718435287475586e-01
2.113138437271118164e-01
-1.653574943542480469e+00
-6.198891997337341309e-01
-6.701228618621826172e-01
-8.120495080947875977e-01
-1.008306384086608887e+00
-9.755432605743408203e-01
-7.495896816253662109e-01
-7.494464516639709473e-01
-1.183063507080078125e+00
1.075047135353088379e+00
-9.797798395156860352e-01
-2.149037122726440430e+00
-7.207575440406799316e-01
-8.005347251892089844e-01
-2.226693391799926758e+00
-1.348510146141052246e+00
-6.164249777793884277e-01
1.760630309581756592e-01
1.204696893692016602e+00
4.149768829345703125e+00
4.117310345172882080e-01
-1.612976074218750000e+00
-6.028980016708374023e-01
-6.594516634941101074e-01
1.047776699066162109e+00
-1.121397018432617188e+00
-2.233778476715087891e+00
-4.110736548900604248e-01
-5.926126241683959961e-01
-6.836673021316528320e-01
-9.051298499107360840e-01
-9.929045438766479492e-01
-8.354365825653076172e-01
-9.124773144721984863e-01
-8.751509189605712891e-01
-8.001061677932739258e-01
-5.209250450134277344e-01
-1.644486546516418457e+00
-1.631186366081237793e+00
-1.672354102134704590e+00
-2.259117841720581055e+00
-7.145835161209106445e-01
-2.768736600875854492e+00
1.706105113029479980e+00
-1.865698575973510742e+00
-1.287577033042907715e+00
5.446104332804679871e-02
1.873075723648071289e+00
3.260849475860595703e+00
-4.980132877826690674e-01
1.415170788764953613e+00
-3.115138769149780273e+00
-1.961706638336181641e+00
-1.060398936271667480e+00
-2.090673446655273438e+00
-2.206544399261474609e+00
4.387951195240020752e-01
7.504735141992568970e-02
-1.064345836639404297e+00
-9.730100035667419434e-01
-8.326913714408874512e-01
-9.090905189514160156e-01
-9.285913109779357910e-01
-8.279850482940673828e-01
-8.019233942031860352e-01
-2.664857506752014160e-01
-1.065732002258300781e+00
-4.755643606185913086e-01
-1.320443630218505859e+00
-1.570772647857666016e+00
-2.898577928543090820e+00
1.623352646827697754e+00
-2.113077878952026367e+00
-3.161049485206604004e-01
2.017057657241821289e+00
3.758207559585571289e+00
3.129572391510009766e+00
2.126721620559692383e+00
-1.060088396072387695e+00
2.580136060714721680e-01
1.707955598831176758e+00
-1.686992287635803223e+00
-8.425112962722778320e-01
-6.283306479454040527e-01
2.094178050756454468e-01
-7.928399741649627686e-02
-4.602816700935363770e-01
-9.558636546134948730e-01
-1.112691044807434082e+00
-9.473794102668762207e-01
-9.545097947120666504e-01
-8.293392658233642578e-01
-7.426007986068725586e-01
-7.541486024856567383e-01
-8.098319172859191895e-01
-6.401951313018798828e-01
-8.150194287300109863e-01
1.214933276176452637e+00
-1.367938965559005737e-01
7.200695276260375977e-01
-1.207805633544921875e+00
1.435655117034912109e+00
1.913912534713745117e+00
1.057309746742248535e+00
3.410199880599975586e-01
7.784529328346252441e-01
1.235470622777938843e-01
-2.967689990997314453e+00
-6.318315863609313965e-01
-1.020221590995788574e+00
1.121016263961791992e+00
-8.813084959983825684e-01
-8.740937709808349609e-02
-5.676266551017761230e-01
-1.099246263504028320e+00
-5.365408658981323242e-01
-1.017931699752807617e+00
-1.116042137145996094e+00
-9.412117600440979004e-01
-1.147091746330261230e+00
-2.696580588817596436e-01
-1.433686852455139160e+00
-6.678335070610046387e-01
-1.214099407196044922e+00
-1.705857992172241211e+00
-2.114691257476806641e+00
-1.458288073539733887e+00
2.039433240890502930e+00
-1.670082926750183105e+00
3.508120775222778320e-01
4.168641567230224609e+00
9.548512101173400879e-01
2.441308975219726562e+00
2.549149036407470703e+00
1.124404907226562500e+00
4.645532928407192230e-03
-1.360786914825439453e+00
1.271572947502136230e+00
-2.568935155868530273e+00
-2.092578172683715820e+00
3.795057535171508789e-01
-4.233480095863342285e-01
-5.223483443260192871e-01
-6.703006625175476074e-01
-9.990013241767883301e-01
-9.545450806617736816e-01
-7.693756222724914551e-01
-8.922260999679565430e-01
-1.398000597953796387e+00
-4.956471920013427734e-01
-1.589928507804870605e+00
-2.440695047378540039e+00
4.611673057079315186e-01
3.300524652004241943e-01
-7.264116406440734863e-01
-1.525740623474121094e-01
9.215826392173767090e-01
-9.575564265251159668e-01
7.074750661849975586e-01
1.216248631477355957e+00
-3.519523739814758301e-01
2.362127304077148438e+00
1.975421547889709473e+00
3.080995976924896240e-01
1.070888116955757141e-01
-5.007649064064025879e-01
-9.556876122951507568e-02
7.857835888862609863e-01
1.513405591249465942e-01
-1.077928543090820312e+00
-1.175290226936340332e+00
-8.630651235580444336e-01
-7.401422858238220215e-01
-1.040890693664550781e+00
-7.731546759605407715e-01
-1.447234988212585449e+00
-8.024904727935791016e-01
-2.311975240707397461e+00
-1.580986618995666504e+00
-1.634098768234252930e+00
-2.760221481323242188e+00
6.104803085327148438e-01
-6.523997783660888672e-01
2.130496263504028320e+00
2.201521158218383789e+00
3.875569820404052734e+00
3.829904794692993164e+00
-7.942988276481628418e-01
4.234652042388916016e+00
5.421263575553894043e-01
8.415784835815429688e-01
2.941069602966308594e+00
-3.932399451732635498e-01
-5.154947042465209961e-01
5.399003624916076660e-01
-4.042388200759887695e-01
-2.237758934497833252e-01
-3.401037156581878662e-01
-7.832407355308532715e-01
-1.022174000740051270e+00
-7.671654224395751953e-01
-1.186487793922424316e+00
-1.127949833869934082e+00
-9.878420829772949219e-01
-9.865216612815856934e-01
-7.159680724143981934e-01
-8.480515480041503906e-01
-2.914072751998901367e+00
-3.294486761093139648e+00
-3.043071508407592773e+00
3.814330697059631348e-01
-9.132153987884521484e-01
-7.501001954078674316e-01
-8.184027671813964844e-01
1.496144294738769531e+00
2.159775018692016602e+00
2.626472234725952148e+00
3.641715526580810547e+00
1.356894254684448242e+00
2.918577492237091064e-01
-1.071857452392578125e+00
-2.304026037454605103e-01
8.244248032569885254e-01
-1.155646204948425293e+00
-4.495508372783660889e-01
-5.950414538383483887e-01
-7.249543666839599609e-01
-9.081993699073791504e-01
-9.260957241058349609e-01
-9.090905785560607910e-01
-1.145454049110412598e+00
-1.166416168212890625e+00
-8.188582062721252441e-01
-5.828122496604919434e-01
-8.064837455749511719e-01
-2.454042196273803711e+00
-2.064411640167236328e+00
-4.048746109008789062e+00
-3.085886716842651367e+00
-4.551906108856201172e+00
-4.094533920288085938e+00
4.111721813678741455e-01
-6.035166382789611816e-01
1.389207959175109863e+00
9.562591910362243652e-01
1.696887761354446411e-01
-1.077698945999145508e+00
-2.194347620010375977e+00
-5.930401086807250977e-01
-5.627061724662780762e-01
-3.429898619651794434e-01
-5.239889025688171387e-01
-4.655942022800445557e-01
-6.324050426483154297e-01
-8.566128015518188477e-01
-8.933325409889221191e-01
-9.181814193725585938e-01
-9.636359214782714844e-01
-9.545450210571289062e-01
-1.000748395919799805e+00
-1.104776859283447266e+00
-5.269495844841003418e-01
-7.933663129806518555e-01
-2.243919134140014648e+00
-2.750865936279296875e+00
-1.953108310699462891e+00
-3.675561666488647461e+00
-3.477841854095458984e+00
-3.292492389678955078e+00
-9.495313167572021484e-01
-1.175981283187866211e+00
-3.033738374710083008e+00
-2.667646169662475586e+00
-2.268008947372436523e+00
-2.111896514892578125e+00
-1.832826852798461914e+00
-1.819351315498352051e+00
-6.367524266242980957e-01
-3.747932910919189453e-01
-6.854865550994873047e-01
-6.490529179573059082e-01
-9.359353184700012207e-01
-1.055650234222412109e+00
-9.561848640441894531e-01
-1.009090423583984375e+00
-1.199999332427978516e+00
-8.818178176879882812e-01
-9.865949153900146484e-01
-9.714434146881103516e-01
-1.084704637527465820e+00
-9.514781832695007324e-01
-1.368411064147949219e+00
-1.352617740631103516e+00
-1.566445946693420410e+00
-2.006803035736083984e+00
-2.621283531188964844e+00
-1.369441390037536621e+00
-2.826052188873291016e+00
-2.426551818847656250e+00
-2.745445013046264648e+00
-1.689905643463134766e+00
-2.309765100479125977e+00
-7.420250773429870605e-01
-6.493708491325378418e-01
-1.716572165489196777e+00
-1.068623423576354980e+00
-5.345423221588134766e-01
-1.007697463035583496e+00
-8.120122551918029785e-01
-6.997503638267517090e-01
-9.603917598724365234e-01
-1.176077961921691895e+00
-9.909086823463439941e-01
-1.072726845741271973e+00
-9.454541802406311035e-01
-8.454541563987731934e-01
-8.272723555564880371e-01
-9.858813285827636719e-01
-1.195220947265625000e+00
-8.880544900894165039e-01
-1.520067572593688965e+00
-9.676610827445983887e-01
-2.192506790161132812e+00
-1.743271827697753906e+00
-2.001705884933471680e+00
-1.344879150390625000e+00
-1.137498855590820312e+00
-2.952831983566284180e+00
-3.135216951370239258e+00
-1.721953630447387695e+00
-1.344096183776855469e+00
-1.363739609718322754e+00
-9.706904888153076172e-01
-1.390585541725158691e+00
-1.233580946922302246e+00
-5.832796096801757812e-01
-9.945094585418701172e-01
-9.319427013397216797e-01
-8.643133044242858887e-01
-7.363633513450622559e-01
-1.254544854164123535e+00
-1.018181324005126953e+00
-7.818177342414855957e-01
-9.545450806617736816e-01
-9.363632202148437500e-01
-1.078323960304260254e+00
-9.737246036529541016e-01
-8.214254379272460938e-01
-1.166844010353088379e+00
-9.025656580924987793e-01
-6.208186745643615723e-01
-8.747214078903198242e-01
-1.178464412689208984e+00
-1.613936424255371094e+00
-1.421993255615234375e+00
-1.409479022026062012e+00
-1.066273093223571777e+00
-7.637044787406921387e-01
-1.369230389595031738e+00
-1.123349428176879883e+00
-1.085774779319763184e+00
-1.117967247962951660e+00
-7.735113501548767090e-01
-9.967551827430725098e-01
-1.101069092750549316e+00
-7.909087538719177246e-01
-9.545450210571289062e-01
-1.090908646583557129e+00
-1.118181347846984863e+00
