-8.022166788578033447e-03
1.340240240097045898e-03
-2.479989826679229736e-02
-2.557317540049552917e-02
2.275318652391433716e-02
2.155029028654098511e-01
4.667337611317634583e-02
1.557853966951370239e-01
6.792221218347549438e-02
-2.411029115319252014e-02
1.610889583826065063e-01
7.923490554094314575e-02
-2.958425320684909821e-02
-2.542822994291782379e-02
7.141816616058349609e-02
1.463204920291900635e-01
-2.444110345095396042e-03
5.584622919559478760e-02
2.380216121673583984e-02
-1.255726534873247147e-02
-1.082564797252416611e-02
-2.769782766699790955e-02
1.038870587944984436e-01
-1.448111142963171005e-02
9.032049216330051422e-03
-4.104334488511085510e-02
-1.483955653384327888e-03
1.241248548030853271e-01
1.537477076053619385e-01
-1.125983707606792450e-02
1.204631999135017395e-01
2.601902931928634644e-02
6.654898077249526978e-02
-9.070076979696750641e-03
-2.273071557283401489e-02
5.557858571410179138e-02
1.501806676387786865e-01
9.218951687216758728e-03
7.911691442131996155e-03
-1.541383005678653717e-02
4.063851758837699890e-02
9.803604334592819214e-02
4.937044531106948853e-02
-2.190095372498035431e-02
9.921024739742279053e-02
1.640297919511795044e-01
-2.486298233270645142e-02
-1.266488060355186462e-02
1.553967446088790894e-01
5.559805408120155334e-02
7.082857936620712280e-02
1.552137881517410278e-01
-2.370678074657917023e-02
1.794682294130325317e-01
5.013160035014152527e-02
-5.809705238789319992e-03
-5.337716429494321346e-04
-1.244752947241067886e-02
9.312847256660461426e-02
1.333013474941253662e-01
8.950231224298477173e-02
5.322721321135759354e-03
1.266386806964874268e-01
1.473827064037322998e-01
1.454204320907592773e-01
-2.190383523702621460e-02
1.393689811229705811e-01
1.452962160110473633e-01
1.092762500047683716e-01
4.377351328730583191e-02
-1.271594464778900146e-01
-2.006173506379127502e-02
-6.779224425554275513e-02
-2.196668647229671478e-02
2.316341698169708252e-01
6.449136137962341309e-02
9.657741338014602661e-02
1.402363628149032593e-01
2.266518622636795044e-01
6.383162736892700195e-02
9.746695309877395630e-02
2.659200876951217651e-02
-1.184153743088245392e-02
2.857077494263648987e-02
1.335479766130447388e-01
1.138257831335067749e-01
5.492054298520088196e-02
1.113101840019226074e-01
-5.800852179527282715e-02
2.474470436573028564e-02
-2.059780433773994446e-02
-2.540291659533977509e-02
-3.361966088414192200e-02
4.091216996312141418e-02
9.694945812225341797e-02
-3.017832711338996887e-02
-1.675216667354106903e-02
2.138187875971198082e-03
-1.111761480569839478e-02
-1.192845404148101807e-01
1.393433660268783569e-01
9.259933605790138245e-03
2.328756451606750488e-01
1.812569499015808105e-01
-2.170159853994846344e-02
5.268182605504989624e-03
2.930608950555324554e-02
-2.069916203618049622e-02
7.671891897916793823e-02
-2.531760185956954956e-02
1.509768068790435791e-01
1.344753056764602661e-01
3.416202962398529053e-02
7.012181729078292847e-02
-9.243842214345932007e-03
3.293110430240631104e-02
-2.906798198819160461e-02
-2.632765099406242371e-02
-1.234139055013656616e-01
7.275919616222381592e-02
4.753051325678825378e-03
1.433052420616149902e-01
-2.186721004545688629e-02
-6.465426180511713028e-03
5.475146323442459106e-02
1.208695098757743835e-01
1.597023382782936096e-02
1.411952823400497437e-01
1.025839298963546753e-01
8.161664009094238281e-02
-1.176531892269849777e-02
-1.975833065807819366e-02
-2.820346318185329437e-02
-2.475552633404731750e-02
-1.442368514835834503e-02
2.314674295485019684e-02
1.183468997478485107e-01
5.365012958645820618e-02
3.718494554050266743e-04
-1.424175221472978592e-02
-3.481607884168624878e-02
-2.213861607015132904e-02
-3.061427921056747437e-02
-1.727691851556301117e-02
-2.708509191870689392e-02
1.745954155921936035e-02
-2.644914388656616211e-02
2.457212470471858978e-02
-1.539147179573774338e-02
3.782067075371742249e-02
-2.605192828923463821e-03
-8.931864053010940552e-03
2.055832594633102417e-01
-1.496157888323068619e-02
-6.890110205858945847e-03
-2.202147431671619415e-02
-2.805804647505283356e-02
9.973895549774169922e-02
-2.239959686994552612e-02
5.788455158472061157e-02
9.335189312696456909e-02
-1.384238619357347488e-02
3.373632952570915222e-02
8.862909674644470215e-02
8.258799463510513306e-02
6.958948075771331787e-02
-1.673109456896781921e-02
-2.830167300999164581e-03
1.349143981933593750e-01
-2.639102935791015625e-02
8.775609731674194336e-02
-5.307017639279365540e-02
1.411464810371398926e-01
1.564371883869171143e-01
5.013182386755943298e-02
1.075706407427787781e-01
-6.967485696077346802e-02
6.853145360946655273e-02
-2.393927425146102905e-02
-2.663141861557960510e-02
-2.180030941963195801e-02
-2.161175012588500977e-02
1.588639914989471436e-01
-3.124884702265262604e-02
9.254948794841766357e-02
1.431584451347589493e-02
1.025281399488449097e-01
1.618629135191440582e-02
2.177264988422393799e-01
-3.466542437672615051e-02
-4.494734853506088257e-02
1.706558018922805786e-01
-2.370190247893333435e-02
1.662580668926239014e-01
1.820527762174606323e-01
-9.153647348284721375e-03
-1.114816498011350632e-02
-1.968463361263275146e-01
-3.532272577285766602e-02
1.851733773946762085e-01
9.190343320369720459e-02
-2.052407711744308472e-02
5.568648688495159149e-03
-1.844738423824310303e-02
-1.716985553503036499e-02
-1.899679750204086304e-01
-2.312310785055160522e-02
-1.057588122785091400e-02
-1.791433990001678467e-02
-2.413250952959060669e-01
-1.382319442927837372e-02
-9.297025203704833984e-02
4.113395139575004578e-02
-8.319083601236343384e-03
-1.651196330785751343e-01
4.945423454046249390e-02
-1.187594309449195862e-01
1.447809208184480667e-02
-1.160264294594526291e-02
-8.860444277524948120e-02
-9.127022698521614075e-03
-2.758094482123851776e-02
-2.500867098569869995e-02
1.828609406948089600e-02
8.119488507509231567e-02
8.632003515958786011e-02
7.095357775688171387e-02
8.807063847780227661e-02
1.835726797580718994e-01
-3.215479478240013123e-02
1.382454335689544678e-01
4.557248950004577637e-02
-3.120782598853111267e-02
1.179799363017082214e-01
1.277142614126205444e-01
-2.332044206559658051e-02
-1.714757084846496582e-02
1.643776595592498779e-01
1.178381294012069702e-01
-2.193202450871467590e-02
1.412659436464309692e-01
-1.816541999578475952e-01
-2.461887896060943604e-02
-2.295717783272266388e-02
-1.836124429246410728e-04
2.099080681800842285e-01
3.327235952019691467e-02
4.425780847668647766e-02
-2.258358709514141083e-02
1.169038191437721252e-01
-1.162090897560119629e-02
1.079936400055885315e-01
-1.102875545620918274e-02
-2.341486327350139618e-02
7.514723390340805054e-02
1.246243808418512344e-02
6.246997509151697159e-03
1.380493342876434326e-01
-3.125880658626556396e-02
-2.972798794507980347e-02
1.561938971281051636e-01
9.177517145872116089e-02
2.508999034762382507e-02
-2.454774081707000732e-02
1.358095258474349976e-01
2.724744379520416260e-03
1.140562519431114197e-01
6.999273598194122314e-02
1.390462275594472885e-02
-1.849185908213257790e-03
1.547084003686904907e-01
1.844053901731967926e-02
-3.074958175420761108e-02
1.025417000055313110e-01
-9.196833707392215729e-03
-3.488396108150482178e-02
-2.192234806716442108e-02
1.736337095499038696e-01
6.928360462188720703e-02
-5.458793602883815765e-03
-3.154492750763893127e-02
-1.660104282200336456e-02
4.067160934209823608e-02
-2.618529088795185089e-02
-3.033518791198730469e-02
1.032411456108093262e-01
4.668588191270828247e-02
-2.778624184429645538e-02
1.599766165018081665e-01
2.954160980880260468e-02
-5.311199929565191269e-03
-1.311521511524915695e-02
-1.218491885811090469e-02
-2.664541266858577728e-02
-2.395733632147312164e-02
4.751677438616752625e-02
9.224107116460800171e-02
-1.859504915773868561e-02
5.052316933870315552e-02
1.387518793344497681e-01
-2.504956722259521484e-02
1.661436557769775391e-01
-2.599696442484855652e-02
2.563589625060558319e-02
-1.185025461018085480e-02
-4.692617338150739670e-03
-2.897806093096733093e-02
1.827570726163685322e-03
1.440521478652954102e-01
5.364145338535308838e-02
-1.096983440220355988e-02
5.204809363931417465e-03
-2.445024996995925903e-02
-1.096416823565959930e-02
-3.619040921330451965e-02
3.666232153773307800e-02
-2.773770503699779510e-02
1.239297315478324890e-01
-3.473728895187377930e-02
3.223282098770141602e-01
1.022788435220718384e-01
3.307505324482917786e-02
-2.584476210176944733e-02
9.164395183324813843e-02
-2.872120216488838196e-02
-1.636958564631640911e-03
-1.878345943987369537e-02
1.512193828821182251e-01
7.735658437013626099e-02
-2.733043394982814789e-02
4.416308179497718811e-02
2.309103263542056084e-03
-6.566628068685531616e-02
1.040120497345924377e-01
3.720379993319511414e-02
7.469459623098373413e-02
1.042820289731025696e-01
9.865590929985046387e-02
-1.673486381769180298e-01
-2.091780863702297211e-02
-2.594460360705852509e-02
-1.519404258579015732e-02
-1.642291992902755737e-02
-8.851794898509979248e-02
-2.648542821407318115e-02
-2.844251319766044617e-02
-7.460493594408035278e-03
8.650371432304382324e-02
-2.982425130903720856e-02
7.104115933179855347e-02
1.699015349149703979e-01
-3.344948589801788330e-02
-3.217501342296600342e-01
-4.788531735539436340e-02
-2.335577830672264099e-02
1.708276420831680298e-01
-1.797191426157951355e-02
-5.720314569771289825e-03
-2.066683210432529449e-02
1.475518941879272461e-02
2.127259820699691772e-01
3.414501622319221497e-02
-2.158585563302040100e-02
-4.653586074709892273e-03
-5.029153544455766678e-04
-2.567301504313945770e-02
-9.977117180824279785e-03
-2.790509723126888275e-02
-2.355878613889217377e-02
4.612702503800392151e-02
-1.115245092660188675e-02
-6.868354231119155884e-02
1.336569041013717651e-01
1.560917682945728302e-02
1.438180059194564819e-01
9.357093274593353271e-02
4.243934154510498047e-02
5.927959084510803223e-02
1.100788265466690063e-01
-2.119313180446624756e-01
-1.654007658362388611e-02
9.929390996694564819e-02
-3.736591339111328125e-02
-1.499616540968418121e-02
1.006268262863159180e-01
1.663378924131393433e-01
6.479294598102569580e-02
-2.546718344092369080e-02
4.482171684503555298e-02
1.877479553222656250e-01
-2.618222869932651520e-02
1.384889334440231323e-01
-4.161338880658149719e-02
-2.072834596037864685e-02
-9.370807558298110962e-03
-2.788123190402984619e-01
1.106037050485610962e-01
-2.022532187402248383e-02
8.448065072298049927e-02
-5.200207233428955078e-03
