-2.428310457617044449e-03
6.272227037698030472e-03
7.030147826299071312e-04
-6.185738602653145790e-04
3.398312037461437285e-05
-1.687385141849517822e-03
-5.057659582234919071e-04
-5.780290230177342892e-04
-3.104954375885426998e-04
5.840943413204513490e-05
8.750191773287951946e-04
-3.419302636757493019e-03
-1.021756092086434364e-03
-8.052813936956226826e-04
1.148980576545000076e-03
9.962810872821137309e-05
-8.868121076375246048e-04
3.952760715037584305e-03
-3.202265826985239983e-03
8.349244599230587482e-04
-1.800542813725769520e-03
-2.039208309724926949e-03
-3.273303154855966568e-03
-1.298781717196106911e-03
6.207980215549468994e-03
-2.539616543799638748e-03
-1.307539292611181736e-03
1.170334988273680210e-03
-9.897318668663501740e-04
-2.708696702029556036e-04
-5.160904256626963615e-04
-1.986928516998887062e-03
-1.745884539559483528e-03
-8.905779395718127489e-06
4.822696500923484564e-04
-5.723236245103180408e-04
-9.923791512846946716e-04
-7.975555490702390671e-04
-1.227966975420713425e-03
-8.679166785441339016e-04
-2.873116871342062950e-03
-8.863312541507184505e-04
-3.227236156817525625e-04
6.180855416459962726e-05
-8.215113193728029728e-04
1.704336842522025108e-03
2.621188759803771973e-04
-1.341301715001463890e-03
-3.944746858906000853e-04
-4.407806845847517252e-04
-2.873118733987212181e-03
-2.105905907228589058e-03
-6.483949255198240280e-04
5.994430393911898136e-04
-1.978738000616431236e-03
-1.551283057779073715e-03
-1.245937746716663241e-04
-1.610783278010785580e-03
-2.197976689785718918e-03
1.332203159108757973e-03
-1.469732495024800301e-03
-7.015517912805080414e-04
-2.269947202876210213e-03
-4.832816193811595440e-05
-2.696947660297155380e-03
1.416847109794616699e-03
-3.149089636281132698e-03
-1.234067021869122982e-03
3.070871578529477119e-03
-2.791368868201971054e-03
8.938606479205191135e-04
-1.154834521003067493e-03
-1.549640786834061146e-03
-1.493910676799714565e-03
-2.985498867928981781e-03
-2.165619051083922386e-03
6.248385761864483356e-04
-9.506316855549812317e-04
8.127157343551516533e-04
3.614433808252215385e-04
2.177345886593684554e-04
-8.501682896167039871e-04
-3.758047940209507942e-03
-2.247322816401720047e-03
-1.154043828137218952e-03
7.204943540273234248e-05
2.619504084577783942e-05
-4.056516336277127266e-04
-8.105685119517147541e-04
-2.113464521244168282e-03
-2.231772057712078094e-03
-2.419015159830451012e-03
-2.317009959369897842e-03
4.971100017428398132e-03
-1.284810248762369156e-03
-1.683188253082334995e-03
3.132681013084948063e-04
-8.599669090472161770e-04
-3.055047011002898216e-03
-2.994986716657876968e-04
-1.756016747094690800e-03
-6.609375122934579849e-04
-3.368819132447242737e-03
-1.262022298760712147e-03
-4.543823888525366783e-04
5.470547475852072239e-04
5.287583917379379272e-05
-2.803460229188203812e-03
-2.328015631064772606e-03
-1.542238635011017323e-03
1.654719701036810875e-03
-1.541912090033292770e-03
-1.361526781693100929e-03
4.916629754006862640e-03
-2.740703523159027100e-03
2.976524119731038809e-04
1.768499962054193020e-03
-3.341023810207843781e-03
1.514429895905777812e-04
-2.357029356062412262e-03
-3.557230520527809858e-04
4.485414363443851471e-03
4.972494789399206638e-04
-2.011811593547463417e-03
-7.587315631099045277e-04
1.369442557916045189e-03
1.133740413933992386e-03
-4.848026583204045892e-05
-2.432572422549128532e-03
1.206316010211594403e-04
-6.327064329525455832e-05
5.501031409949064255e-04
-1.893651788122951984e-03
-1.054017571732401848e-03
1.180301303975284100e-03
-1.335862791165709496e-03
-3.124135546386241913e-03
-1.402713474817574024e-03
1.035798923112452030e-03
1.262714213225990534e-04
-1.263322774320840836e-03
-4.217208697809837759e-05
-6.532692932523787022e-04
-1.871059794211760163e-04
-1.288633793592453003e-04
-9.489310905337333679e-04
-6.097715813666582108e-04
-3.129077376797795296e-04
-9.876489639282226562e-04
-4.974449053406715393e-03
-7.425906951539218426e-04
4.457580507732927799e-04
-3.243964165449142456e-03
-3.499773330986499786e-03
-3.624238888733088970e-04
-7.154913037084043026e-04
-4.627998452633619308e-03
1.104643015423789620e-04
-2.286881208419799805e-04
-1.185616129077970982e-03
-1.427787588909268379e-03
-1.310590072534978390e-03
-1.693248865194618702e-03
7.289838511496782303e-03
4.273363156244158745e-04
-1.355709042400121689e-03
-9.150825208052992821e-04
-3.044342447537928820e-04
-1.237690099515020847e-03
-7.375444984063506126e-04
-6.110690883360803127e-04
-1.498020021244883537e-03
-1.826064428314566612e-03
9.446599287912249565e-04
-1.534693758003413677e-03
-2.036865102127194405e-03
-2.270751865580677986e-03
-1.377257052809000015e-03
-9.904300095513463020e-04
-2.208460355177521706e-03
1.172595584648661315e-04
-2.803807728923857212e-04
-1.664164941757917404e-03
-1.230253023095428944e-03
-1.196383149363100529e-03
-1.687689335085451603e-03
-7.541473023593425751e-04
-2.145170932635664940e-03
-8.303250069729983807e-04
9.432827937416732311e-04
-1.181737636215984821e-03
-6.744791753590106964e-04
-6.117720622569322586e-04
6.617119070142507553e-03
-3.846167819574475288e-03
3.419973945710808039e-04
-2.027234761044383049e-03
-3.832183429040014744e-04
-1.286976737901568413e-03
7.510165451094508171e-04
-1.115931663662195206e-03
-1.545759150758385658e-03
-1.657096901908516884e-03
-9.592091373633593321e-05
5.026173894293606281e-04
5.550409667193889618e-03
2.120128483511507511e-04
-1.267643994651734829e-03
-8.679404854774475098e-04
-1.619840913917869329e-04
-8.519974071532487869e-04
-1.554066402604803443e-04
-3.340579802170395851e-03
-4.940571961924433708e-04
-1.321144634857773781e-03
4.267207346856594086e-03
3.597980830818414688e-03
8.744633523747324944e-04
-8.004028350114822388e-04
-5.818500067107379436e-04
-1.275827875360846519e-03
5.827678833156824112e-03
-1.319434493780136108e-03
-3.564310318324714899e-04
5.381845403462648392e-03
-6.510464299935847521e-05
-1.720264670439064503e-03
8.663807966513559222e-05
-2.121142810210585594e-03
8.275470463559031487e-04
-2.515653846785426140e-03
2.576283295638859272e-04
-5.625027697533369064e-04
-1.403318950906395912e-03
1.539852819405496120e-04
1.041801078827120364e-04
6.872921250760555267e-03
-1.038026413880288601e-03
-3.287941450253129005e-03
3.772807540372014046e-04
-2.810391888488084078e-04
-1.076307613402605057e-03
-8.453045738860964775e-04
-2.145319012925028801e-04
-1.471348572522401810e-03
-2.606823341920971870e-03
-2.195860259234905243e-03
-5.812558229081332684e-04
1.276302034966647625e-03
6.201232783496379852e-03
1.204272921313531697e-04
-8.384744869545102119e-04
-1.249862951226532459e-03
-6.264261901378631592e-04
-2.430635795462876558e-04
-8.476206567138433456e-04
-4.058398306369781494e-03
-8.102485444396734238e-04
-2.179351402446627617e-03
6.637550541199743748e-04
-9.005381143651902676e-04
5.053318105638027191e-03
-9.964612545445561409e-04
1.326358062215149403e-03
7.908631232567131519e-04
6.810212507843971252e-03
2.145859325537458062e-04
-1.648271572776138783e-03
2.561630390118807554e-04
-3.156992606818675995e-03
-6.746196049789432436e-06
-9.784703142940998077e-04
7.224175147712230682e-03
-1.362839830107986927e-04
7.996597560122609138e-05
-6.873781094327569008e-04
-5.899131647311151028e-04
3.069264348596334457e-04
5.849954672157764435e-03
-1.838339143432676792e-03
3.531208960339426994e-03
-1.091466285288333893e-03
-5.088528268970549107e-04
9.864128660410642624e-04
-2.848119183909147978e-04
-1.681874156929552555e-03
9.313336340710520744e-04
-2.387712709605693817e-03
-8.516032830812036991e-04
1.166414353065192699e-03
-1.901063718833029270e-03
6.708021275699138641e-03
-3.475462319329380989e-03
1.030867919325828552e-03
-1.218904857523739338e-03
-1.934818807058036327e-03
-2.433715388178825378e-03
8.435918018221855164e-03
-1.070991624146699905e-03
-1.616165507584810257e-03
-2.504319418221712112e-03
-2.923266263678669930e-03
-2.053993055596947670e-03
1.631784951314330101e-03
-1.388065400533378124e-03
-1.353930798359215260e-03
5.368813872337341309e-03
1.992246106965467334e-04
-1.692733610980212688e-03
4.094998585060238838e-04
-1.409576390869915485e-03
-1.542199635878205299e-03
3.080247843172401190e-04
-4.887119866907596588e-04
-1.966258278116583824e-03
-7.836853619664907455e-04
-1.145645277574658394e-03
-4.533190804067999125e-06
-2.324755769222974777e-03
-3.676907217595726252e-04
-2.119810553267598152e-03
-2.304989844560623169e-03
-7.114183390513062477e-04
-6.891780649311840534e-04
-7.884202204877510667e-05
1.057401648722589016e-03
-2.441591816022992134e-03
6.715194904245436192e-04
7.619631942361593246e-04
-6.452479283325374126e-04
2.207142097176983953e-04
-2.152135130017995834e-03
-2.182154450565576553e-03
-2.697654301300644875e-03
-4.807838995475322008e-04
-2.261760819237679243e-04
3.596790193114429712e-04
-1.392594655044376850e-03
-5.804556421935558319e-04
-4.203357093501836061e-04
-2.009791554883122444e-03
-1.760218641720712185e-03
7.365458644926548004e-03
4.516821063589304686e-04
-2.104793675243854523e-03
-2.203089417889714241e-03
3.534106363076716661e-04
1.346663688309490681e-03
8.631107048131525517e-04
-1.818054472096264362e-03
-1.155308447778224945e-03
7.545430707978084683e-05
-6.841534632258117199e-04
4.689212422817945480e-03
1.203129431814886630e-05
-4.445359081728383899e-05
-1.040219096466898918e-03
1.415253267623484135e-03
-3.221531398594379425e-03
-6.217998452484607697e-04
-2.101220015902072191e-04
-5.149171338416635990e-04
-1.145032700151205063e-03
-2.829914446920156479e-04
2.430236600048374385e-05
-1.373128267005085945e-03
-1.560323988087475300e-03
-2.440979471430182457e-03
-1.726129557937383652e-03
-2.436945680528879166e-03
-1.644155359826982021e-03
-2.752549014985561371e-03
-2.372814575210213661e-03
7.367235230049118400e-05
3.219976497348397970e-04
-2.329957671463489532e-03
-7.053060689941048622e-04
-6.483590113930404186e-04
-3.075930522754788399e-03
-2.601793501526117325e-03
-2.876665210351347923e-03
-1.714063342660665512e-03
-3.765219589695334435e-04
-1.803694060072302818e-03
4.505281336605548859e-03
-4.652478091884404421e-04
-2.121808240190148354e-03
-1.131687778979539871e-03
-1.229376299306750298e-03
-8.133297087624669075e-04
-4.010867269244045019e-04
2.789838799799326807e-05
-1.231521717272698879e-03
-7.655805529793724418e-05
-8.782954537309706211e-04
1.392064499668776989e-03
-1.497633988037705421e-03
1.924369717016816139e-04
-2.200991148129105568e-03
-4.435750597622245550e-04
