-3.558934666216373444e-03
-1.291287713684141636e-03
8.589065400883555412e-04
-2.619337057694792747e-03
-4.765467019751667976e-04
-1.942694943863898516e-04
-1.375248655676841736e-03
8.590224315412342548e-04
1.629122380109038204e-05
-9.915856644511222839e-04
2.192572923377156258e-03
4.924868117086589336e-04
-2.176184440031647682e-03
-2.388080320088192821e-04
2.525473479181528091e-03
-2.706689701881259680e-04
-2.024649642407894135e-03
2.632402582094073296e-03
-2.087050816044211388e-03
-6.726721185259521008e-04
-2.938167424872517586e-03
-1.003342680633068085e-03
2.350814640522003174e-03
-6.069407390896230936e-05
2.272474113851785660e-03
2.626602537930011749e-03
-6.221284857019782066e-04
3.073528874665498734e-03
2.977942815050482750e-03
-6.004122551530599594e-04
-1.192307565361261368e-03
1.568400068208575249e-03
8.006733842194080353e-04
-5.314702866598963737e-04
-5.666883080266416073e-04
1.579988631419837475e-03
1.692819758318364620e-03
-1.637430861592292786e-03
3.316352842375636101e-03
-2.283853944391012192e-03
2.123055979609489441e-03
-8.797769987722858787e-05
2.823134418576955795e-03
-1.331868697889149189e-03
1.850656932219862938e-03
-1.072309605660848320e-04
-3.897381247952580452e-04
1.321043702773749828e-03
-1.938560744747519493e-03
3.606486832723021507e-03
4.004234448075294495e-03
-8.119451231323182583e-04
1.725509646348655224e-03
-1.108768279664218426e-03
2.206808887422084808e-03
1.591869047842919827e-03
-1.785235246643424034e-03
-1.373413368128240108e-03
-4.604069108609110117e-04
6.496185669675469398e-04
-2.481474773958325386e-03
-1.170958508737385273e-03
1.286647020606324077e-04
-3.416355466470122337e-04
9.922732133418321609e-04
3.321099560707807541e-03
2.765212673693895340e-03
-1.264990656636655331e-03
-1.817037584260106087e-03
4.189721657894551754e-04
-1.505130436271429062e-03
-2.332879463210701942e-03
2.162832288377103396e-06
-6.095123826526105404e-04
2.385817002505064011e-03
-3.999975451733916998e-04
3.752973163500428200e-03
2.219037851318717003e-03
1.511849812231957912e-03
1.710586482658982277e-03
-6.668988028479816421e-09
9.743057889863848686e-04
-2.201002556830644608e-03
-1.057561370544135571e-03
-1.392852631397545338e-03
-1.595251029357314110e-03
2.818103646859526634e-03
4.479435447137802839e-04
1.660312991589307785e-04
-1.049822545610368252e-03
-6.798810791224241257e-04
-3.296884533483535051e-04
1.034296350553631783e-03
2.607165835797786713e-03
2.533177379518747330e-03
-1.805723295547068119e-03
4.108184017241001129e-03
3.571734065189957619e-03
-2.106346888467669487e-03
1.635544467717409134e-03
