-2.926471643149852753e-03
-2.951381495222449303e-03
-2.870228607207536697e-03
-3.013140754774212837e-03
-2.944451523944735527e-03
-2.911416115239262581e-03
-2.873735502362251282e-03
-2.864621346816420555e-03
-2.936450997367501259e-03
-3.002535784617066383e-03
-2.843861235305666924e-03
-2.948463661596179008e-03
-3.130542114377021790e-03
-3.093803068622946739e-03
-3.103001043200492859e-03
-2.959302626550197601e-03
-2.944703679531812668e-03
-2.889185445383191109e-03
-2.911763032898306847e-03
-2.914146054536104202e-03
-2.959370845928788185e-03
-2.914292505010962486e-03
-2.954765688627958298e-03
-2.935814205557107925e-03
-2.885630587115883827e-03
-2.937221201136708260e-03
-2.863693283870816231e-03
-2.887316746637225151e-03
-2.956317970529198647e-03
-2.901702886447310448e-03
-2.974616829305887222e-03
-2.940853359177708626e-03
-2.988392952829599380e-03
-2.991134067997336388e-03
-3.125158604234457016e-03
-2.970947185531258583e-03
-3.058998612686991692e-03
-2.926881425082683563e-03
-2.890490461140871048e-03
-2.692637965083122253e-03
-2.832615282386541367e-03
-2.770440652966499329e-03
-2.859552390873432159e-03
-2.894690958783030510e-03
-2.901442116126418114e-03
-2.804110059514641762e-03
-2.805646508932113647e-03
-2.879332285374403000e-03
-2.938955556601285934e-03
-3.047869307920336723e-03
-3.142642090097069740e-03
-3.079801565036177635e-03
-2.936001168563961983e-03
-2.961108228191733360e-03
-2.927736844867467880e-03
-2.899188781157135963e-03
-2.931491471827030182e-03
-2.929111244156956673e-03
-2.966457977890968323e-03
-3.005257109180092812e-03
-3.073740284889936447e-03
-3.045496996492147446e-03
-3.035366302356123924e-03
-2.950340043753385544e-03
-2.741036005318164825e-03
-2.530011348426342010e-03
-2.537596272304654121e-03
-2.620907500386238098e-03
-2.401374513283371925e-03
-2.759610768407583237e-03
-2.718355739489197731e-03
-2.869673538953065872e-03
-2.879882464185357094e-03
-3.266101703047752380e-03
-2.949970541521906853e-03
-3.106325166299939156e-03
-2.918438520282506943e-03
-2.735190559178590775e-03
-2.742630895227193832e-03
-2.803029725328087807e-03
-3.001557430252432823e-03
-3.057048656046390533e-03
-2.868346171453595161e-03
-2.820118330419063568e-03
-2.936665900051593781e-03
-2.947293920442461967e-03
-3.057811176404356956e-03
-2.950677415356040001e-03
-3.142714267596602440e-03
-3.215853124856948853e-03
-3.026576712727546692e-03
-2.850720426067709923e-03
-2.707598963752388954e-03
-2.414988819509744644e-03
-2.346879569813609123e-03
-2.564145950600504875e-03
-2.402771962806582451e-03
-2.559562446549534798e-03
-2.539577893912792206e-03
-2.304992405697703362e-03
-2.445121295750141144e-03
-2.733994275331497192e-03
-2.556153573095798492e-03
-2.612469485029578209e-03
-2.867490984499454498e-03
-2.856736304238438606e-03
-2.645758911967277527e-03
-2.783735981211066246e-03
-2.941887592896819115e-03
-3.124095732346177101e-03
-3.030928317457437515e-03
-2.954655094072222710e-03
-2.891968004405498505e-03
-2.991530578583478928e-03
-2.999341581016778946e-03
-3.216893645003437996e-03
-3.164436900988221169e-03
-2.983237616717815399e-03
-2.658728742972016335e-03
-2.242998918518424034e-03
-2.479216083884239197e-03
-2.705724909901618958e-03
-2.157330745831131935e-03
-1.922666095197200775e-03
-2.155866706743836403e-03
-1.923562143929302692e-03
-2.262518508359789848e-03
-2.622342901304364204e-03
-2.280852757394313812e-03
-2.761417534202337265e-03
-3.027179744094610214e-03
-3.083604155108332634e-03
-3.622678108513355255e-03
-3.094503190368413925e-03
-2.994446782395243645e-03
-2.999363932758569717e-03
-2.910868031904101372e-03
-3.003835678100585938e-03
-3.080622293055057526e-03
-3.025922924280166626e-03
-2.984511898830533028e-03
-3.015238093212246895e-03
-3.125546732917428017e-03
-3.104259958490729332e-03
-2.941396087408065796e-03
-2.222632756456732750e-03
-2.320505212992429733e-03
-2.293555764481425285e-03
-2.367990324273705482e-03
-1.894917455501854420e-03
-1.492032897658646107e-03
-8.842604584060609341e-04
-4.970485460944473743e-04
-1.203928113682195544e-04
-4.301866283640265465e-04
4.229045880492776632e-04
5.663207775796763599e-05
-6.118520395830273628e-04
-1.489674323238432407e-03
-2.150802174583077431e-03
-2.431581728160381317e-03
-2.683483529835939407e-03
-2.493042964488267899e-03
-2.581723267212510109e-03
-2.837928943336009979e-03
-2.919471822679042816e-03
-3.193984273821115494e-03
-3.038177499547600746e-03
-2.962207188829779625e-03
-2.922866493463516235e-03
-3.160800086334347725e-03
-2.912695752456784248e-03
-2.311507239937782288e-03
-2.445183228701353073e-03
-1.889628707431256771e-03
-1.744776032865047455e-03
-2.027138834819197655e-03
-8.463807753287255764e-04
-9.290855814469978213e-05
-1.856376475188881159e-04
9.346572915092110634e-04
1.624341122806072235e-03
1.592829823493957520e-03
2.195312175899744034e-03
1.752398675307631493e-03
9.530766983516514301e-04
2.383883838774636388e-05
-6.681685918010771275e-04
-8.067019516602158546e-04
-6.829588091932237148e-04
-1.901451963931322098e-03
-2.202251926064491272e-03
-2.415881259366869926e-03
-2.819687826558947563e-03
-3.016920061782002449e-03
-3.156903432682156563e-03
-2.930304501205682755e-03
-3.027302445843815804e-03
-2.995619084686040878e-03
-2.613709308207035065e-03
-2.108985325321555138e-03
-2.223134739324450493e-03
-1.205824315547943115e-03
-3.502677136566489935e-04
-6.880791042931377888e-04
-6.573491846211254597e-04
8.036222425289452076e-05
1.013691304251551628e-03
1.769973430782556534e-03
2.734788926318287849e-03
2.609871095046401024e-03
3.242292208597064018e-03
2.842350164428353310e-03
2.315009012818336487e-03
1.961334841325879097e-03
1.385677140206098557e-03
-7.873190043028444052e-06
-3.925464698113501072e-04
-5.668569938279688358e-04
-1.386364339850842953e-03
-2.474166452884674072e-03
-2.808549674227833748e-03
-3.066125791519880295e-03
-3.240390680730342865e-03
-2.974373288452625275e-03
-2.940551145002245903e-03
-2.850248944014310837e-03
-2.528593875467777252e-03
-1.923009171150624752e-03
-1.670071040280163288e-03
-5.273776478134095669e-04
-3.344440192449837923e-04
-3.008648054674267769e-04
4.466364625841379166e-04
1.082264352589845657e-03
2.087374450638890266e-03
2.771895145997405052e-03
2.900806488469243050e-03
2.637788187712430954e-03
2.904408378526568413e-03
2.537156920880079269e-03
2.079223515465855598e-03
2.574821701273322105e-03
2.603698289021849632e-03
1.218644087202847004e-03
1.341062743449583650e-04
-3.470068040769547224e-04
-1.880162046290934086e-03
-2.613633405417203903e-03
-2.975504845380783081e-03
-3.229942871257662773e-03
-3.143925452604889870e-03
-3.082532202824950218e-03
-2.922803163528442383e-03
-2.680114936083555222e-03
-2.667497610673308372e-03
-2.263612812384963036e-03
-1.801513484679162502e-03
-8.820923394523561001e-04
-3.454399120528250933e-05
3.325038705952465534e-04
1.039679744280874729e-03
1.802613493055105209e-03
2.224762225523591042e-03
3.396408632397651672e-03
2.771474886685609818e-03
1.889107166789472103e-03
1.763805048540234566e-03
1.780505408532917500e-03
1.173395430669188499e-03
2.524309791624546051e-03
1.957020256668329239e-03
1.630886108614504337e-03
4.661909188143908978e-04
-5.558163975365459919e-04
-1.483501750044524670e-03
-2.243823837488889694e-03
-2.771227154880762100e-03
-3.130015451461076736e-03
-3.282083431258797646e-03
-3.011585213243961334e-03
-2.825416624546051025e-03
-2.686553169041872025e-03
-2.783637493848800659e-03
-1.984264235943555832e-03
-1.393779297359287739e-03
-1.890656421892344952e-04
-3.507590736262500286e-04
4.555374907795339823e-04
8.937931270338594913e-04
2.491766121238470078e-03
2.492131199687719345e-03
3.080292139202356339e-03
2.581587294116616249e-03
1.577156712301075459e-03
1.354650477878749371e-03
1.298989402130246162e-03
1.803358900360763073e-03
1.523180631920695305e-03
2.025729743763804436e-03
1.474734628573060036e-03
2.676135045476257801e-04
-5.734938313253223896e-04
-1.375836553052067757e-03
-1.928218756802380085e-03
-2.773510292172431946e-03
-3.158478997647762299e-03
-3.035991918295621872e-03
-3.030306892469525337e-03
-3.000569995492696762e-03
-2.732104156166315079e-03
-2.776803448796272278e-03
-1.923502655699849129e-03
-1.172579708509147167e-03
-3.371634811628609896e-04
-1.912854204420000315e-04
5.277289310470223427e-04
1.388339092954993248e-03
1.672550686635077000e-03
2.084600040689110756e-03
2.620776882395148277e-03
1.313823275268077850e-03
9.965538047254085541e-04
3.461845626588910818e-04
6.564478971995413303e-04
1.411919831298291683e-03
1.743192318826913834e-03
2.373167080804705620e-03
1.321470830589532852e-03
-3.407864642213098705e-05
-5.365455290302634239e-04
-1.635522698052227497e-03
-1.849271939136087894e-03
-2.917203353717923164e-03
-3.237833967432379723e-03
-3.018735209479928017e-03
-3.117057494819164276e-03
-3.058294299989938736e-03
-2.980957739055156708e-03
-2.720966935157775879e-03
-1.878185430541634560e-03
-7.597320363856852055e-04
1.568461302667856216e-04
-4.261871708877151832e-06
8.994337986223399639e-05
1.567215425893664360e-03
1.704292721115052700e-03
2.599291969090700150e-03
2.148688537999987602e-03
3.462060121819376945e-04
3.434760437812656164e-04
2.316844766028225422e-04
1.170744653791189194e-03
1.714676385745406151e-03
2.367091132327914238e-03
1.782508450560271740e-03
1.110286335460841656e-03
-1.042864605551585555e-04
-2.879965468309819698e-04
-8.876390638761222363e-04
-1.971760299056768417e-03
-2.959004603326320648e-03
-3.243701066821813583e-03
-3.261906327679753304e-03
-2.938360441476106644e-03
-3.062012838199734688e-03
-2.960568992421030998e-03
-2.541039371863007545e-03
-1.725164707750082016e-03
-1.268957392312586308e-03
-1.344669726677238941e-04
-4.501410003285855055e-04
7.868011743994429708e-05
1.922596246004104614e-03
3.134512109681963921e-03
2.445680089294910431e-03
1.280450611375272274e-03
2.076756674796342850e-03
1.765437191352248192e-03
1.829288667067885399e-03
3.124619368463754654e-03
3.165347501635551453e-03
2.369480673223733902e-03
1.562353922054171562e-03
3.078270819969475269e-04
-1.366464566672220826e-04
-6.531392573378980160e-04
-9.754041675478219986e-04
-1.306788763031363487e-03
-2.671283204108476639e-03
-3.114980179816484451e-03
-3.224787069484591484e-03
-2.942772116512060165e-03
-3.103099530562758446e-03
-3.094655927270650864e-03
-2.687413478270173073e-03
-2.246098825708031654e-03
-1.255482784472405910e-03
-3.252179885748773813e-04
-3.690115991048514843e-04
1.104317721910774708e-03
2.130727749317884445e-03
1.980544300749897957e-03
2.010218799114227295e-03
1.643173163756728172e-03
2.889512805268168449e-03
2.009090967476367950e-03
3.309449879452586174e-03
3.011597087606787682e-03
3.931728657335042953e-03
2.713121473789215088e-03
1.329440390691161156e-03
6.687255518045276403e-05
-6.015279795974493027e-04
-1.145589048974215984e-03
-5.698238383047282696e-04
-1.231491332873702049e-03
-2.623671432957053185e-03
-3.146069357171654701e-03
-3.028697101399302483e-03
-2.931457944214344025e-03
-3.073344472795724869e-03
-3.190563293173909187e-03
-2.671083668246865273e-03
-2.069949870929121971e-03
-1.114681828767061234e-03
-1.009138184599578381e-03
-4.158910305704921484e-04
9.134738356806337833e-04
7.567924330942332745e-04
5.292095011100172997e-04
1.235257717780768871e-03
1.117836451157927513e-03
2.657487988471984863e-03
2.955487230792641640e-03
2.769109094515442848e-03
3.258505603298544884e-03
3.506226465106010437e-03
1.748764887452125549e-03
7.938244962133467197e-04
2.607166825328022242e-04
-3.251166490372270346e-04
-4.117334610782563686e-04
-8.664223714731633663e-04
-1.272761262953281403e-03
-2.484306227415800095e-03
-3.008155385032296181e-03
-3.203090745955705643e-03
-2.997154369950294495e-03
-3.046184312552213669e-03
-3.087225835770368576e-03
-2.480560680851340294e-03
-1.850084750913083553e-03
-1.692671212367713451e-03
-8.494375506415963173e-04
-9.540042810840532184e-05
8.403170068049803376e-05
-1.105051414924673736e-04
-7.222677959362044930e-05
1.439636573195457458e-03
1.672608428634703159e-03
2.146092709153890610e-03
2.750558545812964439e-03
3.280440112575888634e-03
2.282046480104327202e-03
3.225005231797695160e-03
1.801256090402603149e-03
4.719225689768791199e-04
-9.198643383570015430e-04
-7.010466069914400578e-04
-3.443116147536784410e-04
-6.694004405289888382e-04
-1.341633265838027000e-03
-2.600434701889753342e-03
-2.969856839627027512e-03
-3.174707293510437012e-03
-2.976058050990104675e-03
-3.026315942406654358e-03
-3.043022705242037773e-03
-2.739273710176348686e-03
-2.224707044661045074e-03
-2.044369233772158623e-03
-1.475513796322047710e-03
-3.595612070057541132e-04
4.237906250637024641e-04
2.189352817367762327e-04
1.240495359525084496e-03
1.585077843628823757e-03
2.279737265780568123e-03
2.096205484122037888e-03
2.864456735551357269e-03
2.929731272161006927e-03
1.985249575227499008e-03
9.607165120542049408e-04
1.071188948117196560e-03
7.463864167220890522e-04
-3.723147092387080193e-04
-3.887617494910955429e-04
-4.622271226253360510e-04
-9.292598115280270576e-04
-1.639994909055531025e-03
-2.689067972823977470e-03
-3.101203357800841331e-03
-3.097251523286104202e-03
-3.041828051209449768e-03
-3.029608633369207382e-03
-2.959303092211484909e-03
-2.425509970635175705e-03
-2.342604566365480423e-03
-1.902256859466433525e-03
-1.258388161659240723e-03
-6.825471646152436733e-04
-4.373624396976083517e-04
5.524202715605497360e-04
1.290662446990609169e-03
1.045101205818355083e-03
2.718546427786350250e-03
2.794423140585422516e-03
3.543506842106580734e-03
3.243018174543976784e-03
1.866171834990382195e-03
1.879318268038332462e-03
1.302118180319666862e-03
3.379865956958383322e-04
-1.315840636380016804e-04
-3.485461347736418247e-04
-1.700283974059857428e-05
-8.281637565232813358e-04
-1.922531519085168839e-03
-2.715764567255973816e-03
-3.094554413110017776e-03
-3.151259152218699455e-03
-2.941826824098825455e-03
-3.157358849421143532e-03
-2.793312305584549904e-03
-2.440148266032338142e-03
-2.311057178303599358e-03
-1.570256776176393032e-03
-1.507253851741552353e-03
6.606584065593779087e-05
4.200952535029500723e-04
8.771385764703154564e-04
7.503372617065906525e-04
1.278598443605005741e-03
2.347778296098113060e-03
2.490082522854208946e-03
3.234480973333120346e-03
3.015040419995784760e-03
2.429965185001492500e-03
2.933562034741044044e-03
1.303340657614171505e-03
6.421430152840912342e-04
-1.957198983291164041e-04
-9.707144636195152998e-05
-1.135360362241044641e-04
-9.654554305598139763e-04
-2.101787598803639412e-03
-2.886121626943349838e-03
-3.027028637006878853e-03
-3.078449983149766922e-03
-2.844872651621699333e-03
-3.124255221337080002e-03
-2.601383021101355553e-03
-2.591877477243542671e-03
-2.313148463144898415e-03
-1.790036563761532307e-03
-1.270320848561823368e-03
6.616463360842317343e-05
5.027229781262576580e-04
1.373369363136589527e-03
1.415394945070147514e-03
8.002624381333589554e-04
2.249047392979264259e-03
2.261126413941383362e-03
2.454906934872269630e-03
2.538164146244525909e-03
2.129618078470230103e-03
1.467934343963861465e-03
6.533017149195075035e-04
-2.967690816149115562e-04
-6.034461548551917076e-04
-1.187282905448228121e-04
-4.365904605947434902e-04
-1.663645380176603794e-03
-2.454593079164624214e-03
-2.928972011432051659e-03
-3.104524686932563782e-03
-3.036793787032365799e-03
-2.855911385267972946e-03
-3.113671671599149704e-03
-2.622798550873994827e-03
-2.558470005169510841e-03
-2.217129105702042580e-03
-1.792420167475938797e-03
-1.812086789868772030e-03
-7.294004899449646473e-04
-2.351454604649916291e-04
1.024157274514436722e-03
4.115347110200673342e-04
4.213080974295735359e-04
2.227431861683726311e-03
2.331441268324851990e-03
2.105433726683259010e-03
1.820527366362512112e-03
4.825781797990202904e-04
1.199297141283750534e-03
2.598208375275135040e-04
-3.048657963518053293e-04
-1.846604282036423683e-04
-8.773521985858678818e-04
-1.042693154886364937e-03
-1.441876403987407684e-03
-2.592286327853798866e-03
-2.962178783491253853e-03
-3.157113213092088699e-03
-3.039730945602059364e-03
-2.958188531920313835e-03
-2.912178169935941696e-03
-2.772738458588719368e-03
-2.766265999525785446e-03
-2.455630805343389511e-03
-2.411802532151341438e-03
-1.654399908147752285e-03
-1.059773494489490986e-03
-1.177189755253493786e-03
-2.361123042646795511e-04
-8.248814265243709087e-05
7.251300849020481110e-04
1.440425752662122250e-03
1.975214574486017227e-03
1.472017844207584858e-03
1.477411366067826748e-03
-1.617989182705059648e-04
-6.311564357019960880e-04
-5.135427927598357201e-04
-1.085913390852510929e-03
-1.878845389001071453e-03
-1.236095093190670013e-03
-1.601320807822048664e-03
-2.110215835273265839e-03
-2.624197397381067276e-03
-3.164172172546386719e-03
-3.157282946631312370e-03
-2.994678448885679245e-03
-2.854578429833054543e-03
-2.907310146838426590e-03
-2.877657301723957062e-03
-3.163307905197143555e-03
-3.149936441332101822e-03
-2.947825239971280098e-03
-2.300692256540060043e-03
-2.031132346019148827e-03
-1.371956896036863327e-03
-1.209976850077509880e-03
-2.421503886580467224e-04
1.943635143106803298e-04
1.352924155071377754e-03
9.463674505241215229e-04
-3.494606644380837679e-04
-2.033800119534134865e-04
-1.208568457514047623e-03
-8.342512883245944977e-04
-7.969192811287939548e-04
-1.345183118246495724e-03
-2.049413509666919708e-03
-1.709427335299551487e-03
-2.374357776716351509e-03
-2.463546348735690117e-03
-2.896679332479834557e-03
-3.227152628824114799e-03
-3.097145585343241692e-03
-2.933814888820052147e-03
-2.938637509942054749e-03
-2.864695386961102486e-03
-3.162647364661097527e-03
-3.119819797575473785e-03
-2.838714746758341789e-03
-2.886934671550989151e-03
-2.758957445621490479e-03
-2.926394576206803322e-03
-2.267084084451198578e-03
-1.946538570336997509e-03
-1.051903935149312019e-03
-7.532041636295616627e-04
-2.796848712023347616e-04
-3.627625119406729937e-04
-9.101440082304179668e-04
-1.469085575081408024e-03
-1.168594928458333015e-03
-1.579909585416316986e-03
-1.359636196866631508e-03
-1.966568874195218086e-03
-2.682503778487443924e-03
-2.194885397329926491e-03
-2.425648970529437065e-03
-2.825427101925015450e-03
-3.234125440940260887e-03
-3.188299713656306267e-03
-2.989663742482662201e-03
-2.930165268480777740e-03
-2.797220367938280106e-03
-2.994650742039084435e-03
-2.994027920067310333e-03
-3.171880729496479034e-03
-3.106214106082916260e-03
-2.856245730072259903e-03
-2.625178312882781029e-03
-3.084016731008887291e-03
-2.869234653189778328e-03
-2.368937944993376732e-03
-2.297555794939398766e-03
-1.929367310367524624e-03
-1.964177703484892845e-03
-2.216716296970844269e-03
-1.478562247939407825e-03
-2.452505752444267273e-03
-2.470187144353985786e-03
-2.246024552732706070e-03
-2.535892883315682411e-03
-2.521736547350883484e-03
-2.502309856936335564e-03
-2.749839331954717636e-03
-2.825614763423800468e-03
-3.000126220285892487e-03
-3.190771676599979401e-03
-3.079563379287719727e-03
-2.944554435089230537e-03
-2.978099975734949112e-03
-2.984638325870037079e-03
-2.963880309835076332e-03
-2.870892407372593880e-03
-2.968600485473871231e-03
-2.938000950962305069e-03
-3.003068501129746437e-03
-2.932341303676366806e-03
-3.045068355277180672e-03
-3.197967074811458588e-03
-3.265754319727420807e-03
-3.389829071238636971e-03
-3.502890001982450485e-03
-3.332455409690737724e-03
-3.601586213335394859e-03
-3.377758897840976715e-03
-3.560326294973492622e-03
-3.290579421445727348e-03
-3.031342756003141403e-03
-2.701352583244442940e-03
-2.644599415361881256e-03
-2.691417001187801361e-03
-3.049949416890740395e-03
-3.078766865655779839e-03
-3.256498835980892181e-03
-2.935130614787340164e-03
-2.926877932623028755e-03
-3.017090959474444389e-03
-2.986295614391565323e-03
-2.997456816956400871e-03
-2.841449109837412834e-03
-2.815836109220981598e-03
-3.003435442224144936e-03
-2.991040702909231186e-03
-3.000777214765548706e-03
-2.905535977333784103e-03
-2.846287796273827553e-03
-2.896175254136323929e-03
-2.886612433940172195e-03
-3.004299476742744446e-03
-2.827039221301674843e-03
-2.977458992972970009e-03
-3.042442956939339638e-03
-3.073828294873237610e-03
-3.095976542681455612e-03
-2.867794362828135490e-03
-2.765743993222713470e-03
-2.841244218870997429e-03
-2.916328143328428268e-03
-2.989423926919698715e-03
-3.099881112575531006e-03
-3.167424583807587624e-03
-3.083616262301802635e-03
-3.046214114874601364e-03
-2.925015985965728760e-03
-2.965715713798999786e-03
-2.971583046019077301e-03
