2.520341658964753151e-04
-1.281181117519736290e-03
5.211624782532453537e-03
-9.466182440519332886e-03
-1.984271220862865448e-03
-3.518052864819765091e-03
-4.087224137037992477e-03
-8.567695622332394123e-04
-4.724180325865745544e-03
5.636546411551535130e-04
-7.366275880485773087e-03
-3.976455423980951309e-03
-3.530911635607481003e-03
-4.482069052755832672e-03
-1.482894760556519032e-03
-2.039072336629033089e-03
2.425432903692126274e-03
5.462876521050930023e-03
-5.429493729025125504e-03
-6.171698332764208317e-04
1.416980056092143059e-03
-6.265729200094938278e-03
-1.374772517010569572e-03
9.312962065450847149e-04
-1.182819178211502731e-04
-2.132025081664323807e-03
-6.824551965110003948e-04
4.365915432572364807e-03
-1.360791502520442009e-03
-3.790075425058603287e-03
-2.975174225866794586e-03
6.852622143924236298e-03
-3.978522494435310364e-03
-1.947533572092652321e-03
-4.198213573545217514e-03
1.078976551070809364e-03
1.184510183520615101e-03
3.265072591602802277e-03
-3.978882450610399246e-03
-3.844009246677160263e-03
1.821010257117450237e-03
-2.490091370418667793e-03
-5.586746265180408955e-04
6.421840284019708633e-03
6.355640362016856670e-04
-3.794191870838403702e-03
-1.832752750487998128e-04
-3.114469116553664207e-03
-5.551217123866081238e-03
-6.268186960369348526e-03
-3.889286890625953674e-03
-3.055043285712599754e-03
1.138635911047458649e-03
-6.262370850890874863e-03
-1.567706232890486717e-03
5.464388057589530945e-03
-1.645424054004251957e-03
3.546579042449593544e-03
1.956120599061250687e-03
-2.288145245984196663e-03
-2.523010829463601112e-03
-2.921165665611624718e-03
-1.426282105967402458e-03
-4.259577952325344086e-03
