-4.589178413152694702e-02
-4.469842463731765747e-02
2.218493726104497910e-03
-1.105005517601966858e-01
-4.240367934107780457e-02
-6.720333546400070190e-02
-5.195577442646026611e-02
-6.222166866064071655e-02
-3.288703784346580505e-02
9.797542542219161987e-02
-4.493773356080055237e-02
-5.343522503972053528e-02
-6.285787373781204224e-02
-3.283963352441787720e-02
-4.411616548895835876e-02
-4.298521205782890320e-02
-6.272960454225540161e-02
-5.614768341183662415e-02
-5.091221258044242859e-02
-4.974568262696266174e-02
-3.272901847958564758e-02
-5.008137226104736328e-02
8.291895687580108643e-02
-4.449190944433212280e-02
-5.132490023970603943e-02
-7.981988787651062012e-02
-3.367210179567337036e-02
-4.931423068046569824e-02
1.127188652753829956e-01
-2.715296298265457153e-02
-6.605765223503112793e-02
-5.488683003932237625e-03
-1.557113882154226303e-02
-2.728941105306148529e-02
1.154375076293945312e-01
-7.335127145051956177e-02
1.269218325614929199e-01
8.790624141693115234e-02
-4.906455427408218384e-02
9.596398472785949707e-02
1.086396276950836182e-01
1.168552115559577942e-01
-4.825429245829582214e-02
-4.424681514501571655e-02
-4.533722624182701111e-02
-1.425044983625411987e-01
-3.159456327557563782e-02
-5.480561032891273499e-02
1.080622971057891846e-01
-4.321045055985450745e-02
-5.654009431600570679e-02
-6.451446563005447388e-02
-5.272451788187026978e-02
1.013939231634140015e-01
-2.895174361765384674e-02
-7.564946264028549194e-02
-9.157862514257431030e-02
8.369815349578857422e-02
8.369553089141845703e-02
-2.672556415200233459e-02
1.280284225940704346e-01
-2.664384245872497559e-02
-3.615181148052215576e-02
-5.762953311204910278e-02
-5.144257470965385437e-02
-4.071588441729545593e-02
-5.013086646795272827e-02
-2.742951177060604095e-02
-5.548068508505821228e-02
7.958425581455230713e-02
-3.472073748707771301e-02
-3.158780559897422791e-02
-1.679392345249652863e-02
1.047415360808372498e-01
-5.942774564027786255e-02
-3.017036616802215576e-02
1.177905127406120300e-01
4.151789471507072449e-03
-5.640531331300735474e-02
-6.137595325708389282e-02
-9.784405119717121124e-03
-6.376947462558746338e-02
-4.338663816452026367e-02
-3.563426807522773743e-02
-3.411651402711868286e-02
-6.363830715417861938e-02
1.026017516851425171e-01
-4.627420753240585327e-02
-1.045201867818832397e-01
-5.305948853492736816e-02
9.538908302783966064e-02
-5.361419916152954102e-02
-1.003619357943534851e-01
7.236883789300918579e-02
-3.157294541597366333e-02
1.070408448576927185e-01
-2.373195812106132507e-02
-1.055382266640663147e-01
-7.039706408977508545e-02
-3.420337289571762085e-02
