-5.498501285910606384e-02
7.617062423378229141e-03
-2.531834319233894348e-02
-5.407142266631126404e-02
4.728557833004742861e-04
-4.243625793606042862e-03
4.130605475438642316e-07
-4.815852269530296326e-03
-1.334455562755465508e-03
-3.845808561891317368e-03
1.993541140109300613e-03
-2.492055355105549097e-04
-6.253048032522201538e-02
4.439544863998889923e-05
2.170206244045402855e-05
-1.105381622910499573e-01
9.854969539446756244e-05
7.393942951239296235e-07
2.560169901698827744e-03
-5.362493917346000671e-02
1.409634714946150780e-03
9.548824746161699295e-04
9.735773201100528240e-04
2.315165940672159195e-03
7.776911559176369337e-08
8.918737876228988171e-04
3.394940635189414024e-03
1.267612930178074748e-07
3.316011745482683182e-03
6.792324711568653584e-04
-2.470181137323379517e-02
-1.681371591985225677e-02
-4.887326806783676147e-02
-1.217884197831153870e-02
1.765218330547213554e-03
5.790423892904073000e-05
-3.025107644498348236e-02
1.331038074567914009e-03
2.401641904725693166e-05
-2.030638512223958969e-03
1.858556288425461389e-06
-3.169390559196472168e-02
4.566547033846291015e-07
1.486310793552547693e-04
3.081211820244789124e-03
5.097209941595792770e-04
2.053762955256388523e-06
-9.163482487201690674e-02
-2.523058094084262848e-02
-2.552864607423543930e-03
-1.687872223556041718e-02
-4.070071503520011902e-02
1.801496488042175770e-03
1.117108240578090772e-05
-1.899723336100578308e-02
4.008034375146962702e-05
2.052742522209882736e-03
-4.640038532670587301e-04
2.122726755260373466e-06
-2.912050578743219376e-03
-9.883712045848369598e-04
-4.808012454304844141e-05
-2.823703223839402199e-03
-4.299367964267730713e-02
-4.473385214805603027e-02
1.198490033857524395e-03
-3.431294858455657959e-02
-9.646624675951898098e-04
-3.029224649071693420e-02
9.089896338991820812e-04
-1.787124760448932648e-02
-8.409442752599716187e-02
-5.442915484309196472e-02
-3.058138070628046989e-03
-4.301461949944496155e-02
1.525094616226851940e-03
1.749097573338076472e-04
5.014954367652535439e-04
-3.723714500665664673e-02
-5.295258387923240662e-02
1.414972357451915741e-04
-7.117471657693386078e-03
-5.190043244510889053e-03
-9.638093411922454834e-03
5.483349319547414780e-03
9.488181676715612411e-04
2.225360003649257123e-05
2.087811380624771118e-02
-6.166492402553558350e-02
4.442039644345641136e-04
1.768294023349881172e-03
1.124430913478136063e-03
-2.062285132706165314e-02
2.032825108244651346e-07
-6.558877229690551758e-02
-3.319235751405358315e-03
-4.319895058870315552e-03
1.462013897253200412e-04
8.802831172943115234e-03
-5.979326553642749786e-03
-1.836231723427772522e-02
-1.192307681776583195e-03
-4.329331219196319580e-02
1.381519541610032320e-05
-3.250177949666976929e-02
-4.306310415267944336e-02
-7.662719581276178360e-04
4.473299213714199141e-06
-4.293466918170452118e-03
-5.514344200491905212e-02
-6.483952980488538742e-03
4.583006102620856836e-06
-1.541886571794748306e-02
6.661426823484362103e-07
1.690767703621531837e-06
-1.004129881039261818e-03
2.616565097923739813e-07
-8.373089879751205444e-02
6.203409157023997977e-06
-3.895860537886619568e-02
-3.907105419784784317e-03
-3.408640390262007713e-03
-1.332600973546504974e-02
-2.652411581948399544e-03
-6.379934400320053101e-02
-1.119781052693724632e-03
-4.240655340254306793e-03
-1.551685482263565063e-02
-2.311464585363864899e-02
-2.202577516436576843e-02
7.213039789348840714e-03
-6.098563596606254578e-02
6.564887240529060364e-03
2.288060159116866998e-07
4.502169904299080372e-04
3.327126323711127043e-04
-5.036244913935661316e-02
-5.744275823235511780e-02
-2.145343646407127380e-02
1.435979938833042979e-04
-1.755053550004959106e-02
1.076684275176376104e-04
2.553945966064929962e-02
-3.514699265360832214e-02
-2.410761080682277679e-02
5.184264750823786017e-07
3.564513102173805237e-02
-2.391108078882098198e-03
-5.035978183150291443e-02
-7.026443630456924438e-02
-4.815888404846191406e-02
-1.662630122154951096e-03
-3.064284566789865494e-03
2.683404600247740746e-03
-1.432269695214927197e-03
1.343437749892473221e-02
4.431983456015586853e-03
-6.556433509103953838e-04
-1.415746100246906281e-02
1.849405998655129224e-05
4.655952099710702896e-03
-3.670294582843780518e-02
3.489655791781842709e-04
-3.257794678211212158e-02
7.942752517919871025e-07
1.882876618765294552e-03
-1.542805228382349014e-03
5.487784277647733688e-03
3.261401070631109178e-05
2.953444048762321472e-02
6.925477464392315596e-06
-1.571723632514476776e-02
-3.673421742860227823e-04
-6.450844812206923962e-04
-2.449057810008525848e-02
-9.851764142513275146e-02
-8.081261767074465752e-04
3.767896851059049368e-04
-2.814163686707615852e-03
2.929025413322960958e-07
-1.132174767553806305e-02
1.016020860333810560e-06
4.861296329181641340e-04
1.025613310048356652e-04
-1.016075629740953445e-02
-1.496863551437854767e-03
3.475907491520047188e-03
5.682475966750644147e-05
-3.626856580376625061e-02
-2.566339373588562012e-01
1.224807201651856303e-04
1.479431375628337264e-04
-3.704734891653060913e-02
1.474397413403494284e-05
-1.440559141337871552e-02
1.274320493394043297e-05
5.280093755573034286e-03
2.793855499476194382e-03
-5.034045130014419556e-02
-3.523288993164896965e-03
4.165720893070101738e-04
5.481407511979341507e-03
-6.934232264757156372e-02
-4.544527456164360046e-02
6.029654286976438016e-07
5.084490869194269180e-03
7.790388539433479309e-03
-3.343284828588366508e-03
3.166088426951318979e-04
1.461366423427534755e-07
2.917642859756597318e-06
-2.961767651140689850e-02
-7.207074668258428574e-04
1.007611164823174477e-03
-2.138327620923519135e-02
-3.752176882699131966e-03
-4.066194593906402588e-02
-1.008510662359185517e-04
9.302061516791582108e-04
1.642352981434669346e-05
1.497973455116152763e-03
8.362166699953377247e-04
7.582966936752200127e-04
-7.230070885270833969e-03
6.890455726534128189e-03
-3.300233557820320129e-02
2.293443685630336404e-04
-9.290327131748199463e-02
-7.903843373060226440e-02
-2.071788720786571503e-02
1.706542825559154153e-04
-1.785936881788074970e-03
-1.862325356341898441e-03
2.735545160248875618e-03
-5.043563991785049438e-02
-2.096465323120355606e-03
-1.849739346653223038e-03
1.181991994380950928e-01
-8.215743117034435272e-03
1.031451392918825150e-05
-5.150053650140762329e-03
-7.080796640366315842e-03
-6.283055245876312256e-02
1.029255706816911697e-02
6.769026185793336481e-06
3.772930242121219635e-03
-5.104656447656452656e-04
3.279176780779380351e-06
-5.366722494363784790e-02
-4.110669344663619995e-02
-4.091088101267814636e-02
2.267455682158470154e-03
1.478821039199829102e-02
-3.915584529750049114e-04
-4.367952235043048859e-03
-3.293306872365064919e-05
2.157120034098625183e-03
-6.351012736558914185e-02
-3.710056841373443604e-02
-3.406795905902981758e-03
-7.933840970508754253e-04
1.059021087712608278e-04
4.854900453210575506e-06
-2.612399496138095856e-02
-1.432257413398474455e-04
-5.076417699456214905e-03
-3.062886372208595276e-02
2.998554613441228867e-03
-2.816772460937500000e-02
-4.389811307191848755e-02
5.040299129177583382e-07
2.043958374997600913e-05
6.221838295459747314e-03
3.146595872749458067e-08
2.075053906480661681e-08
4.688303451985120773e-04
-4.562109708786010742e-02
-4.935675114393234253e-02
1.601417083293199539e-03
-4.827035963535308838e-02
8.493081793403689517e-08
-2.977416664361953735e-02
2.519080881029367447e-03
4.840234396397136152e-05
-1.356769911944866180e-02
-3.942956775426864624e-02
2.719900337979197502e-03
-3.014938160777091980e-02
-6.106563378125429153e-04
3.548387205228209496e-03
-5.341723561286926270e-02
2.948045585071668029e-05
-5.979841202497482300e-02
-1.682507805526256561e-03
-1.440066145732998848e-03
-3.093190677464008331e-02
-4.133518040180206299e-02
-6.030561029911041260e-02
-3.937785699963569641e-02
4.909012350253760815e-04
-4.790802672505378723e-02
4.156041541136801243e-04
3.078755922615528107e-02
8.124656975269317627e-03
1.490130741149187088e-02
1.836357841966673732e-05
1.193348271044669673e-05
-7.004289887845516205e-03
-1.074565015733242035e-02
-7.133524119853973389e-02
4.471705469768494368e-04
6.479913368821144104e-03
7.762554014334455132e-05
3.208178281784057617e-02
-3.532322868704795837e-02
-6.424589455127716064e-02
1.502748578786849976e-03
-8.676407160237431526e-04
-4.090606421232223511e-02
-3.675314038991928101e-02
1.572807668708264828e-04
-3.264796305302297696e-06
-1.223754021339118481e-03
-1.517789997160434723e-02
-5.531798303127288818e-02
-5.250528920441865921e-03
4.650922492146492004e-04
8.068144321441650391e-03
-4.103021638002246618e-04
1.964967139065265656e-02
2.174731045961380005e-01
-2.575736865401268005e-02
-3.194007556885480881e-03
1.393722044440437458e-07
9.836779208853840828e-04
-3.570722043514251709e-02
-4.842928610742092133e-03
-1.182087510824203491e-02
-1.592943072319030762e-02
-2.116690156981348991e-03
1.229192712344229221e-03
-7.576384395360946655e-02
5.149173550307750702e-03
1.754191180225461721e-05
-1.761179068125784397e-03
-4.342367127537727356e-02
-1.502373634139075875e-04
-1.685206033289432526e-02
1.283607329241931438e-03
6.605483591556549072e-03
-2.379166707396507263e-02
-2.631011791527271271e-02
2.982579730451107025e-02
-2.426630817353725433e-04
-2.565030008554458618e-03
1.489952355623245239e-01
-4.223653301596641541e-02
-2.345882356166839600e-03
-3.811495378613471985e-02
-3.055036533623933792e-03
9.672673768363893032e-04
-6.801760941743850708e-02
-3.060973621904850006e-02
1.584000699222087860e-02
-2.840587124228477478e-02
-4.218446463346481323e-02
-3.967896848917007446e-02
-1.544285216368734837e-03
8.167947089532390237e-05
2.857791550923138857e-04
1.633580905036069453e-05
-1.281502074562013149e-03
-4.436090216040611267e-02
-2.443289384245872498e-02
-5.950116366147994995e-02
1.399267489432531875e-06
-4.756718128919601440e-02
-1.644969172775745392e-02
-8.623525500297546387e-02
-4.822314158082008362e-02
-3.854010999202728271e-02
1.684135990217328072e-03
-3.613050654530525208e-02
1.167547088698484004e-04
-8.677245676517486572e-02
-9.517183061689138412e-04
-4.566466063261032104e-02
-1.552001922391355038e-03
-9.085974656045436859e-03
-1.457671541720628738e-02
-1.161218853667378426e-03
3.722450628629303537e-06
4.130096174776554108e-03
-6.158705428242683411e-02
-1.024172529578208923e-01
-5.345672834664583206e-03
1.273346242669504136e-06
-1.156600774265825748e-03
-4.009260155726224184e-04
-2.737245522439479828e-02
