-8.970365673303604126e-02
-9.370364993810653687e-02
-9.128278493881225586e-02
-9.638378769159317017e-02
-9.161274880170822144e-02
-9.883832931518554688e-02
-9.437368065118789673e-02
-9.182824939489364624e-02
-8.661276102066040039e-02
-8.828279376029968262e-02
-9.282823652029037476e-02
-8.743093907833099365e-02
-8.595445007085800171e-02
-9.194562584161758423e-02
-9.585362672805786133e-02
-9.946493804454803467e-02
-8.910097181797027588e-02
-8.129626512527465820e-02
-8.846461027860641479e-02
-9.680465608835220337e-02
-9.847468882799148560e-02
-9.313464164733886719e-02
-8.654541522264480591e-02
-9.115819633007049561e-02
-9.504372626543045044e-02
-9.325921535491943359e-02
-9.271375834941864014e-02
-1.019965708255767822e-01
-8.779457956552505493e-02
-9.368009120225906372e-02
-8.572722971439361572e-02
-9.030634909868240356e-02
-9.918127954006195068e-02
-8.669145405292510986e-02
-9.725598245859146118e-02
-8.796621859073638916e-02
-8.410195261240005493e-02
-8.188354969024658203e-02
-8.614149689674377441e-02
-8.100512623786926270e-02
-8.730636537075042725e-02
-8.891326934099197388e-02
-9.698595851659774780e-02
-9.839314222335815430e-02
-9.790376573801040649e-02
-1.031041219830513000e-01
-8.930236846208572388e-02
-9.394387155771255493e-02
-9.405469894409179688e-02
-9.904346615076065063e-02
-8.548700809478759766e-02
-9.227506816387176514e-02
-9.529288113117218018e-02
-9.756560623645782471e-02
-9.425920993089675903e-02
-9.340735524892807007e-02
-8.830635994672775269e-02
-1.003029793500900269e-01
-8.881875127553939819e-02
-9.168606251478195190e-02
-8.852206170558929443e-02
-9.119730442762374878e-02
-9.096421301364898682e-02
-9.678550064563751221e-02
-8.097108453512191772e-02
-7.743462175130844116e-02
-8.360643684864044189e-02
-8.464170247316360474e-02
-9.795489162206649780e-02
-1.166586950421333313e-01
-1.243140250444412231e-01
-1.433423012495040894e-01
-1.397101730108261108e-01
-1.258725225925445557e-01
-1.268276423215866089e-01
-1.259452402591705322e-01
-1.186104193329811096e-01
-1.085370108485221863e-01
-9.251102805137634277e-02
-9.437985718250274658e-02
-8.867432922124862671e-02
-8.722116798162460327e-02
-9.228277951478958130e-02
-8.669355511665344238e-02
-8.943093568086624146e-02
-8.939725905656814575e-02
-9.267066419124603271e-02
-9.013664722442626953e-02
-9.245687723159790039e-02
-8.329715579748153687e-02
-8.820430189371109009e-02
-9.441762417554855347e-02
-8.705064654350280762e-02
-8.891509473323822021e-02
-9.097105264663696289e-02
-9.068294614553451538e-02
-9.322568029165267944e-02
-1.186250150203704834e-01
-1.355171501636505127e-01
-1.439170390367507935e-01
-1.446257233619689941e-01
-1.319669336080551147e-01
-1.130141615867614746e-01
-1.305257230997085571e-01
-1.243963763117790222e-01
-1.193376705050468445e-01
-1.071067377924919128e-01
-1.033355370163917542e-01
-9.014175087213516235e-02
-8.347599208354949951e-02
-9.766143560409545898e-02
-8.985180407762527466e-02
-9.544102847576141357e-02
-9.141553938388824463e-02
-8.888454735279083252e-02
-8.637620508670806885e-02
-8.397221565246582031e-02
-9.384674578905105591e-02
-8.935550600290298462e-02
-1.014588624238967896e-01
-9.668506681919097900e-02
-9.477902948856353760e-02
-8.986474573612213135e-02
-8.893945068120956421e-02
-1.101746559143066406e-01
-1.294150352478027344e-01
-1.790770292282104492e-01
-2.522475421428680420e-01
-2.830354869365692139e-01
-3.057505488395690918e-01
-3.163877427577972412e-01
-2.773650884628295898e-01
-2.131325453519821167e-01
-1.431057006120681763e-01
-1.111275479197502136e-01
-1.039679795503616333e-01
-9.883509576320648193e-02
-8.936706185340881348e-02
-8.704373240470886230e-02
-9.138177335262298584e-02
-8.845449239015579224e-02
-9.723564237356185913e-02
-9.148226678371429443e-02
-8.833552896976470947e-02
-8.854968100786209106e-02
-8.046171069145202637e-02
-1.051180586218833923e-01
-1.017164885997772217e-01
-1.207400485873222351e-01
-9.179499000310897827e-02
-7.023543864488601685e-02
-5.440483987331390381e-02
-4.381129145622253418e-02
-2.668214030563831329e-02
-1.457246206700801849e-02
-1.194571144878864288e-02
-7.466903887689113617e-03
-7.862603291869163513e-03
-3.151180222630500793e-02
-4.271925240755081177e-02
-6.200508773326873779e-02
-8.060815185308456421e-02
-6.184660643339157104e-02
-8.446655422449111938e-02
-1.054888144135475159e-01
-9.202080965042114258e-02
-8.313433825969696045e-02
-9.794551879167556763e-02
-8.761275559663772583e-02
-9.364777803421020508e-02
-9.152171015739440918e-02
-8.702667057514190674e-02
-8.853936940431594849e-02
-9.702827781438827515e-02
-1.021214053034782410e-01
-1.517945677042007446e-01
-1.397936046123504639e-01
-7.917398959398269653e-02
-4.212485626339912415e-02
-6.563513074070215225e-03
1.952143758535385132e-02
1.680470257997512817e-02
2.811476960778236389e-02
1.321285404264926910e-02
4.799864254891872406e-03
-2.187211066484451294e-03
-3.896211041137576103e-03
-1.420590840280056000e-02
-2.015821263194084167e-02
-3.149946779012680054e-02
-3.211359307169914246e-02
-6.043361872434616089e-02
-7.710406184196472168e-02
-9.586215019226074219e-02
-9.686637669801712036e-02
-9.143903106451034546e-02
-9.899657964706420898e-02
-9.286820888519287109e-02
-8.794900029897689819e-02
-9.497144818305969238e-02
-1.019897311925888062e-01
-9.979565441608428955e-02
-1.432323008775711060e-01
-1.861445307731628418e-01
-1.020882800221443176e-01
-3.827401623129844666e-02
-4.727863706648349762e-04
2.726965397596359253e-02
3.695958480238914490e-02
3.986011445522308350e-02
3.563719615340232849e-02
3.597159683704376221e-02
3.521192073822021484e-02
1.280051842331886292e-02
5.731097422540187836e-03
1.470172777771949768e-03
1.390897203236818314e-02
-2.620646730065345764e-02
-3.018977679312229156e-02
-5.320467054843902588e-02
-8.076570928096771240e-02
-1.016290560364723206e-01
-9.714780002832412720e-02
-9.018079191446304321e-02
-9.536007046699523926e-02
-9.246317297220230103e-02
-1.098683550953865051e-01
-1.117132604122161865e-01
-1.006354913115501404e-01
-1.159019321203231812e-01
-1.503971815109252930e-01
-1.182456687092781067e-01
-7.861626893281936646e-02
-3.999069333076477051e-02
2.279646135866641998e-02
4.192458838224411011e-02
4.801155626773834229e-02
2.897192351520061493e-02
3.701642900705337524e-02
2.262798883020877838e-02
2.974530681967735291e-02
7.109857629984617233e-03
-1.000924222171306610e-02
-1.031787693500518799e-02
-4.461778793483972549e-03
-1.061356998980045319e-02
-3.930021077394485474e-02
-6.646891683340072632e-02
-8.218257874250411987e-02
-1.087535917758941650e-01
-9.183366596698760986e-02
-8.180289715528488159e-02
-8.638685196638107300e-02
-9.991467744112014771e-02
-1.015476286411285400e-01
-9.343626350164413452e-02
-8.665259927511215210e-02
-9.347435086965560913e-02
-9.338027983903884888e-02
-7.373665273189544678e-02
-4.541230946779251099e-02
1.596871297806501389e-04
3.989047929644584656e-02
4.745738953351974487e-02
3.975823894143104553e-02
2.981124632060527802e-02
3.726441785693168640e-02
3.948355093598365784e-02
2.422304265201091766e-02
2.406549453735351562e-02
-9.904851205646991730e-03
-1.036453060805797577e-02
5.171433556824922562e-03
1.088146213442087173e-02
-3.347098082304000854e-02
-6.357194483280181885e-02
-8.682917803525924683e-02
-9.939735382795333862e-02
-8.907507359981536865e-02
-8.625946938991546631e-02
-9.794499725103378296e-02
-9.062279760837554932e-02
-1.009156405925750732e-01
-9.511200338602066040e-02
-7.817491888999938965e-02
-8.127018064260482788e-02
-6.887551397085189819e-02
-6.162920966744422913e-02
-2.873698249459266663e-02
3.075993433594703674e-02
5.129575356841087341e-02
4.625586047768592834e-02
2.431602030992507935e-02
3.552940487861633301e-02
2.783143520355224609e-02
2.718796208500862122e-02
3.889312595129013062e-02
3.198652341961860657e-02
1.248849183320999146e-02
-1.768496632575988770e-02
-5.059637594968080521e-03
-1.279515027999877930e-02
-2.905663847923278809e-02
-4.256244003772735596e-02
-6.585876643657684326e-02
-8.985704183578491211e-02
-9.012960642576217651e-02
-9.426303952932357788e-02
-9.453020244836807251e-02
-8.498702198266983032e-02
-9.286936372518539429e-02
-8.775984495878219604e-02
-7.074563950300216675e-02
-6.590746343135833740e-02
-7.698231935501098633e-02
-5.127406492829322815e-02
8.991621434688568115e-03
2.767668850719928741e-02
4.565666243433952332e-02
2.080062963068485260e-02
2.810567244887351990e-02
1.834136620163917542e-02
3.717527957633137703e-03
2.001255005598068237e-02
2.470091916620731354e-02
2.957614883780479431e-02
1.340571418404579163e-02
-1.231337431818246841e-02
-1.187263336032629013e-02
-1.928935572504997253e-02
-3.707225248217582703e-02
-5.356232449412345886e-02
-6.633221358060836792e-02
-6.687576323747634888e-02
-8.238293230533599854e-02
-8.897027373313903809e-02
-9.208741784095764160e-02
-9.527214616537094116e-02
-8.661660552024841309e-02
-7.884274423122406006e-02
-8.124235272407531738e-02
-7.391540706157684326e-02
-7.012653350830078125e-02
-4.363428801298141479e-02
7.509656716138124466e-03
4.448442533612251282e-02
2.080521732568740845e-02
1.888561062514781952e-02
1.409483049064874649e-02
-3.897314891219139099e-03
-9.960798546671867371e-03
7.375397253781557083e-04
1.457011327147483826e-02
2.923512458801269531e-02
3.886956488713622093e-03
5.272463895380496979e-04
-1.184943038970232010e-02
-3.057227842509746552e-02
-4.580781608819961548e-02
-5.098304152488708496e-02
-6.630577892065048218e-02
-7.066717743873596191e-02
-8.537018299102783203e-02
-9.077171981334686279e-02
-9.215257316827774048e-02
-9.580456465482711792e-02
-9.103432297706604004e-02
-8.500524610280990601e-02
-9.156415611505508423e-02
-7.629232108592987061e-02
-5.390687286853790283e-02
-3.623575717210769653e-02
-4.122664686292409897e-03
2.254037186503410339e-02
1.606463454663753510e-02
4.214906133711338043e-03
1.126255840063095093e-02
-1.364973373711109161e-02
-1.984944008290767670e-02
-5.196250043809413910e-03
2.852217480540275574e-02
2.672737278044223785e-02
2.781669236719608307e-02
1.820223964750766754e-02
-7.309279870241880417e-03
-9.936228394508361816e-03
-4.088910296559333801e-02
-4.963315650820732117e-02
-6.992945820093154907e-02
-6.548561900854110718e-02
-8.256229013204574585e-02
-9.231108427047729492e-02
-8.409718424081802368e-02
-9.574023634195327759e-02
-9.029828757047653198e-02
-7.831969857215881348e-02
-9.237245470285415649e-02
-8.031682670116424561e-02
-5.258877575397491455e-02
-1.470892224460840225e-02
4.399225581437349319e-03
4.574515856802463531e-03
1.407567039132118225e-02
-3.387417178601026535e-03
1.477158535271883011e-02
-4.936342593282461166e-03
-9.619044139981269836e-03
1.761043258011341095e-02
2.449788339436054230e-02
4.090646654367446899e-02
2.693628892302513123e-02
1.637791097164154053e-02
1.185899693518877029e-02
-7.756224833428859711e-03
-3.536073118448257446e-02
-5.136913806200027466e-02
-6.899106502532958984e-02
-7.194841653108596802e-02
-8.755850791931152344e-02
-9.059626609086990356e-02
-9.085594117641448975e-02
-9.471579641103744507e-02
-8.256997913122177124e-02
-9.284832328557968140e-02
-8.886019140481948853e-02
-8.656352013349533081e-02
-3.463130071759223938e-02
-1.071123871952295303e-02
1.159136649221181870e-02
2.127850241959095001e-02
2.189382165670394897e-02
1.489475555717945099e-02
7.274712435901165009e-03
-8.208021521568298340e-03
6.558749824762344360e-03
3.300410136580467224e-02
4.849573224782943726e-02
4.214935004711151123e-02
2.190302684903144836e-02
1.516485586762428284e-02
7.763465866446495056e-03
-1.381785981357097626e-02
-3.805659711360931396e-02
-4.537771269679069519e-02
-6.944068521261215210e-02
-8.378607034683227539e-02
-8.912359923124313354e-02
-8.718008548021316528e-02
-9.732522070407867432e-02
-9.199589490890502930e-02
-9.403303265571594238e-02
-9.705013781785964966e-02
-1.189368814229965210e-01
-6.103529036045074463e-02
-2.134169265627861023e-02
-7.223737426102161407e-03
2.283158153295516968e-02
1.959108561277389526e-02
3.401707857847213745e-02
2.432298846542835236e-02
2.883623912930488586e-02
3.746354207396507263e-02
3.806867450475692749e-02
6.146143004298210144e-02
6.480148434638977051e-02
2.910772338509559631e-02
3.519492968916893005e-02
8.090006187558174133e-03
-4.015356767922639847e-03
-2.137154154479503632e-02
-4.006762430071830750e-02
-5.644691735506057739e-02
-6.989561021327972412e-02
-8.482756465673446655e-02
-8.831966668367385864e-02
-8.574765920639038086e-02
-9.195282310247421265e-02
-9.349363297224044800e-02
-9.334871917963027954e-02
-1.033952012658119202e-01
-1.159775629639625549e-01
-6.633461266756057739e-02
-2.106362208724021912e-02
-1.310760271735489368e-03
1.797712408006191254e-02
3.286446630954742432e-02
4.817691445350646973e-02
3.738282620906829834e-02
3.813678771257400513e-02
1.935671269893646240e-02
3.473916277289390564e-02
4.944157227873802185e-02
4.315533488988876343e-02
4.042465612292289734e-02
1.166758500039577484e-02
6.455579306930303574e-03
3.347920486703515053e-03
-1.463853195309638977e-02
-3.734770417213439941e-02
-6.320928782224655151e-02
-6.918562948703765869e-02
-8.942868560552597046e-02
-7.412939518690109253e-02
-9.462565928697586060e-02
-8.577097207307815552e-02
-9.362345933914184570e-02
-9.628650546073913574e-02
-1.123015657067298889e-01
-1.394411176443099976e-01
-1.011263057589530945e-01
-5.419528111815452576e-02
-3.767793625593185425e-02
-4.098356701433658600e-03
7.929941639304161072e-03
3.191501274704933167e-02
2.657876908779144287e-02
1.374388765543699265e-02
3.654978796839714050e-02
3.467473760247230530e-02
4.172623902559280396e-02
3.339658305048942566e-02
1.969485357403755188e-02
9.125974029302597046e-03
-4.782931413501501083e-03
-1.460693031549453735e-02
-2.580690756440162659e-02
-4.494422674179077148e-02
-6.126465648412704468e-02
-6.916304677724838257e-02
-8.912573754787445068e-02
-8.483272045850753784e-02
-9.008332341909408569e-02
-9.382566064596176147e-02
-9.321411699056625366e-02
-8.870864659547805786e-02
-1.078445315361022949e-01
-1.263154745101928711e-01
-1.192934140563011169e-01
-8.757542073726654053e-02
-5.147558823227882385e-02
-4.557890444993972778e-02
-3.814133815467357635e-04
-1.494144089519977570e-03
2.003864757716655731e-02
2.828989550471305847e-02
3.807861730456352234e-02
3.465352579951286316e-02
3.119212202727794647e-02
3.402546048164367676e-02
8.128682151436805725e-03
1.512381015345454216e-03
-2.185519225895404816e-02
-2.310751751065254211e-02
-3.595766425132751465e-02
-3.986363112926483154e-02
-5.352476239204406738e-02
-7.630910724401473999e-02
-9.212821722030639648e-02
-8.481747657060623169e-02
-9.340571612119674683e-02
-9.349826723337173462e-02
-8.811929821968078613e-02
-8.853191882371902466e-02
-1.189454048871994019e-01
-1.143233329057693481e-01
-1.320668905973434448e-01
-1.001507043838500977e-01
-6.789698451757431030e-02
-3.347337618470191956e-02
-1.391973998397588730e-02
1.699252799153327942e-02
2.920311689376831055e-02
3.854764997959136963e-02
1.100925169885158539e-02
1.556205376982688904e-02
5.903160199522972107e-03
2.695521712303161621e-02
4.948676563799381256e-03
5.633349064737558365e-03
-9.534860029816627502e-03
-2.605373039841651917e-02
-4.465066269040107727e-02
-5.141691863536834717e-02
-6.404793262481689453e-02
-7.931838184595108032e-02
-8.589711785316467285e-02
-8.629553765058517456e-02
-9.427958726882934570e-02
-9.833250194787979126e-02
-9.101220220327377319e-02
-9.298097342252731323e-02
-9.367778897285461426e-02
-1.024532094597816467e-01
-1.279215663671493530e-01
-1.402625441551208496e-01
-6.126788258552551270e-02
-3.593163937330245972e-02
2.075501717627048492e-03
2.038269490003585815e-02
3.192621842026710510e-02
3.631141036748886108e-02
2.078043064102530479e-03
8.347952738404273987e-03
-2.904537832364439964e-03
-1.323740463703870773e-03
1.371437124907970428e-02
-1.275162119418382645e-02
-2.219961211085319519e-02
-4.608127847313880920e-02
-5.743109062314033508e-02
-7.713931053876876831e-02
-7.228868454694747925e-02
-8.344361931085586548e-02
-7.676615566015243530e-02
-9.419913589954376221e-02
-8.276700973510742188e-02
-9.039261192083358765e-02
-9.175682812929153442e-02
-9.160275012254714966e-02
-9.940741956233978271e-02
-1.039342135190963745e-01
-1.295386999845504761e-01
-1.440984606742858887e-01
-8.635079115629196167e-02
-5.480541288852691650e-02
-1.362942717969417572e-02
3.292506560683250427e-03
2.337065711617469788e-02
3.205708228051662445e-03
-4.169498570263385773e-03
-9.744673967361450195e-03
-2.917977282777428627e-03
-6.583936512470245361e-03
-1.100740581750869751e-02
-3.026716411113739014e-02
-4.606498032808303833e-02
-6.141199544072151184e-02
-7.254891097545623779e-02
-7.436439394950866699e-02
-7.964499294757843018e-02
-7.981763035058975220e-02
-7.997641712427139282e-02
-9.687135368585586548e-02
-9.587109088897705078e-02
-9.568008035421371460e-02
-8.757908642292022705e-02
-8.712340891361236572e-02
-9.743925929069519043e-02
-9.465370327234268188e-02
-1.148826330900192261e-01
-1.068472042679786682e-01
-9.528143703937530518e-02
-7.398518174886703491e-02
-3.749503567814826965e-02
-1.382932718843221664e-02
-3.638503607362508774e-03
-6.314116530120372772e-03
-2.431273227557539940e-03
-7.111615501344203949e-03
-1.049058698117733002e-02
-1.279149577021598816e-02
-2.680259197950363159e-02
-3.977236524224281311e-02
-4.463504627346992493e-02
-6.247426196932792664e-02
-7.703229039907455444e-02
-8.426178246736526489e-02
-7.491413503885269165e-02
-7.744687795639038086e-02
-8.992414921522140503e-02
-8.504389971494674683e-02
-9.371376037597656250e-02
-8.828279376029968262e-02
-8.787537366151809692e-02
-8.539916574954986572e-02
-9.014965593814849854e-02
-9.063538163900375366e-02
-9.729497879743576050e-02
-8.719064295291900635e-02
-6.367440521717071533e-02
-6.927599012851715088e-02
-3.357254341244697571e-02
-2.129010297358036041e-02
-1.920463982969522476e-03
1.064925920218229294e-03
9.013609960675239563e-03
-1.701517775654792786e-02
-2.602438628673553467e-02
-3.097195550799369812e-02
-3.844768181443214417e-02
-5.583468079566955566e-02
-6.301988661289215088e-02
-5.711455270648002625e-02
-7.514981180429458618e-02
-8.700471371412277222e-02
-7.947710901498794556e-02
-8.142808824777603149e-02
-9.849344938993453979e-02
-9.117817133665084839e-02
-1.020302399992942810e-01
-9.034001827239990234e-02
-9.458917379379272461e-02
-1.016149297356605530e-01
-8.904999494552612305e-02
-8.731445670127868652e-02
-9.840797632932662964e-02
-9.032947570085525513e-02
-9.704194217920303345e-02
-8.983971178531646729e-02
-8.026545494794845581e-02
-6.616288423538208008e-02
-7.425452768802642822e-02
-6.905572116374969482e-02
-6.848067045211791992e-02
-7.980223000049591064e-02
-7.704374939203262329e-02
-8.076728135347366333e-02
-8.824088424444198608e-02
-8.634518086910247803e-02
-7.627326995134353638e-02
-8.871666342020034790e-02
-9.024280309677124023e-02
-8.367238938808441162e-02
-9.415894001722335815e-02
-9.185958653688430786e-02
-9.926617145538330078e-02
-1.003624871373176575e-01
-9.149827808141708374e-02
-9.556560218334197998e-02
-9.792923182249069214e-02
-9.137369692325592041e-02
-8.623901754617691040e-02
-9.593861550092697144e-02
-8.292029052972793579e-02
-8.969172090291976929e-02
-1.069437786936759949e-01
-9.509560465812683105e-02
-9.006255865097045898e-02
-1.051646322011947632e-01
-1.074855998158454895e-01
-1.128556802868843079e-01
-1.104295179247856140e-01
-1.100383028388023376e-01
-1.059907898306846619e-01
-1.059316769242286682e-01
-1.085913553833961487e-01
-1.016908437013626099e-01
-9.620278328657150269e-02
-1.029323413968086243e-01
-9.602024406194686890e-02
-9.182976931333541870e-02
-9.466211497783660889e-02
-8.934687077999114990e-02
-8.550768345594406128e-02
-9.324910491704940796e-02
-9.082823991775512695e-02
-8.685182034969329834e-02
-9.549826383590698242e-02
-8.839726448059082031e-02
-9.698647260665893555e-02
-9.144713729619979858e-02
-8.909118920564651489e-02
-8.917850255966186523e-02
-8.480689674615859985e-02
-8.748547732830047607e-02
-9.113719314336776733e-02
-9.777037799358367920e-02
-1.029845923185348511e-01
-1.028446406126022339e-01
-1.100660786032676697e-01
-1.151046007871627808e-01
-1.255331188440322876e-01
-1.132177934050559998e-01
-9.693130850791931152e-02
-9.158863127231597900e-02
-8.840639889240264893e-02
-9.448425471782684326e-02
-9.843975305557250977e-02
-9.758238494396209717e-02
-9.724443405866622925e-02
-9.838377684354782104e-02
-8.745450526475906372e-02
-9.295281022787094116e-02
-8.876089751720428467e-02
