-5.044685211032629013e-03
1.553224819872411899e-06
-4.855317063629627228e-03
-5.246891640126705170e-03
3.582669596653431654e-04
-4.746232181787490845e-03
1.511919964104890823e-02
1.219186349771916866e-03
3.922839649021625519e-03
1.154378638602793217e-03
-1.074759941548109055e-02
6.716945790685713291e-04
-1.119448151439428329e-02
-5.681886337697505951e-03
-1.013461872935295105e-02
4.537261556833982468e-03
-3.181702340953052044e-04
-5.787536036223173141e-03
-7.847595028579235077e-03
1.138548100243497174e-06
1.785863190661984845e-08
4.637914219340899535e-10
-4.428456304594874382e-05
-2.466946840286254883e-03
8.488312014378607273e-04
-3.515626303851604462e-04
4.519800131674855947e-04
-1.459485664963722229e-02
4.129807329444901143e-10
4.445505328476428986e-03
1.275408294532098807e-07
6.884581875056028366e-03
2.384709566831588745e-02
-3.589772153645753860e-03
1.797975157387554646e-03
7.890830747783184052e-04
-4.311252385377883911e-03
1.989891752600669861e-02
-7.595289498567581177e-03
1.792937051504850388e-03
4.007257055491209030e-03
2.634059637784957886e-03
-6.733450572937726974e-03
1.065645633957501559e-07
-4.195391666144132614e-03
2.118089236319065094e-03
5.622148513793945312e-03
-1.009810250252485275e-03
-3.191908588632941246e-03
-1.849705586209893227e-03
1.513866809688124704e-10
3.005354665219783783e-04
-1.431021373718976974e-03
-1.443968620151281357e-03
-4.051323776366189122e-05
-1.842113560996949673e-03
1.442284206859767437e-03
1.714046928100287914e-03
5.250142748991493136e-06
7.518574129790067673e-03
-1.842277240939438343e-03
8.468112908303737640e-03
-7.672657724469900131e-03
-1.395665388554334641e-02
-3.360256319865584373e-03
3.872632980346679688e-03
5.072545725852251053e-03
3.050149022243431318e-09
1.955927225738562925e-10
-3.408781019970774651e-03
-1.288088224828243256e-02
-2.091975329676643014e-04
-1.047685393132269382e-03
-1.144992536865174770e-03
-1.428892486728727818e-03
-8.356324397027492523e-03
4.797979258000850677e-03
2.820278517901897430e-03
-2.769819402601569891e-04
-1.070945756509900093e-03
-3.800211998168379068e-04
6.906530354171991348e-03
-1.241240836679935455e-02
2.425925849092180897e-10
-4.295534919947385788e-03
1.780635863542556763e-02
1.448017661459743977e-03
1.776119321584701538e-02
-1.360939722508192062e-02
1.004487881761662038e-10
-1.184656471014022827e-02
1.428670376446561363e-10
1.558486488647758961e-03
7.976453751325607300e-03
6.073481995105822762e-11
-2.717374823987483978e-03
5.101685185415760770e-10
2.264235168695449829e-02
-7.565602660179138184e-03
2.892799442633986473e-03
