5.585596084594726562e+00
2.284903287887573242e+00
-2.854539632797241211e+00
5.267066001892089844e+00
1.167148303985595703e+01
4.152090072631835938e+00
2.800385475158691406e+00
-1.057591080665588379e+00
2.613372802734375000e+00
8.481192588806152344e+00
3.233979940414428711e+00
5.791636466979980469e+00
3.471924543380737305e+00
4.040621280670166016e+00
3.928970336914062500e+00
1.882461547851562500e+00
3.479665517807006836e+00
1.050684547424316406e+01
5.262352466583251953e+00
9.498981475830078125e+00
-2.499712944030761719e+00
4.004187107086181641e+00
7.353390216827392578e+00
-1.072066426277160645e+00
4.924290180206298828e+00
-1.901763796806335449e+00
4.012248992919921875e+00
4.062307834625244141e+00
9.222273826599121094e+00
-4.109382629394531250e+00
3.450640678405761719e+00
3.399559974670410156e+00
1.100692844390869141e+01
3.996973514556884766e+00
9.559378623962402344e+00
3.773668050765991211e+00
3.310859918594360352e+00
2.902672767639160156e+00
4.761845111846923828e+00
-1.206789731979370117e+00
2.481418609619140625e+00
3.802088499069213867e+00
3.145782232284545898e+00
-2.942769050598144531e+00
-5.211185932159423828e+00
9.371577262878417969e+00
4.369287014007568359e+00
2.773752689361572266e+00
8.581407546997070312e+00
-4.411729812622070312e+00
2.757609844207763672e+00
1.788672327995300293e+00
-2.677165985107421875e+00
5.402005672454833984e+00
-7.812108039855957031e+00
1.079639077186584473e+00
-1.829407453536987305e+00
1.200050115585327148e+00
1.397369265556335449e+00
-2.353563308715820312e+00
5.373074054718017578e+00
3.982225656509399414e+00
1.680698037147521973e+00
8.717706680297851562e+00
2.822822034358978271e-01
5.251516342163085938e+00
-8.299778699874877930e-01
-2.207038879394531250e+00
5.815577507019042969e+00
-2.858654022216796875e+00
4.951143741607666016e+00
2.943160057067871094e+00
3.197379827499389648e+00
5.491498470306396484e+00
1.908336043357849121e+00
1.095340847969055176e+00
5.908019065856933594e+00
-4.555491924285888672e+00
5.949283599853515625e+00
4.590202331542968750e+00
-2.268133401870727539e+00
2.944537162780761719e+00
-1.491848707199096680e+00
2.255460023880004883e+00
4.983605861663818359e+00
9.136073112487792969e+00
4.476367950439453125e+00
4.118135929107666016e+00
3.981930613517761230e-01
-1.730287909507751465e+00
6.107844829559326172e+00
3.166087627410888672e+00
-7.485312819480895996e-01
2.383195161819458008e+00
5.057990074157714844e+00
-4.130557060241699219e+00
6.310055255889892578e+00
4.668724536895751953e+00
8.180225491523742676e-01
2.738617897033691406e+00
-4.276389122009277344e+00
-4.995093822479248047e+00
-2.586360931396484375e+00
3.389530181884765625e+00
5.245334625244140625e+00
-2.539195299148559570e+00
4.555365562438964844e+00
2.752963542938232422e+00
-7.072637081146240234e+00
8.912725448608398438e+00
8.781820297241210938e+00
1.216419601440429688e+01
6.625250816345214844e+00
9.782650947570800781e+00
7.068458080291748047e+00
8.604063987731933594e+00
3.176362037658691406e+00
-3.390065431594848633e+00
4.704034328460693359e+00
7.684854030609130859e+00
5.899328231811523438e+00
5.390352383255958557e-02
3.982154607772827148e+00
2.621362447738647461e+00
-3.026428699493408203e+00
3.950786828994750977e+00
4.021330356597900391e+00
4.949785232543945312e+00
6.833360791206359863e-01
8.695827484130859375e+00
-3.377986192703247070e+00
-4.043296337127685547e+00
-9.268706440925598145e-01
5.018844604492187500e+00
2.914861440658569336e+00
5.239527702331542969e+00
4.878084361553192139e-01
2.824954509735107422e+00
5.062813282012939453e+00
1.830467700958251953e+00
-5.470108509063720703e+00
3.728165388107299805e+00
7.557433843612670898e-01
5.632856845855712891e+00
5.875295996665954590e-01
2.104149103164672852e+00
6.510588169097900391e+00
6.491532325744628906e+00
-4.259024620056152344e+00
3.204717159271240234e+00
4.494003772735595703e+00
2.945662021636962891e+00
-3.462050914764404297e+00
-1.204879164695739746e+00
2.490341901779174805e+00
1.326144123077392578e+01
1.281236171722412109e+00
6.834053993225097656e+00
8.669520378112792969e+00
-8.982361555099487305e-01
1.903917908668518066e+00
-2.140340566635131836e+00
4.135101318359375000e+00
2.732823371887207031e+00
3.328666210174560547e+00
4.082237243652343750e+00
-5.208387851715087891e+00
5.591317653656005859e+00
4.771606445312500000e+00
4.789710998535156250e+00
-2.432036399841308594e+00
3.594897747039794922e+00
2.257900953292846680e+00
-8.389645814895629883e-01
1.156866908073425293e+00
3.041712045669555664e+00
3.342841386795043945e+00
6.241254806518554688e+00
1.818883657455444336e+00
-3.307491779327392578e+00
4.768631935119628906e+00
6.604180812835693359e+00
6.371492385864257812e+00
7.624626636505126953e+00
-3.862409830093383789e+00
4.128695011138916016e+00
4.611889839172363281e+00
1.074973487854003906e+01
8.920654654502868652e-01
5.143178939819335938e+00
-2.920900106430053711e+00
-3.615317940711975098e-01
5.526408672332763672e+00
-8.363109588623046875e+00
5.461338043212890625e+00
2.249181985855102539e+00
4.468750953674316406e+00
6.729916095733642578e+00
3.727078914642333984e+00
8.909451484680175781e+00
1.175432682037353516e+00
2.500078678131103516e-01
-1.848871111869812012e-01
-7.264963388442993164e-01
7.132758140563964844e+00
6.289155483245849609e+00
-5.962322950363159180e-01
7.788597583770751953e+00
1.838141918182373047e+00
-4.019378662109375000e+00
9.166271209716796875e+00
-3.345544099807739258e+00
-3.898579597473144531e+00
3.820271968841552734e+00
9.148707389831542969e+00
2.543847560882568359e+00
-4.711499214172363281e+00
6.133793830871582031e+00
4.953190326690673828e+00
9.042781591415405273e-01
5.635488510131835938e+00
-1.870957612991333008e+00
-2.841601848602294922e+00
3.063894271850585938e+00
5.492536544799804688e+00
