6.126611232757568359e+00
2.368623733520507812e+00
-3.096209287643432617e+00
5.757387161254882812e+00
1.271129608154296875e+01
4.420592784881591797e+00
2.882715225219726562e+00
-1.085126757621765137e+00
2.502022266387939453e+00
9.052882194519042969e+00
3.306916236877441406e+00
5.998658657073974609e+00
3.419466733932495117e+00
4.069012165069580078e+00
4.057654857635498047e+00
1.758169651031494141e+00
3.668426513671875000e+00
1.155760002136230469e+01
5.547945499420166016e+00
1.049210643768310547e+01
-2.762369155883789062e+00
4.204940319061279297e+00
7.813228607177734375e+00
-1.177801370620727539e+00
5.328120231628417969e+00
-2.254294157028198242e+00
4.061409473419189453e+00
4.407733917236328125e+00
1.026241493225097656e+01
-4.393495082855224609e+00
3.366523742675781250e+00
3.387075662612915039e+00
1.220153141021728516e+01
4.126688957214355469e+00
1.047191047668457031e+01
3.983518123626708984e+00
3.328349590301513672e+00
2.891792535781860352e+00
4.776253223419189453e+00
-1.438848257064819336e+00
2.564352273941040039e+00
3.848425626754760742e+00
3.281395435333251953e+00
-3.179666757583618164e+00
-5.706867218017578125e+00
1.019793891906738281e+01
4.496144294738769531e+00
2.824810028076171875e+00
9.353580474853515625e+00
-4.929489612579345703e+00
2.772331237792968750e+00
2.019905805587768555e+00
-2.867827892303466797e+00
5.801452159881591797e+00
-8.611139297485351562e+00
9.096813797950744629e-01
-2.210122346878051758e+00
1.064075827598571777e+00
1.417614579200744629e+00
-2.603117704391479492e+00
5.720005989074707031e+00
4.259704113006591797e+00
1.761788487434387207e+00
9.497911453247070312e+00
8.209985494613647461e-02
5.501284122467041016e+00
-1.113356947898864746e+00
-2.671259403228759766e+00
6.399089813232421875e+00
-3.318877220153808594e+00
5.292315006256103516e+00
3.017807006835937500e+00
3.131314039230346680e+00
5.660313129425048828e+00
1.853600621223449707e+00
1.110978722572326660e+00
6.028714179992675781e+00
-5.128581047058105469e+00
6.354501724243164062e+00
4.869133949279785156e+00
-2.494975090026855469e+00
3.051721572875976562e+00
-1.745816349983215332e+00
2.267343759536743164e+00
5.035037994384765625e+00
9.938086509704589844e+00
4.618106842041015625e+00
4.300845146179199219e+00
3.674191832542419434e-01
-2.128275394439697266e+00
6.354297161102294922e+00
3.327241897583007812e+00
-9.303041100502014160e-01
2.365623712539672852e+00
5.203129291534423828e+00
-4.533734798431396484e+00
6.608314990997314453e+00
5.257002830505371094e+00
6.397500038146972656e-01
2.922760486602783203e+00
-4.745656490325927734e+00
-5.573753833770751953e+00
-2.806340932846069336e+00
3.605024814605712891e+00
5.406985759735107422e+00
-3.038734436035156250e+00
4.981322288513183594e+00
2.693120241165161133e+00
-7.650088310241699219e+00
9.681809425354003906e+00
9.578043937683105469e+00
1.319792842864990234e+01
7.109485626220703125e+00
1.063519001007080078e+01
7.577466487884521484e+00
9.319421768188476562e+00
3.317378044128417969e+00
-3.815035104751586914e+00
4.957792282104492188e+00
8.424339294433593750e+00
6.238204002380371094e+00
-2.650530077517032623e-02
3.989746332168579102e+00
2.721240758895874023e+00
-3.396530151367187500e+00
4.095402240753173828e+00
4.070441246032714844e+00
5.009059906005859375e+00
5.285624861717224121e-01
9.432264328002929688e+00
-3.684738874435424805e+00
-4.151398181915283203e+00
-1.154664635658264160e+00
5.251823902130126953e+00
2.997659444808959961e+00
5.408040523529052734e+00
4.858527779579162598e-01
2.693987607955932617e+00
5.426308155059814453e+00
1.901162505149841309e+00
-5.978724002838134766e+00
3.787071466445922852e+00
7.169645428657531738e-01
5.855499744415283203e+00
3.729318976402282715e-01
2.143717527389526367e+00
7.163349151611328125e+00
7.182371616363525391e+00
-4.495250225067138672e+00
3.266339540481567383e+00
4.500043869018554688e+00
2.965294122695922852e+00
-3.858978748321533203e+00
-1.382162332534790039e+00
2.456513166427612305e+00
1.447301101684570312e+01
1.299239277839660645e+00
7.292886257171630859e+00
9.506421089172363281e+00
-1.059700250625610352e+00
2.080790042877197266e+00
-2.283979892730712891e+00
4.304264545440673828e+00
2.754936695098876953e+00
3.358637332916259766e+00
4.302406787872314453e+00
-5.968125820159912109e+00
6.207165241241455078e+00
4.865318298339843750e+00
5.128544330596923828e+00
-2.600266218185424805e+00
3.551136970520019531e+00
2.130033493041992188e+00
-1.115068197250366211e+00
1.131487965583801270e+00
3.200074911117553711e+00
3.353379964828491211e+00
6.714637756347656250e+00
1.723101735115051270e+00
-3.657807350158691406e+00
5.137184619903564453e+00
7.016913414001464844e+00
7.012426376342773438e+00
8.375458717346191406e+00
-4.494773864746093750e+00
4.235470771789550781e+00
4.986363887786865234e+00
1.164524459838867188e+01
7.142456769943237305e-01
5.552668094635009766e+00
-3.111103534698486328e+00
-4.163534343242645264e-01
5.949208259582519531e+00
-9.360334396362304688e+00
5.674407482147216797e+00
2.371969938278198242e+00
4.698136806488037109e+00
7.132979393005371094e+00
3.839147329330444336e+00
9.934538841247558594e+00
1.235985517501831055e+00
8.235718123614788055e-03
-2.827965021133422852e-01
-9.049057960510253906e-01
7.963366985321044922e+00
6.459563732147216797e+00
-7.596925497055053711e-01
8.293663024902343750e+00
1.891277909278869629e+00
-4.313642501831054688e+00
1.004493236541748047e+01
-3.660011291503906250e+00
-4.309606552124023438e+00
3.843774557113647461e+00
1.011403846740722656e+01
2.644837379455566406e+00
-5.065907478332519531e+00
6.580512523651123047e+00
5.285376548767089844e+00
8.278641700744628906e-01
5.948656558990478516e+00
-2.146837949752807617e+00
-3.127359151840209961e+00
3.279085159301757812e+00
5.852048873901367188e+00
