6.096871569752693176e-03
2.606234280392527580e-03
2.537467749789357185e-03
7.488916744478046894e-04
2.017968567088246346e-03
-2.077061071759089828e-04
1.750671886838972569e-03
2.030316740274429321e-03
-8.366886177100241184e-04
1.131364842876791954e-04
1.510687987320125103e-03
2.268590615130960941e-04
4.963697283528745174e-04
-2.201681490987539291e-03
1.393568585626780987e-03
6.900249980390071869e-03
6.621188367716968060e-04
2.587397117167711258e-03
5.910661071538925171e-03
-2.734092297032475471e-03
2.501016482710838318e-03
-7.122612441889941692e-04
1.896784058772027493e-03
-6.418220000341534615e-04
2.947992179542779922e-03
9.029236389324069023e-04
1.792437862604856491e-03
4.204068798571825027e-03
-1.489565183874219656e-04
1.043500727973878384e-03
1.490640570409595966e-03
1.835501519963145256e-03
7.078634807839989662e-04
2.179881630581803620e-05
3.987661097198724747e-03
2.237232256447896361e-04
1.418928033672273159e-03
2.165771089494228363e-03
-1.152559067122638226e-03
4.933485761284828186e-04
-4.037612816318869591e-04
8.359694620594382286e-04
-7.172391633503139019e-04
1.003649085760116577e-03
-1.341487630270421505e-03
1.768589136190712452e-03
6.969177629798650742e-03
1.521165017038583755e-03
7.605745486216619611e-05
4.143472295254468918e-03
1.236337702721357346e-03
1.310669467784464359e-03
5.901824806642252952e-06
1.978118903934955597e-03
5.521223880350589752e-03
-2.282061846926808357e-03
-1.668354962021112442e-03
2.100273413816466928e-04
-2.271673874929547310e-03
6.191529100760817528e-04
-1.044454867951571941e-03
3.319542855024337769e-03
5.240077618509531021e-03
1.903064548969268799e-03
1.595834386534988880e-03
4.966886714100837708e-03
2.255841158330440521e-03
3.056181885767728090e-04
8.466482977382838726e-04
-8.629610529169440269e-04
1.651465543545782566e-03
2.284332644194364548e-03
1.909685670398175716e-03
2.538436092436313629e-03
-2.767376718111336231e-04
-1.013505388982594013e-03
-1.004826743155717850e-03
4.190010076854377985e-04
2.590253716334700584e-03
5.601966986432671547e-04
-7.177027873694896698e-04
-4.974291077814996243e-04
1.046874909661710262e-03
2.317609963938593864e-03
1.882813172414898872e-03
1.415220787748694420e-03
2.407515654340386391e-03
3.179563907906413078e-03
-9.027204941958189011e-04
3.499978629406541586e-04
-1.432349672541022301e-03
-3.660317815956659615e-05
-9.316848008893430233e-04
1.056805718690156937e-03
-2.522562863305211067e-04
-1.334514236077666283e-03
1.286685699597001076e-03
6.559372879564762115e-03
8.245827630162239075e-04
2.866794529836624861e-04
1.034304616041481495e-03
2.369849011301994324e-03
-2.842154644895344973e-04
1.256362418644130230e-03
1.226363470777869225e-03
1.926398108480498195e-04
1.792022841982543468e-03
1.150886062532663345e-03
-1.353425206616520882e-03
1.659730216488242149e-03
-1.273725592909613624e-05
1.068311044946312904e-03
9.024052415043115616e-04
-4.086601838935166597e-04
7.776864804327487946e-03
9.782289853319525719e-04
6.126169115304946899e-03
2.129527740180492401e-03
-9.879678254947066307e-04
4.641316190827637911e-04
-2.543410751968622208e-03
1.412806217558681965e-03
1.158455503173172474e-03
-3.272749600000679493e-04
2.347643254324793816e-03
3.043567528948187828e-03
-2.561576256994158030e-04
-4.721611039713025093e-04
1.647924538701772690e-03
1.172470045275986195e-03
-2.034878998529165983e-04
5.416448228061199188e-03
8.457189542241394520e-04
2.217611065134406090e-03
2.205888275057077408e-03
-2.820939989760518074e-03
1.302349963225424290e-03
-1.401643530698493123e-04
-1.176029094494879246e-03
-2.650218448252417147e-05
2.911993535235524178e-03
1.068789395503699780e-03
1.455998164601624012e-03
3.535083087626844645e-04
-1.458692480809986591e-03
-3.072060935664921999e-04
9.575613657943904400e-04
3.272186964750289917e-03
-5.448702140711247921e-04
7.215061923488974571e-04
7.493156008422374725e-04
4.195828922092914581e-03
1.437979401089251041e-03
6.037276471033692360e-04
-1.068394412868656218e-04
3.946978598833084106e-03
4.750174935907125473e-03
-4.153157933615148067e-04
2.373656723648309708e-03
1.041380804963409901e-03
-7.453695288859307766e-04
-2.362489933148026466e-03
3.104062052443623543e-03
2.801046473905444145e-03
6.899136118590831757e-03
5.666506011039018631e-03
2.713484573177993298e-04
-5.394652253016829491e-04
-1.237480319105088711e-03
1.521902158856391907e-04
1.345926284557208419e-04
2.785997930914163589e-03
-5.834054318256676197e-04
8.085125125944614410e-03
-5.142506561242043972e-04
-1.012706314213573933e-03
-4.696118121501058340e-04
5.797498393803834915e-03
2.049858914688229561e-03
-1.003172830678522587e-03
2.117242431268095970e-03
8.120246347971260548e-04
2.464715798851102591e-04
1.314155058935284615e-03
-5.269265384413301945e-04
9.043964091688394547e-04
5.946946330368518829e-04
1.628419850021600723e-03
1.244559301994740963e-03
-8.948094327934086323e-04
5.342096483218483627e-05
4.675576463341712952e-03
3.756114281713962555e-03
-1.380772795528173447e-03
3.420733264647424221e-04
-2.273860620334744453e-03
-6.548766978085041046e-04
2.762852003797888756e-03
-1.881119562312960625e-03
7.385301403701305389e-03
-5.090806516818702221e-04
-3.825252177193760872e-03
-4.359711310826241970e-04
1.833344227634370327e-03
1.024727593176066875e-03
1.720273518003523350e-03
7.204370922408998013e-05
1.729812123812735081e-03
-1.806462882086634636e-03
2.887103706598281860e-03
9.120570030063390732e-04
2.665832871571183205e-03
-1.894148648716509342e-03
-2.589458381407894194e-05
-1.000553747871890664e-04
-2.784525509923696518e-03
-9.428677731193602085e-05
4.850527329836040735e-04
1.133947866037487984e-03
2.219648798927664757e-03
6.835414096713066101e-04
5.958299152553081512e-04
2.189727500081062317e-03
-7.544777326984331012e-05
8.395382203161716461e-03
