1.571928383782505989e-03
6.807635072618722916e-04
1.852340530604124069e-03
2.002579858526587486e-03
1.566630438901484013e-03
-1.098065287806093693e-03
1.205770182423293591e-03
3.014010842889547348e-03
-1.852935383794829249e-04
-3.662201343104243279e-04
-9.361298289149999619e-04
-1.279378775507211685e-03
-3.677267814055085182e-04
1.741747255437076092e-03
6.417293334379792213e-04
-8.667467045597732067e-04
2.335818950086832047e-03
-1.642748597078025341e-03
1.850028289481997490e-03
-5.667622317560017109e-04
-1.801437232643365860e-03
1.107470830902457237e-03
4.117640128242783248e-05
2.407014835625886917e-03
-1.428903895430266857e-03
7.841475890018045902e-04
-6.277293432503938675e-04
-1.439565094187855721e-03
-1.340313465334475040e-03
1.331375679001212120e-04
-1.787557266652584076e-03
-3.140923508908599615e-04
1.222430961206555367e-03
-3.012667584698647261e-04
6.285284762270748615e-04
1.906716497614979744e-04
4.206075973343104124e-04
-8.384058019146323204e-04
-1.389886368997395039e-03
-4.747002676595002413e-04
-2.967482432723045349e-04
5.974925588816404343e-04
1.986487623071298003e-04
2.336097677471116185e-04
2.091646427288651466e-03
1.738600083626806736e-03
-5.605321493931114674e-04
4.559346416499465704e-04
2.129793167114257812e-03
-1.834755763411521912e-03
1.648785546422004700e-03
1.780828228220343590e-03
-2.717867959290742874e-03
-3.332030319143086672e-04
-8.412764291279017925e-04
-1.683119102381169796e-03
8.551896462449803948e-05
-1.034426313708536327e-04
1.442708307877182961e-03
1.570223714224994183e-03
1.532555907033383846e-04
2.620341256260871887e-03
-3.827071632258594036e-04
2.971017267554998398e-03
-1.544845872558653355e-03
-8.696546428836882114e-04
2.981287543661892414e-04
-1.466409885324537754e-03
1.130581600591540337e-03
-2.018768573179841042e-03
7.475075544789433479e-04
-2.671586407814174891e-04
-1.182271982543170452e-03
1.568437670357525349e-03
-1.189382397569715977e-03
-1.388268196024000645e-03
-1.314964611083269119e-03
1.556563191115856171e-03
6.220870418474078178e-04
-4.053112934343516827e-05
2.540994901210069656e-03
-4.801936447620391846e-04
1.456427271477878094e-03
7.017592433840036392e-04
-1.850035914685577154e-04
-3.150019038002938032e-04
-4.315981641411781311e-04
-2.174987748730927706e-04
-1.002960139885544777e-03
-1.547331456094980240e-03
-3.223668318241834641e-04
3.801438433583825827e-04
4.187264421489089727e-04
2.163025317713618279e-03
1.109585864469408989e-03
-2.975318238895852119e-05
-1.696096442174166441e-04
4.946806002408266068e-04
2.338561229407787323e-03
-2.507844008505344391e-03
-1.625921868253499269e-04
-9.236594778485596180e-04
1.448415452614426613e-03
2.723698969930410385e-03
-2.402148442342877388e-03
1.687548123300075531e-03
-3.135829465463757515e-04
-1.098922570236027241e-03
-1.080517540685832500e-03
-1.600972609594464302e-03
-1.423484180122613907e-03
1.401809160597622395e-03
-8.429197478108108044e-04
-1.316804322414100170e-03
-3.717286745086312294e-04
1.635215478017926216e-03
-5.931653431616723537e-04
2.416083589196205139e-04
-7.082726224325597286e-04
-1.424571033567190170e-03
6.420662393793463707e-04
-1.591373002156615257e-03
-9.268994908779859543e-04
2.934339863713830709e-04
-7.253165240399539471e-04
2.859901578631252050e-04
1.871395274065434933e-03
-5.237724981270730495e-04
4.690940259024500847e-04
1.797553035430610180e-03
-2.899996470659971237e-04
-6.152230198495090008e-04
-1.611289218999445438e-03
1.352592138573527336e-03
-1.315339468419551849e-03
1.641320297494530678e-03
1.915574655868113041e-03
-2.405891718808561563e-04
-7.725190371274948120e-04
-3.250259673222899437e-03
9.622418292565271258e-05
-1.913407468236982822e-03
6.354851648211479187e-04
-8.045535651035606861e-04
7.732286467216908932e-04
-1.226638705702498555e-04
4.735404800157994032e-04
1.144531066529452801e-03
-5.686217627953737974e-05
1.567532541230320930e-03
-9.632126311771571636e-04
-2.337770856684073806e-04
-8.924417197704315186e-04
-8.109409827739000320e-04
-1.023228280246257782e-03
-1.258742762729525566e-03
2.444570185616612434e-03
2.286120783537626266e-03
2.008346607908606529e-03
-5.784766399301588535e-04
-2.328878967091441154e-03
-6.414314266294240952e-04
-1.613769214600324631e-03
6.268519209697842598e-04
-7.160715758800506592e-04
-4.391134134493768215e-04
-1.308809005422517657e-04
-5.572246736846864223e-04
-2.208877122029662132e-03
1.011601998470723629e-03
-1.123317750170826912e-03
2.969718188978731632e-04
2.174256514990702271e-04
1.978984568268060684e-03
-1.531934976810589433e-04
1.953158760443329811e-03
-2.693299320526421070e-04
5.617160350084304810e-04
-1.375922351144254208e-03
-3.919700102414935827e-04
-5.573320668190717697e-04
8.395115146413445473e-04
1.329154474660754204e-03
-6.808398757129907608e-04
8.605148650531191379e-06
1.809710403904318810e-03
1.715948106721043587e-03
1.485568936914205551e-03
-7.321684970520436764e-04
1.254195696674287319e-03
-6.201734649948775768e-04
1.669971970841288567e-03
-1.831619010772556067e-05
2.246768999611958861e-04
8.042426779866218567e-04
6.293457117862999439e-04
-9.536113939248025417e-04
8.426028653047978878e-04
-2.280025044456124306e-03
1.741059531923383474e-04
4.005819791927933693e-04
-1.024449709802865982e-03
8.796351612545549870e-04
9.889628272503614426e-04
-7.149138255044817924e-04
1.571928733028471470e-03
-1.489617978222668171e-03
-1.172040007077157497e-03
-1.353720785118639469e-03
-5.175773985683917999e-04
1.462414511479437351e-03
-8.469398599117994308e-04
-1.461215084418654442e-03
-7.642760174348950386e-04
1.708166673779487610e-03
7.353462278842926025e-04
1.538569689728319645e-03
9.389751940034329891e-04
-1.273720292374491692e-03
-2.320924773812294006e-03
1.962067908607423306e-04
2.209152298746630549e-04
-2.233967970823869109e-04
-2.478647744283080101e-03
5.081525305286049843e-04
