-1.397788617759943008e-02
-1.401798054575920105e-02
-1.397413853555917740e-02
-1.400281302630901337e-02
-1.398501638323068619e-02
-1.400422863662242889e-02
-1.397265028208494186e-02
-1.391572970896959305e-02
-1.392999105155467987e-02
-1.394146122038364410e-02
-1.397176180034875870e-02
-1.396252773702144623e-02
-1.392078492790460587e-02
-1.404016744345426559e-02
-1.396784931421279907e-02
-1.395270694047212601e-02
-1.399309467524290085e-02
-1.399048324674367905e-02
-1.403044722974300385e-02
-1.398400589823722839e-02
-1.394667103886604309e-02
-1.401312835514545441e-02
-1.397355087101459503e-02
-1.392637565732002258e-02
-1.398573722690343857e-02
-1.398876495659351349e-02
-1.400009542703628540e-02
-1.393919251859188080e-02
-1.398813724517822266e-02
-1.400113943964242935e-02
-1.397672574967145920e-02
-1.396161317825317383e-02
-1.393917296081781387e-02
-1.395967695862054825e-02
-1.397758908569812775e-02
-1.389340031892061234e-02
-1.390827633440494537e-02
-1.386422477662563324e-02
-1.374753192067146301e-02
-1.371450442820787430e-02
-1.374754868447780609e-02
-1.380334608256816864e-02
-1.380001567304134369e-02
-1.386765297502279282e-02
-1.392520591616630554e-02
-1.390893664211034775e-02
-1.392235048115253448e-02
-1.398526877164840698e-02
-1.398406829684972763e-02
-1.396197080612182617e-02
-1.394172757863998413e-02
-1.397838909178972244e-02
-1.397817209362983704e-02
-1.395989954471588135e-02
-1.395594235509634018e-02
-1.391792297363281250e-02
-1.398544292896986008e-02
-1.399820856750011444e-02
-1.395103428512811661e-02
-1.392643805593252182e-02
-1.398806273937225342e-02
-1.397316902875900269e-02
-1.385917235165834427e-02
-1.364955306053161621e-02
-1.328099891543388367e-02
-1.266892533749341965e-02
-1.221221964806318283e-02
-1.199555955827236176e-02
-1.199321821331977844e-02
-1.206406578421592712e-02
-1.236262451857328415e-02
-1.251563709229230881e-02
-1.264845952391624451e-02
-1.267200335860252380e-02
-1.262576878070831299e-02
-1.263903640210628510e-02
-1.266460958868265152e-02
-1.310075167566537857e-02
-1.357172057032585144e-02
-1.391797792166471481e-02
-1.394794881343841553e-02
-1.400317996740341187e-02
-1.396844815462827682e-02
-1.397843286395072937e-02
-1.396893523633480072e-02
-1.395819708704948425e-02
-1.397677231580018997e-02
-1.396249979734420776e-02
-1.396444067358970642e-02
-1.389009412378072739e-02
-1.348292920738458633e-02
-1.245243195444345474e-02
-1.131054386496543884e-02
-1.034571602940559387e-02
-1.002382766455411911e-02
-1.003546267747879028e-02
-1.020866539329290390e-02
-1.046813651919364929e-02
-1.075038406997919083e-02
-1.086216978728771210e-02
-1.111908163875341415e-02
-1.160804647952318192e-02
-1.185233239084482193e-02
-1.179690565913915634e-02
-1.170151028782129288e-02
-1.191828027367591858e-02
-1.250834856182336807e-02
-1.337605342268943787e-02
-1.380412839353084564e-02
-1.395548600703477859e-02
-1.399822626262903214e-02
-1.400018110871315002e-02
-1.395862642675638199e-02
-1.397688034921884537e-02
-1.397354435175657272e-02
-1.395930536091327667e-02
-1.385011151432991028e-02
-1.294372510164976120e-02
-1.142821460962295532e-02
-9.478915482759475708e-03
-7.965046912431716919e-03
-7.177017163485288620e-03
-6.993765011429786682e-03
-7.191908545792102814e-03
-7.807666435837745667e-03
-8.214570581912994385e-03
-8.398364298045635223e-03
-8.788374252617359161e-03
-8.988089859485626221e-03
-9.072585962712764740e-03
-8.766711689531803131e-03
-8.616724051535129547e-03
-8.828347548842430115e-03
-9.344795718789100647e-03
-1.033335924148559570e-02
-1.154991518706083298e-02
-1.282543502748012543e-02
-1.380416005849838257e-02
-1.398626435548067093e-02
-1.395295001566410065e-02
-1.398695539683103561e-02
-1.397050172090530396e-02
-1.393860857933759689e-02
-1.391895022243261337e-02
-1.298783160746097565e-02
-1.058644708245992661e-02
-8.026416413486003876e-03
-5.859035067260265350e-03
-4.052235744893550873e-03
-2.769819227978587151e-03
-2.364030340686440468e-03
-2.613530959933996201e-03
-3.027874277904629707e-03
-2.938219113275408745e-03
-2.601094543933868408e-03
-2.382669830694794655e-03
-2.394325798377394676e-03
-2.301153959706425667e-03
-2.027848735451698303e-03
-2.162291202694177628e-03
-2.986708423122763634e-03
-4.739662166684865952e-03
-6.977349985390901566e-03
-9.270534850656986237e-03
-1.110509596765041351e-02
-1.281766965985298157e-02
-1.390720624476671219e-02
-1.396838389337062836e-02
-1.397923007607460022e-02
-1.398684829473495483e-02
-1.394155528396368027e-02
-1.355209853500127792e-02
-1.120169926434755325e-02
-8.148504421114921570e-03
-5.349340848624706268e-03
-2.730718581005930901e-03
-6.501908064819872379e-04
2.714049478527158499e-04
3.916377318091690540e-05
-4.566846182569861412e-04
-6.463080644607543945e-04
-2.268268144689500332e-05
1.028957194648683071e-03
1.572042936459183693e-03
1.310662482865154743e-03
1.161726424470543861e-03
2.139652380719780922e-03
2.948018489405512810e-03
2.355938078835606575e-03
-5.319116462487727404e-05
-3.558387048542499542e-03
-7.239761762320995331e-03
-1.009625755250453949e-02
-1.191872078925371170e-02
-1.349999196827411652e-02
-1.396333798766136169e-02
-1.397296227514743805e-02
-1.398882549256086349e-02
-1.384403649717569351e-02
-1.267710793763399124e-02
-9.573522955179214478e-03
-6.266391836106777191e-03
-2.900097519159317017e-03
1.723705790936946869e-04
1.702727866359055042e-03
1.593657536432147026e-03
2.471742045599967241e-04
-2.640125749167054892e-04
6.285670096985995770e-04
2.319583669304847717e-03
3.983200062066316605e-03
4.601609893143177032e-03
3.652754472568631172e-03
2.161565702408552170e-03
2.373837633058428764e-03
4.096660297363996506e-03
4.907314199954271317e-03
3.329323371872305870e-03
-4.938355996273458004e-04
-5.409709177911281586e-03
-9.381496347486972809e-03
-1.155528612434864044e-02
-1.331184152513742447e-02
-1.399798318743705750e-02
-1.396385859698057175e-02
-1.389330346137285233e-02
-1.338635478168725967e-02
-1.145445089787244797e-02
-8.468495681881904602e-03
-4.741497803479433060e-03
-7.548708235844969749e-04
2.380073769018054008e-03
3.268696367740631104e-03
1.757041551172733307e-03
-2.131898072548210621e-04
3.491462484817020595e-05
1.763734500855207443e-03
3.910230472683906555e-03
5.311284679919481277e-03
5.923389457166194916e-03
4.619228187948465347e-03
2.470082603394985199e-03
1.211219234392046928e-03
2.799374051392078400e-03
4.224556498229503632e-03
4.171296022832393646e-03
1.005507772788405418e-03
-4.398142453283071518e-03
-8.975776843726634979e-03
-1.157354190945625305e-02
-1.330310851335525513e-02
-1.399079151451587677e-02
-1.401302218437194824e-02
-1.393169164657592773e-02
-1.297294255346059799e-02
-1.105026900768280029e-02
-7.943548262119293213e-03
-3.800130449235439301e-03
8.421037346124649048e-04
3.982056863605976105e-03
4.112052731215953827e-03
1.498496276326477528e-03
9.189268894260749221e-05
1.015809830278158188e-03
3.158709965646266937e-03
4.784208722412586212e-03
5.309035535901784897e-03
5.101875867694616318e-03
3.734177211299538612e-03
1.689175143837928772e-03
7.346998900175094604e-04
1.663265400566160679e-03
3.494580741971731186e-03
4.173764493316411972e-03
1.463019405491650105e-03
-3.518474288284778595e-03
-8.525593206286430359e-03
-1.170922070741653442e-02
-1.351654622703790665e-02
-1.397567335516214371e-02
-1.394994184374809265e-02
-1.384891476482152939e-02
-1.289361342787742615e-02
-1.113284938037395477e-02
-7.952726446092128754e-03
-3.399761160835623741e-03
1.501328311860561371e-03
4.176095128059387207e-03
3.334792098030447960e-03
9.080812451429665089e-04
3.016552655026316643e-04
1.693945843726396561e-03
3.758964827284216881e-03
4.232199862599372864e-03
3.562070662155747414e-03
3.236147575080394745e-03
2.869270741939544678e-03
8.364348323084414005e-04
-2.335950703127309680e-04
1.128019648604094982e-03
3.140555694699287415e-03
3.261559410020709038e-03
1.074550324119627476e-03
-3.540820907801389694e-03
-8.511679247021675110e-03
-1.224777754396200180e-02
-1.377315167337656021e-02
-1.395103521645069122e-02
-1.395575050264596939e-02
-1.394479442387819290e-02
-1.313789375126361847e-02
-1.149191707372665405e-02
-8.240797556936740875e-03
-3.365487558767199516e-03
1.246356754563748837e-03
3.122908296063542366e-03
1.568300882354378700e-03
1.925703327287919819e-05
2.359410864301025867e-04
1.924168318510055542e-03
3.387963166460394859e-03
2.963008591905236244e-03
1.446133363060653210e-03
1.149465795606374741e-03
1.271445769816637039e-03
-9.815607882046606392e-06
-9.585871885064989328e-05
1.794410403817892075e-03
2.816756721585988998e-03
2.280480926856398582e-03
2.435448986943811178e-04
-3.706021234393119812e-03
-8.394301868975162506e-03
-1.292280945926904678e-02
-1.386004034429788589e-02
-1.399806048721075058e-02
-1.396249048411846161e-02
-1.391463167965412140e-02
-1.358418073505163193e-02
-1.197550352662801743e-02
-8.562981151044368744e-03
-3.584935097023844719e-03
6.291872123256325722e-04
1.864778110757470131e-03
7.028215914033353329e-04
4.232294668327085674e-05
4.591290198732167482e-04
1.551041263155639172e-03
2.186397789046168327e-03
8.563575684092938900e-04
-6.394645897671580315e-04
-6.593955185962840915e-05
1.071313163265585899e-03
7.582215475849807262e-04
1.683134352788329124e-03
3.499143989756703377e-03
2.943507395684719086e-03
1.300567761063575745e-03
-5.202778265811502934e-04
-3.831980982795357704e-03
-8.125712163746356964e-03
-1.306950207799673080e-02
-1.392863690853118896e-02
-1.395212113857269287e-02
-1.393247023224830627e-02
-1.400292664766311646e-02
-1.380391698330640793e-02
-1.242324989289045334e-02
-8.543126285076141357e-03
-3.547180676832795143e-03
2.484103024471551180e-04
1.269159838557243347e-03
6.786317098885774612e-04
4.207726160530000925e-04
3.903221513610333204e-04
5.915281944908201694e-04
4.897494800388813019e-04
-3.766687586903572083e-04
-1.386313117109239101e-03
3.585679805837571621e-04
2.178211230784654617e-03
2.333821495994925499e-03
3.421345958486199379e-03
4.001359455287456512e-03
2.702410798519849777e-03
6.140571786090731621e-04
-8.717124583199620247e-04
-3.496606368571519852e-03
-7.562155369669198990e-03
-1.270650699734687805e-02
-1.394568476825952530e-02
-1.399065647274255753e-02
-1.395074371248483658e-02
-1.399805396795272827e-02
-1.389139518141746521e-02
-1.274351682513952255e-02
-8.274645544588565826e-03
-3.295852569863200188e-03
4.523289317148737609e-05
1.258310046978294849e-03
9.886308107525110245e-04
5.581640289165079594e-04
2.074747462756931782e-04
3.670743808470433578e-06
6.354384822770953178e-04
7.086861878633499146e-04
7.673458894714713097e-04
2.517610788345336914e-03
2.934850752353668213e-03
2.480581402778625488e-03
3.576687304303050041e-03
3.776851110160350800e-03
2.279114210978150368e-03
6.431737565435469151e-04
-5.678053712472319603e-04
-3.116198582574725151e-03
-7.050016894936561584e-03
-1.212618220597505569e-02
-1.389674283564090729e-02
-1.395703665912151337e-02
-1.399935781955718994e-02
-1.402023341506719589e-02
-1.395286619663238525e-02
-1.278550550341606140e-02
-7.880723103880882263e-03
-2.862536581233143806e-03
3.916901769116520882e-04
1.134260790422558784e-03
6.806233432143926620e-04
4.568414296954870224e-04
6.627994007430970669e-04
1.071047736331820488e-03
2.497712383046746254e-03
2.604999113827943802e-03
2.679146127775311470e-03
3.486016765236854553e-03
2.762081101536750793e-03
1.962652895599603653e-03
2.981960074976086617e-03
3.444258356466889381e-03
2.261333633214235306e-03
1.063198666088283062e-03
2.303744986420497298e-04
-2.638076199218630791e-03
-6.764798890799283981e-03
-1.155233848839998245e-02
-1.375902164727449417e-02
-1.399856619536876678e-02
-1.394959446042776108e-02
-1.400152500718832016e-02
-1.389289274811744690e-02
-1.253144163638353348e-02
-7.196575403213500977e-03
-2.565232804045081139e-03
1.788180525181815028e-04
6.330349133349955082e-04
9.401835995959118009e-05
5.378705100156366825e-04
1.173855853267014027e-03
2.032331889495253563e-03
2.949005458503961563e-03
2.574636135250329971e-03
2.129804342985153198e-03
2.465806901454925537e-03
1.859598327428102493e-03
1.475479220971465111e-03
2.586800372228026390e-03
2.922790590673685074e-03
2.590384567156434059e-03
1.953336875885725021e-03
9.358341339975595474e-04
-2.207621466368436813e-03
-6.665182765573263168e-03
-1.128829736262559891e-02
-1.374704856425523758e-02
-1.393284462392330170e-02
-1.396572589874267578e-02
-1.398283708840608597e-02
-1.386739686131477356e-02
-1.189978886395692825e-02
-6.572463549673557281e-03
-2.391060115769505501e-03
-1.101917405321728438e-05
2.118060510838404298e-04
-2.001579705392941833e-04
2.825912961270660162e-04
9.021294536069035530e-04
1.409804448485374451e-03
1.465202658437192440e-03
7.444754592142999172e-04
7.056180038489401340e-04
1.424660906195640564e-03
1.706605777144432068e-03
1.899601542390882969e-03
2.649284433573484421e-03
3.175185061991214752e-03
3.366834018379449844e-03
3.075900953263044357e-03
1.338193775154650211e-03
-2.285123569890856743e-03
-6.900056730955839157e-03
-1.118026673793792725e-02
-1.367909554392099380e-02
-1.399701274931430817e-02
-1.398946717381477356e-02
-1.398613862693309784e-02
-1.376798190176486969e-02
-1.097335480153560638e-02
-5.962847732007503510e-03
-2.007591072469949722e-03
1.994355261558666825e-04
1.136102728196419775e-04
-2.196333516621962190e-04
3.269712906330823898e-04
9.377264068461954594e-04
1.130838296376168728e-03
7.169489981606602669e-04
2.142554294550791383e-04
9.959570597857236862e-04
2.522494411095976830e-03
2.929240930825471878e-03
2.919760299846529961e-03
3.446859074756503105e-03
4.037116188555955887e-03
4.603936802595853806e-03
4.226861055940389633e-03
1.517235301434993744e-03
-2.743309596553444862e-03
-7.412014529109001160e-03
-1.137047354131937027e-02
-1.379159931093454361e-02
-1.400845497846603394e-02
-1.391454134136438370e-02
-1.395947858691215515e-02
-1.352464314550161362e-02
-1.039202325046062469e-02
-5.715655628591775894e-03
-1.627909718081355095e-03
8.548337500542402267e-04
1.063436153344810009e-03
7.272518123500049114e-04
1.068729907274246216e-03
1.694899052381515503e-03
1.816109870560467243e-03
1.416470739059150219e-03
1.386970048770308495e-03
2.087855944409966469e-03
3.618681570515036583e-03
4.059397149831056595e-03
3.785681910812854767e-03
4.115162882953882217e-03
5.034751258790493011e-03
6.023642141371965408e-03
4.925689660012722015e-03
1.188136637210845947e-03
-3.578992094844579697e-03
-8.325595408678054810e-03
-1.169952284544706345e-02
-1.374408043920993805e-02
-1.395832560956478119e-02
-1.395116467028856277e-02
-1.396424695849418640e-02
-1.339753437787294388e-02
-1.023768540471792221e-02
-5.814090371131896973e-03
-1.675819279626011848e-03
1.763585489243268967e-03
2.715214388445019722e-03
2.266896888613700867e-03
2.105000428855419159e-03
1.946037518791854382e-03
1.919038011692464352e-03
1.886152662336826324e-03
1.938554225489497185e-03
2.871091943234205246e-03
4.149531014263629913e-03
4.196061287075281143e-03
3.693687031045556068e-03
4.373254720121622086e-03
5.887595470994710922e-03
6.050086580216884613e-03
3.640922252088785172e-03
-3.606290265452116728e-04
-5.048830527812242508e-03
-9.122082963585853577e-03
-1.216197665780782700e-02
-1.380599197000265121e-02
-1.396068930625915527e-02
-1.399102155119180679e-02
-1.398406270891427994e-02
-1.347993873059749603e-02
-1.064043398946523666e-02
-6.704583298414945602e-03
-2.625925000756978989e-03
1.206002663820981979e-03
3.601030446588993073e-03
3.831521375104784966e-03
2.572794910520315170e-03
1.335882581770420074e-03
5.378567730076611042e-04
9.345310390926897526e-04
2.005167305469512939e-03
3.477642778307199478e-03
3.873980604112148285e-03
3.438227344304323196e-03
2.917486010119318962e-03
3.766882931813597679e-03
4.651656839996576309e-03
3.421299392357468605e-03
4.527025448624044657e-04
-3.091408172622323036e-03
-6.958834361284971237e-03
-1.035011839121580124e-02
-1.288775634020566940e-02
-1.391641050577163696e-02
-1.394242420792579651e-02
-1.393149048089981079e-02
-1.394651271402835846e-02
-1.369194500148296356e-02
-1.169303804636001587e-02
-8.543409407138824463e-03
-4.794963635504245758e-03
-1.115669379942119122e-03
1.564492587931454182e-03
2.809697762131690979e-03
2.103619975969195366e-03
5.626765196211636066e-04
-6.390626076608896255e-04
2.397645730525255203e-04
1.672522863373160362e-03
2.555143786594271660e-03
2.359964419156312943e-03
1.537558156996965408e-03
9.694888722151517868e-04
8.447425789199769497e-04
5.735236918553709984e-04
-8.770488202571868896e-04
-3.321631113067269325e-03
-6.104699335992336273e-03
-9.167517535388469696e-03
-1.183708384633064270e-02
-1.362771913409233093e-02
-1.398044079542160034e-02
-1.396598573774099350e-02
-1.399417594075202942e-02
-1.396969985216856003e-02
-1.393179688602685928e-02
-1.313197799026966095e-02
-1.096108555793762207e-02
-8.336911909282207489e-03
-5.558928940445184708e-03
-3.268445841968059540e-03
-1.775410142727196217e-03
-1.680070534348487854e-03
-1.917831716127693653e-03
-1.975177554413676262e-03
-1.471047755330801010e-03
-8.469329332001507282e-04
-1.012159977108240128e-03
-1.458326587453484535e-03
-2.447713864967226982e-03
-3.454746911302208900e-03
-3.980509936809539795e-03
-4.625125322490930557e-03
-5.659845191985368729e-03
-7.260130252689123154e-03
-9.267374873161315918e-03
-1.145043782889842987e-02
-1.318710204213857651e-02
-1.388583518564701080e-02
-1.397505123168230057e-02
-1.396048720926046371e-02
-1.397518720477819443e-02
-1.395376399159431458e-02
-1.397269684821367264e-02
-1.385676022619009018e-02
-1.301282364875078201e-02
-1.155741792172193527e-02
-9.663864970207214355e-03
-8.325604721903800964e-03
-7.715104147791862488e-03
-7.633839733898639679e-03
-7.556723430752754211e-03
-7.115899119526147842e-03
-7.014938164502382278e-03
-6.847849115729331970e-03
-6.690075621008872986e-03
-6.544909905642271042e-03
-7.028083316981792450e-03
-8.234524168074131012e-03
-8.886156603693962097e-03
-9.060969576239585876e-03
-9.465734474360942841e-03
-1.037622150033712387e-02
-1.165806222707033157e-02
-1.297998148947954178e-02
-1.378795411437749863e-02
-1.395110227167606354e-02
-1.396667584776878357e-02
-1.395818404853343964e-02
-1.402495801448822021e-02
-1.397884357720613480e-02
-1.395676285028457642e-02
-1.395177189260721207e-02
-1.383026130497455597e-02
-1.319043990224599838e-02
-1.218228694051504135e-02
-1.167109049856662750e-02
-1.168604008853435516e-02
-1.196436956524848938e-02
-1.192046888172626495e-02
-1.173792313784360886e-02
-1.199083309620618820e-02
-1.208678539842367172e-02
-1.158601325005292892e-02
-1.141669321805238724e-02
-1.170261576771736145e-02
-1.208611857146024704e-02
-1.184165384620428085e-02
-1.145354285836219788e-02
-1.148755382746458054e-02
-1.222266908735036850e-02
-1.311276759952306747e-02
-1.368737686425447464e-02
-1.392414886504411697e-02
-1.398752257227897644e-02
-1.397144887596368790e-02
-1.395808439701795578e-02
-1.404760591685771942e-02
-1.394674368202686310e-02
-1.398434676229953766e-02
-1.395463384687900543e-02
-1.397532597184181213e-02
-1.388748642057180405e-02
-1.319623272866010666e-02
-1.264035142958164215e-02
-1.273368857800960541e-02
-1.293964963406324387e-02
-1.318498048931360245e-02
-1.347319409251213074e-02
-1.376933697611093521e-02
-1.363933831453323364e-02
-1.319643575698137283e-02
-1.275737304240465164e-02
-1.271711476147174835e-02
-1.262505818158388138e-02
-1.241311430931091309e-02
-1.238940749317407608e-02
-1.287583913654088974e-02
-1.354296691715717316e-02
-1.390430610626935959e-02
-1.395973563194274902e-02
-1.394340116530656815e-02
-1.399796828627586365e-02
-1.397994346916675568e-02
-1.401745434850454330e-02
-1.394500117748975754e-02
-1.395029015839099884e-02
-1.397673692554235458e-02
-1.392862200736999512e-02
-1.400511059910058975e-02
-1.398474257439374924e-02
-1.395961362868547440e-02
-1.386016327887773514e-02
-1.382017694413661957e-02
-1.374879106879234314e-02
-1.356545649468898773e-02
-1.342011708766222000e-02
-1.339656673371791840e-02
-1.335509959608316422e-02
-1.319231837987899780e-02
-1.312018651515245438e-02
-1.322166994214057922e-02
-1.336390897631645203e-02
-1.366929616779088974e-02
-1.386846229434013367e-02
-1.391382236033678055e-02
-1.390259433537721634e-02
-1.395198609679937363e-02
-1.394764520227909088e-02
-1.397322211414575577e-02
-1.395815797150135040e-02
-1.397717092186212540e-02
-1.395119074732065201e-02
