2.525932854041457176e-03
-3.210622817277908325e-04
2.806545468047261238e-03
2.204554155468940735e-03
-2.571324293967336416e-04
-5.263644197839312255e-05
3.951223625335842371e-04
-2.033185737673193216e-04
-8.353797020390629768e-04
-2.343362430110573769e-04
2.046347508439794183e-04
-3.343211021274328232e-03
-6.904402835061773658e-05
-1.077276072464883327e-03
9.438729030080139637e-04
-1.573830522829666734e-04
-7.982913521118462086e-04
-6.724204286001622677e-04
3.110432007815688848e-04
-8.625814807601273060e-04
-1.161418040283024311e-04
3.289568121545016766e-04
-7.766361813992261887e-04
5.431648460216820240e-04
-5.933463107794523239e-04
5.316979368217289448e-04
1.831910485634580255e-04
-6.789045874029397964e-04
1.600769232027232647e-03
-1.232496724696829915e-04
-1.168966409750282764e-03
1.016695285215973854e-03
1.731720636598765850e-03
-3.202265943400561810e-04
-1.079669338651001453e-03
3.432790690567344427e-04
7.706606411375105381e-04
2.062569255940616131e-04
1.622615498490631580e-03
-1.225122949108481407e-03
-2.591319207567721605e-04
1.022165874019265175e-03
1.775623532012104988e-03
-5.636147689074277878e-04
-1.434288860764354467e-04
1.696797698969021440e-04
-1.980357192223891616e-04
-2.014136174693703651e-03
1.304393517784774303e-03
-6.541617913171648979e-04
-2.994163660332560539e-04
-3.923253098037093878e-05
2.223052084445953369e-03
2.057718229480087757e-04
3.152483142912387848e-03
-2.727251849137246609e-04
-4.618168459273874760e-04
5.060574621893465519e-04
-9.576865122653543949e-04
-7.827440858818590641e-04
-1.175054931081831455e-03
-2.352275187149643898e-03
1.818069722503423691e-04
-5.899050738662481308e-04
6.781795527786016464e-04
1.157387043349444866e-03
-6.702573737129569054e-04
-7.306883926503360271e-04
-7.674128864891827106e-04
1.904114033095538616e-03
-2.559210406616330147e-04
-1.863892539404332638e-03
-6.582192145287990570e-04
4.396943550091236830e-04
5.910244653932750225e-04
-1.748911308823153377e-04
4.413303395267575979e-04
-3.821316175162792206e-03
-1.196765297208912671e-04
-2.010659780353307724e-03
-1.914297929033637047e-03
1.997137151192873716e-04
-4.440913035068660975e-04
-1.102083711884915829e-03
5.686493823304772377e-04
-2.461213152855634689e-04
-2.229805337265133858e-03
-5.011847679270431399e-05
1.825682993512600660e-04
-8.600105065852403641e-04
1.707804622128605843e-03
-9.660262148827314377e-04
-3.947665027226321399e-05
-2.036356367170810699e-03
6.105254287831485271e-04
1.278967713005840778e-03
1.665224786847829819e-03
4.048206610605120659e-04
2.498927526175975800e-03
2.974863629788160324e-03
1.751381671056151390e-03
-1.035321736708283424e-03
-6.932280957698822021e-04
2.720058546401560307e-04
-9.784868452697992325e-04
1.108296797610819340e-03
4.915279714623466134e-05
1.874110748758539557e-04
-1.007409300655126572e-04
4.610798896464984864e-06
-2.627983340062201023e-04
1.249490538612008095e-03
1.804004539735615253e-03
-8.479640237055718899e-04
-1.148753362940624356e-04
-2.807900018524378538e-04
-9.887741180136799812e-04
-1.852684654295444489e-03
-1.019691815599799156e-03
5.330407875590026379e-04
-1.378941466100513935e-03
-1.016012829495593905e-04
-1.557041774503886700e-03
-5.796026671305298805e-04
-7.211577030830085278e-04
-8.924625581130385399e-04
2.774694235995411873e-03
-6.135737639851868153e-04
-5.514047807082533836e-04
1.425928552635014057e-03
4.104861000087112188e-05
2.960852347314357758e-03
4.846191441174596548e-04
-1.707171788439154625e-03
-2.007518662139773369e-03
3.437697887420654297e-04
5.223470507189631462e-04
1.482186722569167614e-03
4.502703959587961435e-04
5.179855506867170334e-04
1.763646840117871761e-03
-4.949637514073401690e-05
1.765668974258005619e-03
1.983158872462809086e-04
-1.223439350724220276e-03
-3.137046587653458118e-04
-2.630743663758039474e-03
7.882964564487338066e-04
1.136647188104689121e-03
-5.246449145488440990e-04
-3.314000787213444710e-04
2.143615274690091610e-04
1.352032297290861607e-03
-1.232724636793136597e-03
6.809585029259324074e-04
6.699212826788425446e-04
-1.170760879176668823e-04
8.003222756087779999e-04
-1.186917652375996113e-04
-7.396814762614667416e-04
2.232776721939444542e-03
-2.757716865744441748e-04
-3.111992555204778910e-04
3.195287717971950769e-04
2.669377718120813370e-04
1.478724763728678226e-03
5.574246752075850964e-04
2.267839387059211731e-03
1.636332490306813270e-05
-1.234307652339339256e-03
5.182563327252864838e-04
1.334130996838212013e-03
-1.929778372868895531e-03
-3.456692502368241549e-04
-1.646728836931288242e-03
-3.023603057954460382e-04
2.491582883521914482e-03
-3.419099666643887758e-04
2.872531185857951641e-04
-1.287997816689312458e-03
2.869616961106657982e-03
9.185624076053500175e-04
-1.565751590533182025e-04
1.494875061325728893e-03
-2.304762369021773338e-03
6.695797201246023178e-04
-4.635194200091063976e-04
1.383510301820933819e-03
1.425750437192618847e-03
3.326343721710145473e-04
8.818316855467855930e-04
-2.884913410525768995e-04
4.892314318567514420e-04
-9.996132575906813145e-05
4.536561609711498022e-04
3.481186286080628633e-04
1.850656408350914717e-04
1.605174154974520206e-03
1.089593162760138512e-03
2.627496724016964436e-04
-2.184715121984481812e-04
-7.818611920811235905e-04
1.356840948574244976e-04
2.211580285802483559e-03
-7.793068652972579002e-04
-7.373722037300467491e-04
2.654986747074872255e-04
-7.167140720412135124e-04
-1.913563464768230915e-04
1.297989947488531470e-04
7.158964581321924925e-05
-9.657461196184158325e-04
1.522806705906987190e-03
-4.224088625051081181e-04
4.686350293923169374e-04
4.712118534371256828e-04
1.106680720113217831e-03
5.229992093518376350e-04
-6.355358054861426353e-04
6.801715353503823280e-04
-1.219365280121564865e-03
1.649832818657159805e-03
-7.268541958183050156e-04
-3.025451209396123886e-03
1.762127794791013002e-04
