1.570462435483932495e-02
8.620846271514892578e-02
3.140687244012951851e-03
-1.864515244960784912e-02
-3.292163833975791931e-02
1.755374111235141754e-02
-4.679295793175697327e-02
5.086244982521748170e-06
-5.886362865567207336e-02
1.325698494911193848e-01
9.931866952683776617e-05
4.361457526683807373e-01
2.486679004505276680e-03
-5.029752478003501892e-02
-3.973917961120605469e-01
9.689243137836456299e-02
3.755939251277595758e-04
3.069183975458145142e-02
3.449907898902893066e-02
6.197005510330200195e-02
1.020418039843207225e-05
7.397578883683308959e-06
1.258006095886230469e-01
6.518159352708607912e-06
-1.429521590471267700e-01
2.014750134549103677e-05
3.531205948092974722e-06
-1.448323205113410950e-02
1.271211653947830200e-01
2.096966227327357046e-06
-4.059884250164031982e-01
-2.169875651597976685e-01
3.287551458925008774e-03
3.080913983285427094e-02
1.036023513734107837e-05
1.594150960445404053e-01
6.239512562751770020e-02
6.686859137516876217e-07
2.246006019413471222e-02
4.717576503753662109e-02
-1.153643578290939331e-01
6.501565508187923115e-07
-1.682297289371490479e-01
3.231843188405036926e-02
2.848979202099144459e-04
6.339073297567665577e-05
-2.269393764436244965e-02
1.370552810840308666e-03
4.015613012597896159e-05
-1.000769212841987610e-01
3.494759221212007105e-05
2.421643026173114777e-02
-1.021842718124389648e+00
7.118601351976394653e-02
1.501214355230331421e-01
2.353777363896369934e-02
1.631821214687079191e-04
4.005074733868241310e-04
2.497601509094238281e-01
4.123382270336151123e-02
9.348029266220692080e-07
5.898481276744860224e-07
6.510846560559002683e-06
4.635463003069162369e-03
1.172500476241111755e-02
-3.357993066310882568e-02
2.916454377555055544e-06
2.574018947780132294e-02
-1.264190226793289185e-01
7.258255936903879046e-05
-8.128790557384490967e-02
-9.019885212182998657e-03
-2.592496015131473541e-02
2.575335092842578888e-02
-4.259954988956451416e-01
3.129144906997680664e-01
7.216358184814453125e-02
-1.654042750597000122e-01
1.588181390843601548e-07
-2.188754230737686157e-01
2.336787656531669199e-05
-9.337774664163589478e-02
9.168989890895318240e-06
2.687059529125690460e-02
-1.269056051969528198e-01
-9.669366478919982910e-02
9.789748219191096723e-06
1.591042819200083613e-04
-3.134418725967407227e-01
-9.694895148277282715e-02
-4.002563282847404480e-02
2.749892175197601318e-01
1.321458967140642926e-05
6.982156075537204742e-03
2.178503945469856262e-02
5.317659233696758747e-04
-2.184838205575942993e-01
5.577247520704986528e-06
9.428542107343673706e-03
6.197329867063672282e-07
2.459581755101680756e-02
2.563056163489818573e-02
5.258876457810401917e-02
5.773402750492095947e-02
-5.399188771843910217e-02
-7.983276993036270142e-02
-3.098169863224029541e-01
8.589886128902435303e-02
-4.073081538081169128e-03
-6.684440374374389648e-02
-2.333236783742904663e-01
-8.329819887876510620e-02
-8.802080899477005005e-02
7.635974138975143433e-02
6.751552224159240723e-03
4.210366751067340374e-04
2.894891508731234353e-07
3.723518602782860398e-06
3.093727678060531616e-02
6.350511312484741211e-02
3.423642218112945557e-01
5.729657784104347229e-02
2.023918787017464638e-03
8.823803909763228148e-06
3.356879005877999589e-06
-8.520044386386871338e-02
1.419243067502975464e-01
-3.086009994149208069e-02
-1.808813074603676796e-03
1.267650191039138008e-06
1.838780380785465240e-02
-6.794392317533493042e-02
9.283407032489776611e-02
2.447163069518865086e-06
-1.510850340127944946e-01
-3.324619233608245850e-01
-6.226385757327079773e-02
-1.332669705152511597e-01
1.572495885193347931e-02
-3.424609452486038208e-02
2.982133626937866211e-02
-9.197989106178283691e-02
4.466594755649566650e-02
4.283918678993359208e-05
5.051468312740325928e-02
7.925195693969726562e-01
1.892842988127085846e-06
5.979963392019271851e-02
-7.886249572038650513e-02
3.215191140770912170e-02
1.094636081688804552e-05
-3.687927424907684326e-01
2.193763648392632604e-04
9.946130012394860387e-05
4.679096862673759460e-03
-1.390403695404529572e-02
2.913970500230789185e-02
6.615224992856383324e-04
-7.709355354309082031e-01
-1.418463438749313354e-01
1.660015806555747986e-02
2.717118710279464722e-02
5.210922608966939151e-05
3.535993769764900208e-02
1.809118390083312988e-01
1.107758907892275602e-05
1.624795695533975959e-04
9.920125194184947759e-06
-3.532524034380912781e-02
1.240159463122836314e-06
3.527261651470325887e-05
2.056263292615767568e-05
-3.519450426101684570e-01
6.939204335212707520e-01
-1.272412538528442383e-01
-7.961018383502960205e-02
2.797963563352823257e-03
1.893765106797218323e-02
5.338405724614858627e-03
-2.322483621537685394e-02
-8.707540482282638550e-02
4.705602675676345825e-02
-1.674602031707763672e-01
6.152251362800598145e-02
-1.953507214784622192e-01
7.697560638189315796e-02
-5.891089886426925659e-02
-3.896060958504676819e-02
9.381249583384487778e-06
1.038701739162206650e-04
2.170225791633129120e-02
-1.709110587835311890e-01
-3.882120922207832336e-02
-1.679293662309646606e-01
1.379360258579254150e-02
-9.947683662176132202e-02
