-7.090903818607330322e-02
-6.272722780704498291e-02
-6.454540789127349854e-02
-6.999995559453964233e-02
-7.090903818607330322e-02
-6.454541534185409546e-02
-6.545449793338775635e-02
-6.818176805973052979e-02
-6.909086555242538452e-02
-6.818176805973052979e-02
-6.454540789127349854e-02
-6.909086555242538452e-02
-6.131902337074279785e-02
-5.644558370113372803e-02
-6.188229843974113464e-02
-6.977535784244537354e-02
-7.090903818607330322e-02
-7.090903818607330322e-02
-6.454540789127349854e-02
-6.090905144810676575e-02
-6.818176805973052979e-02
-6.272722780704498291e-02
-6.909085810184478760e-02
-6.727267801761627197e-02
-6.272722780704498291e-02
-6.999995559453964233e-02
-7.090903818607330322e-02
-7.090904563665390015e-02
-7.181813567876815796e-02
-6.818176805973052979e-02
-6.909085810184478760e-02
-6.999994814395904541e-02
-7.181813567876815796e-02
-6.272722780704498291e-02
-6.255253404378890991e-02
-5.888766050338745117e-02
-6.080202758312225342e-02
-6.231002882122993469e-02
-7.463087141513824463e-02
-8.505509793758392334e-02
-7.362192124128341675e-02
-7.821726799011230469e-02
-9.732253104448318481e-02
-9.297323971986770630e-02
-8.375023305416107178e-02
-8.086612075567245483e-02
-7.157565653324127197e-02
-5.819244682788848877e-02
-6.149370223283767700e-02
-5.249905958771705627e-02
-6.654896587133407593e-02
-6.196430325508117676e-02
-6.545449793338775635e-02
-6.181814149022102356e-02
-6.454541534185409546e-02
-7.181812822818756104e-02
-6.636358797550201416e-02
-6.545449793338775635e-02
-6.431367993354797363e-02
-6.907660514116287231e-02
-6.755430251359939575e-02
-6.548299640417098999e-02
-4.795716702938079834e-02
-6.488044559955596924e-02
-6.129748746752738953e-02
-8.938300609588623047e-02
-1.192509606480598450e-01
-1.406093090772628784e-01
-1.402528136968612671e-01
-1.414256840944290161e-01
-1.439067274332046509e-01
-1.941533386707305908e-01
-1.895783990621566772e-01
-1.653076708316802979e-01
-1.148481070995330811e-01
-1.114181578159332275e-01
-1.263381689786911011e-01
-1.199178844690322876e-01
-9.212817251682281494e-02
-6.619597226381301880e-02
-6.107296794652938843e-02
-6.161850318312644958e-02
-6.545450538396835327e-02
-6.545449793338775635e-02
-6.727268546819686890e-02
-6.636358797550201416e-02
-6.654184311628341675e-02
-6.915503740310668945e-02
-5.457748845219612122e-02
-6.138313561677932739e-02
-5.156844109296798706e-02
-5.798891559243202209e-02
-8.949709683656692505e-02
-9.995324164628982544e-02
-1.097855120897293091e-01
-1.237357854843139648e-01
-1.413825899362564087e-01
-1.146122962236404419e-01
-1.466056704521179199e-01
-1.641630679368972778e-01
-1.950935274362564087e-01
-1.715746521949768066e-01
-1.614249795675277710e-01
-1.775318831205368042e-01
-1.297642290592193604e-01
-1.065913885831832886e-01
-1.033684611320495605e-01
-7.393906265497207642e-02
-5.663793906569480896e-02
-6.121206656098365784e-02
-5.932258814573287964e-02
-6.454541534185409546e-02
-6.727267801761627197e-02
-7.063809782266616821e-02
-5.932972207665443420e-02
-5.782883986830711365e-02
-5.017805844545364380e-02
-5.688733980059623718e-02
-5.007098615169525146e-02
-5.885157734155654907e-02
-6.663765013217926025e-02
-1.311044096946716309e-01
-1.436498016119003296e-01
-1.225478798151016235e-01
-1.640837937593460083e-01
-1.938551664352416992e-01
-1.757802367210388184e-01
-2.258979529142379761e-01
-1.658512651920318604e-01
-1.773129254579544067e-01
-2.135274708271026611e-01
-2.130648344755172729e-01
-1.979779899120330811e-01
-1.254183650016784668e-01
-1.414219886064529419e-01
-1.170654818415641785e-01
-7.642738521099090576e-02
-8.522276580333709717e-02
-6.459528207778930664e-02
-6.670228391885757446e-02
-6.545449793338775635e-02
-6.727268546819686890e-02
-6.882704794406890869e-02
-5.733323097229003906e-02
-7.950059324502944946e-02
-6.957182288169860840e-02
-5.415654927492141724e-02
-6.838458776473999023e-02
-6.528992950916290283e-02
-5.839801579713821411e-02
-6.506397575139999390e-02
-2.719869650900363922e-02
-2.291614934802055359e-02
5.533955059945583344e-03
2.594814635813236237e-02
1.424798835068941116e-02
2.456160262227058411e-02
4.922423511743545532e-02
-4.056604579091072083e-03
-1.335526444017887115e-02
-5.360224097967147827e-02
-8.758883923292160034e-02
-1.059103831648826599e-01
-1.500706970691680908e-01
-9.373572468757629395e-02
-1.001245602965354919e-01
-6.554698199033737183e-02
-6.283419579267501831e-02
-6.909085810184478760e-02
-6.344024091958999634e-02
-5.935817584395408630e-02
-7.602116465568542480e-02
-8.654863387346267700e-02
-1.019247844815254211e-01
-1.066875681281089783e-01
-7.032706588506698608e-02
-4.056509956717491150e-02
2.294682664796710014e-03
2.564328908920288086e-02
-1.291531696915626526e-02
3.516794741153717041e-02
6.025991588830947876e-02
7.412532716989517212e-02
8.045026659965515137e-02
5.472081527113914490e-02
6.823548674583435059e-02
2.513628080487251282e-02
5.310637131333351135e-02
3.508006781339645386e-02
-1.135248597711324692e-02
-5.098987743258476257e-02
-7.680123299360275269e-02
-1.361705362796783447e-01
-1.125020086765289307e-01
-8.516196906566619873e-02
-6.014607846736907959e-02
-6.818177551031112671e-02
-6.549727171659469604e-02
-7.628509402275085449e-02
-8.678054809570312500e-02
-1.033326908946037292e-01
-1.007694825530052185e-01
-8.517223596572875977e-02
-6.893261522054672241e-02
-1.096039824187755585e-02
7.485427195206284523e-04
3.836122900247573853e-02
2.929682657122612000e-02
1.054937541484832764e-01
7.610451430082321167e-02
6.804424524307250977e-02
7.845094799995422363e-02
4.243332147598266602e-02
5.263594165444374084e-02
7.331230491399765015e-02
6.609175354242324829e-02
3.379776328802108765e-02
2.864831127226352692e-02
-5.529605224728584290e-02
-5.310440436005592346e-02
-5.466968938708305359e-02
-1.035398840904235840e-01
-6.998182833194732666e-02
-6.599994748830795288e-02
-6.723703444004058838e-02
-6.646691262722015381e-02
-9.603552520275115967e-02
-1.132081001996994019e-01
-1.223843917250633240e-01
-9.722224622964859009e-02
-7.742509245872497559e-02
-8.557409048080444336e-02
-6.445321440696716309e-02
-4.744221922010183334e-03
4.150324314832687378e-02
1.020785421133041382e-01
1.184642240405082703e-01
6.324519217014312744e-02
-8.138068951666355133e-03
7.904900610446929932e-02
7.903861254453659058e-02
4.056442156434059143e-02
5.981177091598510742e-02
2.023472823202610016e-02
2.007628791034221649e-02
-2.523732930421829224e-02
2.679310739040374756e-03
-1.439356477931141853e-03
-6.101911514997482300e-02
-8.720484375953674316e-02
-8.424564450979232788e-02
-6.444200873374938965e-02
-5.760423094034194946e-02
-7.320134341716766357e-02
-1.014185547828674316e-01
-9.660911560058593750e-02
-1.020245701074600220e-01
-1.398499459028244019e-01
-1.085693612694740295e-01
-8.683571964502334595e-02
-1.477383729070425034e-02
6.108369678258895874e-03
6.946458667516708374e-02
1.055153161287307739e-01
8.515156805515289307e-02
4.548657685518264771e-02
7.068023830652236938e-02
4.940393567085266113e-02
4.737598076462745667e-02
2.064885571599006653e-02
4.065967351198196411e-02
4.541336558759212494e-03
-7.434809952974319458e-02
-3.210715577006340027e-02
2.437268197536468506e-02
-3.084761835634708405e-02
-5.012425035238265991e-02
-5.656995624303817749e-02
-8.427076041698455811e-02
-5.867725983262062073e-02
-6.458102166652679443e-02
-7.438495755195617676e-02
-9.938279539346694946e-02
-1.044023633003234863e-01
-9.291210025548934937e-02
-1.328620761632919312e-01
-1.316315382719039917e-01
-5.391566455364227295e-02
1.237268326804041862e-03
1.612284593284130096e-02
5.112216249108314514e-02
1.014826223254203796e-01
6.122883781790733337e-02
6.283940374851226807e-02
9.612918831408023834e-03
2.401609905064105988e-02
1.005956716835498810e-02
8.970033377408981323e-02
7.253456860780715942e-02
-1.640740595757961273e-02
-6.612733751535415649e-02
-7.152117323130369186e-03
3.276106715202331543e-02
2.005075104534626007e-02
-2.995674125850200653e-02
-8.878394961357116699e-02
-7.444898784160614014e-02
-5.584308505058288574e-02
-6.680922955274581909e-02
-7.748296856880187988e-02
-1.063526943325996399e-01
-9.842375665903091431e-02
-9.611370414495468140e-02
-9.859482198953628540e-02
-9.005920588970184326e-02
-3.458938375115394592e-02
9.565495885908603668e-03
5.894666537642478943e-02
2.909727394580841064e-02
5.687582492828369141e-02
4.744198918342590332e-02
8.667831309139728546e-03
1.416673650965094566e-03
2.062581293284893036e-02
2.118996344506740570e-02
8.596789091825485229e-02
3.934390097856521606e-02
3.443709015846252441e-02
-4.063755646347999573e-02
-2.276393584907054901e-02
3.007644228637218475e-02
-1.209555007517337799e-02
-3.378547355532646179e-02
-5.084804445505142212e-02
-6.194280833005905151e-02
-6.700528413057327271e-02
-6.607125699520111084e-02
-6.199634075164794922e-02
-6.592130661010742188e-02
-5.978212878108024597e-02
-1.142952665686607361e-01
-1.312113106250762939e-01
-6.450129300355911255e-02
-3.660335019230842590e-02
7.284207642078399658e-02
9.867949038743972778e-02
7.702588289976119995e-02
9.839440137147903442e-02
5.140953138470649719e-02
5.308534204959869385e-02
1.620731432922184467e-03
5.143276602029800415e-02
6.951198726892471313e-02
3.037484548985958099e-02
5.310156196355819702e-02
4.418971482664346695e-03
-1.259172428399324417e-02
-2.154489606618881226e-02
-9.146524593234062195e-03
-3.573903068900108337e-02
-2.593893930315971375e-02
-6.181784719228744507e-02
-5.870928615331649780e-02
-6.135468184947967529e-02
-7.397498935461044312e-02
-6.665947288274765015e-02
-7.757206261157989502e-02
-6.824927031993865967e-02
-1.176752597093582153e-01
-8.226666599512100220e-02
-6.183458492159843445e-02
-1.634284295141696930e-02
8.678527921438217163e-02
8.148179203271865845e-02
1.052362024784088135e-01
7.239079475402832031e-02
2.663309685885906219e-02
1.967472583055496216e-02
6.801086664199829102e-02
5.697777494788169861e-02
5.176281556487083435e-02
5.530251562595367432e-02
4.860983788967132568e-02
-3.410032251849770546e-03
-1.192519348114728928e-02
-2.723121643066406250e-02
-4.588090255856513977e-02
-4.467295110225677490e-02
-4.857360944151878357e-02
-4.969284683465957642e-02
-6.035276874899864197e-02
-6.504452973604202271e-02
-6.272722780704498291e-02
-6.349014490842819214e-02
-5.142950639128684998e-02
-7.604603469371795654e-02
-1.009547710418701172e-01
-6.207419931888580322e-02
-9.285317733883857727e-03
-1.524464134126901627e-02
5.240752175450325012e-02
6.875445693731307983e-02
6.156417727470397949e-02
2.267270535230636597e-02
6.403142213821411133e-02
5.688805505633354187e-02
5.525245517492294312e-02
8.349914103746414185e-02
6.539241224527359009e-02
4.474304243922233582e-02
3.527613356709480286e-02
-3.272932395339012146e-02
-3.161861747503280640e-02
-3.592269122600555420e-02
-4.483268037438392639e-02
-1.099491342902183533e-01
-3.542177751660346985e-02
-7.337577641010284424e-02
-6.643836945295333862e-02
-7.479853183031082153e-02
-5.896608904004096985e-02
-6.506233662366867065e-02
-6.243130192160606384e-02
-7.194630056619644165e-02
-1.212723255157470703e-01
-8.836264908313751221e-02
-4.317458346486091614e-02
2.091588452458381653e-02
5.274258181452751160e-02
5.791978538036346436e-02
-6.145176012068986893e-04
3.876168653368949890e-02
5.941499397158622742e-02
6.509534269571304321e-02
1.023044809699058533e-01
4.304613918066024780e-02
1.110683195292949677e-02
-2.298671752214431763e-02
5.026228260248899460e-03
-5.096558947116136551e-03
-2.248127572238445282e-02
1.534658670425415039e-02
-6.618736684322357178e-02
-5.303662270307540894e-02
-4.951820522546768188e-02
-9.157173335552215576e-02
-7.010681182146072388e-02
-5.782528594136238098e-02
-5.928694084286689758e-02
-6.848479062318801880e-02
-7.158628851175308228e-02
-9.701574593782424927e-02
-1.554325670003890991e-01
-9.912200272083282471e-02
-5.138476938009262085e-02
4.509047046303749084e-02
2.858902327716350555e-02
5.657893046736717224e-02
3.809457644820213318e-02
2.865104749798774719e-02
8.357876539230346680e-02
1.380324065685272217e-01
6.614712625741958618e-02
5.388696491718292236e-02
2.632159553468227386e-02
-1.603928394615650177e-04
-3.210788592696189880e-02
-3.336038067936897278e-02
-4.804616421461105347e-02
-5.916691944003105164e-02
-5.240118876099586487e-02
-5.751423165202140808e-02
-7.573907077312469482e-02
-7.945771515369415283e-02
-7.328324764966964722e-02
-6.050975248217582703e-02
-6.727268546819686890e-02
-6.243843957781791687e-02
-8.265586942434310913e-02
-1.098002865910530090e-01
-1.539206951856613159e-01
-1.139632165431976318e-01
-6.042568385601043701e-02
1.719373837113380432e-02
7.283084839582443237e-02
7.614339143037796021e-02
-2.804445335641503334e-03
3.752033412456512451e-02
1.140626966953277588e-01
8.004236221313476562e-02
5.015682429075241089e-02
4.453230649232864380e-03
2.201091498136520386e-02
1.552545372396707535e-02
3.057643584907054901e-02
6.110640242695808411e-04
-9.468681178987026215e-03
-1.659645512700080872e-02
-2.470075897872447968e-02
-6.352853775024414062e-02
-1.089727133512496948e-01
-1.082918345928192139e-01
-8.065933734178543091e-02
-6.238141655921936035e-02
-6.489835679531097412e-02
-6.508371978998184204e-02
-7.850608229637145996e-02
-1.147592142224311829e-01
-1.277998238801956177e-01
-8.119662106037139893e-02
-6.289268285036087036e-02
-6.405390799045562744e-02
6.727997958660125732e-02
1.137474477291107178e-01
6.296709924936294556e-02
2.676068432629108429e-02
6.524956226348876953e-02
5.808088928461074829e-02
6.368253380060195923e-02
1.754041388630867004e-02
-2.260144334286451340e-03
3.052377514541149139e-02
8.084522560238838196e-03
3.825453668832778931e-02
1.431020628660917282e-02
2.791675180196762085e-02
-3.569209948182106018e-02
-7.173892855644226074e-02
-1.076217517256736755e-01
-1.039995700120925903e-01
-7.001408189535140991e-02
-6.564701348543167114e-02
-6.518711894750595093e-02
-5.623170360922813416e-02
-9.111922234296798706e-02
-1.162064820528030396e-01
-1.286300271749496460e-01
-1.064442023634910583e-01
-6.587295979261398315e-02
-2.029627189040184021e-02
3.858147189021110535e-02
4.898512363433837891e-02
4.543447867035865784e-02
7.049728184938430786e-02
2.537479996681213379e-02
-3.020116128027439117e-03
2.556871250271797180e-02
1.252100896090269089e-02
-4.352485761046409607e-03
4.185317549854516983e-03
3.217349201440811157e-02
-1.781552098691463470e-03
2.868412621319293976e-02
7.171346805989742279e-03
-4.448371008038520813e-02
-8.094764500856399536e-02
-1.051760092377662659e-01
-1.021672412753105164e-01
-6.381089985370635986e-02
-6.163274869322776794e-02
-6.909086555242538452e-02
-5.490547046065330505e-02
-9.500514715909957886e-02
-1.067838668823242188e-01
-7.119381427764892578e-02
-1.085905581712722778e-01
-6.184434890747070312e-02
-7.098408043384552002e-02
3.231442347168922424e-02
3.113863058388233185e-03
6.351559888571500778e-03
7.413834333419799805e-02
2.933656610548496246e-02
-2.098110271617770195e-04
7.963728904724121094e-02
4.312387853860855103e-02
2.182960137724876404e-02
9.209574013948440552e-02
3.127101808786392212e-02
3.642446920275688171e-02
2.508786506950855255e-03
-3.157109953463077545e-03
-3.179599717259407043e-02
-3.434871882200241089e-02
-9.101913124322891235e-02
-8.517622202634811401e-02
-6.243126839399337769e-02
-6.345807760953903198e-02
-6.056680157780647278e-02
-6.623168289661407471e-02
-8.905509859323501587e-02
-7.252698391675949097e-02
-1.115431711077690125e-01
-9.954620897769927979e-02
-6.631883978843688965e-02
-6.724819540977478027e-02
6.639036815613508224e-03
-1.609425805509090424e-02
-3.501456696540117264e-03
2.396825887262821198e-02
3.480310738086700439e-02
6.497103720903396606e-02
6.647564470767974854e-02
9.138415753841400146e-02
7.889836281538009644e-02
7.159563899040222168e-02
1.545874029397964478e-02
2.176401950418949127e-02
6.418896839022636414e-03
5.498311482369899750e-03
-4.791036993265151978e-02
-3.698353096842765808e-02
-7.649518549442291260e-02
-8.021002262830734253e-02
-5.392147600650787354e-02
-7.090904563665390015e-02
-6.512294709682464600e-02
-7.024237513542175293e-02
-8.037777990102767944e-02
-1.055148914456367493e-01
-8.816352486610412598e-02
-9.397441893815994263e-02
-8.470826596021652222e-02
-7.425419986248016357e-02
-9.181093424558639526e-02
-2.848678827285766602e-02
3.571543144062161446e-03
4.793594777584075928e-02
9.390821307897567749e-02
7.315250486135482788e-02
4.010761156678199768e-02
1.122615858912467957e-02
2.278279699385166168e-02
-1.932916790246963501e-02
-1.456763967871665955e-02
-5.330661684274673462e-02
-6.081187352538108826e-02
-6.406716257333755493e-02
-4.708705097436904907e-02
-6.565716862678527832e-02
-8.777854591608047485e-02
-6.513705849647521973e-02
-6.664521992206573486e-02
-6.545449793338775635e-02
-6.909085810184478760e-02
-6.181813776493072510e-02
-6.136169657111167908e-02
-7.006755471229553223e-02
-9.700881689786911011e-02
-1.134258434176445007e-01
-7.453739643096923828e-02
-9.719653427600860596e-02
-1.102899312973022461e-01
-6.033150106668472290e-02
-5.645486339926719666e-02
-9.117077104747295380e-03
1.481930073350667953e-02
1.794219575822353363e-02
-5.148642812855541706e-04
-1.081523764878511429e-02
-2.688408829271793365e-02
-8.789063990116119385e-02
-4.846984520554542542e-03
-7.984582334756851196e-02
-6.023485586047172546e-02
-7.449158281087875366e-02
-6.877312809228897095e-02
-5.107616260647773743e-02
-6.250590085983276367e-02
-5.998204648494720459e-02
-7.361494004726409912e-02
-6.636358797550201416e-02
-6.909085810184478760e-02
-6.909085810184478760e-02
-5.628514289855957031e-02
-6.836706399917602539e-02
-8.659531176090240479e-02
-9.732621908187866211e-02
-8.773604780435562134e-02
-1.204880625009536743e-01
-9.027331322431564331e-02
-6.369911879301071167e-02
-7.943088561296463013e-02
-4.913211800158023834e-03
-3.924799710512161255e-02
-3.861298318952322006e-03
3.589138388633728027e-03
-7.103172689676284790e-02
-4.232989251613616943e-02
-4.639799520373344421e-02
-6.481206417083740234e-02
-8.161088824272155762e-02
-1.169691607356071472e-01
-8.481239527463912964e-02
-3.590342029929161072e-02
-6.406748294830322266e-02
-4.736527800559997559e-02
-5.495893955230712891e-02
-6.402846425771713257e-02
-6.727267801761627197e-02
-6.454541534185409546e-02
-6.545449793338775635e-02
-7.000348716974258423e-02
-6.524415314197540283e-02
-7.774324715137481689e-02
-1.045487225055694580e-01
-1.079104617238044739e-01
-1.535467356443405151e-01
-1.328157484531402588e-01
-1.324055045843124390e-01
-1.106838211417198181e-01
-1.191398501396179199e-01
-1.530147939920425415e-01
-1.498633772134780884e-01
-1.827513426542282104e-01
-1.851792484521865845e-01
-1.573537737131118774e-01
-1.532119214534759521e-01
-1.231936290860176086e-01
-1.722525060176849365e-01
-1.267944872379302979e-01
-8.738982677459716797e-02
-7.314778119325637817e-02
-5.695887282490730286e-02
-6.566482037305831909e-02
-7.070938497781753540e-02
-5.976109206676483154e-02
-7.363630831241607666e-02
-6.636358797550201416e-02
-6.818176805973052979e-02
-7.090903818607330322e-02
-6.454540789127349854e-02
-6.491262465715408325e-02
-7.861309498548507690e-02
-1.083597168326377869e-01
-1.151260957121849060e-01
-1.267838329076766968e-01
-1.013327538967132568e-01
-1.459068804979324341e-01
-2.158029228448867798e-01
-1.693756878376007080e-01
-1.724169999361038208e-01
-1.893503218889236450e-01
-1.838529706001281738e-01
-1.372185051441192627e-01
-1.069800108671188354e-01
-1.421204209327697754e-01
-1.026915982365608215e-01
-9.386060386896133423e-02
-7.102295011281967163e-02
-7.301597297191619873e-02
-6.090546026825904846e-02
-5.954718962311744690e-02
-6.349372863769531250e-02
-6.454541534185409546e-02
-6.999994814395904541e-02
-6.818177551031112671e-02
-7.090903818607330322e-02
-6.818176805973052979e-02
-7.090904563665390015e-02
-6.702669709920883179e-02
-5.998570472002029419e-02
-5.503737181425094604e-02
-6.264165043830871582e-02
-7.374323904514312744e-02
-9.191781282424926758e-02
-8.107285201549530029e-02
-7.603173702955245972e-02
-9.821001440286636353e-02
-9.134026616811752319e-02
-1.159354969859123230e-01
-1.067556291818618774e-01
-1.223098039627075195e-01
-1.123135536909103394e-01
-8.631716668605804443e-02
-6.417110562324523926e-02
-5.497320368885993958e-02
-5.798926204442977905e-02
-6.565058231353759766e-02
-6.874504685401916504e-02
-6.636358797550201416e-02
-6.363631784915924072e-02
-6.818177551031112671e-02
-6.636358797550201416e-02
