2.560284454375505447e-03
-2.567604533396661282e-04
2.804728457704186440e-03
2.204495947808027267e-03
-2.612180833239108324e-04
-6.665191176580265164e-05
3.239242942072451115e-04
-2.166087797377258539e-04
-7.996457279659807682e-04
-1.854886068031191826e-04
2.342591324122622609e-04
-3.344575641676783562e-03
-1.004034420475363731e-04
-1.044561737217009068e-03
9.431724320165812969e-04
-1.574317429913207889e-04
-8.314364822581410408e-04
-6.597951287403702736e-04
3.373869694769382477e-04
-8.260203176178038120e-04
-1.162575281341560185e-04
3.287645813543349504e-04
-7.560527883470058441e-04
5.583285237662494183e-04
-5.677341250702738762e-04
5.174560355953872204e-04
2.821158850565552711e-04
-6.634066812694072723e-04
1.599792623892426491e-03
-1.584111887495964766e-04
-1.159897074103355408e-03
1.058979309163987637e-03
1.733068493194878101e-03
-3.232808958273380995e-04
-1.067680888809263706e-03
3.422396839596331120e-04
8.466708241030573845e-04
1.711333316052332520e-04
1.646229531615972519e-03
-1.163022127002477646e-03
-2.742480137385427952e-04
1.022535841912031174e-03
1.780047547072172165e-03
-6.086992216296494007e-04
-1.449731789762154222e-04
2.170640218537300825e-04
-2.188913786085322499e-04
-2.022447530180215836e-03
1.306479098275303841e-03
-6.358826649375259876e-04
-3.017350682057440281e-04
-5.477570812217891216e-05
2.223164075985550880e-03
1.321405143244192004e-04
3.160439664497971535e-03
-2.728762920014560223e-04
-4.645607841666787863e-04
5.025079590268433094e-04
-9.497259161435067654e-04
-7.644169963896274567e-04
-1.175471348688006401e-03
-2.351921983063220978e-03
2.054669894278049469e-04
-6.482948665507137775e-04
6.923037581145763397e-04
1.110805547796189785e-03
-7.093666936270892620e-04
-7.443010690622031689e-04
-7.675333181396126747e-04
1.929890247993171215e-03
-1.156669022748246789e-04
-1.855509006418287754e-03
-6.515912245959043503e-04
4.398614109959453344e-04
6.379786063916981220e-04
-1.825688959797844291e-04
3.782514831982553005e-04
-3.869127715006470680e-03
-1.192381387227214873e-04
-2.008563373237848282e-03
-1.924025244079530239e-03
1.703549205558374524e-04
-4.361266910564154387e-04
-1.083403010852634907e-03
5.579296266660094261e-04
-2.079454279737547040e-04
-2.252392703667283058e-03
-4.986559724784456193e-05
1.788954832591116428e-04
-8.084812434390187263e-04
1.707893679849803448e-03
-9.330465691164135933e-04
-3.924921111320145428e-05
-2.032145159319043159e-03
5.724354414269328117e-04
1.309798564761877060e-03
1.663736882619559765e-03
4.987745196558535099e-04
2.524587092921137810e-03
2.973653143271803856e-03
1.776729477569460869e-03
-1.054556341841816902e-03
-6.654008175246417522e-04
2.959911944344639778e-04
-1.017246511764824390e-03
1.108863274566829205e-03
8.278153836727142334e-05
2.436827198835089803e-04
-1.237736869370564818e-04
7.101571100065484643e-07
-2.540982677601277828e-04
1.337903901003301144e-03
1.801677979528903961e-03
-8.240459719672799110e-04
-1.149655072367750108e-04
-2.809249272104352713e-04
-9.118318557739257812e-04
-1.857844414189457893e-03
-1.027161488309502602e-03
5.319565534591674805e-04
-1.377347158268094063e-03
-5.461123510031029582e-05
-1.497548772022128105e-03
-5.601047887466847897e-04
-6.869221106171607971e-04
-9.147948585450649261e-04
2.776047447696328163e-03
-6.264799158088862896e-04
-5.942694842815399170e-04
1.431971206329762936e-03
1.002773133222945035e-04
2.963046077638864517e-03
5.393322790041565895e-04
-1.783444080501794815e-03
-2.165504265576601028e-03
3.554447903297841549e-04
5.193922552280128002e-04
1.535893301479518414e-03
3.858291602227836847e-04
5.077126552350819111e-04
1.840336713939905167e-03
-4.906653339276090264e-05
1.766696921549737453e-03
2.888671006076037884e-04
-1.210941816680133343e-03
-2.319883351447060704e-04
-2.639150712639093399e-03
8.358001359738409519e-04
1.148613169789314270e-03
-5.458482773974537849e-04
-3.188778355251997709e-04
2.142723387805745006e-04
1.444580149836838245e-03
-1.237545395269989967e-03
6.770398467779159546e-04
6.889656651765108109e-04
-1.280433643842115998e-04
8.148265769705176353e-04
-1.187785092042759061e-04
-8.033484918996691704e-04
2.231678459793329239e-03
-2.807025739457458258e-04
-3.536376752890646458e-04
2.902024425566196442e-04
2.517300599720329046e-04
1.525252475403249264e-03
5.492799100466072559e-04
2.267695032060146332e-03
2.582855995569843799e-05
-1.240908168256282806e-03
5.211020470596849918e-04
1.356800668872892857e-03
-1.946604810655117035e-03
-3.267349093221127987e-04
-1.686599338427186012e-03
-3.198268532287329435e-04
2.491748891770839691e-03
-3.261769306845963001e-04
3.396396059542894363e-04
-1.414117985405027866e-03
2.960484707728028297e-03
9.226307738572359085e-04
-1.616444205865263939e-04
1.461009145714342594e-03
-2.316634403541684151e-03
6.743808626197278500e-04
-3.980501496698707342e-04
1.383118447847664356e-03
1.427884912118315697e-03
3.337643865961581469e-04
8.972800569608807564e-04
-2.883161068893969059e-04
4.907271941192448139e-04
-7.279900455614551902e-05
4.505047691054642200e-04
3.504478081595152617e-04
1.747544883983209729e-04
1.709116273559629917e-03
1.095983083359897137e-03
2.472119231242686510e-04
-2.085789310513064265e-04
-8.020935347303748131e-04
1.047603582264855504e-04
2.215919783338904381e-03
-7.733577513135969639e-04
-6.493043620139360428e-04
2.873319026548415422e-04
-7.238901453092694283e-04
-1.826282095862552524e-04
1.093702740035951138e-04
9.174740989692509174e-05
-9.683400858193635941e-04
1.533780479803681374e-03
-4.017060855403542519e-04
4.879388725385069847e-04
4.932920564897358418e-04
1.187311368994414806e-03
4.741009324789047241e-04
-6.393748917616903782e-04
6.525155040435492992e-04
-1.232774462550878525e-03
1.661350484937429428e-03
-7.232523057609796524e-04
-3.091046120971441269e-03
1.761814492056146264e-04
