-1.395323872566223145e-02
-1.399522833526134491e-02
-1.394975557923316956e-02
-1.397855952382087708e-02
-1.396072562783956528e-02
-1.398114953190088272e-02
-1.394923217594623566e-02
-1.389047782868146896e-02
-1.390565000474452972e-02
-1.391721516847610474e-02
-1.394853461533784866e-02
-1.393895316869020462e-02
-1.389629393815994263e-02
-1.401797868311405182e-02
-1.394295413047075272e-02
-1.392877567559480667e-02
-1.396892871707677841e-02
-1.396788097918033600e-02
-1.400904171168804169e-02
-1.396050117909908295e-02
-1.392314955592155457e-02
-1.399048417806625366e-02
-1.394988037645816803e-02
-1.390260085463523865e-02
-1.396320015192031860e-02
-1.396528817713260651e-02
-1.397779025137424469e-02
-1.391389500349760056e-02
-1.396430842578411102e-02
-1.397792994976043701e-02
-1.395405922085046768e-02
-1.393722463399171829e-02
-1.391512528061866760e-02
-1.393654756247997284e-02
-1.395453512668609619e-02
-1.386936847120523453e-02
-1.388542260974645615e-02
-1.384047698229551315e-02
-1.372515503317117691e-02
-1.369157060980796814e-02
-1.372413989156484604e-02
-1.377942599356174469e-02
-1.377663109451532364e-02
-1.384522020816802979e-02
-1.390368118882179260e-02
-1.388510596007108688e-02
-1.389943249523639679e-02
-1.396275777369737625e-02
-1.395921781659126282e-02
-1.393706910312175751e-02
-1.391843333840370178e-02
-1.395511440932750702e-02
-1.395464222878217697e-02
-1.393648702651262283e-02
-1.393206603825092316e-02
-1.389209832996129990e-02
-1.396250259131193161e-02
-1.397558394819498062e-02
-1.392752584069967270e-02
-1.390221249312162399e-02
-1.396508328616619110e-02
-1.394977513700723648e-02
-1.383552141487598419e-02
-1.362733356654644012e-02
-1.325784716755151749e-02
-1.264791935682296753e-02
-1.218887045979499817e-02
-1.197083853185176849e-02
-1.196839660406112671e-02
-1.203881856054067612e-02
-1.234290841966867447e-02
-1.249128114432096481e-02
-1.262503396719694138e-02
-1.264243293553590775e-02
-1.259224303066730499e-02
-1.261720433831214905e-02
-1.264173910021781921e-02
-1.307964138686656952e-02
-1.355011947453022003e-02
-1.389414444565773010e-02
-1.392476260662078857e-02
-1.398068387061357498e-02
-1.394552923738956451e-02
-1.395433209836483002e-02
-1.394378207623958588e-02
-1.393318455666303635e-02
-1.395399589091539383e-02
-1.393862254917621613e-02
-1.394227240234613419e-02
-1.386777870357036591e-02
-1.346146129071712494e-02
-1.243182830512523651e-02
-1.129266060888767242e-02
-1.032768096774816513e-02
-1.000676304101943970e-02
-1.000890042632818222e-02
-1.019155140966176987e-02
-1.046415977180004120e-02
-1.072128489613533020e-02
-1.081571262329816818e-02
-1.108513399958610535e-02
-1.156568806618452072e-02
-1.181892864406108856e-02
-1.176297757774591446e-02
-1.167155615985393524e-02
-1.189398113638162613e-02
-1.248909067362546921e-02
-1.335503812879323959e-02
-1.378130260854959488e-02
-1.393161434680223465e-02
-1.397556718438863754e-02
-1.397697906941175461e-02
-1.393536664545536041e-02
-1.395468134433031082e-02
-1.395049691200256348e-02
-1.393491029739379883e-02
-1.382666826248168945e-02
-1.292283274233341217e-02
-1.140951085835695267e-02
-9.460072964429855347e-03
-7.947662845253944397e-03
-7.166465744376182556e-03
-6.988207343965768814e-03
-7.156697101891040802e-03
-7.764671929180622101e-03
-8.134287782013416290e-03
-8.306494913995265961e-03
-8.725366555154323578e-03
-8.924972265958786011e-03
-9.029571898281574249e-03
-8.711670525372028351e-03
-8.602018468081951141e-03
-8.828533813357353210e-03
-9.318029507994651794e-03
-1.030793227255344391e-02
-1.152716763317584991e-02
-1.280434336513280869e-02
-1.378301624208688736e-02
-1.396394893527030945e-02
-1.392971444875001907e-02
-1.396344602108001709e-02
-1.394745428115129471e-02
-1.391387172043323517e-02
-1.389553956687450409e-02
-1.296637672930955887e-02
-1.056624855846166611e-02
-8.013307116925716400e-03
-5.844443105161190033e-03
-4.061641637235879898e-03
-2.726933686062693596e-03
-2.362609142437577248e-03
-2.612875774502754211e-03
-3.016557311639189720e-03
-2.948638051748275757e-03
-2.630642848089337349e-03
-2.407295862212777138e-03
-2.401491161435842514e-03
-2.325046341866254807e-03
-1.957175554707646370e-03
-2.136507537215948105e-03
-2.982571721076965332e-03
-4.717911593616008759e-03
-6.950204726308584213e-03
-9.244723245501518250e-03
-1.108478475362062454e-02
-1.279457658529281616e-02
-1.388409547507762909e-02
-1.394464727491140366e-02
-1.395692769438028336e-02
-1.396403182297945023e-02
-1.391855441033840179e-02
-1.353106554597616196e-02
-1.118004415184259415e-02
-8.120356127619743347e-03
-5.350043065845966339e-03
-2.708550775423645973e-03
-6.228227866813540459e-04
2.748080878518521786e-04
3.635528992163017392e-05
-5.440688109956681728e-04
-6.263214163482189178e-04
3.535724681569263339e-05
9.626374230720102787e-04
1.533070579171180725e-03
1.370991230942308903e-03
1.223320141434669495e-03
2.050590468570590019e-03
2.949932124465703964e-03
2.327287336811423302e-03
-1.205431399284861982e-04
-3.548150183632969856e-03
-7.197780534625053406e-03
-1.005768589675426483e-02
-1.189811434596776962e-02
-1.347795780748128891e-02
-1.393954642117023468e-02
-1.394958980381488800e-02
-1.396487094461917877e-02
-1.381868589669466019e-02
-1.265680138021707535e-02
-9.547068737447261810e-03
-6.254272535443305969e-03
-2.872232813388109207e-03
1.932656450662761927e-04
1.719145220704376698e-03
1.570530352182686329e-03
2.372301969444379210e-04
-1.953140454133972526e-04
6.551468977704644203e-04
2.285343594849109650e-03
3.990913275629281998e-03
4.581503570079803467e-03
3.687712829560041428e-03
2.137979725375771523e-03
2.386825624853372574e-03
4.139195196330547333e-03
4.896903876215219498e-03
3.256763564422726631e-03
-5.392896709963679314e-04
-5.414232145994901657e-03
-9.366691112518310547e-03
-1.153817027807235718e-02
-1.329090725630521774e-02
-1.397563330829143524e-02
-1.394124701619148254e-02
-1.386934425681829453e-02
-1.336478907614946365e-02
-1.143161393702030182e-02
-8.451280184090137482e-03
-4.703360609710216522e-03
-7.335104164667427540e-04
2.398805227130651474e-03
3.261845791712403297e-03
1.614958979189395905e-03
-2.620604645926505327e-04
1.557177711219992489e-06
1.847109873779118061e-03
3.971468657255172729e-03
5.303726997226476669e-03
5.992886610329151154e-03
4.714077804237604141e-03
2.541483845561742783e-03
1.251315581612288952e-03
2.859066007658839226e-03
4.256675019860267639e-03
4.143728408962488174e-03
9.727480937726795673e-04
-4.393439739942550659e-03
-8.952489122748374939e-03
-1.155670918524265289e-02
-1.328039262443780899e-02
-1.396716572344303131e-02
-1.398981828242540359e-02
-1.390878856182098389e-02
-1.295188441872596741e-02
-1.102786231786012650e-02
-7.926016114652156830e-03
-3.788683563470840454e-03
8.703214116394519806e-04
3.992062527686357498e-03
4.080095794051885605e-03
1.490505295805633068e-03
1.423790527042001486e-04
9.487434290349483490e-04
3.134817583486437798e-03
4.944111220538616180e-03
5.325882695615291595e-03
5.139252636581659317e-03
3.809691173955798149e-03
1.761968713253736496e-03
7.853202987462282181e-04
1.597138587385416031e-03
3.465370275080204010e-03
4.108130466192960739e-03
1.480466569773852825e-03
-3.517791163176298141e-03
-8.512933738529682159e-03
-1.169255003333091736e-02
-1.349401939660310745e-02
-1.395135372877120972e-02
-1.392528507858514786e-02
-1.382490992546081543e-02
-1.287190895527601242e-02
-1.110855583101511002e-02
-7.929879240691661835e-03
-3.386209253221750259e-03
1.537626027129590511e-03
4.137289244681596756e-03
3.359917551279067993e-03
9.621007484383881092e-04
3.451244556345045567e-04
1.659106230363249779e-03
3.727466100826859474e-03
4.190027248114347458e-03
3.539200173690915108e-03
3.301820252090692520e-03
2.955792937427759171e-03
8.720913901925086975e-04
-1.617184752831235528e-04
1.097145141102373600e-03
3.049618564546108246e-03
3.210927359759807587e-03
1.014583976939320564e-03
-3.539649071171879768e-03
-8.509946055710315704e-03
-1.223085727542638779e-02
-1.375047024339437485e-02
-1.392646040767431259e-02
-1.393188070505857468e-02
-1.392234209924936295e-02
-1.311576180160045624e-02
-1.147256046533584595e-02
-8.228818885982036591e-03
-3.346025245264172554e-03
1.231039757840335369e-03
3.092970931902527809e-03
1.599615672603249550e-03
-2.390837380517041311e-06
2.678587625268846750e-04
1.899566967040300369e-03
3.322038799524307251e-03
3.032709471881389618e-03
1.458311337046325207e-03
1.229066401720046997e-03
1.291530788876116276e-03
-2.678660894162021577e-05
-1.561271201353520155e-04
1.713602687232196331e-03
2.758840797469019890e-03
2.257855143398046494e-03
2.284245274495333433e-04
-3.692374099045991898e-03
-8.368091657757759094e-03
-1.290170848369598389e-02
-1.383675262331962585e-02
-1.397558022290468216e-02
-1.393857877701520920e-02
-1.388978771865367889e-02
-1.356172095984220505e-02
-1.195522490888834000e-02
-8.545279502868652344e-03
-3.581430995836853981e-03
6.495936540886759758e-04
1.877622795291244984e-03
7.467067334800958633e-04
4.190110303170513362e-06
4.344536864664405584e-04
1.484918524511158466e-03
2.110562287271022797e-03
7.993511972017586231e-04
-6.623945664614439011e-04
-1.226130843861028552e-04
1.189789734780788422e-03
7.727211923338472843e-04
1.708617201074957848e-03
3.461295040324330330e-03
2.872084965929389000e-03
1.302375807426869869e-03
-4.885162925347685814e-04
-3.816478652879595757e-03
-8.101711980998516083e-03
-1.304706279188394547e-02
-1.390530541539192200e-02
-1.392677705734968185e-02
-1.390928123146295547e-02
-1.397973764687776566e-02
-1.378068607300519943e-02
-1.239882875233888626e-02
-8.528339676558971405e-03
-3.536738920956850052e-03
2.747038961388170719e-04
1.305827754549682140e-03
6.649629212915897369e-04
4.159471136517822742e-04
4.215960507281124592e-04
4.652933857869356871e-04
5.602497258223593235e-04
-3.829143242910504341e-04
-1.208391506224870682e-03
4.337423015385866165e-04
2.106561092659831047e-03
2.331185620278120041e-03
3.402485046535730362e-03
3.931200597435235977e-03
2.650351962074637413e-03
5.549159832298755646e-04
-8.468424202874302864e-04
-3.470602212473750114e-03
-7.546471431851387024e-03
-1.268686074763536453e-02
-1.392331253737211227e-02
-1.396709866821765900e-02
-1.392801851034164429e-02
-1.397424377501010895e-02
-1.386768277734518051e-02
-1.272133924067020416e-02
-8.259083144366741180e-03
-3.279427997767925262e-03
8.243766933446750045e-05
1.265443861484527588e-03
1.039584865793585777e-03
5.895928479731082916e-04
2.386548731010407209e-04
4.544354305835440755e-05
6.666286499239504337e-04
6.741117686033248901e-04
7.690536440350115299e-04
2.604256616905331612e-03
2.958146622404456139e-03
2.530019031837582588e-03
3.625690937042236328e-03
3.769857576116919518e-03
2.283059526234865189e-03
6.554911960847675800e-04
-5.516720120795071125e-04
-3.114849794656038284e-03
-7.041600998491048813e-03
-1.210786961019039154e-02
-1.387455873191356659e-02
-1.393280643969774246e-02
-1.397612784057855606e-02
-1.399751007556915283e-02
-1.393097639083862305e-02
-1.276891026645898819e-02
-7.870159111917018890e-03
-2.854040823876857758e-03
3.967043594457209110e-04
1.186689012683928013e-03
7.457069586962461472e-04
4.730153304990381002e-04
6.745714345015585423e-04
1.006150501780211926e-03
2.470788778737187386e-03
2.594476100057363510e-03
2.668027300387620926e-03
3.490334376692771912e-03
2.782635623589158058e-03
1.855670008808374405e-03
2.946259686723351479e-03
3.380542853847146034e-03
2.251182682812213898e-03
1.068346085958182812e-03
2.643816114868968725e-04
-2.654821611940860748e-03
-6.762173026800155640e-03
-1.153178792446851730e-02
-1.373572926968336105e-02
-1.397546567022800446e-02
-1.392535865306854248e-02
-1.397782843559980392e-02
-1.386855635792016983e-02
-1.251054555177688599e-02
-7.174080703407526016e-03
-2.563631394878029823e-03
2.350985596422106028e-04
7.241274579428136349e-04
1.199200050905346870e-04
4.718106356449425220e-04
1.157951191999018192e-03
1.901710289530456066e-03
3.024175763130187988e-03
2.508804202079772949e-03
2.050376264378428459e-03
2.359406556934118271e-03
1.771382405422627926e-03
1.506100874394178391e-03
2.513882936909794807e-03
2.864319598302245140e-03
2.616918180137872696e-03
1.994020538404583931e-03
9.643610101193189621e-04
-2.192724263295531273e-03
-6.661267951130867004e-03
-1.126989908516407013e-02
-1.372650638222694397e-02
-1.390768494457006454e-02
-1.394269987940788269e-02
-1.395964529365301132e-02
-1.384426373988389969e-02
-1.188238430768251419e-02
-6.549317855387926102e-03
-2.335227094590663910e-03
1.318229442404117435e-05
1.904709206428378820e-04
-2.551194629631936550e-04
2.203304320573806763e-04
8.529835031367838383e-04
1.380564644932746887e-03
1.469852169975638390e-03
7.269365014508366585e-04
5.792017909698188305e-04
1.431638374924659729e-03
1.679153181612491608e-03
1.922141062095761299e-03
2.702902536839246750e-03
3.227022709324955940e-03
3.422906622290611267e-03
3.069088794291019440e-03
1.365443575195968151e-03
-2.258483320474624634e-03
-6.895771715790033340e-03
-1.116043329238891602e-02
-1.365690398961305618e-02
-1.397371571511030197e-02
-1.396591775119304657e-02
-1.396310050040483475e-02
-1.374739315360784531e-02
-1.095589064061641693e-02
-5.927547346800565720e-03
-1.991495024412870407e-03
2.399790391791611910e-04
9.200959175359457731e-05
-1.672693615546450019e-04
3.876450937241315842e-04
1.011728192679584026e-03
1.094899605959653854e-03
7.122682291083037853e-04
1.441807253286242485e-04
9.527636575512588024e-04
2.519538160413503647e-03
2.916663419455289841e-03
2.959918230772018433e-03
3.467371920123696327e-03
4.050481133162975311e-03
4.624421708285808563e-03
4.276116378605365753e-03
1.570981927216053009e-03
-2.718093339353799820e-03
-7.393974810838699341e-03
-1.135245990008115768e-02
-1.377094723284244537e-02
-1.398513745516538620e-02
-1.389068271964788437e-02
-1.393554359674453735e-02
-1.350343599915504456e-02
-1.037118956446647644e-02
-5.688413511961698532e-03
-1.594153000041842461e-03
8.646347559988498688e-04
1.053271233104169369e-03
7.412754930555820465e-04
1.029342645779252052e-03
1.617068541236221790e-03
1.740981591865420341e-03
1.466683810576796532e-03
1.427501905709505081e-03
2.067813184112310410e-03
3.644171636551618576e-03
4.104889463633298874e-03
3.746501402929425240e-03
4.252035636454820633e-03
5.057383794337511063e-03
6.005482748150825500e-03
4.936596378684043884e-03
1.235281932167708874e-03
-3.533964976668357849e-03
-8.309421129524707794e-03
-1.167916599661111832e-02
-1.372124440968036652e-02
-1.393378339707851410e-02
-1.392680685967206955e-02
-1.393976900726556778e-02
-1.337574422359466553e-02
-1.022222265601158142e-02
-5.792042240500450134e-03
-1.648325938731431961e-03
1.790001639164984226e-03
2.748699858784675598e-03
2.327859168872237206e-03
2.085902262479066849e-03
1.979659078642725945e-03
1.981853041797876358e-03
1.804947271011769772e-03
1.884533790871500969e-03
2.746344078332185745e-03
4.313570912927389145e-03
4.280767869204282761e-03
3.722145687788724899e-03
4.374936688691377640e-03
5.875604692846536636e-03
6.055274512618780136e-03
3.633328014984726906e-03
-3.285348648205399513e-04
-5.030507687479257584e-03
-9.102663025259971619e-03
-1.214068662375211716e-02
-1.378347072750329971e-02
-1.393656246364116669e-02
-1.396777760237455368e-02
-1.396161038428544998e-02
-1.345720887184143066e-02
-1.062449719756841660e-02
-6.690863519906997681e-03
-2.607563277706503868e-03
1.232972368597984314e-03
3.630197839811444283e-03
3.870959160849452019e-03
2.559946617111563683e-03
1.428639516234397888e-03
5.270425463095307350e-04
9.968746453523635864e-04
1.974805956706404686e-03
3.510245587676763535e-03
3.798021236434578896e-03
3.335441928356885910e-03
2.925656968727707863e-03
3.687594085931777954e-03
4.613417666405439377e-03
3.428195370361208916e-03
4.283715097699314356e-04
-3.083953401073813438e-03
-6.945481523871421814e-03
-1.033193990588188171e-02
-1.286534592509269714e-02
-1.389290578663349152e-02
-1.391780655831098557e-02
-1.390772312879562378e-02
-1.392202358692884445e-02
-1.367016509175300598e-02
-1.167013775557279587e-02
-8.535532280802726746e-03
-4.772232379764318466e-03
-1.097084139473736286e-03
1.631033373996615410e-03
2.799226902425289154e-03
2.111608162522315979e-03
5.700447945855557919e-04
-5.834206822328269482e-04
1.932442100951448083e-04
1.768832677043974400e-03
2.481004688888788223e-03
2.322539687156677246e-03
1.501317135989665985e-03
8.808103739283978939e-04
8.212742977775633335e-04
5.712849088013172150e-04
-8.825755212455987930e-04
-3.307895502075552940e-03
-6.089031696319580078e-03
-9.148199111223220825e-03
-1.181673910468816757e-02
-1.360577624291181564e-02
-1.395653560757637024e-02
-1.394176948815584183e-02
-1.397102605551481247e-02
-1.394649781286716461e-02
-1.390896830707788467e-02
-1.311047188937664032e-02
-1.093934010714292526e-02
-8.323818445205688477e-03
-5.534203257411718369e-03
-3.283180529251694679e-03
-1.755571924149990082e-03
-1.657479908317327499e-03
-1.917328452691435814e-03
-2.020123880356550217e-03
-1.442680601030588150e-03
-7.997282082214951515e-04
-1.064112177118659019e-03
-1.508602406829595566e-03
-2.466832287609577179e-03
-3.438499057665467262e-03
-3.988385200500488281e-03
-4.617973696440458298e-03
-5.658148787915706635e-03
-7.257092278450727463e-03
-9.251382201910018921e-03
-1.143027562648057938e-02
-1.316695660352706909e-02
-1.386190857738256454e-02
-1.395161077380180359e-02
-1.393700949847698212e-02
-1.395142078399658203e-02
-1.393038965761661530e-02
-1.394921820610761642e-02
-1.383484899997711182e-02
-1.299161743372678757e-02
-1.153673697263002396e-02
-9.649007581174373627e-03
-8.312895894050598145e-03
-7.692217361181974411e-03
-7.601271383464336395e-03
-7.490413729101419449e-03
-7.225571665912866592e-03
-6.917041260749101639e-03
-6.886208895593881607e-03
-6.727950647473335266e-03
-6.548003293573856354e-03
-7.023873273283243179e-03
-8.185733109712600708e-03
-8.888484910130500793e-03
-9.042666293680667877e-03
-9.448260068893432617e-03
-1.036400627344846725e-02
-1.163702365010976791e-02
-1.295663509517908096e-02
-1.376463752239942551e-02
-1.392798777669668198e-02
-1.394257228821516037e-02
-1.393520925194025040e-02
-1.400181185454130173e-02
-1.395557820796966553e-02
-1.393324974924325943e-02
-1.392839662730693817e-02
-1.380617078393697739e-02
-1.316905394196510315e-02
-1.216393709182739258e-02
-1.165162585675716400e-02
-1.167451869696378708e-02
-1.193447504192590714e-02
-1.189606543630361557e-02
-1.169817429035902023e-02
-1.193697284907102585e-02
-1.206644997000694275e-02
-1.154271326959133148e-02
-1.140496134757995605e-02
-1.168495323508977890e-02
-1.206466741859912872e-02
-1.182610355317592621e-02
-1.143321115523576736e-02
-1.147220283746719360e-02
-1.220256742089986801e-02
-1.309186685830354691e-02
-1.366626191884279251e-02
-1.390073727816343307e-02
-1.396492216736078262e-02
-1.394786592572927475e-02
-1.393330749124288559e-02
-1.402500458061695099e-02
-1.392299961298704147e-02
-1.396179478615522385e-02
-1.392989605665206909e-02
-1.395130809396505356e-02
-1.386570930480957031e-02
-1.317589916288852692e-02
-1.261489652097225189e-02
-1.271123345941305161e-02
-1.290589384734630585e-02
-1.314858347177505493e-02
-1.342003513127565384e-02
-1.373672578483819962e-02
-1.361262053251266479e-02
-1.316688209772109985e-02
-1.272446475923061371e-02
-1.270313840359449387e-02
-1.260052062571048737e-02
-1.239336002618074417e-02
-1.236998289823532104e-02
-1.285541057586669922e-02
-1.352095976471900940e-02
-1.388171408325433731e-02
-1.393570657819509506e-02
-1.391926314681768417e-02
-1.397515460848808289e-02
-1.395515538752079010e-02
-1.399426814168691635e-02
-1.392101589590311050e-02
-1.392645295709371567e-02
-1.395412813872098923e-02
-1.390420831739902496e-02
-1.398091297596693039e-02
-1.396233495324850082e-02
-1.393751148134469986e-02
-1.383543387055397034e-02
-1.379634439945220947e-02
-1.372548099607229233e-02
-1.354415901005268097e-02
-1.339742541313171387e-02
-1.337309181690216064e-02
-1.332933735102415085e-02
-1.317141856998205185e-02
-1.309618633240461349e-02
-1.319891400635242462e-02
-1.334024779498577118e-02
-1.364443637430667877e-02
-1.384634245187044144e-02
-1.389115769416093826e-02
-1.387977506965398788e-02
-1.392824295908212662e-02
-1.392443850636482239e-02
-1.394968014210462570e-02
-1.393501181155443192e-02
-1.395268365740776062e-02
-1.392737310379743576e-02
