6.036956328898668289e-03
2.687677042558789253e-03
2.491874387487769127e-03
7.573963957838714123e-04
2.079371362924575806e-03
-2.475689107086509466e-04
1.695737359113991261e-03
2.047669840976595879e-03
-8.400903898291289806e-04
1.122532339650206268e-04
1.537564676254987717e-03
2.367171982768923044e-04
5.013017216697335243e-04
-2.206132281571626663e-03
1.392061123624444008e-03
6.887613330036401749e-03
5.917174858041107655e-04
2.783986506983637810e-03
5.979807581752538681e-03
-2.667211694642901421e-03
2.487292280420660973e-03
-6.714389892295002937e-04
1.869897474534809589e-03
-6.226737750694155693e-04
2.948638051748275757e-03
8.621332235634326935e-04
1.835499657317996025e-03
4.251075908541679382e-03
-1.587441365700215101e-04
1.122151268646121025e-03
1.475383643992245197e-03
1.792681869119405746e-03
7.830753456801176071e-04
-8.642109605716541409e-05
4.055780358612537384e-03
1.825022773118689656e-04
1.414048019796609879e-03
2.124212216585874557e-03
-1.227845670655369759e-03
4.318945575505495071e-04
-4.184329009149223566e-04
8.455106290057301521e-04
-6.484209443442523479e-04
1.052780309692025185e-03
-1.272629247978329659e-03
1.687188982032239437e-03
6.922389846295118332e-03
1.572876586578786373e-03
8.935634105000644922e-05
4.141237121075391769e-03
1.195415272377431393e-03
1.308038481511175632e-03
-9.170598787022754550e-07
1.999628497287631035e-03
5.466491915285587311e-03
-2.343443455174565315e-03
-1.672471757046878338e-03
3.376051608938723803e-04
-2.247687662020325661e-03
5.790791474282741547e-04
-1.020606374368071556e-03
3.312047105282545090e-03
5.206062458455562592e-03
1.906760153360664845e-03
1.620452152565121651e-03
4.981434904038906097e-03
2.275382401421666145e-03
3.238511853851377964e-04
7.737482665106654167e-04
-8.229117956943809986e-04
1.689202850684523582e-03
2.286895876750349998e-03
1.935563515871763229e-03
2.453329041600227356e-03
-3.231247246731072664e-04
-1.080672256648540497e-03
-9.241258376277983189e-04
4.180326359346508980e-04
2.663949737325310707e-03
6.398168625310063362e-04
-6.709411973133683205e-04
-4.908001865260303020e-04
1.016906811855733395e-03
2.371244598180055618e-03
1.847128150984644890e-03
1.485891290940344334e-03
2.374609233811497688e-03
3.058121073991060257e-03
-8.340423810295760632e-04
3.453155804891139269e-04
-1.414594473317265511e-03
-5.836212949361652136e-05
-9.284247062169015408e-04
9.847762994468212128e-04
-2.502885181456804276e-04
-1.304522738792002201e-03
1.274102367460727692e-03
6.437954492866992950e-03
7.008514949120581150e-04
2.793778839986771345e-04
1.123978174291551113e-03
2.289312193170189857e-03
-2.374452160438522696e-04
1.249013468623161316e-03
1.266476348973810673e-03
2.934538351837545633e-04
1.831411849707365036e-03
1.094012171961367130e-03
-1.270139240659773350e-03
1.500667538493871689e-03
-2.079524711007252336e-05
1.045392127707600594e-03
8.919202373363077641e-04
-5.226766224950551987e-04
7.827663794159889221e-03
1.050013233907520771e-03
6.076327525079250336e-03
2.067500725388526917e-03
-1.089692232199013233e-03
3.282482211943715811e-04
-2.641982166096568108e-03
1.383426715619862080e-03
1.205750508233904839e-03
-3.353466745465993881e-04
2.373674884438514709e-03
3.098726971074938774e-03
-2.290904667461290956e-04
-4.252124053891748190e-04
1.615458400920033455e-03
1.137664658017456532e-03
-2.479695540387183428e-04
5.483297165483236313e-03
8.435142808593809605e-04
2.135891467332839966e-03
2.230437239632010460e-03
-2.825835254043340683e-03
1.332009793259203434e-03
-1.243180595338344574e-04
-1.174385193735361099e-03
7.571851165266707540e-05
2.760876668617129326e-03
1.116205938160419464e-03
1.448464114218950272e-03
3.673921455629169941e-04
-1.323917065747082233e-03
-3.570308326743543148e-04
1.014422858133912086e-03
3.181543666869401932e-03
-6.312583573162555695e-04
7.383311167359352112e-04
8.542520808987319469e-04
4.261027555912733078e-03
1.444648252800107002e-03
6.300528766587376595e-04
-6.621050852118059993e-05
3.865260630846023560e-03
4.796187859028577805e-03
-4.152431502006947994e-04
2.392417285591363907e-03
1.049402984790503979e-03
-7.440405315719544888e-04
-2.395824296399950981e-03
3.094185609370470047e-03
2.809096127748489380e-03
6.918102037161588669e-03
5.632397253066301346e-03
3.893009561579674482e-04
-5.637566791847348213e-04
-1.260791788809001446e-03
8.820110087981447577e-05
7.482589717255905271e-05
2.678381279110908508e-03
-5.067901220172643661e-04
8.096647448837757111e-03
-4.338524013292044401e-04
-9.947550715878605843e-04
-4.944280372001230717e-04
5.792223848402500153e-03
1.947251614183187485e-03
-1.044385018758475780e-03
2.093256916850805283e-03
8.153953822329640388e-04
2.294471923960372806e-04
1.388214994221925735e-03
-5.253824638202786446e-04
8.844331023283302784e-04
6.601505447179079056e-04
1.568996813148260117e-03
1.266701263375580311e-03
-8.732561254873871803e-04
-3.182525688316673040e-05
4.727216903120279312e-03
3.787646535784006119e-03
-1.418929663486778736e-03
3.236134361941367388e-04
-2.268098993226885796e-03
-7.348781218752264977e-04
2.789861522614955902e-03
-1.801947364583611488e-03
7.419075816869735718e-03
-4.563755937851965427e-04
-3.796423086896538734e-03
-5.451385513879358768e-04
1.765940454788506031e-03
1.090112375095486641e-03
1.748742302879691124e-03
7.654007640667259693e-05
1.715539139695465565e-03
-1.904328470118343830e-03
2.880262909457087517e-03
9.059105650521814823e-04
2.693477086722850800e-03
-1.906669815070927143e-03
-4.464705489226616919e-05
-6.974017742322757840e-05
-2.846630755811929703e-03
-3.385461241123266518e-05
5.742025678046047688e-04
1.201874576508998871e-03
2.306069014593958855e-03
7.307098712772130966e-04
6.562288035638630390e-04
2.130144508555531502e-03
-8.714941941434517503e-05
8.410775102674961090e-03
