1.571170054376125336e-03
7.422456983476877213e-04
1.846574479714035988e-03
2.000577747821807861e-03
1.564620761200785637e-03
-1.118106767535209656e-03
1.195790478959679604e-03
3.014411078765988350e-03
-1.801670296117663383e-04
-3.655438486021012068e-04
-9.373188950121402740e-04
-1.300467643886804581e-03
-3.786344313994050026e-04
1.744999433867633343e-03
7.806390640325844288e-04
-8.913730271160602570e-04
2.335280179977416992e-03
-1.643163734115660191e-03
1.849343068897724152e-03
-4.751316155306994915e-04
-1.815944444388151169e-03
1.073437859304249287e-03
-1.230926718562841415e-04
2.406633226200938225e-03
-1.555960159748792648e-03
7.836840231902897358e-04
-6.907911738380789757e-04
-1.512631424702703953e-03
-1.421979628503322601e-03
2.503140131011605263e-04
-1.790133188478648663e-03
-3.306684666313230991e-04
1.227069296874105930e-03
-3.801057464443147182e-04
5.549799534492194653e-04
1.042597941705025733e-04
4.695813695434480906e-04
-8.971781353466212749e-04
-1.406084629707038403e-03
-3.179726190865039825e-04
-3.190771385561674833e-04
6.126149673946201801e-04
1.907077676150947809e-04
3.003432648256421089e-04
2.148955827578902245e-03
1.738796709105372429e-03
-4.770976956933736801e-04
3.988509124610573053e-04
2.130560344085097313e-03
-1.836810610257089138e-03
1.643460243940353394e-03
1.781124621629714966e-03
-2.809344092383980751e-03
-4.086007247678935528e-04
-8.734713774174451828e-04
-1.688806689344346523e-03
3.893865505233407021e-05
-1.072191953426226974e-04
1.445137429982423782e-03
1.571612665429711342e-03
1.272664230782538652e-04
2.632349729537963867e-03
-4.366272187326103449e-04
2.969276858493685722e-03
-1.542101032100617886e-03
-8.870511665008962154e-04
1.993915793718770146e-04
-1.491100643761456013e-03
1.139020663686096668e-03
-2.018669387325644493e-03
7.325327023863792419e-04
-2.782964729703962803e-04
-1.181605621241033077e-03
1.568857929669320583e-03
-1.192829106003046036e-03
-1.389728859066963196e-03
-1.317840302363038063e-03
1.579681644216179848e-03
6.431343499571084976e-04
4.629950853995978832e-05
2.546489005908370018e-03
-5.175590631552040577e-04
1.457615522667765617e-03
6.847846671007573605e-04
-2.198812726419419050e-04
-3.205402172170579433e-04
-4.803304036613553762e-04
-2.406768762739375234e-04
-1.008585328236222267e-03
-1.526449457742273808e-03
-3.943358315154910088e-04
3.641490184236317873e-04
4.313898680265992880e-04
2.162444405257701874e-03
1.117596635594964027e-03
-6.742837285855785012e-05
-1.960812805918976665e-04
5.385780241340398788e-04
2.336655976250767708e-03
-2.584208734333515167e-03
-2.037756203208118677e-04
-9.113306878134608269e-04
1.446568057872354984e-03
2.724104560911655426e-03
-2.409604378044605255e-03
1.694507431238889694e-03
-3.841106954496353865e-04
-1.107241259887814522e-03
-1.027454622089862823e-03
-1.622694428078830242e-03
-1.423396752215921879e-03
1.402218593284487724e-03
-9.259847574867308140e-04
-1.322642667219042778e-03
-3.671994491014629602e-04
1.633038278669118881e-03
-6.090113893151283264e-04
1.893362059490755200e-04
-7.837821613065898418e-04
-1.503905979916453362e-03
6.032527307979762554e-04
-1.588654238730669022e-03
-9.214719175361096859e-04
3.488375223241746426e-04
-7.949901628307998180e-04
2.260552864754572511e-04
1.869793515652418137e-03
-4.944105166941881180e-04
4.392786067910492420e-04
1.800098689272999763e-03
-3.152095596306025982e-04
-5.770282004959881306e-04
-1.625060103833675385e-03
1.364140305668115616e-03
-1.306600053794682026e-03
1.637711189687252045e-03
1.918121706694364548e-03
-2.558657433837652206e-04
-7.905760430730879307e-04
-3.246146952733397484e-03
1.196730445371940732e-04
-1.916518667712807655e-03
6.248458521440625191e-04
-9.556225850246846676e-04
7.260461570695042610e-04
-2.355642209295183420e-05
5.034962669014930725e-04
1.143917790614068508e-03
-5.981846334179863334e-05
1.591067528352141380e-03
-9.653904126025736332e-04
-2.429545711493119597e-04
-9.506250498816370964e-04
-8.046724251471459866e-04
-1.123979687690734863e-03
-1.283654943108558655e-03
2.460166113451123238e-03
2.286415779963135719e-03
2.008363371714949608e-03
-5.944140721112489700e-04
-2.332228934392333031e-03
-7.252920768223702908e-04
-1.607071142643690109e-03
5.799136706627905369e-04
-8.068699389696121216e-04
-5.207174690440297127e-04
-1.299385621678084135e-04
-5.997418193146586418e-04
-2.221943810582160950e-03
9.455313556827604771e-04
-1.120387460105121136e-03
2.939275873359292746e-04
2.129967760993167758e-04
1.982500078156590462e-03
-1.257195399375632405e-04
1.952631631866097450e-03
-3.289672895334661007e-04
5.379377398639917374e-04
-1.377116772346198559e-03
-4.401763435453176498e-04
-5.494219367392361164e-04
8.535557426512241364e-04
1.380412722937762737e-03
-7.274923264048993587e-04
2.914291326305828989e-05
1.810062909498810768e-03
1.717384089715778828e-03
1.485235989093780518e-03
-7.440748740918934345e-04
1.253618858754634857e-03
-5.883550620637834072e-04
1.672349753789603710e-03
-2.529953053453937173e-05
1.626845478313043714e-04
8.049227762967348099e-04
5.735438317060470581e-04
-9.949579834938049316e-04
8.540953276678919792e-04
-2.281920053064823151e-03
1.537826610729098320e-04
3.585465601645410061e-04
-1.025482430122792721e-03
8.239947492256760597e-04
1.021447358652949333e-03
-7.146089919842779636e-04
1.571584027260541916e-03
-1.488795271143317223e-03
-1.206858083605766296e-03
-1.355502172373235226e-03
-5.147792981006205082e-04
1.468026894144713879e-03
-8.790150750428438187e-04
-1.452848548069596291e-03
-7.692346116527915001e-04
1.706623006612062454e-03
7.490217103622853756e-04
1.536885392852127552e-03
1.047612517140805721e-03
-1.305496203713119030e-03
-2.322467276826500893e-03
2.880342071875929832e-04
2.300830965396016836e-04
-2.794447354972362518e-04
-2.478602575138211250e-03
5.137666012160480022e-04
