-4.021869972348213196e-03
4.285028669983148575e-03
8.860614150762557983e-03
1.197660528123378754e-02
6.195184028001676779e-07
5.631557200103998184e-03
8.325895294547080994e-03
1.690932549536228180e-02
1.014803629368543625e-02
-1.553768408484756947e-03
5.247625522315502167e-03
2.978938282467424870e-04
7.771781180053949356e-03
3.379100002348423004e-03
4.647553898394107819e-03
8.774748072028160095e-03
5.963108851574361324e-04
3.154563950374722481e-03
5.622729659080505371e-03
1.270532957278192043e-04
8.265154436230659485e-03
3.423915244638919830e-03
1.179219875484704971e-02
-1.730647310614585876e-02
1.020059455186128616e-02
4.280697903595864773e-04
1.394104585051536560e-02
2.481906441971659660e-03
4.546077456325292587e-03
1.226877211593091488e-03
-3.859514137730002403e-03
7.656189613044261932e-03
-1.037505455315113068e-03
-3.926631528884172440e-03
4.644615110009908676e-03
1.699520274996757507e-02
-4.394299816340208054e-03
9.415023960173130035e-03
2.754022600129246712e-03
3.581542987376451492e-03
5.855906754732131958e-03
1.260419189929962158e-02
5.346148274838924408e-03
1.009786874055862427e-02
3.096365835517644882e-03
1.281710248440504074e-02
4.537547007203102112e-03
-1.118946913629770279e-02
-1.057557389140129089e-02
7.392739877104759216e-03
1.168488152325153351e-02
5.855594063177704811e-04
2.368006296455860138e-02
1.151536684483289719e-02
-6.214251741766929626e-03
5.063536111265420914e-03
1.674772240221500397e-02
1.981282839551568031e-03
1.036310289055109024e-02
3.058854024857282639e-03
-2.348583191633224487e-03
6.146111059933900833e-03
-5.564495804719626904e-04
9.812342002987861633e-03
1.759077981114387512e-02
3.013659035786986351e-03
1.358351018279790878e-02
2.044125925749540329e-03
1.165849249809980392e-02
4.025703296065330505e-03
-4.587953153531998396e-04
-5.246953573077917099e-03
4.998961463570594788e-03
-1.388862030580639839e-03
1.083969138562679291e-03
5.831497721374034882e-03
9.461146779358386993e-03
8.146758191287517548e-03
3.695641062222421169e-04
-7.841616868972778320e-03
8.168299682438373566e-03
-3.451647702604532242e-03
9.999121539294719696e-03
4.435848910361528397e-03
-2.675933064892888069e-03
2.204451244324445724e-03
9.803412249311804771e-04
-1.702583022415637970e-02
1.619328558444976807e-02
2.101722871884703636e-03
5.029867868870496750e-03
-8.356412872672080994e-03
-5.925206001847982407e-03
6.211407482624053955e-03
1.811282150447368622e-02
-1.322238356806337833e-03
-1.252359244972467422e-03
1.158140876214019954e-04
9.572946466505527496e-03
1.337181497365236282e-02
5.694053601473569870e-03
4.323879256844520569e-03
-3.428403579164296389e-04
7.907054387032985687e-03
1.443701051175594330e-02
1.937059802003204823e-03
1.013245154172182083e-02
6.312416866421699524e-03
4.494275432080030441e-03
5.414410028606653214e-03
3.650235012173652649e-02
-1.741497893817722797e-03
-5.419364664703607559e-03
6.710348650813102722e-03
8.550329366698861122e-04
-2.855496481060981750e-03
1.821536454372107983e-03
1.052041724324226379e-02
1.384176866849884391e-04
1.683842390775680542e-03
5.407874006778001785e-03
7.393328472971916199e-03
-2.564845839515328407e-03
1.331232767552137375e-02
4.445563536137342453e-03
1.702775829471647739e-03
4.736676055472344160e-04
-2.051274105906486511e-02
-2.493978291749954224e-02
1.856972579844295979e-03
2.425705641508102417e-02
-1.175505761057138443e-02
-4.141921526752412319e-04
2.121304161846637726e-03
-3.567819658201187849e-04
1.327720191329717636e-02
1.133907120674848557e-02
2.096650563180446625e-02
1.633143611252307892e-02
-1.450845878571271896e-02
3.906428348273038864e-03
1.002649427391588688e-03
7.886894978582859039e-03
1.504446612671017647e-03
2.115118503570556641e-02
1.302778907120227814e-02
-3.474345896393060684e-03
1.584981940686702728e-02
-3.206850262358784676e-03
3.303704410791397095e-02
2.019459381699562073e-02
-1.157334190793335438e-04
1.062487065792083740e-02
7.323620375245809555e-03
7.461756467819213867e-03
-4.894607700407505035e-04
4.327191971242427826e-03
1.134531758725643158e-02
6.655110977590084076e-03
-4.231752245686948299e-04
-1.771729439496994019e-03
7.534167729318141937e-03
3.551595145836472511e-03
6.462489720433950424e-03
8.932839264161884785e-04
5.641224328428506851e-03
-7.181079592555761337e-03
5.708733107894659042e-03
-4.531626589596271515e-03
1.441209111362695694e-02
5.579482764005661011e-03
-8.959957631304860115e-04
-1.537319156341254711e-03
3.939869813621044159e-03
-1.485085207968950272e-02
2.876056171953678131e-02
6.438254844397306442e-03
9.644937701523303986e-03
-5.996096297167241573e-05
5.128146149218082428e-03
7.066434249281883240e-03
5.519722122699022293e-03
-4.820680245757102966e-03
3.171858377754688263e-03
6.227018777281045914e-03
1.449614763259887695e-03
-5.031045526266098022e-03
2.246715128421783447e-03
7.106025703251361847e-03
-1.265515806153416634e-03
1.496516354382038116e-02
3.020901465788483620e-03
1.142483670264482498e-02
-3.886265447363257408e-03
-3.709908341988921165e-03
9.406841360032558441e-03
1.408349256962537766e-03
9.634668007493019104e-03
-9.166723117232322693e-03
1.103997230529785156e-02
-1.564468140713870525e-03
9.432783350348472595e-03
1.006141025573015213e-02
2.645884174853563309e-03
1.438516657799482346e-02
2.841082215309143066e-02
5.074870423413813114e-04
-1.527352142147719860e-03
5.042052827775478363e-03
5.431860685348510742e-03
1.257047988474369049e-02
8.107186295092105865e-03
2.539691980928182602e-03
3.812967985868453979e-02
8.278547786176204681e-03
9.883181191980838776e-03
-2.966267056763172150e-03
4.861841152887791395e-04
1.045211497694253922e-02
2.529377583414316177e-03
1.708391937427222729e-03
8.365992456674575806e-03
9.287384338676929474e-03
1.936207897961139679e-02
-3.276597708463668823e-03
8.541814982891082764e-03
3.833595663309097290e-03
-8.655600249767303467e-03
2.923825755715370178e-03
-2.891673240810632706e-03
3.513255342841148376e-02
3.958160057663917542e-03
6.180382333695888519e-03
-2.217474393546581268e-03
-8.498661918565630913e-04
4.857841879129409790e-03
6.542532704770565033e-03
1.727703958749771118e-02
-2.678595483303070068e-03
-1.085653901100158691e-02
6.063821259886026382e-03
1.391594577580690384e-02
-7.416056003421545029e-03
1.111764833331108093e-02
2.826132252812385559e-02
3.382198512554168701e-03
9.137916378676891327e-03
1.665635732933878899e-03
-4.545083269476890564e-03
9.855096228420734406e-03
-1.196139492094516754e-03
5.570123903453350067e-03
8.280465379357337952e-03
4.158387426286935806e-03
8.731283596716821194e-04
-1.019358448684215546e-02
-5.969918798655271530e-03
2.358787925913929939e-03
6.838636938482522964e-03
1.160212326794862747e-02
1.058017648756504059e-02
1.575362548464909196e-04
1.851915754377841949e-02
6.131839472800493240e-03
1.517674885690212250e-02
8.984299376606941223e-03
3.330853069201111794e-03
2.412475878372788429e-03
1.581951230764389038e-02
1.119785383343696594e-02
1.980405766516923904e-03
-1.043613441288471222e-02
-8.995424956083297729e-03
1.245990768074989319e-02
7.609176915138959885e-03
1.289076637476682663e-02
2.085009776055812836e-02
1.439907774329185486e-02
1.802682690322399139e-02
3.528657834976911545e-03
4.056736361235380173e-03
2.589220367372035980e-02
-7.178549276432022452e-05
7.615824230015277863e-03
-1.748614478856325150e-03
4.552296828478574753e-03
1.042544376105070114e-02
1.000264193862676620e-02
-2.023920603096485138e-02
-1.655545458197593689e-02
1.861080178059637547e-03
1.088125072419643402e-02
1.534098293632268906e-03
-4.662604536861181259e-03
7.443563081324100494e-03
2.305682748556137085e-03
5.025397520512342453e-03
2.363725070608779788e-05
9.983883239328861237e-03
6.228555459529161453e-03
8.703126572072505951e-03
5.997005850076675415e-03
1.524802949279546738e-02
4.428820684552192688e-03
-5.670891143381595612e-03
1.103680231608450413e-03
1.889979653060436249e-02
1.589790545403957367e-02
7.145356386899948120e-03
1.629959233105182648e-02
3.494519740343093872e-03
7.426597177982330322e-03
8.613721467554569244e-03
-2.903048321604728699e-02
6.918298080563545227e-03
2.259461616631597281e-04
6.386639922857284546e-02
9.928947547450661659e-04
8.292929269373416901e-04
4.499362315982580185e-03
-6.038648076355457306e-03
5.451532546430826187e-03
-4.549349192529916763e-03
2.453688066452741623e-04
2.508878521621227264e-02
9.368260391056537628e-03
2.929026493802666664e-03
-1.633384265005588531e-03
-1.051926519721746445e-03
1.775089837610721588e-02
1.569782150909304619e-03
-2.280070213600993156e-03
1.563095860183238983e-02
1.769641786813735962e-02
-8.442001417279243469e-03
8.847632445394992828e-03
2.809131750836968422e-03
-9.036337723955512047e-05
5.906151141971349716e-03
-1.435870304703712463e-03
1.906215038616210222e-04
1.040248665958642960e-02
-7.515421137213706970e-03
8.078610524535179138e-03
1.262148097157478333e-02
7.156035862863063812e-03
-1.591950282454490662e-02
-7.083043921738862991e-03
1.251995936036109924e-02
3.757965983822941780e-03
2.820356516167521477e-03
3.213543444871902466e-03
-7.312935777008533478e-04
-1.065300428308546543e-03
1.055712625384330750e-02
1.467105839401483536e-02
-6.109971553087234497e-03
5.517879035323858261e-03
2.021431646426208317e-05
-4.109296016395092010e-03
1.192224398255348206e-02
9.790780022740364075e-03
6.209877028595656157e-05
5.839150864630937576e-03
2.187483012676239014e-03
-3.836897201836109161e-03
1.113682612776756287e-02
1.869198307394981384e-02
-1.647777110338211060e-02
8.434615097939968109e-03
1.811354234814643860e-02
1.525802654214203358e-03
1.624456606805324554e-03
1.423495262861251831e-02
9.256302379071712494e-03
5.988592747598886490e-03
-5.380106158554553986e-03
-3.835419192910194397e-02
4.204325377941131592e-03
7.374589331448078156e-03
8.130655623972415924e-05
3.187918569892644882e-03
-1.517212390899658203e-02
2.366526238620281219e-02
-1.653356943279504776e-03
1.468260958790779114e-02
3.217787249013781548e-03
1.383008342236280441e-02
-1.272193971090018749e-03
2.508830465376377106e-02
4.872103221714496613e-03
1.070928294211626053e-02
4.891870776191353798e-04
3.525126492604613304e-03
6.166036706417798996e-03
9.154294617474079132e-03
-2.522669499740004539e-03
-1.893339940579608083e-04
8.868472650647163391e-03
2.805084688588976860e-03
