-1.743665188550949097e-01
-1.766393333673477173e-01
-1.702755689620971680e-01
-1.730936765670776367e-01
-1.714574098587036133e-01
-1.700936406850814819e-01
-1.686390638351440430e-01
-1.724573522806167603e-01
-1.664572209119796753e-01
-1.734574586153030396e-01
-1.772756874561309814e-01
-1.724572479724884033e-01
-1.682754904031753540e-01
-1.753665208816528320e-01
-1.725483834743499756e-01
-1.721846163272857666e-01
-1.697300970554351807e-01
-1.696391701698303223e-01
-1.730028539896011353e-01
-1.678208857774734497e-01
-1.774576157331466675e-01
-1.779120415449142456e-01
-1.696390509605407715e-01
-1.693663299083709717e-01
-1.670934557914733887e-01
-1.719119250774383545e-01
-1.677299588918685913e-01
-1.692753732204437256e-01
-1.703663617372512817e-01
-1.714574098587036133e-01
-1.651843935251235962e-01
-1.735484302043914795e-01
-1.710936874151229858e-01
-1.715483069419860840e-01
-1.703664064407348633e-01
-1.699118763208389282e-01
-1.670027226209640503e-01
-1.630025207996368408e-01
-1.643660813570022583e-01
-1.622751951217651367e-01
-1.684572398662567139e-01
-1.600931733846664429e-01
-1.609114706516265869e-01
-1.663660705089569092e-01
-1.629115939140319824e-01
-1.675480008125305176e-01
-1.652753353118896484e-01
-1.726390719413757324e-01
-1.666389703750610352e-01
-1.685481369495391846e-01
-1.692754775285720825e-01
-1.682754158973693848e-01
-1.685481369495391846e-01
-1.751846969127655029e-01
-1.710937172174453735e-01
-1.720937490463256836e-01
-1.690026819705963135e-01
-1.727300584316253662e-01
-1.737300902605056763e-01
-1.688209176063537598e-01
-1.671845912933349609e-01
-1.690026968717575073e-01
-1.672754138708114624e-01
-1.581843495368957520e-01
-1.518202871084213257e-01
-1.385469585657119751e-01
-1.389102637767791748e-01
-1.389103531837463379e-01
-1.502736657857894897e-01
-1.647281646728515625e-01
-1.761830449104309082e-01
-1.822737753391265869e-01
-1.897286921739578247e-01
-1.847285479307174683e-01
-1.860017478466033936e-01
-1.749112308025360107e-01
-1.617293506860733032e-01
-1.583658158779144287e-01
-1.558202654123306274e-01
-1.634570807218551636e-01
-1.680936068296432495e-01
-1.667298823595046997e-01
-1.710937172174453735e-01
-1.723665893077850342e-01
-1.692755073308944702e-01
-1.764574646949768066e-01
-1.727300733327865601e-01
-1.682754307985305786e-01
-1.730028241872787476e-01
-1.639116257429122925e-01
-1.538202315568923950e-01
-1.317285597324371338e-01
-1.155458539724349976e-01
-1.044545620679855347e-01
-1.069092079997062683e-01
-1.244547367095947266e-01
-1.421817690134048462e-01
-1.592733711004257202e-01
-1.679086983203887939e-01
-1.706367284059524536e-01
-1.782727837562561035e-01
-1.828186064958572388e-01
-1.839095503091812134e-01
-1.749096959829330444e-01
-1.567282676696777344e-01
-1.444558352231979370e-01
-1.460923105478286743e-01
-1.498200893402099609e-01
-1.645478755235671997e-01
-1.686390489339828491e-01
-1.712755262851715088e-01
-1.699118316173553467e-01
-1.723664700984954834e-01
-1.691845655441284180e-01
-1.716391742229461670e-01
-1.732756197452545166e-01
-1.666389256715774536e-01
-1.447289735078811646e-01
-1.183644533157348633e-01
-8.918181806802749634e-02
-6.336346268653869629e-02
-7.099981606006622314e-02
-8.063633739948272705e-02
-7.836348563432693481e-02
-9.200026094913482666e-02
-1.022725254297256470e-01
-1.101816371083259583e-01
-1.019088327884674072e-01
-8.763663470745086670e-02
-9.963680058717727661e-02
-1.100001186132431030e-01
-1.152727380394935608e-01
-1.097273454070091248e-01
-1.110911518335342407e-01
-1.162726804614067078e-01
-1.248183622956275940e-01
-1.456377208232879639e-01
-1.566384434700012207e-01
-1.674571186304092407e-01
-1.745484024286270142e-01
-1.694572567939758301e-01
-1.705482900142669678e-01
-1.684571504592895508e-01
-1.638207584619522095e-01
-1.488199979066848755e-01
-1.043638586997985840e-01
-7.163603603839874268e-02
-3.881805017590522766e-02
-7.000006735324859619e-03
2.209114097058773041e-02
5.736370384693145752e-02
1.010909825563430786e-01
1.401820778846740723e-01
1.629092544317245483e-01
1.808188706636428833e-01
2.251814752817153931e-01
2.372733503580093384e-01
2.357265800237655640e-01
1.808174103498458862e-01
1.221816763281822205e-01
5.790934711694717407e-02
8.183021564036607742e-04
-5.472700297832489014e-02
-1.009998917579650879e-01
-1.306366026401519775e-01
-1.480010002851486206e-01
-1.684570163488388062e-01
-1.720027625560760498e-01
-1.677300035953521729e-01
-1.690028160810470581e-01
-1.740028262138366699e-01
-1.550021618604660034e-01
-1.190914511680603027e-01
-7.172700017690658569e-02
-2.772727422416210175e-02
2.363630197942256927e-02
6.981821358203887939e-02
1.229999884963035583e-01
1.910910308361053467e-01
2.511823475360870361e-01
2.899087965488433838e-01
3.259083926677703857e-01
3.380899727344512939e-01
3.706364929676055908e-01
4.055467545986175537e-01
4.042718708515167236e-01
3.689092695713043213e-01
3.040906190872192383e-01
2.510911226272583008e-01
1.609999686479568481e-01
5.309087410569190979e-02
-4.536350443959236145e-02
-1.109092757105827332e-01
-1.335461884737014771e-01
-1.532747149467468262e-01
-1.728209704160690308e-01
-1.726393252611160278e-01
-1.753665953874588013e-01
-1.635478436946868896e-01
-1.418194770812988281e-01
-9.163638949394226074e-02
-4.236356168985366821e-02
1.872730255126953125e-02
8.272715657949447632e-02
1.281815767288208008e-01
2.049086242914199829e-01
2.877272665500640869e-01
3.593635559082031250e-01
3.963630795478820801e-01
4.058177173137664795e-01
3.912721276283264160e-01
4.093646109104156494e-01
4.372723102569580078e-01
4.492725133895874023e-01
4.377280175685882568e-01
3.979099392890930176e-01
3.467266857624053955e-01
2.649992704391479492e-01
1.383635997772216797e-01
-2.818068489432334900e-03
-1.017271429300308228e-01
-1.350004076957702637e-01
-1.515471339225769043e-01
-1.719119101762771606e-01
-1.780939102172851562e-01
-1.652752012014389038e-01
-1.516382247209548950e-01
-1.231824755668640137e-01
-8.154537528753280640e-02
-2.836360037326812744e-02
4.145472869277000427e-02
9.845445305109024048e-02
1.689090877771377563e-01
2.395446300506591797e-01
3.044553995132446289e-01
3.643629550933837891e-01
3.793635666370391846e-01
3.578178286552429199e-01
3.150002360343933105e-01
2.993629276752471924e-01
3.496378362178802490e-01
3.836364448070526123e-01
3.765445053577423096e-01
3.785442113876342773e-01
3.512726426124572754e-01
2.938178479671478271e-01
1.705447733402252197e-01
2.036376483738422394e-02
-9.709057211875915527e-02
-1.368186473846435547e-01
-1.526381969451904297e-01
-1.671843826770782471e-01
-1.730028837919235229e-01
-1.642753183841705322e-01
-1.449106186628341675e-01
-1.221823021769523621e-01
-7.699994742870330811e-02
-1.263643614947795868e-02
5.499972403049468994e-02
1.062725931406021118e-01
1.753636747598648071e-01
2.545452713966369629e-01
3.055440187454223633e-01
3.232714235782623291e-01
3.119993209838867188e-01
2.473630607128143311e-01
1.700897961854934692e-01
1.619089692831039429e-01
2.362731397151947021e-01
3.098175525665283203e-01
3.329088389873504639e-01
3.592721223831176758e-01
3.432719111442565918e-01
2.799091935157775879e-01
1.699083745479583740e-01
3.172739967703819275e-02
-8.890882134437561035e-02
-1.393642574548721313e-01
-1.548201441764831543e-01
-1.680935472249984741e-01
-1.721845418214797974e-01
-1.649116426706314087e-01
-1.411830782890319824e-01
-1.116367429494857788e-01
-7.290890812873840332e-02
-2.000000327825546265e-02
4.854537546634674072e-02
1.100907325744628906e-01
1.896365880966186523e-01
2.403634339570999146e-01
2.771818935871124268e-01
2.866365909576416016e-01
2.648186087608337402e-01
1.850908845663070679e-01
7.645511627197265625e-02
7.509115338325500488e-02
2.015439867973327637e-01
2.779995799064636230e-01
3.305461704730987549e-01
3.581813573837280273e-01
3.217264711856842041e-01
2.502728998661041260e-01
1.485449820756912231e-01
2.881846763193607330e-02
-8.227235078811645508e-02
-1.351829767227172852e-01
-1.652751117944717407e-01
-1.713664531707763672e-01
-1.724573522806167603e-01
-1.671844124794006348e-01
-1.453652232885360718e-01
-1.208186969161033630e-01
-7.072710245847702026e-02
-1.590905152261257172e-02
2.427285350859165192e-02
1.010908260941505432e-01
1.760904490947723389e-01
2.259088158607482910e-01
2.616365551948547363e-01
2.798173427581787109e-01
2.412720620632171631e-01
1.354547441005706787e-01
3.281791880726814270e-02
8.700049668550491333e-02
2.412719726562500000e-01
3.209077715873718262e-01
3.595450222492218018e-01
3.698177337646484375e-01
3.190904557704925537e-01
2.202723175287246704e-01
1.235453411936759949e-01
1.681840606033802032e-02
-7.281798869371414185e-02
-1.420922875404357910e-01
-1.625479757785797119e-01
-1.700935810804367065e-01
-1.727301031351089478e-01
-1.650935113430023193e-01
-1.552748084068298340e-01
-1.211827397346496582e-01
-7.245439291000366211e-02
-3.263640403747558594e-02
1.945460774004459381e-02
9.563625603914260864e-02
1.747273504734039307e-01
2.204539030790328979e-01
2.729096710681915283e-01
2.833635509014129639e-01
2.675447762012481689e-01
1.416365355253219604e-01
5.354674533009529114e-02
1.400001645088195801e-01
3.058185279369354248e-01
3.740898370742797852e-01
4.033632576465606689e-01
4.028182923793792725e-01
3.151817321777343750e-01
1.916358321905136108e-01
8.018167316913604736e-02
-6.727129686623811722e-03
-7.327265292406082153e-02
-1.445470899343490601e-01
-1.656390130519866943e-01
-1.717301011085510254e-01
-1.695481240749359131e-01
-1.700028032064437866e-01
-1.629116386175155640e-01
-1.328192800283432007e-01
-7.172724604606628418e-02
-3.645449131727218628e-02
1.972754113376140594e-02
1.116362437605857849e-01
1.923630684614181519e-01
2.329087555408477783e-01
2.795453965663909912e-01
3.105447590351104736e-01
2.947272956371307373e-01
1.710009127855300903e-01
1.110906824469566345e-01
2.116350084543228149e-01
3.735449314117431641e-01
4.084539115428924561e-01
4.299084842205047607e-01
4.015441834926605225e-01
2.779080569744110107e-01
1.533633768558502197e-01
5.745444819331169128e-02
-1.227263081818819046e-02
-7.609082758426666260e-02
-1.432740390300750732e-01
-1.654570251703262329e-01
-1.703663468360900879e-01
-1.743665337562561035e-01
-1.711845248937606812e-01
-1.642753034830093384e-01
-1.389104425907135010e-01
-6.736350059509277344e-02
-3.200002014636993408e-02
3.854554146528244019e-02
1.358178853988647461e-01
2.144542485475540161e-01
2.360904216766357422e-01
2.796368598937988281e-01
3.252724707126617432e-01
3.272721767425537109e-01
1.867272257804870605e-01
1.596373915672302246e-01
2.554538547992706299e-01
3.993630707263946533e-01
4.132723212242126465e-01
4.166360497474670410e-01
3.774544298648834229e-01
2.597274184226989746e-01
1.428179740905761719e-01
5.345449596643447876e-02
-1.463623810559511185e-02
-7.472707331180572510e-02
-1.254551708698272705e-01
-1.671844422817230225e-01
-1.708209663629531860e-01
-1.727299541234970093e-01
-1.700936108827590942e-01
-1.699117720127105713e-01
-1.370013356208801270e-01
-6.709072738885879517e-02
-1.263643149286508560e-02
7.972735911607742310e-02
1.757273077964782715e-01
2.334540635347366333e-01
2.562725841999053955e-01
2.995454668998718262e-01
3.484548628330230713e-01
3.210900127887725830e-01
1.942728608846664429e-01
1.714552640914916992e-01
2.769998013973236084e-01
3.841809332370758057e-01
3.852732181549072266e-01
4.053643345832824707e-01
3.444541990756988525e-01
2.559084296226501465e-01
1.539084166288375854e-01
6.154526770114898682e-02
-1.690906845033168793e-02
-7.709069550037384033e-02
-1.200914308428764343e-01
-1.600933372974395752e-01
-1.694571822881698608e-01
-1.708209216594696045e-01
-1.710028052330017090e-01
-1.644570976495742798e-01
-1.327283382415771484e-01
-5.072706937789916992e-02
1.554544921964406967e-02
1.135456189513206482e-01
1.999089568853378296e-01
2.583637237548828125e-01
2.862725853919982910e-01
2.972726821899414062e-01
3.122726380825042725e-01
2.832721471786499023e-01
1.903634071350097656e-01
1.588172912597656250e-01
2.828175425529479980e-01
3.423630893230438232e-01
3.679088354110717773e-01
4.026363193988800049e-01
3.487270772457122803e-01
2.539089918136596680e-01
1.589089035987854004e-01
6.681846082210540771e-02
-1.209076866507530212e-02
-7.309081405401229858e-02
-1.210004687309265137e-01
-1.588204056024551392e-01
-1.721846610307693481e-01
-1.717301309108734131e-01
-1.753666400909423828e-01
-1.643662005662918091e-01
-1.266373693943023682e-01
-4.545439034700393677e-02
4.281816631555557251e-02
1.417275667190551758e-01
2.161814272403717041e-01
2.675450444221496582e-01
2.808178663253784180e-01
2.714543044567108154e-01
2.700912356376647949e-01
2.290914505720138550e-01
1.619092524051666260e-01
1.647264510393142700e-01
2.556359767913818359e-01
3.502714931964874268e-01
3.929096460342407227e-01
4.073637127876281738e-01
3.619997203350067139e-01
2.699088752269744873e-01
1.695458739995956421e-01
7.418154925107955933e-02
-9.454430080950260162e-03
-6.345440447330474854e-02
-1.249095723032951355e-01
-1.585476994514465332e-01
-1.740028262138366699e-01
-1.698209941387176514e-01
-1.676390469074249268e-01
-1.588205099105834961e-01
-1.077278479933738708e-01
-2.418183535337448120e-02
8.254564553499221802e-02
1.737264394760131836e-01
2.395458221435546875e-01
2.752728462219238281e-01
2.723636329174041748e-01
2.608179748058319092e-01
2.379993498325347900e-01
2.082733064889907837e-01
1.572725027799606323e-01
2.015456110239028931e-01
3.019092381000518799e-01
3.789089918136596680e-01
4.459088742733001709e-01
4.362731575965881348e-01
3.620907366275787354e-01
2.736360430717468262e-01
1.751815676689147949e-01
8.290901780128479004e-02
-1.272700726985931396e-03
-7.145443558692932129e-02
-1.283642202615737915e-01
-1.640933901071548462e-01
-1.680935621261596680e-01
-1.708209961652755737e-01
-1.672754436731338501e-01
-1.521840989589691162e-01
-1.003637537360191345e-01
-1.390913501381874084e-02
1.015452444553375244e-01
2.048179358243942261e-01
2.773631215095520020e-01
3.084545433521270752e-01
3.008177876472473145e-01
2.818173468112945557e-01
2.672728300094604492e-01
2.362726181745529175e-01
2.180921733379364014e-01
2.468167096376419067e-01
3.380905687808990479e-01
4.141811728477478027e-01
4.548186361789703369e-01
4.230908751487731934e-01
3.473633527755737305e-01
2.715452313423156738e-01
1.914543062448501587e-01
1.019089072942733765e-01
8.454581722617149353e-03
-7.763629406690597534e-02
-1.276372522115707397e-01
-1.635477989912033081e-01
-1.734574139118194580e-01
-1.731847822666168213e-01
-1.718209981918334961e-01
-1.550929397344589233e-01
-1.090912893414497375e-01
-1.309094578027725220e-02
1.027272194623947144e-01
2.299995273351669312e-01
3.131814002990722656e-01
3.419084846973419189e-01
3.476366400718688965e-01
3.322726488113403320e-01
3.262729942798614502e-01
3.174547553062438965e-01
3.001799285411834717e-01
3.386342227458953857e-01
3.629085123538970947e-01
3.841823637485504150e-01
3.911808431148529053e-01
3.624546229839324951e-01
3.040904998779296875e-01
2.534539103507995605e-01
1.725458055734634399e-01
8.454547077417373657e-02
-8.181949378922581673e-04
-8.218166977167129517e-02
-1.290009617805480957e-01
-1.597295701503753662e-01
-1.694572716951370239e-01
-1.731847375631332397e-01
-1.706391125917434692e-01
-1.541837453842163086e-01
-1.123640313744544983e-01
-3.081810474395751953e-02
7.863635569810867310e-02
2.125452607870101929e-01
3.247267901897430420e-01
3.599997758865356445e-01
3.516371846199035645e-01
3.568172156810760498e-01
3.687269389629364014e-01
3.766351044178009033e-01
3.594545125961303711e-01
3.368183374404907227e-01
3.069085776805877686e-01
2.935440242290496826e-01
2.945450246334075928e-01
2.777273058891296387e-01
2.261817306280136108e-01
1.729996651411056519e-01
1.165455877780914307e-01
4.154565930366516113e-02
-3.354541584849357605e-02
-9.718199074268341064e-02
-1.424560993909835815e-01
-1.668206304311752319e-01
-1.736391782760620117e-01
-1.735483705997467041e-01
-1.751847565174102783e-01
-1.545474976301193237e-01
-1.248188912868499756e-01
-7.127217203378677368e-02
1.836378313601016998e-02
1.400907933712005615e-01
2.489998638629913330e-01
3.064542710781097412e-01
3.167263567447662354e-01
3.261814415454864502e-01
3.306349515914916992e-01
3.322738111019134521e-01
2.908177375793457031e-01
2.220903038978576660e-01
1.822729259729385376e-01
1.696359962224960327e-01
1.707275509834289551e-01
1.255455762147903442e-01
1.076362654566764832e-01
7.418150454759597778e-02
2.718189172446727753e-02
-1.927272789180278778e-02
-7.236339896917343140e-02
-1.202734187245368958e-01
-1.598204821348190308e-01
-1.690935641527175903e-01
-1.720936745405197144e-01
-1.734574139118194580e-01
-1.717300713062286377e-01
-1.674571186304092407e-01
-1.470016986131668091e-01
-1.144548654556274414e-01
-6.872668862342834473e-02
-6.545331794768571854e-03
7.463625073432922363e-02
1.302726566791534424e-01
1.649997979402542114e-01
1.910904645919799805e-01
1.950913518667221069e-01
1.802732050418853760e-01
1.251815408468246460e-01
5.472657829523086548e-02
1.309091877192258835e-02
1.381798740476369858e-02
-7.272773073054850101e-04
-3.254533931612968445e-02
-3.772727027535438538e-02
-4.636351391673088074e-02
-6.154526025056838989e-02
-8.218169957399368286e-02
-1.173642203211784363e-01
-1.513655036687850952e-01
-1.684571057558059692e-01
-1.708209514617919922e-01
-1.729119420051574707e-01
-1.657299101352691650e-01
-1.685481667518615723e-01
-1.691845208406448364e-01
-1.600932180881500244e-01
-1.449105888605117798e-01
-1.291824281215667725e-01
-9.981797635555267334e-02
-8.863606303930282593e-02
-7.509070634841918945e-02
-5.436347797513008118e-02
-4.718157649040222168e-02
-4.272737354040145874e-02
-5.063695088028907776e-02
-8.254630118608474731e-02
-1.349094510078430176e-01
-1.477285474538803101e-01
-1.454541981220245361e-01
-1.354551166296005249e-01
-1.400909721851348877e-01
-1.364547163248062134e-01
-1.217271089553833008e-01
-1.095455363392829895e-01
-1.262730807065963745e-01
-1.459105908870697021e-01
-1.643661409616470337e-01
-1.725483685731887817e-01
-1.658208370208740234e-01
-1.662753671407699585e-01
-1.750938147306442261e-01
-1.694572567939758301e-01
-1.710937321186065674e-01
-1.672753393650054932e-01
-1.604569703340530396e-01
-1.503657549619674683e-01
-1.519108563661575317e-01
-1.600925326347351074e-01
-1.780927181243896484e-01
-1.949104219675064087e-01
-2.112738639116287231e-01
-2.113641202449798584e-01
-2.165463417768478394e-01
-2.221819311380386353e-01
-2.280004769563674927e-01
-2.235459536314010620e-01
-2.199095189571380615e-01
-2.101831138134002686e-01
-1.904560029506683350e-01
-1.611828953027725220e-01
-1.420006752014160156e-01
-1.378191560506820679e-01
-1.448197364807128906e-01
-1.593659371137619019e-01
-1.665480285882949829e-01
-1.696390658617019653e-01
-1.716392040252685547e-01
-1.697300374507904053e-01
-1.664572656154632568e-01
-1.679118722677230835e-01
-1.727301031351089478e-01
-1.690026521682739258e-01
-1.688208431005477905e-01
-1.620025038719177246e-01
-1.537294238805770874e-01
-1.587294042110443115e-01
-1.740017682313919067e-01
-1.971838027238845825e-01
-2.199106663465499878e-01
-2.297287285327911377e-01
-2.341834157705307007e-01
-2.321834415197372437e-01
-2.284559756517410278e-01
-2.068198770284652710e-01
-1.906374841928482056e-01
-1.730923205614089966e-01
-1.592742204666137695e-01
-1.468194276094436646e-01
-1.477289050817489624e-01
-1.521837562322616577e-01
-1.744573265314102173e-01
-1.750939041376113892e-01
-1.685480624437332153e-01
-1.730028539896011353e-01
-1.734574139118194580e-01
-1.716392040252685547e-01
-1.721846461296081543e-01
-1.710936576128005981e-01
-1.712755560874938965e-01
-1.695481985807418823e-01
-1.702755391597747803e-01
-1.710028052330017090e-01
-1.691845059394836426e-01
-1.670935302972793579e-01
-1.672752648591995239e-01
-1.637295931577682495e-01
-1.594568938016891479e-01
-1.591839045286178589e-01
-1.592746078968048096e-01
-1.579110473394393921e-01
-1.577291339635848999e-01
-1.543654799461364746e-01
-1.541836559772491455e-01
-1.536384373903274536e-01
-1.512747108936309814e-01
-1.652752757072448730e-01
-1.688208878040313721e-01
-1.699118018150329590e-01
-1.686390042304992676e-01
-1.679117679595947266e-01
-1.711846590042114258e-01
-1.722755432128906250e-01
-1.693664044141769409e-01
-1.707301586866378784e-01
