-3.353545665740966797e-01
6.198748201131820679e-02
6.779500246047973633e-01
3.550935089588165283e-01
6.560258269309997559e-01
-1.889525502920150757e-01
2.420738041400909424e-01
3.533280491828918457e-01
1.043535098433494568e-01
1.451469659805297852e-01
4.801414906978607178e-01
2.724043093621730804e-02
1.710680723190307617e-01
2.426176518201828003e-01
-1.174850612878799438e-01
-4.955798685550689697e-01
2.324154824018478394e-01
-5.393997579813003540e-02
-3.907027542591094971e-01
5.685105919837951660e-01
-7.236975431442260742e-01
1.301470100879669189e-01
1.857567280530929565e-01
9.358267486095428467e-02
5.728661417961120605e-01
-7.692898511886596680e-01
5.362824201583862305e-01
3.836092352867126465e-02
3.073373436927795410e-01
2.209161967039108276e-01
-3.221311569213867188e-01
-1.973330527544021606e-01
-3.331178128719329834e-01
1.005282029509544373e-01
4.743932783603668213e-01
-3.655349910259246826e-01
1.827938258647918701e-01
1.941587179899215698e-01
-3.062647581100463867e-01
-4.082294404506683350e-01
2.371575832366943359e-01
-1.698486506938934326e-03
5.575734656304121017e-03
-3.271245658397674561e-01
1.084966734051704407e-01
-2.671910822391510010e-02
1.030885204672813416e-01
-3.015628159046173096e-01
3.835222125053405762e-01
1.478375941514968872e-01
2.150328010320663452e-01
5.968670845031738281e-01
-8.201010227203369141e-01
-2.892424538731575012e-02
4.455857276916503906e-01
5.135084390640258789e-01
-8.243705630302429199e-01
7.244203984737396240e-02
-4.270484149456024170e-01
2.778374552726745605e-01
-6.182419061660766602e-01
1.295592039823532104e-01
-1.384324431419372559e-01
4.936417341232299805e-01
1.956618875265121460e-01
1.870919913053512573e-01
-5.723535642027854919e-02
1.704362183809280396e-01
2.146789282560348511e-01
-1.015910029411315918e+00
2.935280501842498779e-01
2.096099555492401123e-01
-2.293915152549743652e-01
1.765528619289398193e-01
4.855467081069946289e-01
2.947086989879608154e-01
2.784804105758666992e-01
8.017166256904602051e-01
3.181226551532745361e-01
2.463171482086181641e-01
3.498674035072326660e-01
3.821567073464393616e-02
-6.756303310394287109e-01
1.290893405675888062e-01
5.783533304929733276e-02
1.854221671819686890e-01
5.096510648727416992e-01
-1.984344273805618286e-01
1.896564066410064697e-01
3.744917809963226318e-01
-1.163733899593353271e-01
-4.730476811528205872e-02
2.148246914148330688e-01
-1.368458271026611328e-01
-1.129213795065879822e-01
3.447237014770507812e-01
3.164942562580108643e-02
1.056175529956817627e-01
-3.782749176025390625e-01
5.635546147823333740e-02
2.853307425975799561e-01
-3.834161758422851562e-01
-2.554578483104705811e-01
2.169268876314163208e-01
1.351282447576522827e-01
5.722963809967041016e-01
-4.392765462398529053e-01
4.722773283720016479e-02
1.551687866449356079e-01
1.435900032520294189e-01
-4.132274091243743896e-01
-2.340245097875595093e-01
-4.908961355686187744e-01
1.705868840217590332e-01
4.780242145061492920e-01
-2.801838815212249756e-01
3.980095684528350830e-02
-5.172511339187622070e-01
3.041394948959350586e-01
5.404574796557426453e-03
2.360511571168899536e-01
1.655265986919403076e-01
6.495860964059829712e-02
3.105655014514923096e-01
-3.055719137191772461e-01
-3.842325508594512939e-01
-8.012402653694152832e-01
3.053676486015319824e-01
2.496401965618133545e-01
-2.635259032249450684e-01
5.155589580535888672e-01
1.434607207775115967e-01
1.030163392424583435e-01
-4.498810172080993652e-01
2.163074612617492676e-01
-3.264852166175842285e-01
2.197348922491073608e-01
1.658196300268173218e-01
1.167282983660697937e-01
1.224600896239280701e-01
-8.477635979652404785e-01
6.994462013244628906e-01
8.483251929283142090e-02
3.607114553451538086e-01
1.998372673988342285e-01
4.732252284884452820e-02
2.291986942291259766e-01
-1.897607743740081787e-01
1.749712526798248291e-01
-2.002263963222503662e-01
-8.648172616958618164e-01
-3.316698372364044189e-01
1.875962875783443451e-02
1.935265064239501953e-01
-6.031130552291870117e-01
2.046533972024917603e-01
6.878255009651184082e-01
3.047751486301422119e-01
-3.914085775613784790e-02
-9.843278676271438599e-03
-5.471666455268859863e-01
-3.753370046615600586e-01
-3.934521079063415527e-01
2.868879735469818115e-01
-2.155186235904693604e-01
4.999838396906852722e-02
5.114705860614776611e-02
-2.857580482959747314e-01
1.393599528819322586e-02
9.325784444808959961e-02
-3.453337550163269043e-01
1.765390932559967041e-01
2.328363507986068726e-01
3.163071349263191223e-03
2.223308533430099487e-01
2.667655944824218750e-01
-1.636772006750106812e-01
9.238840639591217041e-02
-4.036580026149749756e-01
2.380325347185134888e-01
6.856774538755416870e-02
-2.891775369644165039e-01
1.336535662412643433e-01
-2.269931286573410034e-01
9.755891561508178711e-02
6.313304901123046875e-01
-9.486789256334304810e-02
-2.243065834045410156e-01
3.859853446483612061e-01
-1.989605128765106201e-01
4.590133130550384521e-01
1.926507055759429932e-01
1.406358480453491211e-01
1.877361238002777100e-01
1.659475415945053101e-01
5.069461464881896973e-01
4.280051961541175842e-02
-6.103779673576354980e-01
1.635723412036895752e-01
3.135330080986022949e-01
1.033488735556602478e-01
8.792191743850708008e-02
-2.235364764928817749e-01
4.518385604023933411e-02
-5.913938879966735840e-01
3.817714452743530273e-01
6.527069807052612305e-01
-5.694921612739562988e-01
-2.210070490837097168e-01
2.372525781393051147e-01
-4.703726172447204590e-01
1.067174524068832397e-01
2.398832738399505615e-01
9.644208103418350220e-02
1.378115564584732056e-01
6.654897928237915039e-01
1.900905668735504150e-01
-3.262456357479095459e-01
-2.755632698535919189e-01
1.146174147725105286e-01
1.793067753314971924e-01
-5.022417306900024414e-01
1.960231810808181763e-01
1.937236487865447998e-01
-3.043943941593170166e-01
