-2.334377677470911294e-05
3.000129436259157956e-05
-8.438871736871078610e-05
-8.417081699008122087e-05
2.871885044442024082e-05
-2.564976966823451221e-05
3.840613135253079236e-05
5.614803740172646940e-06
2.490752012818120420e-05
-1.597509071871172637e-05
-8.278737368527799845e-05
-9.109885468205902725e-06
-9.486383532930631191e-06
2.790406324493233114e-05
2.713873618631623685e-05
1.604745921213179827e-05
2.158075403713155538e-05
4.796936991624534130e-05
-2.693992428248748183e-05
-8.756919851293787360e-05
-4.394688949105329812e-05
-5.360324939829297364e-05
-8.152876398526132107e-05
-3.594585905375424773e-06
1.634669206396210939e-05
-8.404795153182931244e-06
-3.930072853108868003e-05
-1.652268110774457455e-05
-4.332992830313742161e-05
1.426717699359869584e-05
5.250792582955909893e-06
2.382007733103819191e-05
2.874577694456093013e-05
3.288252628408372402e-06
-1.019731826090719551e-05
3.235810800106264651e-05
2.191959902120288461e-05
2.355891047045588493e-05
1.741043342917691916e-05
1.523868922959081829e-05
-2.844407572411000729e-05
5.245007923804223537e-05
1.539154800411779433e-05
-1.420458829670678824e-05
2.872080222005024552e-05
-7.530778384534642100e-05
-2.620303166622761637e-05
4.458723924471996725e-05
2.311843854840844870e-05
2.397476964688394219e-05
-3.548532504282775335e-06
5.721907291444949806e-05
2.288201903866138309e-05
3.009927058883477002e-05
3.321456460980698466e-05
4.796907160198315978e-05
4.268478278390830383e-06
-3.283881596871651709e-05
-2.501247763575520366e-05
2.264506838400848210e-05
3.960763933719135821e-05
1.533569229650311172e-05
2.057630081253591925e-05
2.461983967805281281e-05
2.777946247078943998e-05
-4.443772922968491912e-05
-2.751544343482237309e-05
3.041289801331004128e-06
-4.787071156897582114e-05
1.576534668856766075e-05
3.428336640354245901e-05
2.384595609328243881e-05
-1.599790266482159495e-05
1.686090581642929465e-05
1.477570913266390562e-05
-1.437861919839633629e-05
-5.537224569707177579e-05
2.257939013361465186e-05
1.975650775420945138e-05
3.211709190509282053e-05
-6.322638364508748055e-05
3.312506669317372143e-05
-1.506223543401574716e-05
-1.650737431191373616e-05
1.600183531991206110e-05
-2.357940502406563610e-05
-8.259858077508397400e-06
-2.210822276538237929e-05
-1.133890236815204844e-05
1.865848935267422348e-05
-7.712825754424557090e-05
-4.077804987900890410e-06
-2.636922181409318000e-05
-4.817728768102824688e-05
2.859538653865456581e-05
-8.741708370507694781e-06
3.976805965066887438e-05
-5.000559394829906523e-05
6.572850452357670292e-06
-1.567306753713637590e-05
2.403948019491508603e-05
3.143544017802923918e-05
-1.262050063814967871e-04
3.048813778150361031e-05
2.248966848128475249e-05
3.648344136308878660e-05
-2.963491897389758378e-05
-5.094572770758531988e-05
-7.032455323496833444e-05
2.611833588161971420e-05
2.065678563667461276e-05
-4.843106580665335059e-05
2.871854667318984866e-05
-4.060228093294426799e-05
-2.949962254206184298e-05
4.325281406636349857e-05
5.728684755013091490e-06
2.703116660995874554e-05
-9.232006959791760892e-06
-8.126289685606025159e-06
-1.650905142014380544e-05
-1.272141380468383431e-04
-9.065646736416965723e-06
-5.060827970737591386e-05
-5.091851198812946677e-05
1.744422479532659054e-05
3.221840597689151764e-05
2.241951551695819944e-05
3.834472408925648779e-06
-3.383785269761574455e-06
-2.956432035716716200e-05
4.263596201781183481e-05
4.072267074661795050e-06
2.400795165158342570e-05
-3.884159013978205621e-05
2.959834819193929434e-05
3.837940312223508954e-05
3.920033850590698421e-05
2.284374386363197118e-05
-5.087788667879067361e-05
1.779677950253244489e-05
2.376440534135326743e-05
-1.735489240672904998e-05
3.234533141949214041e-05
4.931934199703391641e-06
2.261959343741182238e-05
-7.544326217612251639e-05
1.492363753641257063e-05
-1.715124562906567007e-05
2.012066033785231411e-05
-1.645217344048433006e-05
3.253343311371281743e-05
-3.128884782199747860e-05
-3.203956293873488903e-05
-1.317723763349931687e-05
-1.057109620887786150e-04
5.910603249503765255e-06
3.941570321330800653e-05
3.424613169045187533e-05
8.532838364772032946e-06
3.833492519333958626e-05
4.000768240075558424e-05
3.346410449012182653e-05
1.467894435336347669e-05
-1.245729508809745312e-04
-6.301025132415816188e-05
4.091336450073868036e-05
-4.216266006551450118e-06
2.793337625917047262e-05
1.937078013725113124e-05
-2.904512439272366464e-05
-4.468242696020752192e-05
1.361502017971361056e-05
-2.957334982056636363e-05
4.276926847524009645e-05
8.842990609991829842e-06
2.451876571285538375e-05
-2.983793456223793328e-05
-7.569342415081337094e-05
2.584814319561701268e-05
2.275943370477762073e-05
4.402225749799981713e-05
-1.497078301326837391e-05
1.618787246115971357e-05
-3.478106009424664080e-05
2.338252852496225387e-05
-4.126805652049370110e-05
2.764848250080831349e-05
4.235825144860427827e-06
-1.831261215556878597e-05
4.343336968304356560e-06
-3.956272394134430215e-06
2.865402348106727004e-05
2.379084617132321000e-05
1.744237124512437731e-05
3.967700104112736881e-05
2.170410334656480700e-05
-8.172777597792446613e-05
2.106677311530802399e-05
-1.502387931395787746e-05
-4.821970287594012916e-05
2.850277815014123917e-05
3.220284270355477929e-05
5.082629741082200781e-06
1.976317435037344694e-05
-4.360970706329680979e-06
-3.939240559702739120e-05
-2.422535771984257735e-06
-1.616038935026153922e-05
1.439836614736123011e-05
2.831591882568318397e-05
-2.015541758737526834e-05
2.729480547714047134e-05
-2.186726123909465969e-05
1.566927130625117570e-05
-2.838431646523531526e-05
5.076925299363210797e-05
2.237349508504848927e-05
4.180387350061209872e-06
7.054968591546639800e-06
-2.083987055812031031e-05
-1.722566412354353815e-05
2.261446934426203370e-05
6.408057379303500056e-05
-2.140436117770150304e-05
-1.911594881676137447e-05
2.429986125207506120e-05
3.027264028787612915e-05
-9.531388059258460999e-06
5.026114013162441552e-05
-9.120289178099483252e-06
9.530227544018998742e-06
-2.919052531069610268e-05
3.786119123105891049e-05
-2.387182576057966799e-05
1.618456371943466365e-05
1.585869722475763410e-05
1.972669633687473834e-05
-9.133997082244604826e-06
1.337142930424306542e-05
-4.314982288633473217e-05
4.881629138253629208e-05
-2.484288961568381637e-05
2.201070492446888238e-05
2.769787170109339058e-05
2.397235766693484038e-05
5.226226494414731860e-05
1.458514816476963460e-05
3.799648402491584420e-05
-3.825536623480729759e-05
-1.444906774850096554e-05
6.099558504502056167e-06
-3.191835276084020734e-05
1.683678237895946950e-05
2.663224768184591085e-05
-5.552006405196152627e-05
2.801533810270484537e-05
2.082768332911655307e-05
2.082600076391827315e-05
2.380527621426153928e-05
2.341760955459903926e-05
-1.638629146327730268e-05
3.189485505572520196e-05
-8.515359513694420457e-05
1.520829664514167234e-05
2.402385689492803067e-05
1.647908902668859810e-05
2.264529211970511824e-05
1.692188197921495885e-05
1.953278842847794294e-05
-2.909734575951006263e-05
2.896919431805144995e-05
3.040446790691930801e-05
1.492390856583369896e-05
1.677864202065393329e-05
-4.531695230980403721e-05
1.626782977837137878e-05
4.994725895812734962e-05
-4.403091224958188832e-05
-2.461763324390631169e-05
2.181036325055174530e-05
5.391281956690363586e-05
3.090611426159739494e-05
-3.945367643609642982e-05
2.195666820625774562e-05
1.717478153295814991e-05
-1.030677231028676033e-05
5.744590453105047345e-05
2.846657662303186953e-05
1.728859569993801415e-05
3.785097214858978987e-05
-9.011513611767441034e-05
2.494226100679952651e-05
2.219130328739993274e-05
-2.516763379389885813e-05
2.286824019392952323e-05
2.600314473966136575e-05
-8.867734322848264128e-06
2.055331606243271381e-05
2.364206920901779085e-05
-1.752289063006173819e-05
-1.615648943698033690e-05
-1.022762080538086593e-04
1.668092772888485342e-05
4.345439083408564329e-05
1.561873614264186472e-05
-9.665048855822533369e-05
-9.261284139938652515e-05
-2.659030906215775758e-05
5.169799987925216556e-05
2.029665847658179700e-05
3.784697400988079607e-05
-2.186601159337442368e-05
3.082576586166396737e-05
-1.748448812577407807e-05
3.458818355284165591e-06
1.422948662366252393e-05
2.997340925503522158e-05
2.686582229216583073e-05
-1.691851866780780256e-05
2.907153611886315048e-05
2.948567089333664626e-05
2.341699655517004430e-05
-1.546526800666470081e-05
2.012140066653955728e-05
1.602962947799824178e-05
1.584552774147596210e-05
2.025276262429542840e-05
-4.868831820203922689e-05
-1.532621899968944490e-05
-6.040713560651056468e-05
2.137306364602409303e-05
-2.365156979067251086e-05
4.100887235836125910e-05
-1.007280206977156922e-05
2.614612276374828070e-05
1.282876837649382651e-05
-5.003448313800618052e-05
2.996902549057267606e-05
-4.586688373819924891e-05
1.921370312629733235e-05
-1.547288411529734731e-05
-8.047933079069480300e-06
3.180082057951949537e-05
-1.558624717290513217e-05
1.475404860684648156e-05
3.872195884468965232e-05
2.092481190629769117e-05
-1.949118632182944566e-05
2.391099587839562446e-05
3.149323310935869813e-05
1.700228131085168570e-05
-6.993408169364556670e-05
3.886525519192218781e-05
-2.151497756130993366e-05
1.657038592384196818e-05
-5.134277307661250234e-05
1.330403506472066510e-06
-4.764596815221011639e-05
-2.775259963527787477e-05
-4.875996455666609108e-05
-2.234732528449967504e-05
-3.399995330255478621e-05
-7.404963253065943718e-05
2.450461761327460408e-05
-4.337394784670323133e-05
4.258979970472864807e-05
2.953654984594322741e-05
1.469661583541892469e-05
2.725948070292361081e-05
5.342082295101135969e-05
2.694535760383587331e-05
2.247562952106818557e-05
-6.652278534602373838e-05
3.292893961770460010e-05
-1.514378436695551500e-05
3.892816675943322480e-05
2.201742063334677368e-05
4.197606176603585482e-05
-1.248664048034697771e-04
-2.251711703138425946e-05
2.631397182994987816e-05
2.347884401388000697e-05
1.627240817470010370e-05
2.927901914517860860e-05
5.201886961003765464e-05
-1.453397453587967902e-05
-1.498042092862306163e-05
1.900034840218722820e-05
1.426067228749161586e-05
-1.828073800425045192e-05
-1.796808282961137593e-05
3.865057078655809164e-05
4.638316750060766935e-05
1.339257778454339132e-05
3.896259295288473368e-05
5.335598871170077473e-06
-7.824417843949049711e-05
-4.112146416446194053e-05
2.539969500503502786e-05
-1.257330586668103933e-04
1.685467577772215009e-05
5.182475433684885502e-05
-1.654706829867791384e-05
-8.346197864739224315e-05
2.630876770126633346e-05
3.132956408080644906e-05
-9.441626025363802910e-05
-5.177477578399702907e-05
2.122238583979196846e-05
-1.966219315363559872e-05
2.745708661677781492e-05
2.227524237241595984e-05
2.676020085345953703e-05
-3.313218621769919991e-05
-7.550745067419484258e-05
-2.547743133618496358e-05
2.348647649341728538e-05
-1.994696685869712383e-05
1.539657023386098444e-05
5.546369720832444727e-05
4.264353992766700685e-05
2.324030720046721399e-05
2.385238440183456987e-05
4.059662387589924037e-05
-5.172293458599597216e-05
3.099014793406240642e-05
-6.354672950692474842e-05
2.603611028462182730e-05
2.132704321411438286e-05
-3.893797384080244228e-06
-3.865088001475669444e-05
-3.250841473345644772e-05
-7.668422040296718478e-05
-9.218409104505553842e-06
2.210513775935396552e-05
2.427409526717383415e-05
1.663096918491646647e-05
-8.785311365500092506e-05
-4.517516572377644479e-06
-4.297721898183226585e-05
-9.745300485519692302e-05
-3.345469303894788027e-05
2.535682506277225912e-05
3.833614391623996198e-05
1.458423230360494927e-05
1.579005220264662057e-05
2.236480577266775072e-05
4.015003014501417056e-06
1.546390558360144496e-05
-4.790173261426389217e-05
1.588486156833823770e-05
2.577669692982453853e-05
6.429273344110697508e-05
-9.813259384827688336e-05
-5.285222869133576751e-05
2.267419040435925126e-05
1.877188151411246508e-05
2.300420965184457600e-05
1.763572436175309122e-05
-7.346110214712098241e-05
-5.315941598382778466e-05
3.975662184529937804e-05
2.280997432535514235e-05
-7.144933624658733606e-05
1.655127380217891186e-05
-4.801056275027804077e-05
-4.146502033108845353e-05
-1.933581006596796215e-05
3.414994807826587930e-06
-5.020599564886651933e-05
-4.853168138652108610e-05
-4.887019531452096999e-05
2.677049815247301012e-05
3.929135709768161178e-05
2.183602373406756669e-05
2.232444603578187525e-05
2.344797212572302669e-05
4.934742719342466444e-06
2.220708483946509659e-05
-6.559164467034861445e-05
-5.218729711486957967e-05
2.351719012949615717e-05
-2.931335257017053664e-05
