4.249109479133039713e-04
1.250782952411100268e-04
-8.918278763303533196e-05
3.197515034116804600e-04
3.940925817005336285e-04
-3.618223126977682114e-05
-6.375345401465892792e-04
-8.038704982027411461e-05
-4.804103518836200237e-04
6.025417405908228830e-06
-3.799919213633984327e-04
1.415248116245493293e-04
-6.079811719246208668e-04
-6.581440102308988571e-04
5.631013773381710052e-04
-1.913052801683079451e-05
8.937973179854452610e-04
-3.374782972969114780e-04
-1.518970093457028270e-04
3.349363105371594429e-04
-1.159263265435583889e-04
-4.812794941244646907e-05
5.015535862185060978e-04
5.097016110084950924e-04
2.160586591344326735e-04
-8.292558050015941262e-05
-4.863676149398088455e-04
-1.655348460189998150e-04
-1.123502352129435167e-05
6.434825481846928596e-04
-5.201643216423690319e-04
3.386601456440985203e-04
-3.298669762443751097e-04
-3.922136675100773573e-04
-3.090465033892542124e-04
2.506149394321255386e-05
1.124652844737283885e-04
1.517741184215992689e-04
-4.296518745832145214e-04
-9.012247755890712142e-05
2.643675834406167269e-04
-2.685489926079753786e-05
7.603036938235163689e-04
3.970718244090676308e-04
1.996038772631436586e-04
1.294435351155698299e-04
7.385566714219748974e-04
-5.326998652890324593e-04
-1.328696671407669783e-04
-7.609224994666874409e-04
-2.825635310728102922e-04
8.301758789457380772e-04
-1.458114566048607230e-04
2.795192704070359468e-04
1.221997663378715515e-04
-3.854105016216635704e-04
2.397508797002956271e-04
3.520626924000680447e-04
1.434771838830783963e-04
5.079245311208069324e-04
1.427519309800118208e-04
4.059196508023887873e-04
-7.802623440511524677e-04
8.020990644581615925e-04
9.535656863590702415e-05
-2.863267436623573303e-04
1.319890434388071299e-04
-7.181349210441112518e-04
3.676492488011717796e-04
-2.138405543519183993e-04
1.365206844639033079e-05
-3.164290392305701971e-04
3.251878079026937485e-04
6.274287006817758083e-04
-1.382967020617797971e-04
-7.659233233425766230e-05
2.648725640028715134e-04
-2.801379887387156487e-04
3.052127794944681227e-05
-4.142669786233454943e-04
-9.104878699872642756e-05
2.024304740189108998e-05
-7.173724006861448288e-04
3.273249603807926178e-05
5.200142913963645697e-05
6.421651341952383518e-04
-3.565074584912508726e-04
2.499980328138917685e-04
-7.853392162360250950e-05
3.021595184691250324e-04
3.600469062803313136e-05
1.911996223498135805e-04
5.227842484600841999e-05
-4.875549639109522104e-04
3.419928834773600101e-04
-7.906558312242850661e-05
1.929087884491309524e-04
1.978800282813608646e-04
-1.399553002556785941e-04
1.801941107260063291e-04
2.415490307612344623e-04
-6.448112253565341234e-05
-8.969641057774424553e-04
4.723958554677665234e-04
-5.866292631253600121e-04
2.920537372119724751e-04
-2.798149071168154478e-04
4.129175795242190361e-04
-3.889004292432218790e-04
-3.631100844359025359e-05
-8.517982787452638149e-04
-4.706873442046344280e-04
-8.657914586365222931e-04
-3.542087870300747454e-05
-2.640666934894397855e-05
-7.950841973070055246e-05
-9.245303808711469173e-04
-1.107777701690793037e-03
-7.302159210667014122e-04
4.266609612386673689e-04
5.080684204585850239e-04
1.515937037765979767e-04
-2.366409025853499770e-04
-3.860756696667522192e-04
2.660220197867602110e-04
3.663688839878886938e-04
-4.767467034980654716e-04
-3.142814239254221320e-05
-1.875284360721707344e-04
-6.591397104784846306e-04
-5.103471339680254459e-04
4.059432540088891983e-04
3.872403467539697886e-04
3.058238362427800894e-04
-6.671958253718912601e-04
-6.728783046128228307e-05
-8.338539046235382557e-04
3.093733976129442453e-04
1.962913229363039136e-04
-4.871896235272288322e-04
2.945467131212353706e-04
6.356026860885322094e-04
1.615236687939614058e-04
2.377735654590651393e-04
-3.595447342377156019e-04
5.569075001403689384e-04
-3.163627116009593010e-05
3.744583809748291969e-04
4.865177616011351347e-04
-3.999400651082396507e-04
-3.453385725151747465e-04
2.151240769308060408e-04
-3.545696963556110859e-04
4.693381779361516237e-04
9.231027215719223022e-04
-6.686099804937839508e-04
1.957215717993676662e-04
-9.271650924347341061e-04
2.909835311584174633e-04
-5.249720416031777859e-04
-1.007687300443649292e-03
4.940747166983783245e-04
7.454145816154778004e-04
-3.251918824389576912e-04
5.436496576294302940e-04
5.905027501285076141e-04
1.956128835445269942e-04
5.410079611465334892e-04
3.315249050501734018e-04
-7.118658977560698986e-04
-1.122543821111321449e-03
-2.215448912465944886e-04
-9.533198317512869835e-04
-1.023402510327287018e-04
2.491486375220119953e-04
-9.781570406630635262e-05
3.584279620554298162e-04
-3.271584500907920301e-05
-3.790129994740709662e-05
8.543224248569458723e-05
5.319585907272994518e-04
3.365604788996279240e-04
1.444545923732221127e-04
3.533322014845907688e-04
-4.144021368119865656e-04
-2.358811616431921721e-04
-7.052455912344157696e-04
-1.664608862483873963e-04
-8.063062559813261032e-04
6.418796256184577942e-04
1.430002157576382160e-04
3.145244045299477875e-05
-5.035883514210581779e-04
-6.018175627104938030e-04
-5.003634723834693432e-04
2.682835656742099673e-05
-8.252080442616716027e-05
2.972063957713544369e-04
-2.941512793768197298e-04
-3.067861835006624460e-04
6.689963047392666340e-04
5.720905028283596039e-04
-2.092110080411657691e-04
2.114897943101823330e-04
-2.498590038157999516e-04
8.085698209470137954e-05
5.138501874171197414e-04
-9.553245035931468010e-04
-9.554446442052721977e-04
-4.051871947012841702e-04
1.591418840689584613e-04
-6.772094056941568851e-04
-1.497133343946188688e-04
1.576406939420849085e-04
2.504367148503661156e-04
-2.015432546613737941e-04
3.316503716632723808e-04
-2.281652086821850389e-05
4.945876426063477993e-04
2.012933146033901721e-05
3.487594076432287693e-04
-3.930955717805773020e-04
4.749413928948342800e-04
-1.496164331911131740e-04
1.398790336679667234e-04
