1.406975643476471305e-04
2.763996599242091179e-04
5.670736427418887615e-04
-7.685534365009516478e-05
3.813702496699988842e-04
2.197605062974616885e-04
1.155369754997082055e-04
1.844533253461122513e-04
3.389636985957622528e-04
4.724581376649439335e-04
1.978461368707939982e-04
-3.382531212992034853e-05
5.681618931703269482e-04
2.116812538588419557e-04
8.986283319245558232e-06
4.688646877184510231e-04
-4.378600715426728129e-05
3.348485333845019341e-04
3.820117854047566652e-04
5.098022520542144775e-04
3.254477924201637506e-04
4.991413443349301815e-04
9.094470296986401081e-04
-2.610755618661642075e-04
3.751742187887430191e-04
7.011347333900630474e-04
-2.159214272978715599e-05
1.484382373746484518e-04
2.812840393744409084e-04
1.285610487684607506e-04
3.649880527518689632e-04
1.273699890589341521e-04
1.115228078560903668e-04
3.953504201490432024e-04
3.308190207462757826e-04
5.289260298013687134e-04
3.819660341832786798e-04
3.455977421253919601e-04
2.121132420143112540e-04
1.446745154680684209e-04
2.899235114455223083e-04
2.065516164293512702e-04
-7.847014057915657759e-05
2.860991808120161295e-04
5.128206794324796647e-06
3.556061710696667433e-04
-1.021930729621089995e-04
-7.661500421818345785e-05
1.585049758432433009e-04
2.149333304259926081e-04
-1.287554332520812750e-04
1.357466680929064751e-04
2.160737349186092615e-04
-9.767785377334803343e-05
4.369033267721533775e-04
5.122039583511650562e-04
9.682500240160152316e-05
1.103526810766197741e-04
5.576329422183334827e-04
4.982996615581214428e-04
-7.011243724264204502e-05
-1.744102046359330416e-04
8.988537592813372612e-05
1.275269733014283702e-05
4.074672178830951452e-04
-2.504921867512166500e-04
-3.408385673537850380e-04
-1.743714710755739361e-05
-1.895952445920556784e-04
7.173499325290322304e-04
5.924238939769566059e-04
2.060279075521975756e-04
-1.778485020622611046e-04
6.221411749720573425e-04
-3.047173086088150740e-04
3.619877970777451992e-04
-9.270005830330774188e-05
3.374896477907896042e-04
4.761173477163538337e-05
-5.342890653992071748e-05
1.079247886082157493e-04
-1.826616935431957245e-04
-2.582275192253291607e-04
1.059091227944009006e-04
2.879808307625353336e-04
4.247056494932621717e-05
-2.479694667272269726e-04
2.192309621023014188e-04
4.150318272877484560e-04
1.412317942595109344e-06
3.253195609431713820e-04
1.566796127008274198e-04
3.904461336787790060e-04
3.993728023488074541e-04
2.290295669808983803e-04
-1.724779140204191208e-04
3.205016255378723145e-04
3.632478765211999416e-04
-1.318794238613918424e-04
8.464751590508967638e-05
3.352084022480994463e-04
2.373394527239724994e-04
4.797410801984369755e-04
5.401303060352802277e-04
-2.659591264091432095e-04
3.693258622661232948e-04
4.859227628912776709e-04
3.940531169064342976e-04
4.600717511493712664e-05
2.823031099978834391e-04
-1.430557404091814533e-05
-1.577644725330173969e-04
-2.591496158856898546e-04
6.169684929773211479e-04
3.659980429802089930e-04
1.145123605965636671e-04
4.670689522754400969e-04
-2.876342914532870054e-04
3.385985910426825285e-04
-2.974021481350064278e-04
4.992907634004950523e-04
3.955589490942656994e-04
3.821703721769154072e-04
2.711550623644143343e-04
1.632517960388213396e-04
2.305840316694229841e-04
4.798781301360577345e-04
5.121019967191386968e-06
3.259478253312408924e-04
1.651661877986043692e-04
7.433195132762193680e-04
6.801385461585596204e-05
4.271204234100878239e-04
1.614946522749960423e-04
-1.832707130233757198e-05
4.487911064643412828e-04
3.427440242376178503e-04
3.765808360185474157e-04
1.720009022392332554e-04
3.702306130435317755e-04
3.989543474745005369e-04
4.275612445781007409e-05
-2.491570194251835346e-04
-7.293087037396617234e-06
4.096872289665043354e-04
1.934261672431603074e-05
1.236153038917109370e-04
-1.881158095784485340e-04
4.157820367254316807e-04
2.206034550908952951e-04
2.444791316520422697e-04
3.168645198456943035e-04
2.719730946409981698e-05
-2.819592773448675871e-04
-3.530756657710298896e-05
2.762859803624451160e-04
5.568425985984504223e-04
1.739546714816242456e-04
1.455583551432937384e-04
3.743095148820430040e-04
5.696396692655980587e-05
-1.187220768770202994e-04
3.286260835011489689e-05
4.139230586588382721e-04
2.102364378515630960e-04
2.715346927288919687e-04
2.449416497256606817e-04
8.172466914402320981e-05
1.934058964252471924e-04
2.527021279092878103e-04
2.386377891525626183e-04
3.805671876762062311e-04
-3.182241198373958468e-05
2.081361453747376800e-04
5.724935326725244522e-04
3.650428843684494495e-04
2.878436644095927477e-04
7.551782764494419098e-04
2.260610199300572276e-04
5.440579843707382679e-04
1.476582256145775318e-04
1.813280105125159025e-04
-1.403812057105824351e-04
2.269096439704298973e-04
3.013978130184113979e-05
-9.556746226735413074e-05
2.241415641037747264e-04
2.676498261280357838e-04
1.468357513658702374e-04
2.868087904062122107e-04
3.679411311168223619e-04
-1.655475643929094076e-04
2.325575478607788682e-04
5.193208344280719757e-04
5.037335795350372791e-04
9.941676398739218712e-05
2.313550212420523167e-04
9.904855687636882067e-06
6.206732359714806080e-04
1.317070418735966086e-04
4.963778192177414894e-04
5.120352143421769142e-04
2.621370658744126558e-04
8.389195863856002688e-05
4.729929496534168720e-04
1.896231406135484576e-04
-4.963410901837050915e-04
4.956058110110461712e-04
1.605338184162974358e-05
2.858694060705602169e-04
3.615590976551175117e-04
2.022869593929499388e-04
4.243317525833845139e-04
-2.465771685820072889e-04
2.820995578076690435e-04
4.526132252067327499e-04
3.216169716324657202e-04
2.312953292857855558e-04
3.850393695756793022e-04
-2.268220850965008140e-04
2.816563355736434460e-04
-1.682757720118388534e-04
5.581221776083111763e-04
3.086907963734120131e-04
6.653253221884369850e-04
