-1.053270339965820312e+00
3.665824651718139648e+00
1.906000375747680664e+00
4.494945049285888672e+00
4.160727024078369141e+00
1.433993339538574219e+00
4.457287311553955078e+00
1.950546503067016602e+00
1.582356452941894531e+00
-7.107286453247070312e-01
5.357701301574707031e+00
2.864356279373168945e+00
4.892041683197021484e+00
2.103619277477264404e-01
2.318722963333129883e+00
3.578715324401855469e+00
1.444517016410827637e+00
5.022994041442871094e+00
-1.672723442316055298e-01
1.293447017669677734e+00
3.877989053726196289e+00
1.780717253684997559e+00
-2.076542377471923828e+00
1.566718101501464844e+00
6.236247539520263672e+00
1.556345701217651367e+00
-2.565262079238891602e+00
5.103145599365234375e+00
4.730212688446044922e+00
1.921817183494567871e+00
7.967286705970764160e-01
3.587082862854003906e+00
4.452939987182617188e+00
5.137495994567871094e+00
-1.119268178939819336e+00
3.753086328506469727e+00
-1.872896552085876465e+00
3.276182889938354492e+00
7.049061059951782227e-01
-1.655818462371826172e+00
2.140014767646789551e-01
-1.627081871032714844e+00
5.235550880432128906e+00
3.675280332565307617e+00
4.999695301055908203e+00
4.795125961303710938e+00
-6.432713270187377930e-01
5.034059524536132812e+00
4.325836658477783203e+00
4.635103225708007812e+00
-5.781948193907737732e-02
3.313094377517700195e+00
-1.242360949516296387e+00
4.777316570281982422e+00
-1.220358371734619141e+00
1.974904417991638184e+00
5.545337677001953125e+00
-6.474539637565612793e-01
4.482007980346679688e+00
2.368356227874755859e+00
-1.684722423553466797e+00
1.900508522987365723e+00
1.081820487976074219e+00
3.307263553142547607e-01
-1.253091573715209961e+00
5.116041183471679688e+00
6.119907855987548828e+00
2.220005244016647339e-01
6.043649315834045410e-01
4.521317481994628906e+00
3.642729282379150391e+00
3.149647235870361328e+00
-2.058530330657958984e+00
-1.349450230598449707e+00
5.133518695831298828e+00
-1.472903847694396973e+00
4.777849674224853516e+00
4.995868682861328125e+00
4.126009464263916016e+00
1.928362965583801270e+00
4.979687213897705078e+00
6.025912284851074219e+00
-2.468727827072143555e+00
5.376358628273010254e-01
-2.556369006633758545e-01
4.373274326324462891e+00
5.523139476776123047e+00
6.193349361419677734e+00
2.400917291641235352e+00
1.383783698081970215e+00
-2.632191658020019531e+00
1.715813755989074707e+00
-9.129079580307006836e-01
6.073339462280273438e+00
-5.603662729263305664e-01
-6.965432763099670410e-01
1.123619899153709412e-01
1.515791296958923340e+00
3.790898323059082031e+00
4.022172927856445312e+00
2.279453754425048828e+00
1.121456861495971680e+00
2.914725065231323242e+00
-2.069456338882446289e+00
8.274518251419067383e-01
-1.955454587936401367e+00
3.773822784423828125e+00
1.309112012386322021e-01
4.118008136749267578e+00
4.576926231384277344e+00
1.011455655097961426e+00
5.221675395965576172e+00
-2.342529773712158203e+00
5.121848106384277344e+00
4.620393753051757812e+00
1.454867482185363770e+00
3.798008680343627930e+00
4.795115947723388672e+00
-1.897449731826782227e+00
2.949820041656494141e+00
2.828901290893554688e+00
4.522391319274902344e+00
1.512000918388366699e+00
1.080361604690551758e+00
2.617577649652957916e-02
1.909986615180969238e+00
1.464359879493713379e+00
-1.381450533866882324e+00
-3.550902307033538818e-01
4.008170127868652344e+00
2.136183023452758789e+00
3.878193795680999756e-01
3.146183490753173828e+00
5.265139102935791016e+00
2.017999887466430664e+00
1.343441247940063477e+00
1.305785655975341797e+00
3.499464988708496094e+00
4.797493934631347656e+00
1.561276555061340332e+00
4.958226680755615234e+00
2.198712587356567383e+00
5.471870422363281250e+00
3.899268627166748047e+00
1.924155473709106445e+00
5.244063854217529297e+00
4.529300689697265625e+00
6.394668102264404297e+00
2.914906024932861328e+00
6.034448623657226562e+00
-1.247091174125671387e+00
2.714907646179199219e+00
5.788611888885498047e+00
5.184060096740722656e+00
5.596450805664062500e+00
2.056170463562011719e+00
-5.178179740905761719e-01
-1.507279127836227417e-01
5.738280773162841797e+00
1.514360547065734863e+00
4.169621944427490234e+00
5.020953178405761719e+00
1.747291684150695801e-01
-8.278182148933410645e-01
4.806591033935546875e+00
1.534176230430603027e+00
4.207096576690673828e+00
2.139261960983276367e+00
-2.241807937622070312e+00
4.482389926910400391e+00
3.041449308395385742e+00
5.594964504241943359e+00
6.061816811561584473e-01
3.552921295166015625e+00
5.434801101684570312e+00
-2.637816905975341797e+00
1.471270442008972168e+00
5.212601661682128906e+00
3.632538557052612305e+00
6.629728794097900391e+00
-1.197271466255187988e+00
4.987268447875976562e-01
5.270225048065185547e+00
1.870543718338012695e+00
5.218580245971679688e+00
3.445816993713378906e+00
2.575476646423339844e+00
-6.167265176773071289e-01
-7.589075565338134766e-01
2.273997068405151367e+00
5.178056716918945312e+00
-6.590909957885742188e-01
9.469069242477416992e-01
8.665457367897033691e-01
-5.425444841384887695e-01
8.939973115921020508e-01
5.143496036529541016e+00
6.600306987762451172e+00
5.969108939170837402e-01
4.250917434692382812e+00
-2.744552373886108398e+00
3.470901012420654297e+00
1.242548823356628418e+00
4.072913169860839844e+00
1.738912820816040039e+00
3.798736095428466797e+00
-2.143635511398315430e+00
3.637469291687011719e+00
-1.208719372749328613e+00
3.497446775436401367e+00
1.276180863380432129e+00
3.939826250076293945e+00
-1.714723825454711914e+00
2.375637292861938477e+00
5.406602859497070312e+00
7.876371741294860840e-01
1.079819083213806152e+00
2.638707637786865234e+00
3.445992231369018555e+00
1.706704974174499512e+00
4.243811130523681641e+00
3.432909011840820312e+00
2.892914056777954102e+00
-6.279977560043334961e-01
4.382015228271484375e+00
