5.709829565603286028e-05
2.207914221799001098e-04
2.866677532438188791e-04
-2.118631527991965413e-04
1.641806738916784525e-04
1.369072415400296450e-04
1.982438698178157210e-04
1.663892762735486031e-04
2.391837624600157142e-04
1.751643721945583820e-04
-5.778794366051442921e-05
6.213835604285122827e-06
2.461465774103999138e-04
-7.843068306101486087e-05
1.183335007226560265e-05
2.642989857122302055e-04
1.095590559998527169e-04
3.280255477875471115e-04
1.408600364811718464e-04
3.244282270316034555e-04
1.360689348075538874e-04
3.098069573752582073e-04
3.626785182859748602e-04
5.190369120100513101e-05
2.233603445347398520e-04
2.883275737985968590e-04
9.635977221478242427e-06
-1.141006068792194128e-04
1.834891299949958920e-04
-1.435901358490809798e-04
4.747737330035306513e-05
2.592458622530102730e-04
4.949783397023566067e-05
2.209572849096730351e-04
1.442828797735273838e-04
3.517684235703200102e-04
3.237225173506885767e-04
1.958427747013047338e-04
6.800988194299861789e-05
1.097123313229531050e-04
2.067482273560017347e-04
-1.471838277211645618e-05
-3.561850462574511766e-05
4.980892845196649432e-05
-3.873444074997678399e-05
1.495890901423990726e-04
5.304241494741290808e-05
-1.337156481895362958e-05
4.845268631470389664e-05
2.666647196747362614e-04
-1.721442386042326689e-04
1.354318083031103015e-04
5.517731551663018763e-05
1.346241915598511696e-04
9.198336920235306025e-05
3.339549584779888391e-04
-5.418693035608157516e-05
1.103014001273550093e-04
3.232427698094397783e-04
2.649409580044448376e-04
9.077294089365750551e-05
7.636333612026646733e-05
7.426129013765603304e-05
-1.895319473987910897e-05
1.916623878059908748e-04
5.110445636091753840e-05
-1.719048304948955774e-04
1.126031929743476212e-05
-1.819098106352612376e-04
1.783626648830249906e-04
2.240022149635478854e-04
6.672805284324567765e-06
1.069393783836858347e-05
2.832766622304916382e-04
-2.291120035806670785e-04
1.867665996542200446e-04
-1.444218651158735156e-04
2.827218850143253803e-04
9.242781379725784063e-05
-1.018053080770187080e-05
9.402427167515270412e-06
-1.408828975399956107e-04
-7.115614425856620073e-05
-6.891586235724389553e-05
2.240612084278836846e-04
-5.117413365951506421e-06
-2.075261872960254550e-04
1.593791239429265261e-04
1.163744163932278752e-04
-1.186647132271900773e-04
2.226489305030554533e-04
3.288538136985152960e-04
9.275403863284736872e-05
2.502767347323242575e-05
2.062568455585278571e-06
-5.499565668287687004e-05
1.019076444208621979e-04
2.530466881580650806e-04
-2.138724667020142078e-04
2.968624175991863012e-04
2.372911403654143214e-04
1.996347127715125680e-04
3.243404498789459467e-04
3.576592425815761089e-04
3.755540819838643074e-05
2.110786881530657411e-04
2.583026944193989038e-04
1.206740780617110431e-04
-5.698263339581899345e-05
1.106292183976620436e-04
3.120268593193031847e-05
-8.423244435107335448e-05
-8.057861123234033585e-05
4.014032019767910242e-04
1.823620114009827375e-04
-8.200512093026190996e-05
9.163986396742984653e-05
-6.197414040798321366e-05
2.216739958385005593e-04
-1.158511877292767167e-04
1.427386887371540070e-04
1.535622868686914444e-04
9.786483860807493329e-05
2.456089132465422153e-04
1.707870542304590344e-04
6.273249164223670959e-05
2.882017361116595566e-05
-7.801840547472238541e-05
7.811113027855753899e-05
3.214243915863335133e-04
4.697061958722770214e-04
-3.147408278891816735e-05
1.658378605498000979e-04
-7.799631566740572453e-05
5.479517130879685283e-05
1.762212632456794381e-04
1.742048043524846435e-04
1.646570453885942698e-04
1.456378377042710781e-04
1.798790326574817300e-04
1.648666802793741226e-04
-1.060009708453435451e-05
4.110699592274613678e-05
-9.436447726329788566e-05
3.615750756580382586e-04
-1.169898896478116512e-04
-5.921695992583408952e-05
-1.523007376817986369e-04
1.060880094883032143e-04
4.315255500841885805e-05
1.640637492528185248e-04
3.233155002817511559e-04
1.428956747986376286e-04
-1.286788465222343802e-04
-1.390783872921019793e-04
1.353320840280503035e-04
2.500890404917299747e-04
1.021591087919659913e-04
8.899297245079651475e-05
1.671424106461927295e-04
-1.967398420674726367e-04
-3.583871148293837905e-05
-4.500957220443524420e-05
2.291960408911108971e-04
9.563294588588178158e-05
1.798114681150764227e-05
2.400203957222402096e-04
-2.287185780005529523e-04
2.354147145524621010e-04
3.882244345732033253e-05
1.356176799163222313e-04
1.055699685821309686e-04
-1.189929607789963484e-04
1.906684483401477337e-04
2.963186125271022320e-04
3.001054865308105946e-04
2.874149358831346035e-04
4.021500353701412678e-04
1.234767405549064279e-04
1.465669192839413881e-04
-1.523832615930587053e-04
1.009868501569144428e-04
-1.156950092990882695e-04
1.065318974724505097e-05
5.268252789392136037e-05
-7.910588465165346861e-05
1.586956786923110485e-04
2.394834446022287011e-04
-1.546471321489661932e-04
1.371479447698220611e-04
4.074900061823427677e-04
9.041189332492649555e-05
1.909090933622792363e-04
2.319878403795883060e-04
1.208039466291666031e-04
1.833954884205013514e-04
1.943677925737574697e-04
-3.235457825212506577e-06
1.841265329858288169e-04
2.414811169728636742e-04
3.808039764408022165e-04
2.274993894388899207e-04
9.153122664429247379e-05
1.617333850845170673e-06
2.614136610645800829e-04
-9.523557196189358365e-07
-2.734429435804486275e-04
2.273603458888828754e-04
8.615999831818044186e-06
1.422045315848663449e-04
-5.577522460953332484e-05
7.474096491932868958e-05
1.904234086396172643e-04
7.142261438275454566e-06
2.288039686391130090e-04
1.850612025009468198e-04
2.699836913961917162e-04
6.355166260618716478e-05
1.762420288287103176e-04
-8.924231224227696657e-05
4.078873316757380962e-04
-1.520760415587574244e-04
4.720444267150014639e-04
8.754540613153949380e-05
8.299998444272205234e-05
