3.058091388083994389e-04
1.175821162178181112e-04
-3.839489727397449315e-05
3.152807767037302256e-04
2.723117941059172153e-04
-1.594283639860805124e-05
-3.985566145274788141e-04
-6.907869101269170642e-05
-4.174564965069293976e-04
6.262281385716050863e-05
-3.246387641411274672e-04
2.060839906334877014e-04
-6.567712407559156418e-04
-5.969833582639694214e-04
4.956505144946277142e-04
1.836923765949904919e-04
5.571616347879171371e-04
-1.187407760880887508e-04
-5.493132630363106728e-05
1.337044814135879278e-04
1.743936445564031601e-05
1.648095203563570976e-04
4.032209108117967844e-04
4.701316647697240114e-04
2.596972044557332993e-04
-2.050448238151147962e-04
-2.516044187359511852e-04
-3.066858917009085417e-04
3.009389183716848493e-05
4.463281948119401932e-04
-2.608318754937499762e-04
2.871085016522556543e-04
-1.434864825569093227e-04
-2.032323973253369331e-04
7.935434041428379714e-06
1.448467992304358631e-05
3.852936060866340995e-05
1.727838243823498487e-04
-1.219105688505806029e-04
6.007301635690964758e-05
2.299417974427342415e-04
1.032568161463132128e-05
5.663495394401252270e-04
2.747129474300891161e-04
1.237177784787490964e-04
-4.124758925172500312e-05
5.844525294378399849e-04
-2.541243738960474730e-04
-2.165301120840013027e-04
-3.024738689418882132e-04
-3.292312321718782187e-04
4.447393002919852734e-04
6.504976772703230381e-05
-8.477654773741960526e-05
1.862502831500023603e-04
-2.125184546457603574e-04
1.086737975128926337e-04
-6.299104279605671763e-05
1.353589323116466403e-04
3.964891657233238220e-04
1.095838233595713973e-04
1.761194289429113269e-04
-5.451312172226607800e-04
2.624681510496884584e-04
-1.868795952759683132e-04
-5.476142905536107719e-05
-1.526822888990864158e-04
-3.328132152091711760e-04
3.900426381733268499e-04
-2.501948256394825876e-05
-2.536056854296475649e-04
-1.458732149330899119e-04
2.680739562492817640e-04
3.525609790813177824e-04
1.039293874782742932e-05
-4.288712443667463958e-05
2.672284317668527365e-04
-1.496489858254790306e-05
-6.148724060039967299e-05
-1.622347335796803236e-04
3.564781218301504850e-05
1.147063812823034823e-04
-3.704042173922061920e-04
-1.519849593023536727e-05
7.987857679836452007e-05
3.940215392503887415e-04
-5.150206270627677441e-04
2.789097197819501162e-04
1.785877830116078258e-04
1.396165171172469854e-04
1.319433358730748296e-04
1.737135025905445218e-04
2.529293124098330736e-04
-2.612608368508517742e-04
3.282690886408090591e-04
-6.878950807731598616e-05
2.308147668372839689e-04
3.341740812174975872e-04
-1.172922857222147286e-04
-9.253113239537924528e-05
2.398337383056059480e-04
-1.443390601707505994e-06
-3.109302488155663013e-04
1.923234813148155808e-04
-2.707454841583967209e-04
2.025680150836706161e-04
-1.063982053892686963e-04
1.568073639646172523e-04
-1.753985561663284898e-04
9.476060768065508455e-06
-5.032817134633660316e-04
-4.448177351150661707e-04
-3.813760413322597742e-04
-9.407080142409540713e-06
-5.240657628746703267e-06
-2.401097153779119253e-04
-5.731498240493237972e-04
-5.101572605781257153e-04
-2.464804856572300196e-04
2.321651118109002709e-04
2.458129019942134619e-04
1.690930221229791641e-04
-7.673002983210608363e-05
-4.132626927457749844e-04
2.711419947445392609e-04
2.862063993234187365e-04
-2.838583604898303747e-04
4.997674841433763504e-05
-1.769218652043491602e-04
-2.791148144751787186e-04
-1.790458045434206724e-04
3.214991302229464054e-04
1.325706834904849529e-04
5.169930955162271857e-05
-4.261783906258642673e-04
-3.771287538256729022e-06
-3.924281627405434847e-04
2.706630912143737078e-04
1.161985492217354476e-04
-2.039610553765669465e-04
1.907285331981256604e-04
4.119799123145639896e-04
2.953556540887802839e-04
1.757606514729559422e-04
-3.235680924262851477e-04
2.663214108906686306e-04
-2.526547541492618620e-05
2.726885140873491764e-04
4.125215928070247173e-04
-1.681057328823953867e-04
-2.273544669151306152e-04
8.606449409853667021e-05
-1.543163380119949579e-04
2.738478360697627068e-04
5.127422627992928028e-04
-2.583282475825399160e-04
1.095029147109016776e-04
-5.864475388079881668e-04
2.840746310539543629e-04
-2.901662955991923809e-04
-5.767250549979507923e-04
3.090354148298501968e-04
4.014009318780153990e-04
-2.758773916866630316e-04
3.811520000454038382e-04
3.374564694240689278e-04
1.764165208442136645e-04
-3.303106495877727866e-05
2.769127022475004196e-04
-2.461246040184050798e-04
-5.205512861721217632e-04
-3.255585615988820791e-04
-6.380013655871152878e-04
-5.737989340559579432e-05
2.633925469126552343e-04
4.343349246482830495e-06
1.226867607329040766e-04
1.180512772407382727e-04
5.959101326880045235e-05
3.131743869744241238e-05
3.101885085925459862e-04
8.071130287135019898e-05
1.784607738954946399e-04
1.213475406984798610e-04
-2.003163390327244997e-04
-1.223599974764510989e-04
-4.325408372096717358e-04
-1.862595527200028300e-04
-4.990152083337306976e-04
4.170126048848032951e-04
1.938463974511250854e-04
1.291000953642651439e-04
-2.084297302644699812e-04
-1.937918859766796231e-04
-5.160989821888506413e-04
-6.596977527806302533e-06
-7.589533925056457520e-05
2.878648519981652498e-04
-2.047992893494665623e-04
-2.597260172478854656e-04
4.186053120065480471e-04
2.018687519012019038e-04
-1.332201063632965088e-04
1.840534823713824153e-04
-1.071256847353652120e-04
1.885283854790031910e-04
3.737657389137893915e-04
-5.723255453631281853e-04
-6.775051588192582130e-04
-1.921670336741954088e-04
2.863035479094833136e-05
-4.102774546481668949e-04
-9.536602738080546260e-05
7.707832264713943005e-05
2.672186528798192739e-04
-7.023462967481464148e-05
-2.841696550603955984e-05
6.546700024046003819e-05
4.011584096588194370e-04
5.182069435250014067e-05
2.487614401616156101e-04
-2.589091018307954073e-04
3.691493766382336617e-04
-2.211714017903432250e-04
2.297866740263998508e-05
