-2.855570055544376373e-03
7.791864336468279362e-04
-6.594581063836812973e-04
-1.849455875344574451e-03
-2.087563276290893555e-03
-2.401809673756361008e-03
1.192743307910859585e-03
-1.698211301118135452e-03
3.528543747961521149e-03
3.615843306761234999e-04
-1.377782435156404972e-03
-1.868938561528921127e-03
3.091753926128149033e-03
-1.869302650447934866e-04
1.491541275754570961e-03
3.397032924112863839e-05
-9.242849191650748253e-04
-4.599762905854731798e-04
6.001475267112255096e-03
9.096407331526279449e-03
-3.777943784371018410e-04
-1.132155070081353188e-03
3.027881961315870285e-03
-3.969731333199888468e-04
-1.679744455032050610e-03
1.700624008662998676e-03
-1.034035813063383102e-03
1.095443032681941986e-03
-7.729064091108739376e-04
-2.889248775318264961e-03
1.349464873783290386e-03
4.466875398065894842e-04
-3.219466889277100563e-04
8.611240191385149956e-04
1.119105424731969833e-02
3.803292987868189812e-03
-1.194288954138755798e-03
1.429810305126011372e-03
2.452957211062312126e-03
1.292089279741048813e-02
-4.213051579426974058e-04
1.415392966009676456e-03
-2.203271258622407913e-03
7.794690318405628204e-03
-2.622414380311965942e-03
-6.846596370451152325e-04
4.164211859460920095e-04
1.033854018896818161e-02
3.646004945039749146e-03
4.682812839746475220e-03
-3.785193257499486208e-05
-7.384743366856127977e-05
1.357027911581099033e-03
-1.955803716555237770e-03
3.893563552992418408e-05
-1.801322796382009983e-03
-9.297612123191356659e-04
-2.086434542434290051e-04
-2.757174428552389145e-03
1.755311619490385056e-03
-1.498015808465424925e-05
-1.657415850786492229e-04
1.492976662120781839e-05
-3.835360286757349968e-03
-1.873607630841434002e-03
5.518695339560508728e-03
1.542680693091824651e-04
-4.230088088661432266e-04
-1.885258359834551811e-03
-8.888834272511303425e-04
6.633307784795761108e-03
-5.029169842600822449e-04
4.290894139558076859e-03
1.827387604862451553e-04
-4.559657536447048187e-04
-7.186485454440116882e-04
2.086717868223786354e-03
9.000087738968431950e-04
-1.526682288385927677e-03
-1.689355238340795040e-03
-3.779834369197487831e-03
-1.827031839638948441e-03
2.618148690089583397e-03
2.792370971292257309e-03
2.364085288718342781e-03
-1.356973807560279965e-04
-1.580746844410896301e-03
-3.373672021552920341e-03
-1.353490515612065792e-03
3.830450586974620819e-04
-2.767981030046939850e-03
-1.800074358470737934e-03
2.150987507775425911e-03
5.703893839381635189e-04
6.209190469235181808e-04
-2.716292801778763533e-04
9.599321056157350540e-04
-8.770049898885190487e-04
3.116262960247695446e-04
1.818621414713561535e-03
-4.915211466141045094e-04
6.726020015776157379e-03
2.748226746916770935e-03
-1.398574211634695530e-03
1.173319946974515915e-02
-2.018386730924248695e-03
-1.081964583136141300e-04
-8.840247755870223045e-04
-1.098153647035360336e-03
3.717722138389945030e-04
5.811081500723958015e-04
-2.562325098551809788e-04
-2.357586286962032318e-03
-1.482656924054026604e-03
1.499572303146123886e-02
-1.895631547085940838e-03
-1.215428579598665237e-03
7.728097261860966682e-05
2.626884961500763893e-03
-1.609862199984490871e-03
-1.072786166332662106e-03
2.944118110463023186e-03
7.284523453563451767e-04
-2.373978495597839355e-03
-9.007038315758109093e-04
-1.922180061228573322e-03
-1.051375991664826870e-03
-2.098847879096865654e-03
6.146848900243639946e-04
-5.959518603049218655e-04
-4.333491669967770576e-04
1.703509013168513775e-03
4.735403636004775763e-04
-2.333181677386164665e-03
-2.383530227234587073e-05
-2.023653360083699226e-04
3.640586975961923599e-03
-1.218164106830954552e-03
-8.963668951764702797e-04
5.559647455811500549e-03
5.715193110518157482e-04
1.671793870627880096e-03
-5.482398555614054203e-04
1.523321843706071377e-03
3.788814414292573929e-03
-1.171396230347454548e-03
-1.062042661942541599e-03
8.624254842288792133e-04
-1.221055514179170132e-03
6.533603300340473652e-04
-2.850321820005774498e-03
1.680030720308423042e-03
1.532593043521046638e-03
-2.961338323075324297e-04
-9.496982238488271832e-05
-3.339637769386172295e-03
-2.450678439345210791e-04
2.958510303869843483e-04
-6.014194805175065994e-04
-2.603791363071650267e-04
1.213936973363161087e-02
-7.869884138926863670e-04
-3.387782780919224024e-04
-3.729391319211572409e-04
1.142116263508796692e-03
-4.455818329006433487e-03
-6.839881825726479292e-05
-1.278596930205821991e-03
-1.808171044103801250e-03
2.213392639532685280e-03
-3.548201930243521929e-04
-3.164426889270544052e-04
-2.508968813344836235e-03
9.441074798814952374e-04
8.415548363700509071e-04
1.956592779606580734e-03
8.513660868629813194e-04
-3.998239408247172832e-04
-1.668098848313093185e-03
-1.557131909066811204e-04
-3.021086333319544792e-03
-1.681316294707357883e-03
-1.485364045947790146e-03
4.353638272732496262e-03
-1.725954120047390461e-03
-1.783643732778728008e-03
1.290386571781709790e-04
1.361533650197088718e-03
-2.470557810738682747e-03
-3.049754013773053885e-05
-5.486840382218360901e-04
-1.008719438686966896e-03
-2.292256103828549385e-04
6.883906899020075798e-04
2.120219403877854347e-03
-2.706735162064433098e-03
-8.912712219171226025e-04
-5.084172007627785206e-04
1.053601619787514210e-03
8.700546459294855595e-04
5.078641115687787533e-04
7.423727656714618206e-04
1.203558407723903656e-03
-3.144304268062114716e-03
-1.149773714132606983e-03
-5.883348640054464340e-04
-9.799852268770337105e-04
5.437271902337670326e-04
-2.069543814286589622e-03
-1.129484269767999649e-03
6.294362829066812992e-04
1.200921949930489063e-03
3.186785615980625153e-04
9.926299564540386200e-03
5.879649543203413486e-04
-1.385963289067149162e-03
-1.568812527693808079e-03
2.804899122565984726e-03
1.370864338241517544e-04
-1.603657845407724380e-03
1.753802294842898846e-03
3.915980632882565260e-04
3.766721580177545547e-03
-3.931694300263188779e-05
-3.770709037780761719e-03
-6.547427619807422161e-04
-5.645108758471906185e-04
-5.712260608561336994e-04
2.922462066635489464e-03
-5.009098676964640617e-04
-1.529613626189529896e-03
-3.528660628944635391e-03
-2.455776848364621401e-04
4.746024962514638901e-03
1.656835665926337242e-04
7.522958912886679173e-04
-2.001886256039142609e-03
4.820355752599425614e-05
4.436482558958232403e-04
1.652023289352655411e-03
-9.732129983603954315e-04
1.227266155183315277e-03
-2.023253589868545532e-03
-1.279899384826421738e-03
-6.203707889653742313e-04
-1.386861898936331272e-03
3.122085239738225937e-03
-1.427983166649937630e-03
8.281341288238763809e-04
-1.205093110911548138e-03
1.124445407185703516e-04
1.484910491853952408e-03
-2.180648734793066978e-03
-8.446850115433335304e-04
2.526164054870605469e-03
4.428989268490113318e-05
6.413822120521217585e-05
2.048395108431577682e-03
2.118851989507675171e-03
5.655076820403337479e-03
-1.229990506544709206e-03
1.512108428869396448e-04
2.052613301202654839e-03
-2.414883201709017158e-04
-2.096988493576645851e-03
-3.110341029241681099e-03
-2.185934921726584435e-03
6.517372094094753265e-04
-7.818947196938097477e-04
6.932983524166047573e-04
1.034802407957613468e-03
4.235425440128892660e-04
-9.153215796686708927e-04
1.808063942007720470e-03
5.268391105346381664e-04
-2.157888608053326607e-03
9.806594811379909515e-03
1.118091749958693981e-03
-1.263889367692172527e-03
1.785722124623134732e-04
1.039446797221899033e-03
-2.858506515622138977e-03
-1.540252007544040680e-03
-1.680358895100653172e-03
6.015849765390157700e-03
3.719445521710440516e-05
3.323448821902275085e-03
1.422080211341381073e-03
-2.686556945263873786e-05
-1.123806927353143692e-03
-6.835297099314630032e-04
2.961147984024137259e-04
-1.607532263733446598e-03
7.517521153204143047e-04
1.101119630038738251e-02
-1.289047417230904102e-03
-1.183787710033357143e-03
2.417628420516848564e-03
-1.035576453432440758e-03
2.957806282211095095e-05
-1.389896264299750328e-03
1.264640409499406815e-02
1.411601842846721411e-04
-5.741672939620912075e-04
1.307316357269883156e-03
-1.730730757117271423e-03
-1.552794594317674637e-03
-6.903757821419276297e-06
2.380046498728916049e-04
-2.992834430187940598e-03
9.592242422513663769e-04
2.261336776427924633e-04
9.617416071705520153e-04
1.350263599306344986e-02
4.253569059073925018e-04
1.612785621546208858e-03
-4.259446286596357822e-04
1.290178275667130947e-03
2.263261994812637568e-04
-2.235537860542535782e-03
-2.313899574801325798e-03
-1.887281076051294804e-03
3.299625124782323837e-03
-2.029957686318084598e-04
-2.424350241199135780e-03
-1.781544182449579239e-03
-1.704143127426505089e-03
-1.023572287522256374e-03
-7.335505215451121330e-04
-2.920115075539797544e-04
1.340549532324075699e-02
-2.201695227995514870e-03
-2.782345283776521683e-03
1.822314341552555561e-03
-1.270215492695569992e-03
-1.550292829051613808e-03
1.266058650799095631e-03
-1.581616932526230812e-03
-6.161153432913124561e-04
-2.268045791424810886e-04
1.308272010646760464e-03
-1.933092717081308365e-03
2.773212036117911339e-03
-1.900308852782472968e-04
-8.197430288419127464e-04
-1.687025418505072594e-03
2.497795969247817993e-03
-8.252505795098841190e-04
-9.027160704135894775e-04
1.801887992769479752e-03
-1.132221426814794540e-03
-2.563694957643747330e-03
-6.368373869918286800e-04
-9.450623183511197567e-04
8.552226063329726458e-05
2.455286448821425438e-03
1.333122025243937969e-03
5.626597441732883453e-03
1.673469436354935169e-03
-2.301949309185147285e-03
4.024360328912734985e-03
-2.562263747677206993e-03
1.208603847771883011e-03
1.595541602000594139e-03
-6.777061498723924160e-04
-1.652191858738660812e-03
-3.268397878855466843e-03
4.341693595051765442e-03
1.090600853785872459e-03
-1.985505223274230957e-03
2.360041835345327854e-04
1.170596922747790813e-03
-9.891847148537635803e-04
5.581931909546256065e-04
-2.997451461851596832e-03
5.790978902950882912e-04
2.313446719199419022e-03
-2.127498621121048927e-03
4.214310320094227791e-04
1.428989198757335544e-04
6.333910860121250153e-04
-1.470810384489595890e-03
8.506527170538902283e-03
-4.830661928281188011e-04
-1.505267719039693475e-04
2.924814180005341768e-05
-1.245773746632039547e-03
-2.349683782085776329e-03
1.364968484267592430e-03
-3.012350352946668863e-04
-2.441955963149666786e-03
-2.985720057040452957e-04
-6.884167669340968132e-04
2.039094455540180206e-03
-2.247058786451816559e-03
-9.158513275906443596e-04
1.010347530245780945e-02
1.492083247285336256e-04
-1.996704842895269394e-03
-6.874559330753982067e-04
