-1.401412067934870720e-03
1.136711100116372108e-03
-2.975071547552943230e-03
7.010117173194885254e-03
1.891402527689933777e-03
3.675342770293354988e-03
2.176261972635984421e-03
-3.782383631914854050e-03
2.320606261491775513e-03
8.507127873599529266e-03
-9.422680013813078403e-04
-8.300775079987943172e-04
-1.778124860720708966e-04
-6.012469530105590820e-04
-4.430131055414676666e-03
-5.605101119726896286e-03
-3.492563962936401367e-03
-9.515571291558444500e-04
-2.008666750043630600e-03
-1.420086773578077555e-04
-5.084640812128782272e-03
-1.505103427916765213e-03
2.747596707195043564e-03
-4.664856533054262400e-04
-2.753182314336299896e-03
3.559411503374576569e-03
8.190894499421119690e-03
-3.261607838794589043e-03
2.510221675038337708e-03
5.532298237085342407e-03
-4.607932176440954208e-03
2.104848390445113182e-03
-2.134743612259626389e-03
5.556216463446617126e-03
1.437134924344718456e-03
-1.434488338418304920e-03
1.927950768731534481e-03
-1.641761395148932934e-03
1.339055597782135010e-03
2.523398725315928459e-03
2.135088434442877769e-03
-1.037551439367234707e-03
3.430388635024428368e-03
-2.991996938362717628e-03
-7.747436175122857094e-04
6.128513719886541367e-03
-6.528641679324209690e-04
-1.044127042405307293e-03
2.774519845843315125e-03
-3.610542975366115570e-03
9.861831786110997200e-04
1.733919489197432995e-03
3.709642682224512100e-03
-2.995389746502041817e-03
2.200281945988535881e-03
-3.589552361518144608e-03
-6.321050692349672318e-03
3.842590609565377235e-03
-2.568033756688237190e-03
-1.866661710664629936e-03
2.268721116706728935e-03
-2.945051994174718857e-03
-5.014816764742136002e-03
-1.287382794544100761e-03
