-9.977975860238075256e-04
-1.341036520898342133e-03
-5.892909830436110497e-04
1.774938573362305760e-04
7.102803210727870464e-04
1.007580896839499474e-03
-1.994690392166376114e-03
-1.713702687993645668e-03
1.537409028969705105e-03
-2.130946813849732280e-04
-1.090212608687579632e-03
-7.041449425742030144e-04
5.399439833126962185e-04
-9.166576637653633952e-05
-1.634763204492628574e-03
-1.591580803506076336e-03
-2.894890727475285530e-03
-1.858280040323734283e-03
-3.643446136265993118e-03
7.546541164629161358e-04
-8.943364955484867096e-04
-2.369478112086653709e-03
1.598874223418533802e-03
1.024327939376235008e-03
-3.368983510881662369e-03
-5.414144252426922321e-04
-1.138145104050636292e-03
-8.065360598266124725e-04
-6.373948417603969574e-05
-3.981095796916633844e-04
3.736793005373328924e-04
1.250287517905235291e-03
-1.287024468183517456e-03
6.909000603627646342e-06
-1.457749167457222939e-03
-1.484584063291549683e-03
6.341193220578134060e-04
-3.685504198074340820e-03
-1.255431328900158405e-03
-1.452922122552990913e-03
6.399361882358789444e-04
1.020460738800466061e-03
-7.906102691777050495e-04
3.429019125178456306e-04
-2.853558544302359223e-05
-3.802972205448895693e-04
1.424317131750285625e-03
-5.406767595559358597e-04
4.156045906711369753e-04
-1.211625058203935623e-03
-4.998137592338025570e-04
1.309576793573796749e-03
-1.161159598268568516e-03
-5.975557141937315464e-04
-3.492005052976310253e-04
-1.349804457277059555e-03
2.821637317538261414e-03
-2.240531612187623978e-03
1.387252123095095158e-03
-1.835881848819553852e-03
2.580687760200817138e-05
-2.101757796481251717e-03
1.750967749103438109e-05
-7.074787863530218601e-04
1.219857134856283665e-03
1.853339257650077343e-03
-3.480162122286856174e-04
-1.745206303894519806e-03
-9.135249274550005794e-05
-2.748267725110054016e-03
-1.281498116441071033e-03
-1.582619268447160721e-03
5.697711458196863532e-05
-1.611877116374671459e-03
1.920700771734118462e-03
-1.147343078628182411e-03
-1.275139860808849335e-03
-1.965541858226060867e-03
-3.828832414001226425e-03
-1.288070692680776119e-03
4.517798370216041803e-04
4.190568288322538137e-04
-2.754496177658438683e-03
-1.227876404300332069e-03
-1.269735163077712059e-03
-1.209912123158574104e-03
6.881400477141141891e-04
-6.392183131538331509e-04
-3.395786276087164879e-03
1.566755352541804314e-03
2.649350790306925774e-04
-3.139951149933040142e-04
-1.269388245418667793e-03
-2.957691322080790997e-04
1.802475890144705772e-03
2.482662908732891083e-03
-5.914037465117871761e-04
6.018691696226596832e-03
4.116021154914051294e-04
4.114605544600635767e-04
