4.611077019944787025e-05
-2.010032039834186435e-05
-9.417315595783293247e-06
-3.407369877095334232e-05
3.067568468395620584e-05
3.542080958141013980e-05
2.290461088705342263e-05
4.981520396540872753e-05
3.254091279814019799e-05
6.211095023900270462e-05
5.203927867114543915e-05
5.362190222513163462e-06
3.922042742487974465e-05
3.830267451121471822e-05
4.523746974882669747e-05
6.111354741733521223e-05
3.457664206507615745e-05
9.827871508605312556e-06
-4.437675670487806201e-05
2.790891630866099149e-05
1.848682404670398682e-05
7.861892663640901446e-05
-1.012929897115100175e-05
3.367358658579178154e-05
-1.189088834507856518e-05
5.902934390178415924e-06
-7.376888333965325728e-06
1.484347740188241005e-05
1.120925662689842284e-05
2.964397026516962796e-06
-8.512153726769611239e-06
8.142883598338812590e-05
4.658799298340454698e-06
1.950851219589821994e-05
3.160562846460379660e-05
-3.228814421163406223e-06
-1.994366175495088100e-05
1.689134296611882746e-05
-7.026107596175279468e-06
-1.771148163243196905e-05
3.499325248412787914e-05
1.194605920318281278e-05
1.472964049753500149e-05
5.022688492317683995e-05
1.130040527641540393e-05
1.202455678139813244e-05
5.690305897587677464e-07
4.720383003586903214e-05
4.136254210607148707e-05
1.131675089709460735e-04
7.823143278073985130e-06
-2.051713090622797608e-05
7.809168891981244087e-05
-6.100644895923323929e-06
-2.420944838377181441e-06
9.728315490065142512e-05
7.363628537859767675e-05
-4.332133539719507098e-05
5.027820589020848274e-05
5.123591472511179745e-05
2.165888326999265701e-05
1.625399454496800900e-05
4.590321987052448094e-05
7.062430540827335790e-06
1.179336777568096295e-05
4.415324656292796135e-05
2.240354297100566328e-05
-1.180637627840042114e-05
3.836750238406239077e-06
4.324123074184171855e-05
4.446392631507478654e-05
1.415609949617646635e-05
4.695610914495773613e-05
2.565151953604072332e-05
4.609327879734337330e-05
2.094011870212852955e-05
9.527717338642105460e-06
3.642972296802327037e-05
1.381277343170950189e-06
1.667881770117674023e-05
5.752199740527430549e-06
5.777712794952094555e-05
-1.629679536563344300e-05
-5.743593646911904216e-06
1.262655041500693187e-05
-8.916472324926871806e-06
5.964744559605605900e-05
6.651353760389611125e-05
3.314692003186792135e-05
-4.268334123480599374e-06
3.225849286536686122e-05
4.218799585942178965e-05
1.885966412373818457e-05
-1.315116969635710120e-05
9.721366041048895568e-06
7.960114089655689895e-06
-8.723293831280898303e-06
1.697727202554233372e-05
2.100846722896676511e-05
5.782144216937012970e-05
2.649302041390910745e-05
9.679190043243579566e-06
5.376711487770080566e-05
9.446735202800482512e-05
8.415323100052773952e-05
6.459838186856359243e-05
4.788678415934555233e-05
1.823836828407365829e-05
-1.305230853176908568e-05
-4.533219907898455858e-06
6.083136031520552933e-05
3.911957173841074109e-05
4.184111458016559482e-05
-7.190546057245228440e-06
-5.106123353471048176e-05
-3.254137482144869864e-05
5.070661472927895375e-07
3.052249667234718800e-05
2.960319397971034050e-05
-5.138545020599849522e-06
-1.295673973800148815e-05
-2.384155777690466493e-05
1.282366974919568747e-05
3.019894575118087232e-05
-1.442165466869482771e-05
1.075301679520634934e-05
1.870456981123425066e-05
2.107438376697245985e-05
5.325537858880124986e-05
1.609678747627185658e-06
6.828332698205485940e-05
6.052002572687342763e-05
1.516455631644930691e-05
-1.187939687952166423e-06
9.092481923289597034e-05
6.719442353642079979e-06
3.453514364082366228e-05
7.441065918101230636e-06
3.246653795940801501e-05
6.262552778935059905e-05
3.493289841571822762e-05
-1.219654041051398963e-05
5.486735972226597369e-05
4.828609598916955292e-05
5.942218194832094014e-05
2.363440944463945925e-05
-2.255822801089379936e-05
9.699612746771890670e-06
3.553345231921412051e-05
-3.329849278088659048e-06
9.867085282166954130e-06
5.230329406913369894e-05
1.359868838335387409e-05
1.389521548844641075e-05
5.856152711203321815e-06
5.020115713705308735e-05
3.922890391550026834e-05
9.967366167984437197e-06
4.269617056706920266e-05
2.686698462639469653e-05
-3.303695848444476724e-05
6.229329301277175546e-05
2.458740709698759019e-05
1.996937680814880878e-05
2.218659574282355607e-06
-5.920091098232660443e-06
1.894539491331670433e-05
-1.721825174172408879e-05
1.718532257655169815e-05
-5.453769517771434039e-06
8.039951353566721082e-05
4.866471863351762295e-05
2.180378942284733057e-05
4.306130722397938371e-05
3.409239070606417954e-05
2.409144144621677697e-05
-3.857396677631186321e-07
2.107467662426643074e-05
3.826586907962337136e-05
2.633251642691902816e-05
5.823001265525817871e-05
7.253542207763530314e-06
2.323883200006093830e-05
-2.475208384566940367e-05
1.925158539961557835e-05
1.560606142447795719e-05
3.458334686001762748e-05
2.828667311405297369e-05
2.525413037801627070e-05
4.429977707332000136e-05
-9.070365194929763675e-06
-2.192658030253369361e-05
1.850955584359326167e-07
1.731965858198236674e-05
9.301093655267322902e-07
-2.510642161723808385e-06
2.623492218845058233e-05
1.629864709684625268e-05
5.023769972467562184e-06
-1.178539696411462501e-05
1.216764940181747079e-05
4.277723746781703085e-06
2.540491732361260802e-05
-2.110926470777485520e-05
4.043977605761028826e-05
1.277245337405474856e-05
1.519065790489548817e-05
3.967138763982802629e-05
-2.123000740539282560e-06
-5.122742004459723830e-05
2.282424429722595960e-05
-1.406986939400667325e-05
1.051003164320718497e-05
1.076375247066607699e-05
3.642829688033089042e-05
7.192633802333148196e-06
2.418236181256361306e-05
-2.849358133971691132e-05
3.741533146239817142e-05
-4.510251528699882329e-06
-4.415509829414077103e-05
4.819465902983210981e-05
8.267380326287820935e-05
3.639758870122022927e-05
6.803857104387134314e-05
