-5.484413122758269310e-06
-1.556173665449023247e-04
9.172592399409040809e-06
-5.401957241701893508e-05
1.314856581302592531e-05
-9.123920608544722199e-05
-6.199226390890544280e-06
7.159136293921619654e-05
-3.726741852005943656e-05
1.627327947062440217e-06
1.300340954912826419e-06
2.169905746995937079e-05
2.739131741691380739e-05
-3.553457281668670475e-05
1.964596049219835550e-05
-3.473438846413046122e-05
-6.720242527080699801e-05
5.758454426540993154e-05
3.165208181599155068e-05
-4.933013042318634689e-05
-5.788294947706162930e-05
-5.974212035653181374e-05
-3.862525773001834750e-05
3.213038780813803896e-06
-1.095883089874405414e-05
-2.327930415049195290e-04
4.630007970263250172e-05
6.109673904575174674e-07
-7.269720663316547871e-05
1.735662954160943627e-05
1.563657860970124602e-05
-3.922894757124595344e-05
1.885984784166794270e-05
-5.214963675825856626e-05
-3.070302773267030716e-05
-1.303068165725562721e-05
-5.502221756614744663e-05
1.524497838545357808e-05
-5.410308949649333954e-05
9.504736226517707109e-06
1.561239332659170032e-05
2.764582495728973299e-05
1.090949990611989051e-05
-6.306684372248128057e-05
-5.688480450771749020e-05
7.042315701255574822e-05
-7.945536708575673401e-06
-1.668568584136664867e-04
-2.054998913081362844e-05
-3.519132292240101378e-07
-1.317748392466455698e-04
4.836348125536460429e-06
-2.584623507573269308e-05
-9.583941573509946465e-05
1.727421249597682618e-06
1.418666215613484383e-05
-3.652473969850689173e-05
1.243554925167700276e-05
3.672680804811534472e-06
5.141896508575882763e-07
-5.211235475144349039e-05
-9.949977538781240582e-05
-4.177258597337640822e-05
-5.782790140074212104e-06
-8.972378054750151932e-06
-8.967129542725160718e-05
-7.959030335769057274e-05
-1.201241757371462882e-04
-6.433010184991871938e-06
-9.139739995589479804e-05
-1.111933452193625271e-04
-6.249301077332347631e-05
-2.752746695477981120e-06
-2.683906132006086409e-05
-1.854265974543523043e-05
7.664837903575971723e-05
1.782111758075188845e-05
-4.297029590816237032e-05
-1.360049791401252151e-04
1.331328530795872211e-05
-5.533701187232509255e-05
-8.226826139434706420e-06
5.219777085585519671e-05
-1.534887414891272783e-04
-7.056548201944679022e-05
-4.766509391629369929e-06
8.047772280406206846e-05
-2.723539000726304948e-05
3.065417331526987255e-05
-3.815522723016329110e-05
-5.447531657409854233e-05
-2.453426168358419091e-05
-5.533554576686583459e-05
-2.735328507696976885e-06
-1.016592341329669580e-05
-1.014213339658454061e-04
-7.985327101778239012e-05
-2.314625817234627903e-05
-5.659034286509267986e-05
-1.114771948778070509e-04
-2.113394293701276183e-05
-3.518141238600946963e-05
-6.927789218025282025e-05
-1.005658486974425614e-04
-1.512968992756213993e-05
-1.363438968837726861e-06
2.946950553450733423e-05
-2.651152863109018654e-05
9.696532652014866471e-05
3.775390041482751258e-06
1.040600109263323247e-04
1.241931113327154890e-05
-8.064552093856036663e-05
-1.681579124124255031e-05
1.725163929222617298e-05
-1.845236874942202121e-05
6.116950771684059873e-06
1.091466947400476784e-05
3.621391442720778286e-05
-2.241052789031527936e-05
-1.233583752764388919e-04
-1.272152439923956990e-05
3.465061672613956034e-05
-2.054338401649147272e-04
-1.068695710273459554e-04
-9.598286851542070508e-05
-6.961244071135297418e-05
-6.962702900636941195e-05
-3.151030250592157245e-05
-4.683603037847205997e-05
8.580597204854711890e-05
-2.595239720903919078e-07
-1.560859382152557373e-04
-8.067284215940162539e-05
-1.174372009700164199e-04
-5.331746706360718235e-06
5.823037281516008079e-05
-2.046009030891582370e-04
2.633795156725682318e-05
4.239065310684964061e-05
2.292695171490777284e-05
-9.621355275157839060e-06
-6.572570327989524230e-06
-1.250594777957303450e-05
-6.088650115998461843e-05
-1.241549125552410260e-05
5.808612695545889437e-05
-2.035482611972838640e-05
-8.000107482075691223e-05
2.753255103016272187e-05
5.865361526957713068e-05
-6.212321750354021788e-05
1.584590245329309255e-05
-2.444653728161938488e-05
-2.706242412386927754e-05
-6.522892363136634231e-05
7.202461802080506459e-06
1.558868098072707653e-05
-6.083791959099471569e-05
-1.493706658948212862e-04
4.150440872763283551e-05
-2.451509317324962467e-05
-7.504157110815867782e-06
-1.183333733933977783e-05
-1.728644292597891763e-06
-2.523853072489146143e-05
-1.089294237317517400e-04
-5.587355190073139966e-05
-8.664421329740434885e-05
9.770090400706976652e-05
-5.196714027988491580e-07
-9.209605923388153315e-05
9.832458454184234142e-05
1.522626644145930186e-05
-4.509773134486749768e-05
-3.828954140772111714e-05
-3.721297980519011617e-05
-4.037477265228517354e-05
3.045776975341141224e-05
3.372740684426389635e-05
1.840583172452170402e-05
-6.874478276586160064e-05
-1.031275132845621556e-05
-1.362915791105479002e-04
-2.389648443568148650e-06
3.663280222099274397e-05
-3.406134965189266950e-06
-6.528942321892827749e-06
-9.478357242187485099e-06
3.412299702176824212e-05
-1.032001673593185842e-04
-6.324003334157168865e-05
-7.589856977574527264e-05
6.895154911035206169e-06
-3.952019324060529470e-05
-5.366981713450513780e-05
-6.640876381425186992e-05
-4.070081195095553994e-05
-9.878285709419287741e-06
-8.593960956204682589e-05
-5.469208917929790914e-05
-3.424635724513791502e-05
-6.648030830547213554e-05
-1.835598959587514400e-05
2.301217318745329976e-05
-6.174219743115827441e-05
3.515974867696058936e-06
-8.790051651885733008e-05
-5.305486411089077592e-06
5.313248038874007761e-05
1.076308217307087034e-05
-9.768228665052447468e-06
-1.328027283307164907e-04
-4.629588875104673207e-05
-7.694135092606302351e-06
-7.288771939784055576e-06
1.142064502346329391e-05
-9.250068978872150183e-05
-1.103087106457678601e-05
-1.158691593445837498e-04
-1.298379174841102213e-05
-6.810713239246979356e-05
-1.321435433965234552e-06
1.029310078592970967e-05
-4.142038596910424531e-05
