-1.792017072439193726e-01
-1.650315523147583008e-01
-1.848956346511840820e-01
-1.437726020812988281e-01
-1.485838443040847778e-01
-1.266367137432098389e-01
-9.256942570209503174e-02
-5.974883586168289185e-02
-5.778140947222709656e-02
-8.165709674358367920e-02
-8.127538114786148071e-02
-1.644192337989807129e-01
-1.171158403158187866e-01
-1.426305770874023438e-01
-1.266658157110214233e-01
-1.749560534954071045e-01
-2.318342328071594238e-01
-2.258985936641693115e-01
-2.337720394134521484e-01
-2.617036998271942139e-01
-2.765918970108032227e-01
-3.027182817459106445e-01
-3.062041103839874268e-01
-3.076834380626678467e-01
-2.760857045650482178e-01
-2.632344365119934082e-01
-2.272299230098724365e-01
-2.282056957483291626e-01
-2.279665321111679077e-01
-2.452155649662017822e-01
-2.265909910202026367e-01
-2.178945690393447876e-01
-2.336767166852951050e-01
-2.294603735208511353e-01
-2.212227582931518555e-01
-2.203126400709152222e-01
-2.190981954336166382e-01
-2.205330133438110352e-01
-3.251143991947174072e-01
-3.346233069896697998e-01
-3.508529365062713623e-01
-3.525547385215759277e-01
-3.103066086769104004e-01
-2.829410433769226074e-01
-2.889524996280670166e-01
-2.884635329246520996e-01
-2.644172906875610352e-01
-2.460896074771881104e-01
-2.396405488252639771e-01
-2.439295053482055664e-01
-2.522504031658172607e-01
-2.568660676479339600e-01
-2.774026691913604736e-01
-2.869926691055297852e-01
-3.017855584621429443e-01
-2.956301867961883545e-01
-3.011597692966461182e-01
-3.005875647068023682e-01
-3.132128119468688965e-01
-3.126676976680755615e-01
-3.151010572910308838e-01
-3.112516999244689941e-01
-3.040523827075958252e-01
-2.949393093585968018e-01
-1.225003749132156372e-01
-9.976355731487274170e-02
-9.663301706314086914e-02
-8.887600898742675781e-02
-5.722283571958541870e-02
-6.037516146898269653e-02
-2.855671755969524384e-02
7.509166025556623936e-04
-8.561898721382021904e-05
-2.344509214162826538e-02
-3.390121087431907654e-02
-8.235954493284225464e-02
-5.783474445343017578e-02
-7.517718523740768433e-02
-1.333931535482406616e-01
-1.476487219333648682e-01
-1.982374936342239380e-01
-2.108356356620788574e-01
-2.352101951837539673e-01
-2.587344348430633545e-01
-2.836766541004180908e-01
-2.951224446296691895e-01
-2.901869118213653564e-01
-2.819940149784088135e-01
-2.856957614421844482e-01
-2.844795882701873779e-01
-2.179376631975173950e-01
-2.403658181428909302e-01
-2.440338730812072754e-01
-2.451317906379699707e-01
-2.461633682250976562e-01
-2.315718233585357666e-01
-2.172355949878692627e-01
-2.150621116161346436e-01
-2.170253694057464600e-01
-2.251138240098953247e-01
-2.352041751146316528e-01
-1.998256891965866089e-01
-3.200143575668334961e-01
-3.059259057044982910e-01
-2.886231839656829834e-01
-2.934477031230926514e-01
-2.781628966331481934e-01
-2.514358758926391602e-01
-2.430399656295776367e-01
-2.575303316116333008e-01
-2.489394396543502808e-01
-2.380206882953643799e-01
-2.270049303770065308e-01
-2.187294065952301025e-01
-2.168985903263092041e-01
-2.185940593481063843e-01
-2.478607147932052612e-01
-2.514782547950744629e-01
-2.668874859809875488e-01
-2.881312072277069092e-01
-2.694506943225860596e-01
-2.818411588668823242e-01
-3.005346059799194336e-01
-3.149040639400482178e-01
-3.141207695007324219e-01
-3.115556240081787109e-01
-3.008057773113250732e-01
-2.947067618370056152e-01
-8.777690678834915161e-02
-6.165708601474761963e-02
-3.052480705082416534e-02
-3.196373954415321350e-02
1.809357549063861370e-03
3.799839410930871964e-03
4.540038853883743286e-02
8.109802007675170898e-02
7.210920006036758423e-02
4.108811542391777039e-02
3.508805297315120697e-03
-2.975920215249061584e-02
-2.381786145269870758e-02
-3.715208172798156738e-02
-8.098322898149490356e-02
-1.121679246425628662e-01
-1.563982516527175903e-01
-1.742597818374633789e-01
-1.808841079473495483e-01
-2.169865220785140991e-01
-2.371772229671478271e-01
-2.548660039901733398e-01
-2.639082670211791992e-01
-2.776144146919250488e-01
-2.808160185813903809e-01
-2.715693712234497070e-01
-2.013343423604965210e-01
-2.496696263551712036e-01
-2.558442950248718262e-01
-2.619302570819854736e-01
-2.544891536235809326e-01
-2.300631999969482422e-01
-2.235984504222869873e-01
-2.134620845317840576e-01
-1.972062438726425171e-01
-1.918772310018539429e-01
-1.965241730213165283e-01
-1.787862926721572876e-01
-2.657806277275085449e-01
-2.367758005857467651e-01
-2.426689714193344116e-01
-2.401957213878631592e-01
-2.587373256683349609e-01
-2.488107532262802124e-01
-2.507886886596679688e-01
-2.669522762298583984e-01
-2.633211910724639893e-01
-2.456576079130172729e-01
-2.311052083969116211e-01
-2.283008098602294922e-01
-2.221280187368392944e-01
-2.264562100172042847e-01
-2.634524106979370117e-01
-2.445905953645706177e-01
-2.382100522518157959e-01
-2.493691742420196533e-01
-2.470194548368453979e-01
-2.611814439296722412e-01
-2.602292597293853760e-01
-2.823820710182189941e-01
-3.146049678325653076e-01
-3.084315061569213867e-01
-2.988782227039337158e-01
-2.955409288406372070e-01
-1.230856403708457947e-01
-7.144541293382644653e-02
-4.248762130737304688e-02
-3.340918628964573145e-04
3.397540375590324402e-02
6.847614049911499023e-02
1.196296736598014832e-01
1.574184596538543701e-01
1.531462073326110840e-01
9.781385213136672974e-02
4.605387151241302490e-02
-1.469056401401758194e-02
-9.399805217981338501e-03
-1.540761534124612808e-02
-3.383479267358779907e-02
-4.603880271315574646e-02
-8.648835867643356323e-02
-1.318230479955673218e-01
-1.358282119035720825e-01
-1.813008338212966919e-01
-2.009058594703674316e-01
-2.361841797828674316e-01
-2.342931330204010010e-01
-2.519201934337615967e-01
-2.620680928230285645e-01
-2.627308964729309082e-01
-2.119343131780624390e-01
-2.436399310827255249e-01
-2.546151876449584961e-01
-2.695097029209136963e-01
-2.656243443489074707e-01
-2.621778249740600586e-01
-2.391273826360702515e-01
-2.212976217269897461e-01
-1.962720900774002075e-01
-1.736091673374176025e-01
-1.605855226516723633e-01
-1.500396132469177246e-01
-2.225937843322753906e-01
-2.304439693689346313e-01
-2.411724478006362915e-01
-2.506708800792694092e-01
-2.541113793849945068e-01
-2.571108043193817139e-01
-2.757402658462524414e-01
-2.577119171619415283e-01
-2.630064189434051514e-01
-2.520079910755157471e-01
-2.549110352993011475e-01
-2.279426753520965576e-01
-2.146162837743759155e-01
-2.160210311412811279e-01
-2.596197426319122314e-01
-2.371743917465209961e-01
-2.287594825029373169e-01
-2.392770797014236450e-01
-2.331493496894836426e-01
-2.310359328985214233e-01
-2.278353422880172729e-01
-2.516503632068634033e-01
-2.652059793472290039e-01
-2.932862043380737305e-01
-2.919709384441375732e-01
-3.088042736053466797e-01
-1.697472482919692993e-01
-4.847574234008789062e-02
-7.103039883077144623e-03
1.786130294203758240e-02
6.172680109739303589e-02
1.046401485800743103e-01
1.448569297790527344e-01
2.032690197229385376e-01
2.040695250034332275e-01
1.721626818180084229e-01
1.131166815757751465e-01
7.437063008546829224e-02
6.610637903213500977e-02
3.655006363987922668e-02
1.555808726698160172e-02
-1.470417249947786331e-03
-4.060780256986618042e-02
-6.079518795013427734e-02
-1.160076484084129333e-01
-1.343633532524108887e-01
-1.823489516973495483e-01
-1.934425085783004761e-01
-1.925224065780639648e-01
-2.146469801664352417e-01
-2.554554343223571777e-01
-2.703183591365814209e-01
-1.795512139797210693e-01
-2.545135617256164551e-01
-2.573895752429962158e-01
-2.566353082656860352e-01
-2.730477750301361084e-01
-2.609601914882659912e-01
-2.312342375516891479e-01
-2.210558652877807617e-01
-2.124158889055252075e-01
-1.805607229471206665e-01
-1.557059735059738159e-01
-1.559284180402755737e-01
-2.237886190414428711e-01
-2.280748784542083740e-01
-2.457199990749359131e-01
-2.542912065982818604e-01
-2.452585399150848389e-01
-2.615623176097869873e-01
-2.635487020015716553e-01
-2.609852850437164307e-01
-2.672127783298492432e-01
-2.721596956253051758e-01
-2.697816193103790283e-01
-2.586027383804321289e-01
-2.342441082000732422e-01
-2.114135771989822388e-01
-2.549869120121002197e-01
-2.271002829074859619e-01
-2.036273479461669922e-01
-2.222615778446197510e-01
-2.256443649530410767e-01
-2.259171009063720703e-01
-2.250915467739105225e-01
-2.240031510591506958e-01
-2.270427644252777100e-01
-2.594140768051147461e-01
-2.879372239112854004e-01
-2.880297601222991943e-01
-1.532157361507415771e-01
-3.756188601255416870e-02
2.071753703057765961e-02
2.858175896108150482e-02
7.613519579172134399e-02
1.340981423854827881e-01
1.607114672660827637e-01
2.140383571386337280e-01
2.368665188550949097e-01
2.280199676752090454e-01
1.856711804866790771e-01
1.420963406562805176e-01
1.233610510826110840e-01
7.005430012941360474e-02
5.830601230263710022e-02
3.988973423838615417e-02
4.436454270035028458e-03
-3.207349032163619995e-02
-4.961026832461357117e-02
-1.045320630073547363e-01
-1.388318091630935669e-01
-1.574836224317550659e-01
-1.745045185089111328e-01
-1.853818595409393311e-01
-2.168078571557998657e-01
-2.146999090909957886e-01
-1.610732376575469971e-01
-2.200031131505966187e-01
-2.485148310661315918e-01
-2.584201395511627197e-01
-2.735684812068939209e-01
-2.520858347415924072e-01
-2.331676036119461060e-01
-2.297270447015762329e-01
-2.185956239700317383e-01
-1.992548555135726929e-01
-1.592595279216766357e-01
-1.591119319200515747e-01
-2.409726679325103760e-01
-2.396878302097320557e-01
-2.375902533531188965e-01
-2.492226511240005493e-01
-2.537306547164916992e-01
-2.548317313194274902e-01
-2.685602307319641113e-01
-2.657471597194671631e-01
-2.760927975177764893e-01
-2.950519323348999023e-01
-2.692121565341949463e-01
-2.577249407768249512e-01
-2.437972426414489746e-01
-2.364065051078796387e-01
-2.607563138008117676e-01
-2.156928181648254395e-01
-2.220278382301330566e-01
-2.149311602115631104e-01
-2.156390994787216187e-01
-2.156857252120971680e-01
-2.190045416355133057e-01
-2.167630493640899658e-01
-2.239022254943847656e-01
-2.115380316972732544e-01
-2.705000042915344238e-01
-2.833061814308166504e-01
-1.520408987998962402e-01
-4.131414741277694702e-02
5.175743624567985535e-02
7.240906357765197754e-02
1.077604517340660095e-01
1.486830860376358032e-01
2.031716108322143555e-01
2.426425367593765259e-01
2.721744775772094727e-01
2.417428195476531982e-01
2.295530885457992554e-01
1.808084845542907715e-01
1.881755143404006958e-01
1.245290264487266541e-01
9.716573357582092285e-02
6.783787161111831665e-02
2.723152190446853638e-02
-3.668221470434218645e-04
-2.805150486528873444e-02
-5.970781296491622925e-02
-1.092525199055671692e-01
-1.354683041572570801e-01
-1.238521188497543335e-01
-1.787133514881134033e-01
-1.832467466592788696e-01
-1.931825876235961914e-01
-1.364960968494415283e-01
-1.768685877323150635e-01
-2.152839452028274536e-01
-2.406226545572280884e-01
-2.495382279157638550e-01
-2.442869096994400024e-01
-2.355217784643173218e-01
-2.266972512006759644e-01
-2.382882237434387207e-01
-2.128548175096511841e-01
-2.035875469446182251e-01
-1.662002205848693848e-01
-2.618312239646911621e-01
-2.473149895668029785e-01
-2.455495744943618774e-01
-2.498504966497421265e-01
-2.525341510772705078e-01
-2.532632648944854736e-01
-2.529603838920593262e-01
-2.799302041530609131e-01
-2.662065923213958740e-01
-2.670418024063110352e-01
-2.729190289974212646e-01
-2.541252076625823975e-01
-2.479984015226364136e-01
-2.472094893455505371e-01
-2.689477503299713135e-01
-2.356885522603988647e-01
-2.324873059988021851e-01
-2.199320495128631592e-01
-2.246717959642410278e-01
-2.029888182878494263e-01
-2.120084166526794434e-01
-1.971863359212875366e-01
-2.008363753557205200e-01
-1.957226991653442383e-01
-1.952744871377944946e-01
-2.622940540313720703e-01
-1.707666665315628052e-01
-3.336064890027046204e-02
3.232396766543388367e-02
6.670302897691726685e-02
1.357026994228363037e-01
1.802814304828643799e-01
2.318087071180343628e-01
2.760322988033294678e-01
2.767476439476013184e-01
2.844261229038238525e-01
2.489248663187026978e-01
2.076190114021301270e-01
2.117381542921066284e-01
1.827985793352127075e-01
1.534048765897750854e-01
1.417666077613830566e-01
7.411712408065795898e-02
2.762860618531703949e-02
-8.445852436125278473e-03
-2.820636145770549774e-02
-6.308127194643020630e-02
-9.721506386995315552e-02
-1.110213398933410645e-01
-1.523684114217758179e-01
-1.608981788158416748e-01
-1.668026000261306763e-01
-1.100553795695304871e-01
-1.518713980913162231e-01
-1.958090513944625854e-01
-2.271575480699539185e-01
-2.198113501071929932e-01
-2.182987034320831299e-01
-2.129196822643280029e-01
-2.224067598581314087e-01
-2.301615923643112183e-01
-2.240650206804275513e-01
-2.229197621345520020e-01
-1.801425218582153320e-01
-2.617440521717071533e-01
-2.640787661075592041e-01
-2.673804461956024170e-01
-2.776352763175964355e-01
-2.609566152095794678e-01
-2.581693232059478760e-01
-2.660434544086456299e-01
-2.568589150905609131e-01
-2.599231600761413574e-01
-2.630016505718231201e-01
-2.490438967943191528e-01
-2.441952675580978394e-01
-2.500871419906616211e-01
-2.302918583154678345e-01
-2.594586610794067383e-01
-2.394931614398956299e-01
-2.283795475959777832e-01
-2.068593949079513550e-01
-2.107971906661987305e-01
-1.871476173400878906e-01
-1.808770745992660522e-01
-1.801579445600509644e-01
-1.903233528137207031e-01
-1.852848529815673828e-01
-1.617454439401626587e-01
-2.166268080472946167e-01
-1.475503444671630859e-01
-3.504725918173789978e-02
2.605330571532249451e-02
9.203857928514480591e-02
1.749284416437149048e-01
1.997564285993576050e-01
2.400363087654113770e-01
2.676732838153839111e-01
2.756653726100921631e-01
2.823343873023986816e-01
2.749831080436706543e-01
2.335767745971679688e-01
2.329300045967102051e-01
2.143279463052749634e-01
1.983400732278823853e-01
1.656391322612762451e-01
1.032644659280776978e-01
6.215588375926017761e-02
4.418518394231796265e-02
1.480152364820241928e-03
-4.770170524716377258e-02
-5.067154392600059509e-02
-1.008294671773910522e-01
-1.303364932537078857e-01
-1.627505272626876831e-01
-1.614934355020523071e-01
-1.002566143870353699e-01
-1.576914787292480469e-01
-1.669359058141708374e-01
-2.105870693922042847e-01
-2.258787304162979126e-01
-2.180854231119155884e-01
-1.950379312038421631e-01
-2.081243991851806641e-01
-2.219027876853942871e-01
-2.032571434974670410e-01
-2.049862146377563477e-01
-1.798938959836959839e-01
-2.555566728115081787e-01
-2.605139017105102539e-01
-2.680943012237548828e-01
-2.780627608299255371e-01
-2.686076760292053223e-01
-2.713862359523773193e-01
-2.719869613647460938e-01
-2.594034671783447266e-01
-2.316413819789886475e-01
-2.389492988586425781e-01
-2.349960803985595703e-01
-2.208488583564758301e-01
-2.097338587045669556e-01
-2.042613625526428223e-01
-2.427790910005569458e-01
-2.171145826578140259e-01
-2.121043950319290161e-01
-1.919313073158264160e-01
-1.825444251298904419e-01
-1.757468879222869873e-01
-1.690670698881149292e-01
-1.686830818653106689e-01
-1.815610826015472412e-01
-1.785786300897598267e-01
-1.727448552846908569e-01
-1.939057260751724243e-01
-1.280457526445388794e-01
-2.276158705353736877e-02
3.306576982140541077e-02
1.001749336719512939e-01
1.803165674209594727e-01
2.200621068477630615e-01
2.555305361747741699e-01
2.597518563270568848e-01
2.683879435062408447e-01
2.845730483531951904e-01
2.634218037128448486e-01
2.506269216537475586e-01
2.550555467605590820e-01
2.259291112422943115e-01
1.969212144613265991e-01
1.614576280117034912e-01
1.006322130560874939e-01
8.184649795293807983e-02
5.296220630407333374e-02
4.892285540699958801e-02
-1.371494121849536896e-02
-5.201769527047872543e-03
-4.816139489412307739e-02
-1.124724894762039185e-01
-1.261940747499465942e-01
-1.410606652498245239e-01
-9.958186000585556030e-02
-1.334682255983352661e-01
-1.700880527496337891e-01
-2.033144682645797729e-01
-2.248904109001159668e-01
-2.259189486503601074e-01
-2.050240635871887207e-01
-2.059473395347595215e-01
-2.048154920339584351e-01
-1.950417459011077881e-01
-1.996187269687652588e-01
-1.642950326204299927e-01
-2.380106002092361450e-01
-2.569594979286193848e-01
-2.592952549457550049e-01
-2.833519876003265381e-01
-2.627206146717071533e-01
-2.567942440509796143e-01
-2.698401212692260742e-01
-2.669367194175720215e-01
-2.431089878082275391e-01
-2.482991814613342285e-01
-2.681051492691040039e-01
-2.331093847751617432e-01
-2.293826043605804443e-01
-2.119648307561874390e-01
-2.315959036350250244e-01
-2.153427004814147949e-01
-1.828009188175201416e-01
-1.793264746665954590e-01
-1.719219088554382324e-01
-1.629861593246459961e-01
-1.675509065389633179e-01
-1.672060489654541016e-01
-1.675956547260284424e-01
-1.774695068597793579e-01
-1.715207099914550781e-01
-1.812488734722137451e-01
-1.242314800620079041e-01
-2.057838067412376404e-02
4.772949963808059692e-02
1.380857676267623901e-01
1.894301325082778931e-01
2.188010364770889282e-01
2.633085250854492188e-01
2.696101367473602295e-01
2.853918373584747314e-01
2.701829671859741211e-01
2.457975000143051147e-01
2.398630380630493164e-01
2.423836439847946167e-01
2.088584601879119873e-01
1.919959485530853271e-01
1.519407182931900024e-01
1.182557865977287292e-01
9.599760919809341431e-02
6.127164885401725769e-02
1.573456265032291412e-02
2.764537930488586426e-02
7.663358468562364578e-03
-3.093520738184452057e-02
-8.311022818088531494e-02
-1.013316363096237183e-01
-1.176762059330940247e-01
-8.097297698259353638e-02
-1.159942895174026489e-01
-1.615010350942611694e-01
-1.831941753625869751e-01
-2.005228102207183838e-01
-1.898160725831985474e-01
-2.050037682056427002e-01
-1.972093135118484497e-01
-1.786506026983261108e-01
-1.639654934406280518e-01
-1.351895630359649658e-01
-1.485829055309295654e-01
-2.193827778100967407e-01
-2.345578819513320923e-01
-2.608262300491333008e-01
-2.674623131752014160e-01
-2.480139434337615967e-01
-2.393947392702102661e-01
-2.560987174510955811e-01
-2.426571100950241089e-01
-2.224921733140945435e-01
-2.255229204893112183e-01
-2.422091811895370483e-01
-2.275207638740539551e-01
-2.349948734045028687e-01
-2.079640477895736694e-01
-2.394349575042724609e-01
-2.033835947513580322e-01
-1.682050377130508423e-01
-1.572292745113372803e-01
-1.621749848127365112e-01
-1.816717535257339478e-01
-1.679863780736923218e-01
-1.653628647327423096e-01
-1.714150756597518921e-01
-1.656701564788818359e-01
-1.788386404514312744e-01
-1.691820770502090454e-01
-1.566541045904159546e-01
-4.997749626636505127e-02
3.610810637474060059e-02
1.464018523693084717e-01
1.958540976047515869e-01
2.147309333086013794e-01
2.616651058197021484e-01
2.702066600322723389e-01
2.636992931365966797e-01
2.509059011936187744e-01
2.261869013309478760e-01
2.224478572607040405e-01
2.431239485740661621e-01
2.067472785711288452e-01
2.019610553979873657e-01
1.665388047695159912e-01
1.302788853645324707e-01
9.470966458320617676e-02
4.741808399558067322e-02
1.846844330430030823e-02
1.836219686083495617e-03
-9.763465262949466705e-03
-3.353814408183097839e-02
-3.388771414756774902e-02
-6.595531851053237915e-02
-9.056493639945983887e-02
-5.929509177803993225e-02
-9.706727415323257446e-02
-1.332598626613616943e-01
-1.662989258766174316e-01
-1.797066926956176758e-01
-1.924658864736557007e-01
-1.781912893056869507e-01
-1.733320206403732300e-01
-1.369707435369491577e-01
-1.397269666194915771e-01
-1.294243633747100830e-01
-1.404071003198623657e-01
-2.271202802658081055e-01
-2.365976125001907349e-01
-2.595284879207611084e-01
-2.491346448659896851e-01
-2.402577996253967285e-01
-2.199096232652664185e-01
-2.042893618345260620e-01
-2.102859765291213989e-01
-1.877562105655670166e-01
-1.913596838712692261e-01
-2.098981887102127075e-01
-2.309965640306472778e-01
-2.088092267513275146e-01
-2.171370834112167358e-01
-2.326593250036239624e-01
-2.059661597013473511e-01
-1.935977041721343994e-01
-1.500746160745620728e-01
-1.300088018178939819e-01
-1.411272138357162476e-01
-1.555856019258499146e-01
-1.563857942819595337e-01
-1.823371350765228271e-01
-1.623842865228652954e-01
-1.819104254245758057e-01
-1.657827645540237427e-01
-1.740853637456893921e-01
-4.845094680786132812e-02
3.477497398853302002e-02
1.338075101375579834e-01
1.849366724491119385e-01
2.063605040311813354e-01
2.467358559370040894e-01
2.400573641061782837e-01
2.340685278177261353e-01
2.147076278924942017e-01
2.244487106800079346e-01
2.211370617151260376e-01
2.569212615489959717e-01
2.287922352552413940e-01
2.281041592359542847e-01
2.009482532739639282e-01
1.592342704534530640e-01
1.455179601907730103e-01
8.268911391496658325e-02
4.872366040945053101e-02
2.041319943964481354e-02
5.099329631775617599e-03
-7.690742495469748974e-04
1.930568600073456764e-03
-2.825484052300453186e-02
-7.144878059625625610e-02
-2.366021089255809784e-02
-7.333243638277053833e-02
-7.682701945304870605e-02
-8.085692673921585083e-02
-1.230644136667251587e-01
-1.162828803062438965e-01
-1.412880420684814453e-01
-1.359539330005645752e-01
-1.103611886501312256e-01
-1.101319789886474609e-01
-1.025283262133598328e-01
-9.383744001388549805e-02
-1.927458345890045166e-01
-2.014002054929733276e-01
-2.246863692998886108e-01
-2.103078961372375488e-01
-1.924413740634918213e-01
-1.697558611631393433e-01
-1.409846991300582886e-01
-1.314637064933776855e-01
-1.220191344618797302e-01
-1.172417849302291870e-01
-1.635381877422332764e-01
-1.739898473024368286e-01
-1.765147745609283447e-01
-1.603838950395584106e-01
-1.902762800455093384e-01
-1.739803254604339600e-01
-1.642996817827224731e-01
-1.452838629484176636e-01
-1.268373578786849976e-01
-1.347517669200897217e-01
-1.508370786905288696e-01
-1.598745584487915039e-01
-1.635512113571166992e-01
-1.610812246799468994e-01
-1.613905876874923706e-01
-1.488340646028518677e-01
-1.523626893758773804e-01
-2.836032025516033173e-02
8.677409589290618896e-02
1.709669679403305054e-01
1.894044578075408936e-01
2.165006846189498901e-01
2.327782362699508667e-01
2.233578562736511230e-01
2.005719691514968872e-01
1.903889030218124390e-01
1.974773406982421875e-01
1.853109747171401978e-01
2.159743309020996094e-01
2.236331552267074585e-01
2.377498000860214233e-01
1.794432550668716431e-01
1.530323326587677002e-01
1.439169347286224365e-01
7.917518168687820435e-02
6.952236592769622803e-02
2.433362230658531189e-02
3.106752969324588776e-02
2.239525876939296722e-02
5.026835016906261444e-03
-1.913955621421337128e-02
-6.368230283260345459e-02
-1.406227424740791321e-02
-5.953224375844001770e-02
-5.250650271773338318e-02
-6.570354104042053223e-02
-7.036933302879333496e-02
-1.137435361742973328e-01
-1.410294473171234131e-01
-1.334459930658340454e-01
-1.226088330149650574e-01
-9.024487435817718506e-02
-7.813033461570739746e-02
-6.541734933853149414e-02
-1.492112427949905396e-01
-1.691244244575500488e-01
-1.913415789604187012e-01
-1.799827814102172852e-01
-1.773711740970611572e-01
-1.487160325050354004e-01
-9.466487914323806763e-02
-9.023167192935943604e-02
-7.962290942668914795e-02
-7.889622449874877930e-02
-1.010018661618232727e-01
-1.044045388698577881e-01
-1.254115551710128784e-01
-1.319860816001892090e-01
-1.750063449144363403e-01
-1.666626781225204468e-01
-1.423369199037551880e-01
-1.058823242783546448e-01
-1.141963079571723938e-01
-9.867484122514724731e-02
-1.243478134274482727e-01
-1.404759287834167480e-01
-1.558843106031417847e-01
-1.425636559724807739e-01
-1.389795392751693726e-01
-1.451352238655090332e-01
-1.101897507905960083e-01
6.422893144190311432e-03
1.274882107973098755e-01
2.173893600702285767e-01
2.148071676492691040e-01
2.104547470808029175e-01
2.176724076271057129e-01
2.156711816787719727e-01
1.746204346418380737e-01
1.592265218496322632e-01
1.422912329435348511e-01
1.638406962156295776e-01
1.785598844289779663e-01
2.121399343013763428e-01
2.288299351930618286e-01
2.119291424751281738e-01
1.615040600299835205e-01
1.343582123517990112e-01
8.951786160469055176e-02
7.360261678695678711e-02
5.374279990792274475e-02
4.006035625934600830e-02
5.937602370977401733e-02
5.301335081458091736e-02
1.621950604021549225e-02
-6.454194337129592896e-02
-4.471712745726108551e-04
-1.320219784975051880e-02
-1.999336481094360352e-02
-3.904964774847030640e-02
-3.551879897713661194e-02
-6.554166227579116821e-02
-9.581407159566879272e-02
-1.088388338685035706e-01
-6.347969919443130493e-02
-5.915188789367675781e-02
-3.406580165028572083e-02
-3.431314975023269653e-02
-1.133522912859916687e-01
-1.471640169620513916e-01
-1.549434959888458252e-01
-1.558877527713775635e-01
-1.618360728025436401e-01
-1.207643449306488037e-01
-8.101240545511245728e-02
-6.232959032058715820e-02
-4.388771206140518188e-02
-4.280962795019149780e-02
-6.030850112438201904e-02
-7.893881946802139282e-02
-7.377860695123672485e-02
-8.137864619493484497e-02
-1.608636975288391113e-01
-1.451130062341690063e-01
-1.195937246084213257e-01
-1.149681285023689270e-01
-1.165640652179718018e-01
-1.245055794715881348e-01
-1.158936098217964172e-01
-1.306482553482055664e-01
-1.378584653139114380e-01
-1.418370604515075684e-01
-1.476920396089553833e-01
-1.551346182823181152e-01
-7.924237847328186035e-02
4.149300232529640198e-02
1.842854768037796021e-01
2.285164743661880493e-01
2.236223965883255005e-01
2.061660289764404297e-01
2.166286557912826538e-01
2.026959359645843506e-01
1.392693668603897095e-01
1.217598393559455872e-01
1.001782789826393127e-01
1.351833045482635498e-01
1.558619886636734009e-01
1.740148961544036865e-01
1.983107179403305054e-01
2.246573716402053833e-01
1.960333287715911865e-01
1.570178717374801636e-01
1.216552034020423889e-01
6.574360281229019165e-02
6.015462428331375122e-02
7.035826146602630615e-02
6.849423795938491821e-02
7.090857625007629395e-02
4.496763646602630615e-02
-2.107987180352210999e-03
3.640375658869743347e-02
3.407062217593193054e-02
1.504988130182027817e-02
-2.388164959847927094e-02
-1.127623487263917923e-02
-2.088884450495243073e-02
-3.219054266810417175e-02
-2.524983324110507965e-02
-3.581928089261054993e-02
-2.877436205744743347e-02
-1.001151185482740402e-02
-2.472223713994026184e-03
-7.114120572805404663e-02
-1.062228381633758545e-01
-1.259168386459350586e-01
-1.259508579969406128e-01
-1.384189426898956299e-01
-1.093534231185913086e-01
-7.457140833139419556e-02
-4.012251645326614380e-02
-2.795845642685890198e-02
-1.955288648605346680e-02
-4.285514727234840393e-02
-4.854393377900123596e-02
-5.572628602385520935e-02
-6.908447295427322388e-02
-1.099425330758094788e-01
-1.250514090061187744e-01
-1.016407534480094910e-01
-8.061442524194717407e-02
-9.136909991502761841e-02
-1.012303382158279419e-01
-1.173792183399200439e-01
-1.113156601786613464e-01
-1.192581057548522949e-01
-1.299238651990890503e-01
-1.314126700162887573e-01
-1.696819067001342773e-01
-2.323107980191707611e-02
6.496541947126388550e-02
1.792159974575042725e-01
2.364995628595352173e-01
2.281747311353683472e-01
2.143329083919525146e-01
1.911390572786331177e-01
1.433897614479064941e-01
6.976269930601119995e-02
5.951572954654693604e-02
7.346248626708984375e-02
9.267779439687728882e-02
1.039812564849853516e-01
1.441225111484527588e-01
1.627943366765975952e-01
1.924463957548141479e-01
1.790893822908401489e-01
1.756924390792846680e-01
1.562593728303909302e-01
1.266579926013946533e-01
7.098037749528884888e-02
6.670663505792617798e-02
6.583580374717712402e-02
9.129962325096130371e-02
8.290337771177291870e-02
4.030590131878852844e-02
3.951779007911682129e-02
4.537422209978103638e-02
4.135204851627349854e-02
2.227141335606575012e-02
2.339811436831951141e-02
1.622506603598594666e-02
1.667380705475807190e-02
1.285015046596527100e-02
1.340412069112062454e-02
1.695874845609068871e-03
9.271051967516541481e-04
-1.994588965317234397e-04
-3.598820418119430542e-02
-7.618936151266098022e-02
-9.196851402521133423e-02
-1.036758795380592346e-01
-9.881257265806198120e-02
-7.438599318265914917e-02
-6.493135541677474976e-02
-4.969219490885734558e-02
-1.734903082251548767e-03
4.259091510903090239e-04
-2.499762736260890961e-02
-1.819555647671222687e-02
-2.085587941110134125e-02
-3.098839148879051208e-02
-6.623698025941848755e-02
-7.185389846563339233e-02
-7.173638045787811279e-02
-6.507019698619842529e-02
-8.059041202068328857e-02
-1.024938225746154785e-01
-1.035418063402175903e-01
-1.180164515972137451e-01
-1.146797314286231995e-01
-1.103752255439758301e-01
-1.288492232561111450e-01
-1.747931689023971558e-01
-2.477293647825717926e-02
8.672235161066055298e-02
1.729896366596221924e-01
2.014960944652557373e-01
1.800200045108795166e-01
1.662769168615341187e-01
1.439393758773803711e-01
9.310279041528701782e-02
4.462871700525283813e-02
2.322783879935741425e-02
3.366018831729888916e-02
6.311582773923873901e-02
8.353209495544433594e-02
1.096077710390090942e-01
1.438913643360137939e-01
1.905623376369476318e-01
1.835168004035949707e-01
1.677448302507400513e-01
1.997413486242294312e-01
1.313150972127914429e-01
9.908448159694671631e-02
1.086931377649307251e-01
7.441851496696472168e-02
9.495997428894042969e-02
7.887470722198486328e-02
6.360059231519699097e-02
7.567404955625534058e-02
7.826994359493255615e-02
9.341523051261901855e-02
8.592617511749267578e-02
7.176804542541503906e-02
5.514756962656974792e-02
3.766400739550590515e-02
3.850958123803138733e-02
3.381418809294700623e-02
3.096623718738555908e-02
1.520055998116731644e-02
1.127287279814481735e-03
-3.156800940632820129e-02
-4.239449650049209595e-02
-5.311056226491928101e-02
-6.184123456478118896e-02
-6.181403994560241699e-02
-3.317708522081375122e-02
-2.556556090712547302e-02
6.079225335270166397e-03
1.316013559699058533e-02
7.690842729061841965e-03
2.590042771771550179e-03
8.497631177306175232e-03
1.084124483168125153e-02
2.535298001021146774e-03
-5.628349259495735168e-02
-4.002840071916580200e-02
-5.964002385735511780e-02
-5.782350897789001465e-02
-6.576804816722869873e-02
-7.732903957366943359e-02
-8.075214922428131104e-02
-1.042474433779716492e-01
-1.014150530099868774e-01
-9.877873212099075317e-02
-1.182172223925590515e-01
-1.533026993274688721e-01
1.074737124145030975e-02
1.129533424973487854e-01
1.496539711952209473e-01
1.737962961196899414e-01
1.559416502714157104e-01
1.216205880045890808e-01
9.504721313714981079e-02
5.774984881281852722e-02
-6.034018471837043762e-03
-2.047724276781082153e-02
-1.995126157999038696e-02
5.678514949977397919e-03
4.653488099575042725e-02
9.286804497241973877e-02
1.265389621257781982e-01
1.575178653001785278e-01
1.597655415534973145e-01
1.576279550790786743e-01
1.670141071081161499e-01
1.850317269563674927e-01
1.336817443370819092e-01
1.224262565374374390e-01
1.254471540451049805e-01
1.095347031950950623e-01
9.230756759643554688e-02
9.699546545743942261e-02
1.365978419780731201e-01
1.063229665160179138e-01
1.346910297870635986e-01
1.131254062056541443e-01
1.073841154575347900e-01
8.555263280868530273e-02
6.953060626983642578e-02
5.943072587251663208e-02
4.146279767155647278e-02
4.588420689105987549e-02
1.942722871899604797e-02
1.968026719987392426e-02
3.299360629171133041e-03
3.745836904272437096e-03
-1.052962709218263626e-02
-1.039121486246585846e-02
-8.477365598082542419e-03
1.313031930476427078e-02
2.288373373448848724e-02
2.110314741730690002e-02
3.592025116086006165e-02
3.080840781331062317e-02
2.021886222064495087e-02
1.776805520057678223e-02
2.752248384058475494e-02
4.859695211052894592e-02
-5.728237330913543701e-03
-1.461158879101276398e-02
-1.943752169609069824e-02
-9.673849679529666901e-03
-3.067439980804920197e-02
-4.239283874630928040e-02
-6.496100872755050659e-02
-7.782097160816192627e-02
-7.721149176359176636e-02
-8.212018013000488281e-02
-8.280620723962783813e-02
-1.361091732978820801e-01
3.060596436262130737e-02
1.006651222705841064e-01
1.306794434785842896e-01
1.278267204761505127e-01
9.943798929452896118e-02
9.111409634351730347e-02
6.788983941078186035e-02
-1.736763806547969580e-05
-6.068891286849975586e-02
-7.318077236413955688e-02
-4.818706214427947998e-02
-2.765906043350696564e-02
3.171719238162040710e-02
9.491128474473953247e-02
1.171997487545013428e-01
1.586628556251525879e-01
1.504273861646652222e-01
1.564850062131881714e-01
1.513383537530899048e-01
1.682720780372619629e-01
1.776993274688720703e-01
1.422597467899322510e-01
1.662720739841461182e-01
1.499513089656829834e-01
1.403977721929550171e-01
1.224934235215187073e-01
1.686191409826278687e-01
1.587651520967483521e-01
1.698974967002868652e-01
1.716517806053161621e-01
1.602925062179565430e-01
1.498399674892425537e-01
1.230554729700088501e-01
8.205834776163101196e-02
7.310509681701660156e-02
7.765783369541168213e-02
4.046922549605369568e-02
5.677786469459533691e-02
6.724749505519866943e-02
6.847918778657913208e-02
8.018960803747177124e-02
7.700360566377639771e-02
5.807804316282272339e-02
7.000704109668731689e-02
6.997253745794296265e-02
6.416836380958557129e-02
5.688707530498504639e-02
4.542574286460876465e-02
2.975412458181381226e-02
2.085616439580917358e-02
2.774766646325588226e-02
4.903692007064819336e-02
3.809786867350339890e-03
2.044494636356830597e-02
1.519313640892505646e-02
6.614951416850090027e-03
8.211340755224227905e-03
-9.566679596900939941e-03
-3.062464110553264618e-02
-3.413981199264526367e-02
-6.701426953077316284e-02
-7.644823193550109863e-02
-1.051138564944267273e-01
-1.233969777822494507e-01
2.271895762532949448e-03
5.519523844122886658e-02
9.890611469745635986e-02
8.215425163507461548e-02
6.227714568376541138e-02
4.759126529097557068e-02
5.266733001917600632e-03
-4.074542596936225891e-02
-7.394380867481231689e-02
-1.024855673313140869e-01
-7.117748260498046875e-02
-3.839973732829093933e-02
4.671830683946609497e-03
8.636318892240524292e-02
1.394250243902206421e-01
1.375343799591064453e-01
1.462507694959640503e-01
1.433759778738021851e-01
1.600686609745025635e-01
1.746294498443603516e-01
1.648720055818557739e-01
1.743144094944000244e-01
1.854205131530761719e-01
1.907222121953964233e-01
1.754530519247055054e-01
1.480443179607391357e-01
1.902609020471572876e-01
1.985646784305572510e-01
2.156383544206619263e-01
1.946778744459152222e-01
2.030827999114990234e-01
1.801977008581161499e-01
1.553472429513931274e-01
1.282895356416702271e-01
1.071230396628379822e-01
9.469975531101226807e-02
8.563265949487686157e-02
9.779767692089080811e-02
9.553689509630203247e-02
1.069773435592651367e-01
1.243379116058349609e-01
1.288425326347351074e-01
1.126898080110549927e-01
1.024724841117858887e-01
1.015732735395431519e-01
1.028615087270736694e-01
6.890410929918289185e-02
5.391123890876770020e-02
5.124227330088615417e-02
3.926586732268333435e-02
6.007989123463630676e-02
7.054891437292098999e-02
2.662255428731441498e-02
6.321075558662414551e-02
4.294569417834281921e-02
6.821674294769763947e-03
2.377768978476524353e-02
2.335011214017868042e-02
-5.855647614225745201e-04
-2.217074669897556305e-02
-5.585485696792602539e-02
-7.015252858400344849e-02
-9.098532050848007202e-02
-1.365762054920196533e-01
-8.866612799465656281e-03
5.283460021018981934e-02
6.371827423572540283e-02
7.118563354015350342e-02
4.809205979108810425e-02
1.224050112068653107e-02
-2.708177268505096436e-02
-6.317318975925445557e-02
-1.095384433865547180e-01
-1.166842430830001831e-01
-7.398089766502380371e-02
-4.811101406812667847e-02
-1.755080372095108032e-02
4.048947244882583618e-02
1.091652512550354004e-01
1.265582442283630371e-01
1.324282884597778320e-01
1.528645753860473633e-01
1.635821461677551270e-01
1.856961697340011597e-01
1.660762727260589600e-01
1.606955975294113159e-01
1.956621855497360229e-01
2.339796274900436401e-01
2.133620679378509521e-01
1.851059794425964355e-01
2.073803544044494629e-01
2.227484881877899170e-01
2.376490533351898193e-01
2.135755568742752075e-01
2.171829640865325928e-01
1.981645077466964722e-01
1.587364524602890015e-01
1.499897688627243042e-01
1.087620183825492859e-01
1.189705207943916321e-01
1.048608869314193726e-01
1.190072745084762573e-01
1.354561448097229004e-01
1.251265704631805420e-01
1.657506376504898071e-01
1.552615910768508911e-01
1.540152430534362793e-01
1.423330903053283691e-01
1.534502953290939331e-01
1.429408788681030273e-01
1.217086240649223328e-01
9.495007246732711792e-02
9.573715180158615112e-02
6.130685657262802124e-02
7.464738190174102783e-02
8.456665277481079102e-02
3.705256804823875427e-02
5.651966854929924011e-02
6.439021974802017212e-02
2.736870385706424713e-02
3.462864086031913757e-02
3.692625463008880615e-02
5.556158255785703659e-03
4.592715296894311905e-03
-1.051867753267288208e-02
-6.219281256198883057e-02
-8.545956760644912720e-02
-1.240216344594955444e-01
-8.901467919349670410e-02
1.503711752593517303e-02
4.390418529510498047e-02
4.601636528968811035e-02
1.015572343021631241e-02
-2.071438543498516083e-02
-5.766404792666435242e-02
-9.777106344699859619e-02
-1.183216273784637451e-01
-1.287872046232223511e-01
-8.127027004957199097e-02
-4.500340670347213745e-02
-3.365447744727134705e-02
2.678932622075080872e-02
8.553308993577957153e-02
1.195373311638832092e-01
1.149738952517509460e-01
1.395042091608047485e-01
1.583250612020492554e-01
1.804650574922561646e-01
1.765747666358947754e-01
1.904284656047821045e-01
2.068221122026443481e-01
2.341782748699188232e-01
2.225747406482696533e-01
2.015438675880432129e-01
2.345320880413055420e-01
2.381877899169921875e-01
2.413311004638671875e-01
2.278248667716979980e-01
2.277086824178695679e-01
2.145138084888458252e-01
1.665808409452438354e-01
1.638741344213485718e-01
1.421771645545959473e-01
1.294608116149902344e-01
1.405937969684600830e-01
1.396807134151458740e-01
1.662248224020004272e-01
1.732365339994430542e-01
1.828780919313430786e-01
1.912048757076263428e-01
1.760534793138504028e-01
1.760570108890533447e-01
1.769619137048721313e-01
1.695190668106079102e-01
1.544903516769409180e-01
1.346476078033447266e-01
1.205290630459785461e-01
1.057805716991424561e-01
1.105210036039352417e-01
8.972701430320739746e-02
4.298532009124755859e-02
6.446760892868041992e-02
8.475559949874877930e-02
6.367429345846176147e-02
5.410847812891006470e-02
4.201662540435791016e-02
2.384547702968120575e-02
-8.160770870745182037e-03
-5.766492336988449097e-03
-5.239335820078849792e-02
-6.954037398099899292e-02
-1.053413674235343933e-01
-1.267861872911453247e-01
-2.079715020954608917e-02
3.121939487755298615e-03
1.768170297145843506e-02
6.785836536437273026e-03
-5.568798258900642395e-02
-7.038737833499908447e-02
-8.312151581048965454e-02
-1.028255075216293335e-01
-1.411410421133041382e-01
-9.319785237312316895e-02
-3.628000244498252869e-02
-2.274304442107677460e-02
1.246975176036357880e-02
6.996509432792663574e-02
1.225154548883438110e-01
1.324682682752609253e-01
1.487936526536941528e-01
1.744045764207839966e-01
1.790003180503845215e-01
1.808700561523437500e-01
1.780889630317687988e-01
2.023712694644927979e-01
2.400548607110977173e-01
2.451523393392562866e-01
2.333739101886749268e-01
2.603899538516998291e-01
2.683183252811431885e-01
2.531754076480865479e-01
2.492856532335281372e-01
2.478552907705307007e-01
2.266018688678741455e-01
2.039182633161544800e-01
1.796796023845672607e-01
1.657318025827407837e-01
1.597918272018432617e-01
1.575682461261749268e-01
1.775752454996109009e-01
1.997038722038269043e-01
2.073450088500976562e-01
2.138635516166687012e-01
2.171549499034881592e-01
2.071643620729446411e-01
1.985956281423568726e-01
1.839413195848464966e-01
2.005105018615722656e-01
1.535840034484863281e-01
1.541845798492431641e-01
1.598614603281021118e-01
1.461092084646224976e-01
1.213154494762420654e-01
9.030756354331970215e-02
6.095723807811737061e-02
8.204004168510437012e-02
9.974286705255508423e-02
8.234792202711105347e-02
5.388284474611282349e-02
3.918517380952835083e-02
1.887650415301322937e-02
-1.986193237826228142e-03
-9.563243016600608826e-03
-2.715605311095714569e-02
-5.545758455991744995e-02
-1.119685620069503784e-01
-1.439865380525588989e-01
-6.179184094071388245e-02
-3.225453197956085205e-02
-8.238599635660648346e-03
-3.574331477284431458e-02
-7.478311657905578613e-02
-7.612311094999313354e-02
-9.500056505203247070e-02
-1.117974817752838135e-01
-1.469146460294723511e-01
-1.119819283485412598e-01
-3.252294659614562988e-02
-1.604642160236835480e-02
1.612296700477600098e-02
6.903225183486938477e-02
1.065512895584106445e-01
1.094825640320777893e-01
1.283713877201080322e-01
1.830520480871200562e-01
1.716043949127197266e-01
1.943833827972412109e-01
2.020348757505416870e-01
2.286817431449890137e-01
2.393796294927597046e-01
2.532936632633209229e-01
2.561107277870178223e-01
2.783160209655761719e-01
2.834798395633697510e-01
2.801419496536254883e-01
2.717488706111907959e-01
2.612914741039276123e-01
2.408801764249801636e-01
2.227068394422531128e-01
1.998933255672454834e-01
1.834041327238082886e-01
1.755363345146179199e-01
1.786765605211257935e-01
2.007004022598266602e-01
2.269457727670669556e-01
2.280917763710021973e-01
2.442108094692230225e-01
2.502814233303070068e-01
2.540535032749176025e-01
2.339904755353927612e-01
1.932425200939178467e-01
2.196339517831802368e-01
1.805101186037063599e-01
1.716607213020324707e-01
1.776663661003112793e-01
1.660296320915222168e-01
1.226665675640106201e-01
8.159164339303970337e-02
6.044360622763633728e-02
9.638853371143341064e-02
1.012664288282394409e-01
1.011133119463920593e-01
8.573127537965774536e-02
5.733507871627807617e-02
3.636636212468147278e-02
1.145949494093656540e-02
-3.139501204714179039e-03
-1.436325069516897202e-02
-5.028724297881126404e-02
-1.024473980069160461e-01
-1.470233350992202759e-01
-1.088452264666557312e-01
-8.100902289152145386e-02
-5.264523625373840332e-02
-6.915604323148727417e-02
-8.319360762834548950e-02
-8.511079847812652588e-02
-9.785426408052444458e-02
-1.228429898619651794e-01
-1.457360535860061646e-01
-1.225335001945495605e-01
-2.201235666871070862e-02
-1.611857488751411438e-02
2.512376569211483002e-02
6.339104473590850830e-02
9.934101998805999756e-02
1.267326176166534424e-01
1.238240748643875122e-01
1.565411239862442017e-01
1.613137871026992798e-01
2.149786353111267090e-01
2.304920256137847900e-01
2.243879586458206177e-01
2.515452802181243896e-01
2.716748714447021484e-01
2.643473446369171143e-01
2.954403162002563477e-01
3.044697940349578857e-01
3.064269423484802246e-01
2.930188775062561035e-01
2.672674655914306641e-01
2.547297477722167969e-01
2.362069934606552124e-01
2.181992679834365845e-01
2.083809971809387207e-01
1.991115510463714600e-01
2.121095955371856689e-01
2.276283353567123413e-01
2.610686421394348145e-01
2.624042332172393799e-01
2.649115920066833496e-01
2.688249051570892334e-01
2.501253783702850342e-01
2.369196712970733643e-01
2.256995439529418945e-01
2.456121295690536499e-01
1.942099928855895996e-01
2.040013670921325684e-01
1.692147105932235718e-01
1.657997071743011475e-01
1.320746243000030518e-01
1.046858057379722595e-01
6.079581007361412048e-02
9.878869354724884033e-02
1.156658232212066650e-01
1.032496616244316101e-01
8.116760849952697754e-02
7.459156215190887451e-02
5.801921710371971130e-02
4.099860787391662598e-02
4.521745257079601288e-03
-2.413387596607208252e-02
-5.799602344632148743e-02
-1.182762533426284790e-01
-5.782352760434150696e-02
-3.158362209796905518e-02
-3.010567836463451385e-02
-1.804478839039802551e-02
-2.426778525114059448e-02
-2.624849975109100342e-02
-1.054038479924201965e-02
-2.141345664858818054e-02
-3.229367733001708984e-02
-3.124188072979450226e-02
-3.750678896903991699e-02
-5.214351695030927658e-03
-1.371311489492654800e-03
1.179528888314962387e-02
8.779135532677173615e-04
2.321247942745685577e-02
3.578607365489006042e-02
2.712489105761051178e-02
3.513057902455329895e-02
5.911875888705253601e-02
7.083001732826232910e-02
9.739051759243011475e-02
1.142090559005737305e-01
1.283618062734603882e-01
1.292777508497238159e-01
1.385373622179031372e-01
1.708192229270935059e-01
1.710295230150222778e-01
1.588631868362426758e-01
1.584099382162094116e-01
1.488348692655563354e-01
1.517982035875320435e-01
1.472101956605911255e-01
1.414037793874740601e-01
1.514478325843811035e-01
1.691229790449142456e-01
1.643920987844467163e-01
1.785992085933685303e-01
1.697818338871002197e-01
1.587830632925033569e-01
1.522900164127349854e-01
1.402920633554458618e-01
1.276313513517379761e-01
1.225212588906288147e-01
1.365669667720794678e-01
1.164594367146492004e-01
1.073842793703079224e-01
8.070746809244155884e-02
4.955120012164115906e-02
5.935031175613403320e-02
4.319752380251884460e-02
1.267668697983026505e-02
-3.111012466251850128e-02
-1.631498709321022034e-02
1.590003073215484619e-02
1.694187149405479431e-02
7.957364432513713837e-03
5.711595062166452408e-03
1.984804309904575348e-02
1.687899231910705566e-02
-2.732860739342868328e-04
-2.353291586041450500e-02
-4.148416221141815186e-02
-6.475075334310531616e-02
-5.876963213086128235e-02
-3.367762640118598938e-02
-2.028442360460758209e-02
-2.375348843634128571e-02
-4.132566601037979126e-02
-1.200758386403322220e-02
-7.539132144302129745e-03
-2.908270433545112610e-02
-3.881444036960601807e-02
-3.250260651111602783e-02
-3.450730443000793457e-02
8.438006043434143066e-03
8.812599815428256989e-03
1.981974113732576370e-03
-2.274329587817192078e-02
4.148568841628730297e-04
1.733693480491638184e-02
-7.986846612766385078e-04
3.059947630390524864e-03
3.798192366957664490e-02
6.185237318277359009e-02
7.670788466930389404e-02
6.573244184255599976e-02
9.390304982662200928e-02
1.148475706577301025e-01
1.336776018142700195e-01
1.593231707811355591e-01
1.608883291482925415e-01
1.481355726718902588e-01
1.610889732837677002e-01
1.444590687751770020e-01
1.501549482345581055e-01
1.378158330917358398e-01
1.336485147476196289e-01
1.434898376464843750e-01
1.512869745492935181e-01
1.676238328218460083e-01
1.570542156696319580e-01
1.545629650354385376e-01
1.487061977386474609e-01
1.450737118721008301e-01
1.304859817028045654e-01
1.083737611770629883e-01
1.189121231436729431e-01
1.174820810556411743e-01
1.146724224090576172e-01
1.058041304349899292e-01
8.086572587490081787e-02
5.733069404959678650e-02
3.202510997653007507e-02
2.268923260271549225e-02
4.228588659316301346e-03
-4.273648932576179504e-02
-2.543299272656440735e-02
4.108239896595478058e-03
1.274764258414506912e-02
9.258237667381763458e-03
-2.145408419892191887e-03
1.190527342259883881e-02
2.029827423393726349e-02
1.018303725868463516e-02
1.073634368367493153e-03
-3.377925232052803040e-02
-6.915695965290069580e-02
-9.587895870208740234e-02
-4.490354657173156738e-02
-2.794690243899822235e-02
-4.092881083488464355e-02
-5.076416209340095520e-02
-1.359285321086645126e-02
-1.670911721885204315e-02
-3.247439488768577576e-02
-5.713050439953804016e-02
-5.716652423143386841e-02
-4.481281712651252747e-02
-2.342759631574153900e-02
-2.313608303666114807e-02
-4.320381209254264832e-02
-4.797283560037612915e-02
-2.849144302308559418e-02
-2.470279484987258911e-02
-8.955447003245353699e-03
-2.520216628909111023e-03
1.135335583239793777e-02
3.395391628146171570e-02
5.895831808447837830e-02
7.310622930526733398e-02
8.365737646818161011e-02
1.077071800827980042e-01
1.209799051284790039e-01
1.486621350049972534e-01
1.608055830001831055e-01
1.574221402406692505e-01
1.515666395425796509e-01
1.563570201396942139e-01
1.369187235832214355e-01
1.246510669589042664e-01
1.195248141884803772e-01
1.285171657800674438e-01
1.391243934631347656e-01
1.439036279916763306e-01
1.270105391740798950e-01
1.475578695535659790e-01
1.442928016185760498e-01
1.331370323896408081e-01
1.100771576166152954e-01
1.181451007723808289e-01
1.089382171630859375e-01
1.146777495741844177e-01
1.193770691752433777e-01
9.877025336027145386e-02
7.507956773042678833e-02
4.074455052614212036e-02
1.954913884401321411e-02
6.574488710612058640e-03
3.187734168022871017e-03
-4.519153386354446411e-02
-2.429682761430740356e-02
-2.349872142076492310e-02
7.410616613924503326e-03
-6.014996208250522614e-03
-2.027387265115976334e-03
5.390616133809089661e-03
2.165171131491661072e-02
7.566922344267368317e-03
-1.496038865298032761e-02
-3.650697693228721619e-02
-5.843493714928627014e-02
-8.582985401153564453e-02
-4.764097183942794800e-02
-2.928016334772109985e-02
-5.102428048849105835e-02
-5.110622942447662354e-02
-3.251182660460472107e-02
-3.418901562690734863e-02
-4.564506188035011292e-02
-5.449023470282554626e-02
-6.824982911348342896e-02
-4.167689010500907898e-02
-2.371268905699253082e-02
-4.076961055397987366e-02
-4.144202917814254761e-02
-4.858737066388130188e-02
-5.690817907452583313e-02
-3.235695138573646545e-02
-1.969595812261104584e-02
-9.087642654776573181e-03
2.658949047327041626e-02
4.167093336582183838e-02
6.507220864295959473e-02
7.797925174236297607e-02
7.400549203157424927e-02
1.018850952386856079e-01
1.082611232995986938e-01
1.529775559902191162e-01
1.550843864679336548e-01
1.484639793634414673e-01
1.505312770605087280e-01
1.591203063726425171e-01
1.573587059974670410e-01
1.169798001646995544e-01
1.180483847856521606e-01
1.068682819604873657e-01
1.049736067652702332e-01
1.062137931585311890e-01
1.195592209696769714e-01
1.415665447711944580e-01
1.239998266100883484e-01
1.307570487260818481e-01
1.276012808084487915e-01
1.270967721939086914e-01
1.084930971264839172e-01
9.023346006870269775e-02
8.418183028697967529e-02
9.094441682100296021e-02
5.164302140474319458e-02
2.871686778962612152e-02
9.103934280574321747e-03
1.448315102607011795e-03
-1.057507563382387161e-02
-5.073758587241172791e-02
-3.262830525636672974e-02
-2.692332491278648376e-02
7.352608256042003632e-03
-1.125269755721092224e-02
-2.030908502638339996e-02
-9.177775122225284576e-03
-3.328374004922807217e-04
9.034609422087669373e-03
-1.290674880146980286e-02
-3.687197342514991760e-02
-6.646843254566192627e-02
-7.314411550760269165e-02
-5.630147084593772888e-02
-4.028514400124549866e-02
-4.516259580850601196e-02
-4.984136298298835754e-02
-5.150182917714118958e-02
-4.416063800454139709e-02
-4.538877308368682861e-02
-4.863712564110755920e-02
-5.630677193403244019e-02
-4.908377304673194885e-02
-5.963570624589920044e-02
-7.068715244531631470e-02
-7.512697577476501465e-02
-4.915108531713485718e-02
-7.864670455455780029e-02
-4.875117912888526917e-02
-4.282686114311218262e-02
8.146770298480987549e-03
4.019462317228317261e-02
4.133810102939605713e-02
7.006273418664932251e-02
6.324622780084609985e-02
7.204178720712661743e-02
1.194246709346771240e-01
1.066150516271591187e-01
1.518946886062622070e-01
1.284477561712265015e-01
1.162041351199150085e-01
1.218287870287895203e-01
1.313716024160385132e-01
1.395132988691329956e-01
1.173841506242752075e-01
9.338403493165969849e-02
9.455770254135131836e-02
8.258886635303497314e-02
9.081156551837921143e-02
1.116204634308815002e-01
1.176813095808029175e-01
1.177234053611755371e-01
1.058067381381988525e-01
1.368533074855804443e-01
1.314433068037033081e-01
9.549100697040557861e-02
5.683264136314392090e-02
4.313112795352935791e-02
3.433177620172500610e-02
2.346700243651866913e-02
1.059816312044858932e-02
-1.504589919932186604e-03
-3.074485994875431061e-02
-1.187504082918167114e-02
-6.915477663278579712e-02
-1.478190347552299500e-02
-1.384820416569709778e-02
3.127538133412599564e-03
1.730256015434861183e-03
-2.170293219387531281e-02
-9.919826872646808624e-03
-2.790569327771663666e-03
-8.591827936470508575e-03
-2.320591360330581665e-03
-2.724605426192283630e-02
-7.263308018445968628e-02
-9.267395734786987305e-02
-5.791575089097023010e-02
-7.342468947172164917e-02
-6.184291094541549683e-02
-5.184809118509292603e-02
-5.309034138917922974e-02
-4.173139855265617371e-02
-4.899369552731513977e-02
-4.789385572075843811e-02
-5.759798362851142883e-02
-7.302514463663101196e-02
-6.112989783287048340e-02
-7.312437891960144043e-02
-5.126474425196647644e-02
-5.499090254306793213e-02
-8.062923699617385864e-02
-5.553938075900077820e-02
-2.054845355451107025e-02
-1.434395369142293930e-02
2.481500618159770966e-02
3.232144936919212341e-02
6.860449910163879395e-02
6.037732586264610291e-02
6.645020842552185059e-02
8.892969042062759399e-02
9.180973470211029053e-02
1.368122398853302002e-01
1.043415516614913940e-01
1.210936456918716431e-01
1.108755692839622498e-01
1.137330979108810425e-01
1.119757294654846191e-01
1.061508357524871826e-01
8.924151211977005005e-02
7.357943058013916016e-02
6.671287119388580322e-02
7.252488285303115845e-02
9.898203611373901367e-02
1.317843794822692871e-01
1.048549041152000427e-01
9.406652301549911499e-02
1.183533221483230591e-01
9.339167922735214233e-02
5.776079744100570679e-02
3.836599737405776978e-02
3.419267246499657631e-03
1.432387437671422958e-02
-1.098247594200074673e-05
-1.991620752960443497e-03
-2.281587757170200348e-02
-3.801749274134635925e-02
-3.263333067297935486e-02
-8.260308951139450073e-02
-2.486393414437770844e-02
-6.836752872914075851e-04
1.414641272276639938e-02
8.460240438580513000e-03
-1.273970585316419601e-02
-2.043985761702060699e-02
-2.228281518910080194e-04
7.358054630458354950e-03
-1.055757701396942139e-02
-1.922826468944549561e-02
-5.397935211658477783e-02
-9.557531028985977173e-02
-7.136464118957519531e-02
-8.109484612941741943e-02
-6.755796819925308228e-02
-6.526066362857818604e-02
-5.255885794758796692e-02
-6.738094985485076904e-02
-4.164487123489379883e-02
-5.736631527543067932e-02
-5.582024529576301575e-02
-4.685119166970252991e-02
-6.658285856246948242e-02
-6.317511200904846191e-02
-3.627384081482887268e-02
-5.704086646437644958e-02
-4.995060712099075317e-02
-5.579832196235656738e-02
-3.818198665976524353e-02
5.572116468101739883e-03
2.503130771219730377e-02
4.547380283474922180e-02
5.149165168404579163e-02
6.096914410591125488e-02
6.998665630817413330e-02
8.600951731204986572e-02
9.469967335462570190e-02
1.157506629824638367e-01
9.847375005483627319e-02
1.075761690735816956e-01
9.401480853557586670e-02
9.835828840732574463e-02
9.227643907070159912e-02
9.321218729019165039e-02
6.354085355997085571e-02
7.008700072765350342e-02
6.741025298833847046e-02
6.762656569480895996e-02
8.968515694141387939e-02
1.101627275347709656e-01
8.450821042060852051e-02
8.884607255458831787e-02
8.837994188070297241e-02
7.256035506725311279e-02
4.383905231952667236e-02
1.978887245059013367e-02
5.889199208468198776e-03
-1.367115322500467300e-02
-1.745040714740753174e-02
-3.244927525520324707e-02
-3.392222896218299866e-02
-5.417341366410255432e-02
-5.026898533105850220e-02
-7.346234470605850220e-02
-4.696503654122352600e-02
-1.266496535390615463e-02
9.749341756105422974e-03
6.554328370839357376e-03
-1.510879490524530411e-02
-1.359425764530897141e-02
-1.601102179847657681e-03
8.841332746669650078e-04
-9.178054518997669220e-03
-1.674556918442249298e-02
-4.721655324101448059e-02
-9.811677038669586182e-02
-8.173461258411407471e-02
-6.795240193605422974e-02
-7.292970269918441772e-02
-5.821790546178817749e-02
-5.118973925709724426e-02
-7.167772203683853149e-02
-4.467284679412841797e-02
-5.012647435069084167e-02
-6.329497694969177246e-02
-3.635613620281219482e-02
-5.773365497589111328e-02
-5.245894193649291992e-02
-4.598166793584823608e-02
-5.737164989113807678e-02
-5.772381275892257690e-02
-4.838071763515472412e-02
-1.031112391501665115e-02
2.559340372681617737e-02
2.825551852583885193e-02
3.006211668252944946e-02
3.774251416325569153e-02
5.876476690173149109e-02
7.673807442188262939e-02
8.536558598279953003e-02
9.344592690467834473e-02
1.063154339790344238e-01
9.148041903972625732e-02
9.542544186115264893e-02
7.532897591590881348e-02
6.381154805421829224e-02
6.022056937217712402e-02
6.001352891325950623e-02
3.981211408972740173e-02
4.917883127927780151e-02
6.211692839860916138e-02
5.631891265511512756e-02
7.380472123622894287e-02
8.911927044391632080e-02
7.780995219945907593e-02
6.503471732139587402e-02
6.554258614778518677e-02
6.924506276845932007e-02
1.879073306918144226e-02
-1.328946184366941452e-02
-2.066166698932647705e-02
-3.282726556062698364e-02
-1.215799525380134583e-02
-7.052353024482727051e-02
-5.911611393094062805e-02
-6.792218983173370361e-02
-8.214253187179565430e-02
-1.117296591401100159e-01
-5.189592763781547546e-02
-2.542131207883358002e-02
-7.308373227715492249e-03
1.090011280030012131e-02
-1.107376720756292343e-02
-3.821681067347526550e-02
-1.352172344923019409e-02
-2.056502271443605423e-04
-1.455306168645620346e-02
-3.603753820061683655e-02
-5.342531949281692505e-02
-1.047695353627204895e-01
-8.475367724895477295e-02
-7.873445004224777222e-02
-7.736402750015258789e-02
-6.071282923221588135e-02
-4.973520711064338684e-02
-6.732212752103805542e-02
-5.548925325274467468e-02
-4.186737537384033203e-02
-5.910619720816612244e-02
-6.964085996150970459e-02
-4.426890984177589417e-02
-5.276065319776535034e-02
-5.933580547571182251e-02
-6.132962182164192200e-02
-4.052586853504180908e-02
-2.386464551091194153e-02
8.201172022381797433e-05
1.277857832610607147e-02
4.136911779642105103e-02
4.691935330629348755e-02
4.699958115816116333e-02
6.527646631002426147e-02
8.339494466781616211e-02
8.149719983339309692e-02
8.949375152587890625e-02
1.110997274518013000e-01
9.312983602285385132e-02
7.937631011009216309e-02
7.123658806085586548e-02
4.902650043368339539e-02
5.550361797213554382e-02
4.999953880906105042e-02
4.713490977883338928e-02
4.189771413803100586e-02
3.930352628231048584e-02
5.942964181303977966e-02
4.166956990957260132e-02
6.677746027708053589e-02
5.974951758980751038e-02
5.565093830227851868e-02
4.117133095860481262e-02
3.668579831719398499e-02
2.361483499407768250e-02
1.279267575591802597e-02
-3.179875388741493225e-02
-5.958768725395202637e-02
-5.042197927832603455e-02
-6.636649370193481445e-02
-8.362100273370742798e-02
-8.707534521818161011e-02
-8.486672490835189819e-02
-1.314947009086608887e-01
-6.448514759540557861e-02
-3.507871180772781372e-02
-2.139583602547645569e-02
1.397689920850098133e-03
-2.480216696858406067e-02
-4.143281280994415283e-02
-3.646231815218925476e-02
-3.631161991506814957e-03
-1.422440912574529648e-02
-3.349843248724937439e-02
-3.543210402131080627e-02
-8.313142508268356323e-02
-8.630985766649246216e-02
-8.255806565284729004e-02
-8.255149424076080322e-02
-5.848805606365203857e-02
-5.217080563306808472e-02
-6.637915223836898804e-02
-4.432941228151321411e-02
-3.598499670624732971e-02
-5.186156928539276123e-02
-5.335126444697380066e-02
-4.589377716183662415e-02
-6.684492528438568115e-02
-6.014103814959526062e-02
-6.160886585712432861e-02
-3.747656196355819702e-02
-3.916573524475097656e-02
-1.225712802261114120e-02
2.226883918046951294e-02
2.986171282827854156e-02
6.106861680746078491e-02
5.612115189433097839e-02
8.765396475791931152e-02
1.047616675496101379e-01
9.445915371179580688e-02
9.149206429719924927e-02
1.071979254484176636e-01
9.716702252626419067e-02
6.461432576179504395e-02
6.223603338003158569e-02
4.915603622794151306e-02
5.552836880087852478e-02
4.366892948746681213e-02
3.887766972184181213e-02
1.839107647538185120e-02
1.351903937757015228e-02
4.049633443355560303e-02
3.242458775639533997e-02
5.294466018676757812e-02
5.395901575684547424e-02
4.658904299139976501e-02
4.876558482646942139e-02
4.063953086733818054e-02
1.075963024049997330e-02
-3.370654070749878883e-03
-3.974909707903862000e-02
-7.495898753404617310e-02
-8.328194171190261841e-02
-9.768109023571014404e-02
-1.165830641984939575e-01
-1.066118851304054260e-01
-9.668435901403427124e-02
-1.372012943029403687e-01
-7.670766860246658325e-02
-4.915024340152740479e-02
-2.677486650645732880e-02
-3.472400596365332603e-03
-1.728869043290615082e-02
-2.628459408879280090e-02
-2.927846834063529968e-02
-1.335268653929233551e-02
-2.830835292115807533e-03
-3.434878215193748474e-02
-3.747175633907318115e-02
-1.036612614989280701e-01
-8.828530460596084595e-02
-9.151056408882141113e-02
-8.001394569873809814e-02
-5.738783627748489380e-02
-6.201656907796859741e-02
-5.720850080251693726e-02
-3.913671150803565979e-02
-5.298594757914543152e-02
-4.409684985876083374e-02
-5.724376812577247620e-02
-6.001991406083106995e-02
-7.943830639123916626e-02
-4.765801131725311279e-02
-3.189051151275634766e-02
-3.253481909632682800e-02
-4.302997887134552002e-02
-3.728511277586221695e-03
1.809715852141380310e-02
4.140930622816085815e-02
7.406122982501983643e-02
7.364073395729064941e-02
1.091226339340209961e-01
1.144587025046348572e-01
1.040324717760086060e-01
1.022823005914688110e-01
1.206223219633102417e-01
1.011223271489143372e-01
8.037784695625305176e-02
5.570225045084953308e-02
4.295514151453971863e-02
3.681410104036331177e-02
3.520985692739486694e-02
1.394743914715945721e-03
-1.798209920525550842e-02
-1.089497841894626617e-02
1.005788147449493408e-02
3.161475062370300293e-02
4.352159053087234497e-02
2.911249920725822449e-02
2.045509591698646545e-02
3.079685382544994354e-02
5.244719609618186951e-02
5.487879971042275429e-04
-1.387616433203220367e-02
-3.626759350299835205e-02
-1.016724556684494019e-01
-9.852884709835052490e-02
-1.244542002677917480e-01
-1.343772560358047485e-01
-1.394097059965133667e-01
-1.319468766450881958e-01
-1.370715051889419556e-01
-1.069914475083351135e-01
-7.198042422533035278e-02
-4.596140235662460327e-02
-2.844766341149806976e-02
-6.782169453799724579e-03
-3.132735192775726318e-02
-2.760980743914842606e-03
-1.236959733068943024e-02
-7.518323604017496109e-03
-3.893329948186874390e-02
-5.645246058702468872e-02
-1.049112752079963684e-01
-9.152570366859436035e-02
-8.340789377689361572e-02
-6.935635209083557129e-02
-5.456078797578811646e-02
-4.442325606942176819e-02
-5.271503701806068420e-02
-5.225757136940956116e-02
-5.350078269839286804e-02
-5.074925348162651062e-02
-4.675251990556716919e-02
-5.073370039463043213e-02
-5.453455448150634766e-02
-2.735453471541404724e-02
-2.784962579607963562e-02
-2.466675452888011932e-02
-3.719565644860267639e-02
9.560151956975460052e-04
2.324336208403110504e-02
5.064463615417480469e-02
8.330661803483963013e-02
1.044192984700202942e-01
1.158318221569061279e-01
1.308934539556503296e-01
1.148301959037780762e-01
1.130709722638130188e-01
1.227645576000213623e-01
1.018239259719848633e-01
8.575596660375595093e-02
4.635273665189743042e-02
2.433788217604160309e-02
1.388093363493680954e-02
-3.013582434505224228e-03
-1.466902066022157669e-02
-1.337565947324037552e-02
-1.133861113339662552e-02
1.425206009298563004e-02
2.913960069417953491e-02
2.041488885879516602e-02
1.579688675701618195e-02
1.310160849243402481e-02
1.163320336490869522e-02
2.882710844278335571e-02
-6.528559606522321701e-03
-4.040901735424995422e-02
-5.600912868976593018e-02
-9.962534904479980469e-02
-1.212081238627433777e-01
-1.481271684169769287e-01
-1.561653912067413330e-01
-1.622455269098281860e-01
-1.459992080926895142e-01
-1.529441922903060913e-01
-1.027511283755302429e-01
-6.982032209634780884e-02
-5.295333266258239746e-02
-3.722781315445899963e-02
-7.096604444086551666e-03
-7.619235198944807053e-03
6.883481517434120178e-03
1.547709980513900518e-04
-1.781844720244407654e-02
-2.836110629141330719e-02
-6.104526668787002563e-02
-1.010151207447052002e-01
-9.951644390821456909e-02
-8.826072514057159424e-02
-8.144770562648773193e-02
-7.535727322101593018e-02
-8.015301823616027832e-02
-8.371260762214660645e-02
-6.651379168033599854e-02
-5.577225610613822937e-02
-5.684374272823333740e-02
-7.416535913944244385e-02
-9.663586318492889404e-02
-1.312782913446426392e-01
-1.150632575154304504e-01
-9.592694044113159180e-02
-1.038628444075584412e-01
-7.199665904045104980e-02
-4.236399382352828979e-02
-1.459403987973928452e-02
6.856055464595556259e-03
3.313332051038742065e-02
5.782825127243995667e-02
7.851827144622802734e-02
6.295531243085861206e-02
5.462554469704627991e-02
7.094486057758331299e-02
1.116958409547805786e-01
9.706380963325500488e-02
5.438111722469329834e-02
2.278086543083190918e-02
1.495204679667949677e-02
7.476100232452154160e-03
4.313127137720584869e-03
-1.975563354790210724e-02
-4.680360481142997742e-02
-3.411537036299705505e-02
-1.670023985207080841e-02
-8.190860971808433533e-03
-1.447252742946147919e-02
-1.595053076744079590e-02
-3.704216703772544861e-02
-3.219111263751983643e-02
-4.982525482773780823e-02
-8.362426608800888062e-02
-1.066086217761039734e-01
-1.300431489944458008e-01
-1.445223391056060791e-01
-1.738609969615936279e-01
-1.843402683734893799e-01
-1.948598027229309082e-01
-1.811418980360031128e-01
-1.888894438743591309e-01
-2.032820731401443481e-01
-1.602429598569869995e-01
-1.291118860244750977e-01
-9.462405741214752197e-02
-9.419701993465423584e-02
-6.551573425531387329e-02
-4.250451177358627319e-02
-1.850149594247341156e-02
-2.787050232291221619e-02
-3.754821792244911194e-02
-5.732224509119987488e-02
-8.881099522113800049e-02
-8.497119694948196411e-02
-9.956979006528854370e-02
-8.023468405008316040e-02
-8.235973864793777466e-02
-6.640598922967910767e-02
-4.413051903247833252e-02
-4.083767160773277283e-02
-5.660114809870719910e-03
-2.393833175301551819e-02
-3.163547441363334656e-02
-2.800517715513706207e-02
-7.158493250608444214e-02
-9.892942756414413452e-02
-7.644754648208618164e-02
-8.613662421703338623e-02
-6.940544396638870239e-02
-7.014977931976318359e-02
-7.032603770494461060e-02
-3.000867087393999100e-03
1.442820206284523010e-02
1.846610940992832184e-02
2.663847245275974274e-02
4.166628792881965637e-02
3.789287060499191284e-02
3.304710239171981812e-02
5.406672507524490356e-02
1.088748574256896973e-01
7.010412216186523438e-02
4.031415283679962158e-02
6.401794496923685074e-03
5.809896159917116165e-03
-2.275251783430576324e-02
-3.254224732518196106e-02
-6.321128457784652710e-02
-5.248116329312324524e-02
-6.300131231546401978e-02
-6.145354732871055603e-02
-2.796585857868194580e-02
-3.138417750597000122e-02
-4.731247946619987488e-02
-4.505276679992675781e-02
-5.790516361594200134e-02
-4.819156602025032043e-02
-5.541764199733734131e-02
-1.088889762759208679e-01
-1.441269367933273315e-01
-1.536684930324554443e-01
-1.645309627056121826e-01
-1.695272773504257202e-01
-1.826440989971160889e-01
-1.678915619850158691e-01
-1.873582005500793457e-01
-2.218889296054840088e-01
-1.656938493251800537e-01
-1.310892254114151001e-01
-1.033148542046546936e-01
-9.920896589756011963e-02
-6.958431750535964966e-02
-3.317271545529365540e-02
-5.195297300815582275e-03
-2.879966795444488525e-02
-4.427967965602874756e-02
-4.112285003066062927e-02
-9.972872585058212280e-02
-1.050105541944503784e-01
-8.185321837663650513e-02
-8.476341515779495239e-02
-6.026512384414672852e-02
-4.522633552551269531e-02
-2.194433100521564484e-02
-1.782447216100990772e-03
-1.355813699774444103e-03
-5.228917580097913742e-04
-2.382148243486881256e-02
-6.395351607352495193e-03
-4.182189330458641052e-02
-6.032271683216094971e-02
-7.540143281221389771e-02
-9.298110008239746094e-02
-8.970324695110321045e-02
-6.050154194235801697e-02
-6.091894209384918213e-02
-3.362267278134822845e-03
-3.583094803616404533e-03
1.021916233003139496e-02
2.109097316861152649e-02
1.182843558490276337e-02
7.254170253872871399e-03
1.713811606168746948e-02
3.404697403311729431e-02
1.018685773015022278e-01
3.267098963260650635e-02
-1.967996917665004730e-02
-3.540234640240669250e-02
-4.713855683803558350e-02
-6.132842972874641418e-02
-8.224331587553024292e-02
-6.089306995272636414e-02
-1.007031872868537903e-01
-6.986732780933380127e-02
-5.968258529901504517e-02
-4.770696908235549927e-02
-5.339819192886352539e-02
-6.429082155227661133e-02
-6.696662306785583496e-02
-6.333357840776443481e-02
-5.397783592343330383e-02
-7.902672141790390015e-02
-1.139977127313613892e-01
-1.284964531660079956e-01
-1.665053665637969971e-01
-1.684501916170120239e-01
-1.609409153461456299e-01
-1.515770852565765381e-01
-1.522243767976760864e-01
-1.640980094671249390e-01
-2.258385866880416870e-01
-1.547833681106567383e-01
-1.082149520516395569e-01
-9.969085454940795898e-02
-8.232051879167556763e-02
-6.232484430074691772e-02
-3.258546069264411926e-02
-1.267792657017707825e-02
-4.398943565320223570e-05
-3.217671066522598267e-02
-4.837093129754066467e-02
-8.500359207391738892e-02
-1.157032400369644165e-01
-7.600401341915130615e-02
-4.632763564586639404e-02
-4.054735228419303894e-02
-4.497403278946876526e-02
-2.162190712988376617e-02
-1.003559585660696030e-02
7.148869801312685013e-03
2.645611576735973358e-02
1.311286818236112595e-02
1.174715720117092133e-02
-2.871659398078918457e-02
-3.977014496922492981e-02
-5.489844456315040588e-02
-9.205807000398635864e-02
-9.691999852657318115e-02
-6.186391040682792664e-02
-5.646929144859313965e-02
-3.853265568614006042e-02
-1.146244443953037262e-02
-1.740797609090805054e-02
6.586465518921613693e-03
-5.444807931780815125e-03
-1.213892549276351929e-02
-1.758380606770515442e-02
5.830780137330293655e-03
6.987638771533966064e-02
-6.428081542253494263e-03
-3.276402503252029419e-02
-5.382752045989036560e-02
-6.204368919134140015e-02
-6.064420565962791443e-02
-8.861400932073593140e-02
-1.134127080440521240e-01
-1.168641597032546997e-01
-9.660665690898895264e-02
-7.227445393800735474e-02
-4.656676203012466431e-02
-6.501661986112594604e-02
-5.915682390332221985e-02
-3.991910442709922791e-02
-6.199140474200248718e-02
-6.968682259321212769e-02
-8.357790112495422363e-02
-1.012204587459564209e-01
-1.152838096022605896e-01
-1.459292620420455933e-01
-1.588433831930160522e-01
-1.467821449041366577e-01
-1.428288370370864868e-01
-1.349366009235382080e-01
-1.511287242174148560e-01
-2.127360254526138306e-01
-1.472438275814056396e-01
-1.220215111970901489e-01
-1.055433377623558044e-01
-8.031294494867324829e-02
-5.733197554945945740e-02
-4.035190492868423462e-02
-2.712899120524525642e-03
-5.417569074779748917e-03
-3.170855343341827393e-02
-6.288603693246841431e-02
-9.226594120264053345e-02
-1.148098930716514587e-01
-5.333962291479110718e-02
-2.882144413888454437e-02
-2.862789481878280640e-02
-2.327110059559345245e-02
-2.011049166321754456e-02
-1.623618765734136105e-03
-3.954601415898650885e-04
2.258046157658100128e-02
1.570400490891188383e-04
1.320817880332469940e-02
-2.932898700237274170e-02
-3.085451386868953705e-02
-4.684776440262794495e-02
-6.692833453416824341e-02
-7.008434087038040161e-02
-5.002596974372863770e-02
-5.373563989996910095e-02
-2.853851206600666046e-02
-2.384302951395511627e-02
-2.645042538642883301e-02
-9.088397026062011719e-03
-9.324043057858943939e-03
-3.197612613439559937e-02
-4.713835194706916809e-02
-4.657565802335739136e-02
2.831381186842918396e-02
-2.126790955662727356e-02
-6.304442137479782104e-02
-1.040909513831138611e-01
-1.041776835918426514e-01
-8.715896308422088623e-02
-1.227847114205360413e-01
-1.274917274713516235e-01
-1.134882122278213501e-01
-8.414924889802932739e-02
-7.297707349061965942e-02
-3.415346518158912659e-02
-4.232772067189216614e-02
-5.134672671556472778e-02
-3.675876185297966003e-02
-6.524078547954559326e-02
-8.385647088289260864e-02
-9.062810242176055908e-02
-1.158105507493019104e-01
-1.153470873832702637e-01
-1.237635239958763123e-01
-1.334307789802551270e-01
-1.378402858972549438e-01
-1.249977797269821167e-01
-1.194780170917510986e-01
-1.096448451280593872e-01
-1.631402373313903809e-01
-1.096859499812126160e-01
-8.715310692787170410e-02
-7.615198940038681030e-02
-5.725017935037612915e-02
-4.798228666186332703e-02
-2.313343249261379242e-02
-4.950838163495063782e-03
-3.235745010897517204e-03
-2.933856844902038574e-02
-4.831513389945030212e-02
-8.291067928075790405e-02
-1.140250563621520996e-01
-4.777791723608970642e-02
-3.475121408700942993e-02
-3.193749859929084778e-02
-1.445636432617902756e-02
-2.583881840109825134e-02
-1.892960257828235626e-02
-6.516926921904087067e-03
1.730914041399955750e-02
-1.855359040200710297e-02
-1.378107932396233082e-03
-1.902704313397407532e-02
4.580740816891193390e-03
-1.104438677430152893e-02
-5.021814629435539246e-02
-7.044492661952972412e-02
-5.521010234951972961e-02
-4.626961052417755127e-02
-3.978340700268745422e-02
-3.823197260499000549e-02
-1.458684913814067841e-02
-5.474999174475669861e-02
-3.198717907071113586e-02
-2.230531908571720123e-02
-6.098691374063491821e-02
-4.756258428096771240e-02
-5.069035105407238007e-04
-3.698848560452461243e-02
-7.631457597017288208e-02
-1.123262643814086914e-01
-1.190398037433624268e-01
-1.059197485446929932e-01
-1.242327913641929626e-01
-1.068075820803642273e-01
-1.065823659300804138e-01
-9.545831382274627686e-02
-9.078095853328704834e-02
-3.715693205595016479e-02
-5.232369527220726013e-02
-3.645023703575134277e-02
-3.859727829694747925e-02
-5.096993967890739441e-02
-7.630784809589385986e-02
-9.540403634309768677e-02
-1.192909106612205505e-01
-1.043126359581947327e-01
-1.187739744782447815e-01
-9.959552437067031860e-02
-1.022420823574066162e-01
-1.269617676734924316e-01
-9.754196554422378540e-02
-1.243481561541557312e-01
-1.435746848583221436e-01
-9.563025832176208496e-02
-6.505823135375976562e-02
-6.107261404395103455e-02
-5.238453298807144165e-02
-3.479699045419692993e-02
-2.590825781226158142e-02
-1.974975503981113434e-02
-1.920416019856929779e-02
-3.864102438092231750e-02
-4.083938151597976685e-02
-8.450518548488616943e-02
-1.140098050236701965e-01
-5.872249603271484375e-02
-3.620674088597297668e-02
-3.175395354628562927e-02
-1.330871507525444031e-02
-2.959768660366535187e-02
-1.450046524405479431e-02
1.036265632137656212e-03
-1.257552765309810638e-02
5.725437775254249573e-03
1.419396325945854187e-02
8.753594011068344116e-03
-3.094209358096122742e-03
-5.438144784420728683e-03
-4.513281583786010742e-02
-5.041437223553657532e-02
-4.856101050972938538e-02
-4.855650290846824646e-02
-3.858933225274085999e-02
-5.281197279691696167e-02
-3.539483249187469482e-02
-5.843623727560043335e-02
-3.671763837337493896e-02
-4.238443449139595032e-02
-5.512417107820510864e-02
-5.659551918506622314e-02
-1.837068982422351837e-02
-5.700992792844772339e-02
-1.076171621680259705e-01
-1.244400516152381897e-01
-1.294265985488891602e-01
-1.317988932132720947e-01
-1.087657138705253601e-01
-1.124224960803985596e-01
-9.730859100818634033e-02
-9.551168978214263916e-02
-7.897000759840011597e-02
-2.770704217255115509e-02
-5.174548551440238953e-02
-6.012475863099098206e-02
-1.929999887943267822e-02
-4.599931836128234863e-02
-6.596238166093826294e-02
-9.527773410081863403e-02
-1.027200296521186829e-01
-1.180620566010475159e-01
-1.122897267341613770e-01
-9.361626207828521729e-02
-1.054644063115119934e-01
-1.081233173608779907e-01
-8.893349021673202515e-02
-9.552486985921859741e-02
-1.458440721035003662e-01
-6.302686780691146851e-02
-4.684712365269660950e-02
-5.112318322062492371e-02
-3.776893392205238342e-02
-2.531794458627700806e-02
-2.754732035100460052e-02
-1.946047693490982056e-02
-1.993399113416671753e-02
-3.605854138731956482e-02
-4.164696112275123596e-02
-9.827215224504470825e-02
-1.310668587684631348e-01
-4.486568272113800049e-02
-3.708960860967636108e-02
-2.199040539562702179e-02
-2.041604893747717142e-04
2.828009892255067825e-03
-7.242183666676282883e-03
-4.005820024758577347e-03
-7.028362713754177094e-03
1.293550617992877960e-02
1.912094419822096825e-03
2.166980132460594177e-02
-2.180834300816059113e-03
-3.657622961327433586e-03
-3.250977024435997009e-02
-6.216561421751976013e-02
-3.476509451866149902e-02
-4.139147326350212097e-02
-3.595250844955444336e-02
-3.939137980341911316e-02
-4.966606199741363525e-02
-6.388319283723831177e-02
-6.123331934213638306e-02
-7.944258302450180054e-02
-6.500364840030670166e-02
-9.659551829099655151e-02
-2.823485992848873138e-03
-5.525628104805946350e-02
-1.197307705879211426e-01
-1.345579028129577637e-01
-1.424593329429626465e-01
-1.502046585083007812e-01
-1.296419501304626465e-01
-1.127332076430320740e-01
-8.792923390865325928e-02
-7.569886744022369385e-02
-4.757375642657279968e-02
-2.840759605169296265e-02
-5.677848681807518005e-02
-4.531979933381080627e-02
-2.248524501919746399e-02
-4.998220875859260559e-02
-6.377575546503067017e-02
-9.373220056295394897e-02
-1.058683916926383972e-01
-1.062765941023826599e-01
-1.035625040531158447e-01
-9.993164241313934326e-02
-9.742813557386398315e-02
-7.687571644783020020e-02
-8.887517452239990234e-02
-7.265066355466842651e-02
-1.435259878635406494e-01
-6.847425550222396851e-02
-3.248146921396255493e-02
-2.983936667442321777e-02
-2.016152255237102509e-02
-6.671253591775894165e-03
-8.966777473688125610e-03
-1.665608026087284088e-02
-6.569020915776491165e-03
-3.360429406166076660e-02
-4.036881402134895325e-02
-9.324044734239578247e-02
-1.040805950760841370e-01
-5.028062686324119568e-02
-2.451438829302787781e-02
-1.845031045377254486e-02
-6.775198038667440414e-03
7.754829712212085724e-03
-2.347602858208119869e-04
-1.556806825101375580e-02
9.240355575457215309e-04
1.333199534565210342e-02
1.952792331576347351e-02
-3.914129454642534256e-03
3.123012604191899300e-03
-1.067109126597642899e-02
-4.332093894481658936e-02
-4.968124628067016602e-02
-2.016178704798221588e-02
-2.210127376019954681e-02
-4.239302873611450195e-02
-4.179632291197776794e-02
-2.575259469449520111e-02
-6.345010548830032349e-02
-7.277176529169082642e-02
-8.646422624588012695e-02
-7.317223399877548218e-02
-9.451410174369812012e-02
4.749306477606296539e-03
-5.556121096014976501e-02
-1.209078729152679443e-01
-1.266203820705413818e-01
-1.286530941724777222e-01
-1.290926784276962280e-01
-1.283379644155502319e-01
-1.059336662292480469e-01
-7.065065950155258179e-02
-3.964969143271446228e-02
-3.435108438134193420e-02
-1.177750993520021439e-02
-4.221617430448532104e-02
-4.189434647560119629e-02
-4.000359028577804565e-02
-4.143422096967697144e-02
-8.094381541013717651e-02
-9.178043901920318604e-02
-1.022104844450950623e-01
-1.032318472862243652e-01
-1.117471158504486084e-01
-9.383882582187652588e-02
-8.474881947040557861e-02
-8.043732494115829468e-02
-9.543522447347640991e-02
-6.501263380050659180e-02
-1.325586438179016113e-01
-8.867298811674118042e-02
-4.676239192485809326e-02
-2.476224116981029510e-02
-2.020922116935253143e-02
-2.522502094507217407e-02
2.676563803106546402e-03
-1.009254157543182373e-02
-1.756228506565093994e-02
-3.657323122024536133e-02
-3.557868301868438721e-02
-8.045934885740280151e-02
-1.070698797702789307e-01
-4.364678263664245605e-02
-2.296686358749866486e-02
-1.530143991112709045e-02
-2.774688228964805603e-02
-9.256017394363880157e-03
-1.871738582849502563e-02
3.409601282328367233e-03
6.547435652464628220e-03
6.966017652302980423e-03
1.433458831161260605e-02
-1.511649321764707565e-02
3.390745725482702255e-03
-1.276644505560398102e-02
-4.414166882634162903e-02
-3.229621425271034241e-02
-9.590827859938144684e-03
-1.993305422365665436e-02
-3.424905240535736084e-02
-4.413499683141708374e-02
-7.357796654105186462e-03
-2.089218981564044952e-02
-5.866664275527000427e-02
-8.359717577695846558e-02
-8.219747990369796753e-02
-6.829413026571273804e-02
4.172306507825851440e-03
-7.483929395675659180e-02
-1.035150140523910522e-01
-1.033659577369689941e-01
-1.286187767982482910e-01
-1.168674975633621216e-01
-1.051203534007072449e-01
-1.115618869662284851e-01
-7.056108117103576660e-02
-2.255060896277427673e-02
-3.841978311538696289e-02
-1.206446066498756409e-02
-5.744465067982673645e-02
-1.422946900129318237e-02
-3.387421742081642151e-02
-4.157169163227081299e-02
-8.163285255432128906e-02
-9.384060651063919067e-02
-9.217874705791473389e-02
-9.635009616613388062e-02
-1.138372942805290222e-01
-1.001587435603141785e-01
-8.282066881656646729e-02
-8.687227964401245117e-02
-7.854613661766052246e-02
-8.107385039329528809e-02
-1.231799200177192688e-01
-6.969445943832397461e-02
-4.931376501917839050e-02
-2.353914454579353333e-02
-3.251195326447486877e-02
-2.309664525091648102e-02
2.340662758797407150e-03
6.951927207410335541e-03
-3.341285511851310730e-02
-3.723881766200065613e-02
-4.439712315797805786e-02
-8.732929080724716187e-02
-9.518582373857498169e-02
-4.811397194862365723e-02
-2.612944133579730988e-02
-1.550492923706769943e-02
-1.640833541750907898e-02
-1.959709636867046356e-02
-1.470175851136445999e-02
1.495268894359469414e-03
1.519742794334888458e-02
6.508809514343738556e-03
8.074121549725532532e-03
-2.606531791388988495e-02
-4.957529250532388687e-03
-3.239122405648231506e-02
-3.101531229913234711e-02
-1.258386205881834030e-02
-1.355311833322048187e-03
5.746942013502120972e-03
-3.416447341442108154e-02
-4.796107858419418335e-02
-1.653748191893100739e-02
-3.240939602255821228e-02
-3.846194222569465637e-02
-7.378929108381271362e-02
-6.992819905281066895e-02
-4.271400347352027893e-02
1.181738916784524918e-03
-6.142526865005493164e-02
-8.913043141365051270e-02
-9.362348914146423340e-02
-1.134354844689369202e-01
-1.113742738962173462e-01
-9.949355572462081909e-02
-1.055546477437019348e-01
-6.196815893054008484e-02
-2.586945705115795135e-02
-3.776998072862625122e-02
-1.743952557444572449e-02
-3.170258551836013794e-02
-5.424579605460166931e-03
-1.772283762693405151e-02
-5.058193579316139221e-02
-5.838278681039810181e-02
-8.815518021583557129e-02
-9.502062946557998657e-02
-9.441589564085006714e-02
-9.598138928413391113e-02
-8.313139528036117554e-02
-9.254164993762969971e-02
-8.927252888679504395e-02
-8.478803187608718872e-02
-8.381778746843338013e-02
-1.236227750778198242e-01
-7.199773192405700684e-02
-4.989268258213996887e-02
-3.559933602809906006e-02
-3.877509385347366333e-02
-2.512713894248008728e-02
6.905382499098777771e-03
-4.830139805562794209e-04
-5.870071053504943848e-02
-3.309821337461471558e-02
-6.983880698680877686e-02
-9.408865123987197876e-02
-1.064903214573860168e-01
-5.392890423536300659e-02
-3.325195237994194031e-02
-1.113485824316740036e-02
-2.134030684828758240e-02
-8.094339631497859955e-03
-1.108213234692811966e-02
-2.010801807045936584e-03
1.413435209542512894e-02
1.192599069327116013e-02
5.301269702613353729e-03
-1.606173254549503326e-02
-9.879956021904945374e-03
-2.552375197410583496e-02
-3.590179234743118286e-02
-7.407105527818202972e-03
3.129478543996810913e-03
-1.687094336375594139e-03
-3.992239013314247131e-02
-3.228314220905303955e-02
-2.239169739186763763e-02
-1.209818478673696518e-02
-3.623342141509056091e-02
-5.995643883943557739e-02
-7.425971329212188721e-02
-5.019710585474967957e-02
2.043935004621744156e-03
-5.148362368345260620e-02
-9.288628399372100830e-02
-1.157523021101951599e-01
-1.196430400013923645e-01
-1.170479357242584229e-01
-1.022790744900703430e-01
-1.119302287697792053e-01
-6.379868835210800171e-02
-2.203058265149593353e-02
-2.853304892778396606e-02
-2.326855249702930450e-02
-2.430031821131706238e-02
-2.222757320851087570e-03
-1.217072922736406326e-02
-5.590923875570297241e-02
-7.434330135583877563e-02
-8.678766340017318726e-02
-8.640254288911819458e-02
-9.389656782150268555e-02
-5.867914482951164246e-02
-8.036825805902481079e-02
-9.415245801210403442e-02
-1.025457531213760376e-01
-8.821678161621093750e-02
-8.375138044357299805e-02
-1.143069416284561157e-01
-7.792834192514419556e-02
-4.732416570186614990e-02
-4.645584523677825928e-02
-3.621922060847282410e-02
4.094587638974189758e-03
-9.961042553186416626e-03
3.751179669052362442e-03
-4.967346414923667908e-02
-5.100088194012641907e-02
-8.488009870052337646e-02
-1.213776394724845886e-01
-1.182248815894126892e-01
-5.944422632455825806e-02
-3.940627351403236389e-02
-3.532120212912559509e-02
-2.400880306959152222e-02
-2.104102820158004761e-02
-1.535596046596765518e-02
5.274777300655841827e-03
7.788366172462701797e-03
1.321813650429248810e-02
-1.904431357979774475e-02
-3.080431744456291199e-02
-3.778785839676856995e-02
-2.437131479382514954e-02
-3.447770699858665466e-02
2.580342069268226624e-02
1.614217273890972137e-02
-1.152671407908201218e-03
-2.223368920385837555e-02
-6.462268065661191940e-03
-2.131157368421554565e-02
-1.447005383670330048e-02
-3.836145997047424316e-02
-3.859888389706611633e-02
-6.783878803253173828e-02
-5.256162583827972412e-02
1.067050173878669739e-02
-4.524331912398338318e-02
-9.424873441457748413e-02
-1.234679371118545532e-01
-1.181428879499435425e-01
-1.005936041474342346e-01
-1.062059998512268066e-01
-8.756157755851745605e-02
-6.020281463861465454e-02
-4.516084492206573486e-02
-1.487391535192728043e-02
-1.753473281860351562e-02
-2.083772420883178711e-02
-1.441281847655773163e-02
-3.298258781433105469e-02
-7.563598453998565674e-02
-7.892847806215286255e-02
-6.474208086729049683e-02
-8.668190240859985352e-02
-9.112323820590972900e-02
-6.563612818717956543e-02
-8.106984198093414307e-02
-8.797336369752883911e-02
-1.013363078236579895e-01
-7.488331943750381470e-02
-7.915886491537094116e-02
-1.239754259586334229e-01
-7.883328944444656372e-02
-3.350495919585227966e-02
-4.177846387028694153e-02
-3.645695745944976807e-02
-2.778303809463977814e-02
-1.115845609456300735e-02
-3.942699730396270752e-02
-6.009139120578765869e-02
-6.030720472335815430e-02
-9.113723039627075195e-02
-1.192852258682250977e-01
-1.254549771547317505e-01
-7.808218151330947876e-02
-4.651920124888420105e-02
-4.459811747074127197e-02
-3.643975406885147095e-02
-3.477731719613075256e-02
-7.137302309274673462e-03
-9.197680628858506680e-04
1.218296121805906296e-02
-1.370280887931585312e-02
-2.806434780359268188e-02
-6.197971105575561523e-02
-4.035861045122146606e-02
-4.397115483880043030e-02
-4.044868424534797668e-02
1.494916062802076340e-02
1.232496369630098343e-02
1.311547309160232544e-02
-2.861196734011173248e-02
-5.378804635256528854e-03
-1.417938247323036194e-02
-1.925217546522617340e-02
-8.314166218042373657e-03
-3.358861804008483887e-02
-5.882335454225540161e-02
-5.930073186755180359e-02
-5.189640447497367859e-03
-5.523452907800674438e-02
-1.130722239613533020e-01
-1.262764483690261841e-01
-1.106512546539306641e-01
-1.023831218481063843e-01
-1.010792031884193420e-01
-8.160797506570816040e-02
-5.583072081208229065e-02
-3.490320965647697449e-02
-1.810717023909091949e-02
-9.966252371668815613e-03
-4.170868173241615295e-02
-3.374379500746726990e-02
-3.620645403861999512e-02
-7.480018585920333862e-02
-8.168631047010421753e-02
-6.015701964497566223e-02
-7.469437271356582642e-02
-9.538526087999343872e-02
-8.865919709205627441e-02
-9.082111716270446777e-02
-7.196374237537384033e-02
-9.604749083518981934e-02
-9.292949736118316650e-02
-6.479844450950622559e-02
-1.078587323427200317e-01
-8.300530165433883667e-02
-3.618298470973968506e-02
-1.999425888061523438e-02
-2.135965973138809204e-02
-3.260588645935058594e-02
-2.182978205382823944e-02
-4.611479118466377258e-02
-7.400082796812057495e-02
-6.733413785696029663e-02
-8.129295706748962402e-02
-1.290258318185806274e-01
-8.993473649024963379e-02
-8.998840302228927612e-02
-3.041766583919525146e-02
-4.487259313464164734e-02
-4.376192763447761536e-02
-2.178204990923404694e-02
-1.929423399269580841e-02
-3.970010206103324890e-02
-2.722298353910446167e-02
-4.600771144032478333e-02
-6.242969259619712830e-02
-6.402987986803054810e-02
-3.461679443717002869e-02
-2.272685617208480835e-02
-1.230776868760585785e-02
3.867454454302787781e-02
3.876652568578720093e-02
3.446234762668609619e-02
1.529042236506938934e-02
3.155181556940078735e-02
3.085950016975402832e-02
1.498555671423673630e-02
2.712556906044483185e-02
8.828573860228061676e-03
-1.330331061035394669e-02
-1.527240220457315445e-02
-1.745192334055900574e-02
-2.233631536364555359e-02
-7.072847336530685425e-02
-6.406541913747787476e-02
-6.958507001399993896e-02
-8.517657220363616943e-02
-9.633598476648330688e-02
-6.956173479557037354e-02
-8.190499991178512573e-02
-6.825492531061172485e-02
-4.391748830676078796e-02
-4.024583473801612854e-02
-5.109119415283203125e-02
-4.744611680507659912e-02
-4.359049722552299500e-02
-7.706680148839950562e-02
-6.938236951828002930e-02
-4.906660690903663635e-02
-5.431543290615081787e-02
-6.954838335514068604e-02
-6.001680344343185425e-02
-4.286183044314384460e-02
-4.374692961573600769e-02
-5.035975575447082520e-02
-4.153811186552047729e-02
-2.273884788155555725e-02
-4.634922370314598083e-02
-3.583219647407531738e-02
6.972930394113063812e-03
6.377564743161201477e-03
2.395940944552421570e-03
5.017835646867752075e-03
-1.115345745347440243e-03
-1.682424917817115784e-02
-2.251451648771762848e-02
-4.472398012876510620e-02
-5.133280158042907715e-02
-1.032445952296257019e-01
-9.204211086034774780e-02
-7.636757940053939819e-02
-2.964387089014053345e-02
-3.336416184902191162e-02
-3.399987891316413879e-02
-3.100931271910667419e-02
-3.612681105732917786e-02
-3.548920154571533203e-02
-3.624941036105155945e-02
-3.550373017787933350e-02
-6.657540798187255859e-02
-7.290625572204589844e-02
-2.700741216540336609e-02
-2.821245230734348297e-02
-6.597259081900119781e-03
3.578978031873703003e-02
4.093346372246742249e-02
3.495647013187408447e-02
3.914738446474075317e-02
4.501949995756149292e-02
3.431339189410209656e-02
2.991870045661926270e-02
3.136159479618072510e-02
2.350988797843456268e-02
9.317752905189990997e-03
-1.635973528027534485e-02
-1.067260932177305222e-02
-3.509062901139259338e-02
-7.093758136034011841e-02
-8.146350830793380737e-02
-6.372269988059997559e-02
-7.332287728786468506e-02
-7.591412961483001709e-02
-6.126475706696510315e-02
-6.977300345897674561e-02
-8.544471114873886108e-02
-5.735693871974945068e-02
-3.793881833553314209e-02
-4.069160297513008118e-02
-3.637111559510231018e-02
-3.778251633048057556e-02
-7.033762335777282715e-02
-6.284049153327941895e-02
-5.285492539405822754e-02
-4.773407801985740662e-02
-6.058842688798904419e-02
-6.674350798130035400e-02
-5.580152571201324463e-02
-3.507918119430541992e-02
-4.991566762328147888e-02
-3.538327291607856750e-02
-1.818437129259109497e-02
-4.443466663360595703e-02
-3.128312900662422180e-02
7.210570853203535080e-03
1.221618708223104477e-02
5.031259264796972275e-03
4.751614294946193695e-03
2.740868832916021347e-03
-2.049113065004348755e-02
-1.797311007976531982e-02
-2.863002195954322815e-02
-5.652201548218727112e-02
-8.438659459352493286e-02
-8.533900231122970581e-02
-6.353086233139038086e-02
-3.029495850205421448e-02
-3.504700213670730591e-02
-3.136067092418670654e-02
-4.617205262184143066e-02
-3.842205926775932312e-02
-4.186795651912689209e-02
-2.861539274454116821e-02
-6.129107624292373657e-02
-6.940180808305740356e-02
-7.177678495645523071e-02
-2.826494351029396057e-02
-1.304731704294681549e-02
1.450722664594650269e-02
3.770419955253601074e-02
3.735425323247909546e-02
2.718918398022651672e-02
5.037024617195129395e-02
3.975494578480720520e-02
5.513241142034530640e-02
5.418852344155311584e-02
4.337169975042343140e-02
3.139961510896682739e-02
2.650959976017475128e-02
-1.089884154498577118e-02
9.637033566832542419e-03
-3.523052111268043518e-02
-7.035587728023529053e-02
-6.089087203145027161e-02
-6.785850226879119873e-02
-5.058695003390312195e-02
-5.124054104089736938e-02
-4.391191899776458740e-02
-6.547057628631591797e-02
-5.990899354219436646e-02
-3.257519751787185669e-02
-2.098105847835540771e-02
-5.055837333202362061e-02
-1.914125494658946991e-02
-4.654964059591293335e-02
-6.384375691413879395e-02
-6.469327211380004883e-02
-6.093503162264823914e-02
-5.167398601770401001e-02
-4.896429181098937988e-02
-5.273563787341117859e-02
-5.053858831524848938e-02
-3.425559401512145996e-02
-4.278183355927467346e-02
-5.189168080687522888e-02
-2.590147033333778381e-02
-4.953784868121147156e-02
-3.202672675251960754e-02
2.736598486080765724e-03
4.863960784859955311e-04
1.008582301437854767e-02
-3.529214300215244293e-04
-5.618551746010780334e-03
-3.070474043488502502e-02
-1.016893610358238220e-02
-2.520026080310344696e-02
-5.512234568595886230e-02
-8.353907614946365356e-02
-1.083331331610679626e-01
-7.318121939897537231e-02
-4.391767084598541260e-02
-1.714980229735374451e-02
-3.488463535904884338e-02
-4.341809079051017761e-02
-3.172275424003601074e-02
-3.974619507789611816e-02
-3.013345785439014435e-02
-5.865873768925666809e-02
-6.722474843263626099e-02
-5.629804730415344238e-02
-1.268297899514436722e-02
-1.208705548197031021e-02
3.448077011853456497e-03
3.874712064862251282e-02
4.714972153306007385e-02
5.423423647880554199e-02
7.268489897251129150e-02
6.325013190507888794e-02
6.338369846343994141e-02
6.413460522890090942e-02
5.287919193506240845e-02
3.681233152747154236e-02
2.075419388711452484e-02
-5.476303398609161377e-03
1.363520324230194092e-02
-3.051045536994934082e-02
-4.428165778517723083e-02
-6.851691007614135742e-02
-6.555128842592239380e-02
-6.200426444411277771e-02
-3.607026487588882446e-02
-3.392774611711502075e-02
-3.632599487900733948e-02
-3.227659314870834351e-02
-2.621283940970897675e-02
-4.185478389263153076e-02
-5.846618860960006714e-02
-1.385117322206497192e-02
-3.907655552029609680e-02
-7.395686954259872437e-02
-8.284495770931243896e-02
-6.418704986572265625e-02
-4.568548128008842468e-02
-3.943308442831039429e-02
-6.779690086841583252e-02
-4.919109493494033813e-02
-3.457928448915481567e-02
-3.810187056660652161e-02
-4.003570973873138428e-02
-2.913204766809940338e-02
-4.976716637611389160e-02
-4.471159726381301880e-02
-1.320496108382940292e-02
-3.798464895226061344e-04
2.310042036697268486e-03
1.589938625693321228e-02
-2.403798140585422516e-02
-2.589290216565132141e-02
-7.615206763148307800e-03
-1.668172329664230347e-02
-4.432101175189018250e-02
-5.851708725094795227e-02
-1.422606408596038818e-01
-4.806505143642425537e-02
-3.032268583774566650e-02
-1.571074128150939941e-02
-3.525024279952049255e-02
-3.830349072813987732e-02
-2.509000338613986969e-02
-3.706626966595649719e-02
-4.663017019629478455e-02
-5.206234380602836609e-02
-3.856365382671356201e-02
-2.660291641950607300e-02
1.813545823097229004e-02
6.457339506596326828e-03
4.574828781187534332e-03
5.563791841268539429e-02
4.456588998436927795e-02
6.638841331005096436e-02
8.713240176439285278e-02
7.185479253530502319e-02
1.028963252902030945e-01
9.395990520715713501e-02
6.036109849810600281e-02
4.413372650742530823e-02
4.292446747422218323e-02
4.721938632428646088e-03
3.334896638989448547e-02
-1.864065788686275482e-02
-2.726008370518684387e-02
-5.527217313647270203e-02
-3.343250975012779236e-02
-4.600965231657028198e-02
-4.157204926013946533e-02
-2.254651114344596863e-02
-1.886769570410251617e-02
-3.206030651926994324e-02
-3.727864101529121399e-02
-4.698540642857551575e-02
-4.928625002503395081e-02
-2.970384992659091949e-02
-2.803566679358482361e-02
-8.081229776144027710e-02
-8.796421438455581665e-02
-5.401535704731941223e-02
-4.126649349927902222e-02
-2.286553569138050079e-02
-5.135493353009223938e-02
-7.916907966136932373e-02
-2.505921199917793274e-02
-3.182104602456092834e-02
-4.952980205416679382e-02
-3.183209151029586792e-02
-7.661058753728866577e-02
-4.130294546484947205e-02
-1.095547620207071304e-02
-5.316730123013257980e-03
1.120946486480534077e-03
-4.226310178637504578e-03
-2.084741368889808655e-02
-2.452075295150279999e-02
-1.229481399059295654e-02
-1.717130467295646667e-02
-2.453223057091236115e-02
-3.938516229391098022e-02
-1.325069367885589600e-01
-3.210742026567459106e-02
-1.222220249474048615e-02
-1.346224639564752579e-02
-2.542411535978317261e-02
-3.420566394925117493e-02
-3.705823794007301331e-02
-2.849946729838848114e-02
-5.065481364727020264e-02
-3.442320227622985840e-02
-1.023807097226381302e-03
1.141182333230972290e-02
2.098821662366390228e-02
2.048568800091743469e-03
6.651409436017274857e-03
5.110816657543182373e-02
6.215410679578781128e-02
5.943565443158149719e-02
9.220921248197555542e-02
8.908920735120773315e-02
1.211785599589347839e-01
9.829033166170120239e-02
5.417154356837272644e-02
5.304699763655662537e-02
6.264024227857589722e-02
1.745617017149925232e-02
6.104087829589843750e-02
-3.689532866701483727e-03
-2.363073267042636871e-02
-2.950706891715526581e-02
-3.569014370441436768e-02
-3.295014798641204834e-02
-2.227961830794811249e-02
-2.258986420929431915e-02
1.651994534768164158e-03
-2.112582512199878693e-02
-4.349021241068840027e-02
-6.149714812636375427e-02
-6.395921856164932251e-02
-3.597617149353027344e-02
-3.347241878509521484e-02
-5.394033342599868774e-02
-7.028000056743621826e-02
-4.194651171565055847e-02
-1.549976598471403122e-02
-1.028032880276441574e-02
-5.429535731673240662e-02
-5.898128449916839600e-02
-2.932189218699932098e-02
-2.313883230090141296e-02
-4.731005057692527771e-02
-2.709041908383369446e-02
-9.716362506151199341e-02
-2.960922941565513611e-02
-3.495933860540390015e-02
-1.187922712415456772e-02
-1.526123844087123871e-03
3.925132565200328827e-03
-3.272739052772521973e-02
-2.440118975937366486e-02
-2.888422273099422455e-02
-6.915317848324775696e-03
-1.476409565657377243e-02
-3.491526842117309570e-02
-8.893857896327972412e-02
-2.463960647583007812e-02
1.197220571339130402e-02
1.439774874597787857e-03
-7.574051618576049805e-03
-2.675270289182662964e-02
-2.591368742287158966e-02
-1.819518394768238068e-02
-3.232043981552124023e-02
-2.052063494920730591e-02
4.863461945205926895e-03
2.343982644379138947e-02
4.265813156962394714e-02
9.836010634899139404e-03
2.727546915411949158e-02
3.508570417761802673e-02
3.722916543483734131e-02
5.503157153725624084e-02
8.295847475528717041e-02
8.329658210277557373e-02
1.145237758755683899e-01
1.146776303648948669e-01
7.228761166334152222e-02
6.144163757562637329e-02
4.623018205165863037e-02
1.492509152740240097e-02
5.415929108858108521e-02
1.182498689740896225e-02
-1.532707270234823227e-02
-1.814239367377012968e-04
-8.536376059055328369e-03
-9.623663499951362610e-03
-6.788058672100305557e-03
-8.372513577342033386e-03
8.858671411871910095e-03
-3.057811781764030457e-02
-5.774245038628578186e-02
-5.961102247238159180e-02
-8.688741177320480347e-02
-4.456771165132522583e-02
-4.485877975821495056e-02
-2.811197936534881592e-02
-3.957768529653549194e-02
-2.904691174626350403e-02
-3.442694991827011108e-02
-1.663125865161418915e-02
-3.335080668330192566e-02
-4.693544283509254456e-02
-3.554233908653259277e-02
-3.494205325841903687e-02
-2.875354140996932983e-02
-1.813265681266784668e-02
-7.685483247041702271e-02
-3.286188468337059021e-02
-3.750711679458618164e-02
-2.571321837604045868e-02
-1.059527415782213211e-02
-1.506913453340530396e-02
-3.798210620880126953e-02
-1.996165327727794647e-02
-3.574042394757270813e-02
-9.605568833649158478e-03
-8.094280958175659180e-03
-3.115914575755596161e-02
-6.463071703910827637e-02
-1.054831035435199738e-02
-2.268568798899650574e-02
1.712438650429248810e-03
-1.338951569050550461e-02
-3.213141113519668579e-02
-1.840705797076225281e-02
-2.805862203240394592e-02
-3.711629286408424377e-02
-1.065703295171260834e-02
-3.101173788309097290e-03
-4.670741502195596695e-03
3.468062728643417358e-02
2.222049050033092499e-02
4.888282343745231628e-02
1.658664271235466003e-02
5.923965014517307281e-03
4.780842736363410950e-02
8.402003347873687744e-02
8.908476680517196655e-02
1.044506058096885681e-01
9.297523647546768188e-02
4.690032452344894409e-02
4.127468168735504150e-02
3.643051534891128540e-02
1.879150047898292542e-02
4.529915377497673035e-02
5.099596921354532242e-03
-6.545434705913066864e-03
1.582998782396316528e-02
1.581765525043010712e-02
1.146173104643821716e-02
4.981590900570154190e-03
6.494953297078609467e-03
9.891058318316936493e-03
-2.341588959097862244e-02
-3.317692130804061890e-02
-3.121738694608211517e-02
-7.311511784791946411e-02
-5.355231091380119324e-02
-4.474772885441780090e-02
-2.469243109226226807e-02
-2.249317057430744171e-02
-3.344934061169624329e-02
-3.066420741379261017e-02
-8.584124967455863953e-03
-3.282672166824340820e-02
-3.377356007695198059e-02
-9.350126609206199646e-03
-2.717408351600170135e-02
-2.300598286092281342e-02
-1.160525158047676086e-02
-4.489775002002716064e-02
-4.027425497770309448e-02
-5.184717848896980286e-02
-5.742909014225006104e-02
-3.152195736765861511e-02
-3.061386756598949432e-02
-2.081099152565002441e-02
-2.601124346256256104e-02
-3.004001453518867493e-02
-1.533600501716136932e-02
-1.110932789742946625e-02
-5.273063853383064270e-02
-6.431051343679428101e-02
-2.538884989917278290e-02
-2.699400112032890320e-02
-3.974245116114616394e-02
-4.303696379065513611e-02
-3.671073168516159058e-02
-2.850069105625152588e-02
-5.736109614372253418e-02
-6.048868969082832336e-02
-4.316906910389661789e-03
-8.775268681347370148e-03
-1.514851953834295273e-02
3.062672913074493408e-02
2.594853751361370087e-02
2.373397350311279297e-02
1.544243469834327698e-02
1.694595627486705780e-02
5.773288756608963013e-02
6.402722001075744629e-02
7.785718142986297607e-02
7.623913139104843140e-02
6.201136484742164612e-02
1.374323386698961258e-02
2.583388984203338623e-02
3.351957350969314575e-02
3.341313824057579041e-02
4.588327184319496155e-02
1.015716884285211563e-02
2.038977853953838348e-02
3.100774250924587250e-02
5.011348053812980652e-02
2.072040922939777374e-02
1.370894606225192547e-03
2.688680216670036316e-02
9.372324682772159576e-03
-1.361714489758014679e-02
-3.016012161970138550e-02
-1.883627101778984070e-02
-6.095264852046966553e-02
-5.159159004688262939e-02
-2.657429687678813934e-02
-3.829365596175193787e-02
-4.768218472599983215e-02
-3.592963144183158875e-02
-2.336877025663852692e-02
-3.098462894558906555e-02
-1.041323598474264145e-02
-2.276772260665893555e-02
-8.256211876869201660e-03
-2.161982655525207520e-02
-2.674596011638641357e-02
-3.654297068715095520e-02
-6.277321279048919678e-02
-5.599425733089447021e-02
-7.384590059518814087e-02
-6.016368046402931213e-02
-5.451757460832595825e-02
-3.984754532575607300e-02
