2.425478212535381317e-02
8.490966283716261387e-04
1.385862939059734344e-02
-1.126116234809160233e-02
-2.447093091905117035e-02
-2.839802950620651245e-02
1.778336125425994396e-03
4.817089438438415527e-02
4.316195473074913025e-02
8.687718771398067474e-03
-7.717224303632974625e-03
5.651513114571571350e-03
2.898188680410385132e-02
7.890847511589527130e-03
1.604829356074333191e-02
1.612124219536781311e-02
1.973438262939453125e-02
4.177722148597240448e-03
-3.318887576460838318e-02
1.608326099812984467e-02
2.423372305929660797e-02
-2.452506683766841888e-03
-3.054735437035560608e-02
2.813349664211273193e-02
1.114378031343221664e-02
1.580339670181274414e-02
1.639845035970211029e-02
1.282794494181871414e-02
-3.680768981575965881e-02
1.400192920118570328e-02
3.036481328308582306e-02
1.818808913230895996e-02
-1.544957701116800308e-02
-4.985652118921279907e-02
-3.190220892429351807e-02
-2.942636841908097267e-03
2.131083793938159943e-02
3.452907502651214600e-02
8.062026463449001312e-03
5.135491956025362015e-03
-3.001028858125209808e-02
1.988945342600345612e-02
-6.052999198436737061e-02
1.671270094811916351e-02
6.619044579565525055e-04
3.494285419583320618e-02
-2.538664080202579498e-02
1.952271349728107452e-02
-2.062461897730827332e-02
-1.452066062483936548e-04
1.884031668305397034e-02
2.974761463701725006e-02
2.329400926828384399e-02
2.546411007642745972e-02
9.984322823584079742e-03
2.608645893633365631e-02
2.216236293315887451e-02
1.595222577452659607e-02
2.765279635787010193e-02
1.874516531825065613e-02
1.822368428111076355e-02
1.761141419410705566e-02
2.224143035709857941e-02
1.547557674348354340e-02
1.350916456431150436e-02
1.474722195416688919e-02
1.169059518724679947e-02
1.895960606634616852e-02
4.205398634076118469e-02
1.485582906752824783e-02
1.676366478204727173e-02
6.685086991637945175e-03
7.490323856472969055e-03
7.405568379908800125e-03
4.761298745870590210e-02
-4.553133994340896606e-02
1.886647567152976990e-02
-1.033172570168972015e-02
2.370896935462951660e-02
-3.775968030095100403e-02
2.285857126116752625e-02
1.744511164724826813e-02
3.081644326448440552e-02
2.306170528754591942e-03
4.194110631942749023e-02
2.595424465835094452e-02
1.549324579536914825e-02
2.265451289713382721e-02
-7.778648752719163895e-03
-3.376698493957519531e-02
-3.490228950977325439e-02
-4.322444647550582886e-02
2.130466885864734650e-02
3.098756447434425354e-02
-3.313452750444412231e-02
3.137480095028877258e-02
-1.745102461427450180e-03
4.185975715517997742e-02
1.535895653069019318e-02
2.528684772551059723e-02
6.188119295984506607e-03
8.438537828624248505e-03
3.017523139715194702e-02
-1.834758929908275604e-02
-1.914814487099647522e-02
3.866802202537655830e-03
-4.080978222191333771e-03
5.414589494466781616e-02
3.329636529088020325e-02
3.038225695490837097e-02
6.845262832939624786e-03
2.694255439564585686e-03
2.662730216979980469e-02
1.539016957394778728e-03
1.313935127109289169e-02
1.343580894172191620e-02
3.014281578361988068e-02
1.311212545260787010e-03
3.858432872220873833e-03
1.328280661255121231e-02
2.067083120346069336e-02
-1.944491453468799591e-02
-1.825191080570220947e-02
5.186682567000389099e-03
-2.269394509494304657e-02
1.009273692034184933e-03
7.616889197379350662e-03
1.360721699893474579e-02
9.656716138124465942e-04
4.386638756841421127e-03
1.486647967249155045e-02
3.157338500022888184e-02
3.500660881400108337e-03
-5.674108862876892090e-02
-7.401725160889327526e-04
-4.107961431145668030e-03
2.141857706010341644e-02
-1.360523980110883713e-02
8.910839445888996124e-03
-6.194015499204397202e-03
1.226637279614806175e-03
4.715536162257194519e-02
3.717736108228564262e-03
-4.634840879589319229e-03
3.372768405824899673e-03
6.523609044961631298e-04
-4.779478535056114197e-03
1.447202265262603760e-02
1.910622604191303253e-02
3.132221987470984459e-03
5.290569737553596497e-03
4.012248478829860687e-03
1.700357533991336823e-02
-1.865290850400924683e-02
-4.144909791648387909e-03
-1.301699783653020859e-02
1.897959783673286438e-02
1.352248340845108032e-02
1.821796596050262451e-02
1.795023120939731598e-02
2.361180633306503296e-02
5.680739413946866989e-04
1.223994791507720947e-02
1.686209440231323242e-02
3.484732937067747116e-03
1.671580597758293152e-02
6.326410453766584396e-03
1.127977110445499420e-02
6.937509775161743164e-02
2.408340759575366974e-02
-1.180336438119411469e-02
5.238553043454885483e-03
1.444919314235448837e-02
6.542770657688379288e-03
2.644263766705989838e-02
4.097986966371536255e-03
1.121137011796236038e-02
-1.210163906216621399e-02
1.505622267723083496e-02
-4.400433972477912903e-02
1.668202690780162811e-02
1.441219821572303772e-02
3.258486744016408920e-03
-3.068713005632162094e-03
2.543859928846359253e-02
-8.570908568799495697e-03
3.277719020843505859e-02
1.930630765855312347e-02
3.278066869825124741e-03
3.863491117954254150e-03
-2.791722491383552551e-02
3.890870837494730949e-03
2.782423608005046844e-02
8.010240271687507629e-03
-3.891650959849357605e-02
6.661735475063323975e-02
-2.424441045150160789e-04
7.264745235443115234e-02
-8.990921080112457275e-03
-3.171480819582939148e-02
-2.064151689410209656e-03
-6.818337738513946533e-02
1.995902508497238159e-03
1.467417809180915356e-03
1.216134056448936462e-02
1.197359245270490646e-02
1.091725658625364304e-02
2.494415454566478729e-02
2.010517008602619171e-02
-6.494476459920406342e-03
1.558599062263965607e-02
2.543279528617858887e-02
2.299223095178604126e-03
2.436224743723869324e-02
3.021665615960955620e-03
2.843369031324982643e-03
7.381400559097528458e-03
-6.929747015237808228e-02
1.083297865989152342e-05
2.996315713971853256e-03
7.765114773064851761e-03
-1.032098662108182907e-03
-1.800477504730224609e-02
2.525334479287266731e-03
-6.633858196437358856e-03
3.357293782755732536e-03
3.684181021526455879e-03
2.692997455596923828e-03
-3.531613573431968689e-02
-3.394442610442638397e-03
1.251514721661806107e-02
6.291509605944156647e-03
9.326516650617122650e-03
-2.263013506308197975e-03
-1.705989241600036621e-02
-5.828113108873367310e-02
-1.388478325679898262e-03
-2.924684248864650726e-02
3.876189235597848892e-03
1.534083113074302673e-02
-1.832412183284759521e-02
2.333394251763820648e-02
3.968060947954654694e-03
1.650501973927021027e-02
-6.401287764310836792e-02
9.528842754662036896e-03
-2.125301584601402283e-02
4.352134652435779572e-03
6.485243793576955795e-04
-5.490503739565610886e-03
3.025740385055541992e-02
2.857944229617714882e-03
4.316803067922592163e-03
-1.827169791795313358e-03
3.446805523708462715e-03
2.543799392879009247e-02
2.128825290128588676e-03
2.897434867918491364e-03
8.498281240463256836e-03
5.218037404119968414e-03
1.133926399052143097e-02
3.668637014925479889e-03
-1.209341920912265778e-03
2.610288793221116066e-03
2.244717441499233246e-02
2.546106697991490364e-03
2.887179329991340637e-02
3.341063158586621284e-03
2.563558146357536316e-02
2.120400778949260712e-03
-3.929087519645690918e-02
3.740264801308512688e-04
2.521388605237007141e-02
2.243828773498535156e-02
3.298549726605415344e-02
-7.830896414816379547e-03
3.333876607939600945e-03
-1.614454574882984161e-02
5.519214086234569550e-03
2.295318758115172386e-03
2.720926189795136452e-03
-9.262788225896656513e-04
4.529315978288650513e-03
-4.794054478406906128e-02
2.409689128398895264e-02
-3.927487414330244064e-03
1.590648200362920761e-03
-8.869847079040482640e-05
-1.033294480293989182e-02
-6.303116679191589355e-04
-2.535245753824710846e-02
1.691974326968193054e-02
8.494939655065536499e-03
1.209473237395286560e-03
1.205912674777209759e-03
2.924607321619987488e-02
-5.986833944916725159e-02
3.281353414058685303e-02
3.308576764538884163e-03
-1.985851489007472992e-02
1.128526963293552399e-02
-1.645195484161376953e-02
2.204053848981857300e-02
1.773663610219955444e-02
-4.387133941054344177e-02
9.654968016548082232e-05
2.781492099165916443e-02
1.557146292179822922e-02
3.258523717522621155e-02
2.077227272093296051e-02
-2.517433138564229012e-03
7.393935695290565491e-03
4.916211590170860291e-03
8.371158502995967865e-03
3.800889942795038223e-03
3.707444528117775917e-03
-8.973728865385055542e-03
-2.240210212767124176e-02
2.026100446528289467e-05
3.721167100593447685e-03
-2.254074066877365112e-02
2.592596784234046936e-02
-2.045617252588272095e-02
2.092034369707107544e-02
1.427146256901323795e-03
1.770818978548049927e-02
2.346195094287395477e-02
3.691243380308151245e-02
2.123820595443248749e-02
1.445539854466915131e-02
2.676766365766525269e-02
6.290921475738286972e-03
-2.188037848100066185e-03
-3.522226214408874512e-02
-3.400310501456260681e-02
-1.620811410248279572e-02
-2.669414039701223373e-03
-1.338834641501307487e-03
-1.132724247872829437e-02
4.309683572500944138e-03
-5.473278835415840149e-02
5.885411053895950317e-02
-1.605757861398160458e-04
9.325300343334674835e-03
-1.341548375785350800e-02
2.094195410609245300e-02
5.572545342147350311e-03
6.825257558375597000e-03
-1.489462796598672867e-02
-6.184662505984306335e-02
2.449335716664791107e-02
4.355540964752435684e-03
1.957421191036701202e-02
2.189947664737701416e-02
-5.383546813391149044e-04
-2.535967156291007996e-03
1.708815433084964752e-02
3.328824415802955627e-03
1.613847725093364716e-02
1.791665516793727875e-02
1.430033333599567413e-02
2.159153856337070465e-02
-1.501049939543008804e-02
2.873027231544256210e-03
1.550973765552043915e-02
9.938102448359131813e-04
1.053467392921447754e-02
5.151512101292610168e-03
1.440538931638002396e-02
3.930181730538606644e-03
8.308677934110164642e-03
1.870025135576725006e-02
1.281374320387840271e-02
3.423074632883071899e-02
3.800979629158973694e-02
1.068021636456251144e-03
5.205558147281408310e-03
3.059900924563407898e-02
1.127552799880504608e-02
-1.490349415689706802e-02
1.383077166974544525e-02
1.246355939656496048e-02
1.476429961621761322e-02
-3.048945777118206024e-02
1.570799574255943298e-02
1.987171359360218048e-02
1.301226788200438023e-03
-3.043823875486850739e-03
-5.678723379969596863e-02
-1.098917437047930434e-05
-1.847199536859989166e-02
7.243624422699213028e-04
9.810562245547771454e-03
1.173282600939273834e-02
-5.214878544211387634e-02
3.411161154508590698e-02
-3.883136063814163208e-02
1.545045152306556702e-02
7.795025128871202469e-03
1.446277834475040436e-03
