4.204907920211553574e-03
-1.537611358799040318e-03
-5.057019181549549103e-03
5.240634083747863770e-03
3.977607004344463348e-03
-7.481113076210021973e-03
-4.083103034645318985e-03
5.047914572060108185e-03
3.694904735311865807e-03
-3.721306100487709045e-03
-3.415537998080253601e-03
-5.983994808048009872e-03
-4.570816643536090851e-03
4.925960674881935120e-03
-3.333344589918851852e-03
7.999981753528118134e-03
6.993858143687248230e-03
2.674448303878307343e-03
5.392857827246189117e-03
-1.536033349111676216e-03
3.876388072967529297e-03
-2.264086855575442314e-03
-1.369106816127896309e-03
-2.610196592286229134e-03
-1.729039126075804234e-03
-2.759079914540052414e-03
-6.837722379714250565e-03
-3.316829912364482880e-03
-7.867934182286262512e-03
1.132637844420969486e-03
2.493249950930476189e-03
5.112737999297678471e-04
-3.183737862855195999e-03
-4.286315292119979858e-03
-5.646523553878068924e-03
1.023066113702952862e-03
5.619088187813758850e-03
-3.864584956318140030e-03
3.399356966838240623e-03
3.337652422487735748e-03
-7.084795273840427399e-03
-2.462101634591817856e-03
-4.381315317004919052e-03
4.288628231734037399e-03
3.365920623764395714e-03
-3.649577498435974121e-03
4.394120333017781377e-05
2.189310966059565544e-03
-2.988865133374929428e-03
1.474230550229549408e-03
4.082140978425741196e-03
-8.169480599462985992e-03
1.314763794653117657e-03
-2.034025732427835464e-03
5.837618373334407806e-03
-1.368360361084342003e-03
-1.607889309525489807e-03
-6.114255636930465698e-03
6.696250289678573608e-03
1.306028570979833603e-03
-1.860981574282050133e-03
-3.521275008097290993e-03
5.256208125501871109e-03
-1.165847759693861008e-03
6.148729007691144943e-03
-7.055511814542114735e-04
4.585290793329477310e-03
4.493656568229198456e-03
-2.158407820388674736e-03
-6.968075409531593323e-03
-4.317168612033128738e-03
-1.111487974412739277e-03
-1.434639212675392628e-03
5.571715533733367920e-03
-4.286524374037981033e-03
-2.789053134620189667e-03
-4.738226067274808884e-03
6.783197168260812759e-04
4.609443247318267822e-03
6.129828747361898422e-03
-2.144198399037122726e-03
5.154757760465145111e-03
-1.177457743324339390e-03
-7.165672257542610168e-03
4.744118079543113708e-03
-1.321999588981270790e-03
-3.042817581444978714e-03
7.045552134513854980e-03
2.453661523759365082e-03
-2.497224835678935051e-03
-6.555622909218072891e-03
4.282933194190263748e-03
-7.834642194211483002e-03
-4.744053352624177933e-03
8.305805735290050507e-03
5.315687507390975952e-03
-4.888708703219890594e-03
-5.185271147638559341e-03
-6.256077438592910767e-03
-5.692909937351942062e-03
