1.202411251142621040e-03
5.283775390125811100e-04
3.246779670007526875e-04
-4.903115914203226566e-04
3.243350074626505375e-04
1.204905332997441292e-03
3.163940971717238426e-03
7.110937731340527534e-04
6.603109650313854218e-04
5.593396490439772606e-04
9.074717760086059570e-03
1.548064872622489929e-03
-1.103129819966852665e-03
-2.433020272292196751e-04
2.208163030445575714e-03
-1.516644988441839814e-04
5.592955858446657658e-04
1.662519760429859161e-03
3.916512068826705217e-04
9.459042921662330627e-04
-9.586145461071282625e-05
-2.673811279237270355e-03
6.114510470069944859e-04
1.683922135271131992e-03
-4.132632631808519363e-03
8.938626269809901714e-04
-1.982645480893552303e-04
-1.885498408228158951e-03
2.360801881877705455e-04
8.710610563866794109e-04
-1.282599172554910183e-03
1.503845560364425182e-03
-9.218339109793305397e-04
1.071330625563859940e-03
6.117625162005424500e-04
1.186627428978681564e-03
5.183093016967177391e-04
-9.375460649607703090e-06
1.023802324198186398e-03
-1.696661231108009815e-03
1.110727200284600258e-03
1.199803431518375874e-03
1.330962055362761021e-03
1.201514503918588161e-03
2.754623419605195522e-04
-2.332491334527730942e-03
5.786652327515184879e-04
-1.942261296790093184e-04
-5.479849642142653465e-04
5.061184638179838657e-04
1.623506075702607632e-03
-1.231283531524240971e-03
2.704590559005737305e-03
-1.540796132758259773e-03
-6.807761383242905140e-04
1.507035223767161369e-03
9.572567068971693516e-04
-2.664490893948823214e-04
3.290691878646612167e-03
3.286254941485822201e-04
1.246709609404206276e-03
1.070434344001114368e-03
3.555017174221575260e-04
-2.602447755634784698e-03
-1.480101200286298990e-04
-2.371563023189082742e-04
1.904225500766187906e-04
1.696705934591591358e-03
1.368973520584404469e-03
4.708006745204329491e-04
-2.037283498793840408e-03
4.623739223461598158e-04
2.319449326023459435e-03
1.034053741022944450e-03
7.587970467284321785e-04
1.891973614692687988e-02
5.979186971671879292e-04
5.023070843890309334e-04
-1.286407001316547394e-03
2.743029734119772911e-03
-2.589390845969319344e-03
2.609865274280309677e-03
1.307293958961963654e-02
1.335869892500340939e-03
4.075258621014654636e-04
7.938791532069444656e-04
2.083451254293322563e-04
-2.764100208878517151e-04
3.258479759097099304e-03
1.145888702012598515e-03
1.059248112142086029e-03
1.163305481895804405e-03
-4.411081317812204361e-05
8.763198275119066238e-04
2.133445232175290585e-04
2.737065078690648079e-04
-2.008918207138776779e-03
7.848466630093753338e-04
5.228060763329267502e-04
4.110241425223648548e-04
4.020423220936208963e-04
4.526338307186961174e-04
3.877963463310152292e-04
1.388017437420785427e-03
3.194938180968165398e-04
3.480686340481042862e-03
-4.956255201250314713e-03
4.597025399561971426e-04
2.567370829638093710e-04
1.468207105062901974e-03
9.286628483096137643e-06
-3.522167844494106248e-06
4.984188126400113106e-04
2.459777286276221275e-03
1.811531838029623032e-03
1.017065951600670815e-03
4.823749477509409189e-04
5.387552082538604736e-04
7.841977640055119991e-04
9.116061846725642681e-04
1.466300105676054955e-03
2.315316814929246902e-03
2.496902830898761749e-03
2.325286332052201033e-04
-1.340362126938998699e-03
-8.640939486213028431e-04
1.152506665675900877e-04
2.674839342944324017e-04
8.216258720494806767e-04
1.524738036096096039e-03
4.123173712287098169e-04
5.599085125140845776e-04
7.669533370062708855e-04
1.216106698848307133e-03
6.224233657121658325e-04
2.173761604353785515e-03
-3.673770697787404060e-03
1.606892445124685764e-03
7.737341802567243576e-04
1.260913209989666939e-03
4.837918095290660858e-04
-1.329725841060280800e-03
1.570859178900718689e-02
-2.161904005333781242e-03
1.804660540074110031e-03
6.484157638624310493e-04
3.706987015902996063e-03
-3.578229516278952360e-04
2.689127111807465553e-03
5.329018458724021912e-04
-1.085051568225026131e-03
-1.154988305643200874e-03
1.573354355059564114e-03
8.008800796233117580e-04
5.312872235663235188e-04
5.666105425916612148e-04
3.243208164349198341e-03
-2.863098867237567902e-03
-2.513823332265019417e-03
2.576709375716745853e-04
1.077473280020058155e-03
4.249616176821291447e-04
3.547123633325099945e-04
1.836286857724189758e-03
-5.967523320578038692e-04
-2.131916349753737450e-03
-1.235783274751156569e-04
-4.360442515462636948e-03
-2.897574333474040031e-03
8.115331293083727360e-04
3.560991317499428988e-04
-1.791574875824153423e-03
1.062345691025257111e-03
3.269979206379503012e-04
-5.767680704593658447e-04
-1.539239892736077309e-03
-2.519540023058652878e-03
1.602927804924547672e-03
5.028509069234132767e-03
-3.354793007019907236e-04
-3.498885547742247581e-03
5.667376681230962276e-04
7.728944910923019052e-05
8.575469837523996830e-04
-2.022972796112298965e-03
-2.140103024430572987e-04
1.536155003122985363e-03
3.570912522263824940e-04
1.589151797816157341e-03
1.261876779608428478e-03
-1.759551931172609329e-03
-7.719544228166341782e-04
1.049806247465312481e-03
3.347997262608259916e-04
3.834044036921113729e-04
-3.999006294179707766e-04
1.014855108223855495e-03
9.865595493465662003e-04
1.846740255132317543e-03
-3.950986545532941818e-03
-5.131162106408737600e-05
5.077421665191650391e-04
4.323521279729902744e-04
3.133723512291908264e-03
-2.268958138301968575e-03
6.430151988752186298e-04
2.116064308211207390e-03
-5.084702279418706894e-04
4.636886005755513906e-04
5.656707799062132835e-04
1.357246190309524536e-03
1.546441228128969669e-03
3.589457774069160223e-04
1.680339570157229900e-03
-1.773287192918360233e-03
2.701097691897302866e-04
5.957547109574079514e-04
7.916355389170348644e-04
2.013421384617686272e-03
-1.639835187233984470e-03
7.340022712014615536e-04
2.822403097525238991e-03
-3.117185318842530251e-03
7.249989081174135208e-03
2.443196717649698257e-03
3.480936400592327118e-03
-4.223416093736886978e-03
-1.250497298315167427e-03
3.757666272576898336e-04
8.360748179256916046e-04
1.663939212448894978e-03
6.129665998741984367e-04
1.204068306833505630e-03
-8.804384851828217506e-04
-1.040513743646442890e-03
3.287333820480853319e-04
2.616693964228034019e-04
1.411634730175137520e-03
1.082961214706301689e-03
2.496479544788599014e-03
-1.412884157616645098e-04
2.640539605636149645e-04
8.619865984655916691e-04
-1.181058236397802830e-03
2.912966068834066391e-03
-5.678484449163079262e-04
5.496151279658079147e-04
5.827156710438430309e-04
1.904769800603389740e-03
4.750660620629787445e-03
9.661121293902397156e-04
-2.022270346060395241e-03
-4.054057411849498749e-03
7.075565517880022526e-04
2.209731464972719550e-04
-1.811909722164273262e-03
-1.345747965388000011e-03
-2.357658231630921364e-03
2.320586791029199958e-04
1.397041603922843933e-03
3.081668110098689795e-04
-5.237784236669540405e-03
1.287357416003942490e-03
3.297292569186538458e-04
6.144975195638835430e-04
-1.867009792476892471e-03
-5.996043793857097626e-03
7.464774535037577152e-04
2.016936632571741939e-04
2.179944654926657677e-03
2.033315366134047508e-03
-1.731108175590634346e-03
-4.480986855924129486e-03
1.732939272187650204e-03
-4.114208277314901352e-04
-1.165529014542698860e-03
8.650109521113336086e-04
2.198873407905921340e-04
-2.955760108307003975e-03
1.670523663051426411e-03
-4.805180244147777557e-03
9.494168916717171669e-04
2.146577928215265274e-03
1.162769403890706599e-04
4.034719895571470261e-04
1.341615803539752960e-03
1.525322324596345425e-03
7.821395411156117916e-04
-4.504271055338904262e-05
-2.007387345656752586e-03
-3.559125179890543222e-04
-3.434612182900309563e-03
4.171861510258167982e-04
1.217579352669417858e-03
-7.717875414527952671e-04
4.719844437204301357e-04
4.126092826481908560e-04
-1.831955974921584129e-03
1.541234436444938183e-03
-1.852327695814892650e-04
-2.003913978114724159e-03
7.325579645112156868e-05
-1.998576801270246506e-03
1.019359915517270565e-03
1.494115102104842663e-03
-9.741382091306149960e-04
-2.236659871414303780e-03
-1.181102241389453411e-03
3.159252519253641367e-04
2.460387768223881721e-03
-5.708419485017657280e-04
1.308711944147944450e-03
-2.139411371899768710e-04
9.723703260533511639e-04
6.876958068460226059e-04
7.466437527909874916e-04
7.196604856289923191e-04
5.072607309557497501e-04
4.463491786736994982e-04
4.336711135692894459e-04
3.918513248208910227e-04
1.467234338633716106e-03
5.077010137028992176e-04
3.813968505710363388e-03
1.274954294785857201e-03
-3.801220096647739410e-03
2.959011180792003870e-04
-9.645797545090317726e-04
5.643725744448602200e-04
3.676493361126631498e-04
3.031538799405097961e-04
-1.733792712911963463e-03
7.545972475782036781e-04
1.322532538324594498e-03
1.643018331378698349e-03
-3.891441272571682930e-03
4.928011912852525711e-04
-6.814263761043548584e-04
3.119543544016778469e-04
2.131334971636533737e-03
7.219265680760145187e-04
1.138667459599673748e-03
-1.119947773986496031e-04
3.618100017774850130e-04
6.424928433261811733e-04
6.672562449239194393e-04
-9.667889098636806011e-04
2.106307510985061526e-04
5.093340296298265457e-04
-3.069959115236997604e-03
1.429476402699947357e-02
-1.972435740754008293e-03
-7.185622234828770161e-04
5.858540069311857224e-03
9.005957981571555138e-04
3.953019622713327408e-04
-1.097277156077325344e-03
1.085362862795591354e-03
8.030696189962327480e-04
-8.840888767736032605e-05
1.313878688961267471e-03
1.804165891371667385e-03
1.329368096776306629e-03
-2.215595915913581848e-03
2.253804355859756470e-03
1.814562710933387280e-04
-1.106950570829212666e-03
2.150721993530169129e-04
4.972100723534822464e-04
1.305000856518745422e-03
3.939583431929349899e-03
1.101401634514331818e-03
5.765333771705627441e-04
7.118557696230709553e-04
-1.963658956810832024e-03
1.258708536624908447e-03
2.152811735868453979e-03
1.279773307032883167e-03
-1.028299331665039062e-03
4.629773029591888189e-04
-1.552929054014384747e-03
3.930099308490753174e-03
2.824819413945078850e-03
9.335399954579770565e-04
9.998813038691878319e-04
2.143766614608466625e-04
3.515450225677341223e-04
3.909036749973893166e-04
-9.154971921816468239e-04
-4.491708241403102875e-03
-1.807621796615421772e-03
1.534752780571579933e-03
-7.837301236577332020e-04
1.186447450891137123e-03
7.046014070510864258e-04
-3.731706412509083748e-03
3.181853389833122492e-04
5.357712507247924805e-03
-1.767838693922385573e-04
-1.644731673877686262e-04
