-1.394384191371500492e-03
-1.412595447618514299e-04
-6.940182764083147049e-03
-1.673459657467901707e-03
-4.039271734654903412e-03
7.217375561594963074e-03
-2.564686350524425507e-03
-2.846953226253390312e-03
-4.428427782841026783e-04
9.302785620093345642e-03
-3.133542777504771948e-04
-3.602016717195510864e-03
-7.817127741873264313e-03
-3.279523458331823349e-03
-1.135552534833550453e-03
-7.092211861163377762e-03
-1.744600827805697918e-03
-1.990099903196096420e-03
1.087036449462175369e-03
-3.579126438125967979e-03
-4.217294044792652130e-03
-5.365638062357902527e-03
-3.520054044201970100e-03
3.383201546967029572e-03
1.895120483823120594e-03
4.887735703960061073e-04
3.071581013500690460e-03
8.572486229240894318e-03
2.076117652904940769e-06
-1.439896645024418831e-03
4.210105631500482559e-03
-2.051081741228699684e-03
2.411960624158382416e-03
-3.413825761526823044e-03
-3.883986268192529678e-03
-4.590887110680341721e-03
-4.804860334843397141e-03
3.711410099640488625e-03
5.077967420220375061e-03
-7.072344422340393066e-03
-2.149100328097119927e-05
-9.054049151018261909e-04
5.131469806656241417e-04
4.101854574400931597e-04
-4.824183881282806396e-03
-7.231201510876417160e-03
-1.482594874687492847e-03
-5.464231595396995544e-03
-3.446350572630763054e-03
-1.926185796037316322e-03
2.063205174636095762e-04
-1.685691531747579575e-03
-2.302071079611778259e-03
5.034557543694972992e-03
-4.144859500229358673e-03
-8.386302739381790161e-03
-1.344439340755343437e-03
-7.788217626512050629e-03
-2.968727145344018936e-03
-1.471386494813486934e-04
-4.856411367654800415e-03
-4.769463092088699341e-03
-3.466003807261586189e-03
3.887801140081137419e-04
