-6.363631486892700195e-01
-6.072722077369689941e-01
-6.327267885208129883e-01
-6.309085488319396973e-01
-6.363630890846252441e-01
-6.345449090003967285e-01
-6.399994492530822754e-01
-6.527267098426818848e-01
-6.490904092788696289e-01
-6.145449280738830566e-01
-6.472721695899963379e-01
-6.218176484107971191e-01
-6.256684064865112305e-01
-6.220672726631164551e-01
-6.201063394546508789e-01
-6.096249222755432129e-01
-6.509085893630981445e-01
-6.399995088577270508e-01
-6.563631296157836914e-01
-6.527267694473266602e-01
-6.218176484107971191e-01
-6.327267289161682129e-01
-6.527267694473266602e-01
-6.327267885208129883e-01
-6.236358284950256348e-01
-6.345449686050415039e-01
-6.436358690261840820e-01
-6.381812691688537598e-01
-6.509085893630981445e-01
-6.127267479896545410e-01
-6.236358284950256348e-01
-6.436358094215393066e-01
-6.286269426345825195e-01
-6.503383517265319824e-01
-6.096612215042114258e-01
-5.794996023178100586e-01
-5.772549510002136230e-01
-6.205348968505859375e-01
-6.829208135604858398e-01
-7.354348301887512207e-01
-7.216762304306030273e-01
-7.962898015975952148e-01
-8.331170678138732910e-01
-7.863411903381347656e-01
-8.455915451049804688e-01
-7.349743843078613281e-01
-6.513716578483581543e-01
-6.422803997993469238e-01
-5.921207070350646973e-01
-5.688408613204956055e-01
-6.030651330947875977e-01
-6.406769156455993652e-01
-6.381813287734985352e-01
-6.145449280738830566e-01
-6.290904283523559570e-01
-6.472722291946411133e-01
-6.490904092788696289e-01
-6.327267885208129883e-01
-6.345092058181762695e-01
-6.121922731399536133e-01
-6.015326380729675293e-01
-6.155081391334533691e-01
-5.533689260482788086e-01
-6.540130972862243652e-01
-7.103026509284973145e-01
-7.957227826118469238e-01
-9.617147445678710938e-01
-1.114229321479797363e+00
-1.312261581420898438e+00
-1.475651264190673828e+00
-1.657083749771118164e+00
-1.729540467262268066e+00
-1.668035387992858887e+00
-1.528761744499206543e+00
-1.358084797859191895e+00
-1.160257577896118164e+00
-9.912706613540649414e-01
-8.444887995719909668e-01
-7.206404805183410645e-01
-5.884479284286499023e-01
-5.672368407249450684e-01
-5.661312341690063477e-01
-6.290903687477111816e-01
-6.218176484107971191e-01
-6.272722482681274414e-01
-6.454539895057678223e-01
-6.396073102951049805e-01
-6.208557486534118652e-01
-6.216748356819152832e-01
-5.496948361396789551e-01
-6.007850170135498047e-01
-6.497376561164855957e-01
-7.330425381660461426e-01
-1.009663343429565430e+00
-1.379606485366821289e+00
-1.690507173538208008e+00
-1.977613329887390137e+00
-2.156718015670776367e+00
-2.273207664489746094e+00
-2.232683181762695312e+00
-1.987543582916259766e+00
-1.768304586410522461e+00
-1.517298698425292969e+00
-1.411891341209411621e+00
-1.246537089347839355e+00
-1.142708778381347656e+00
-8.483424782752990723e-01
-6.861685514450073242e-01
-6.699814200401306152e-01
-5.587885379791259766e-01
-5.960428118705749512e-01
-6.618176698684692383e-01
-6.636357903480529785e-01
-6.382167935371398926e-01
-6.408187747001647949e-01
-6.039562821388244629e-01
-5.441008806228637695e-01
-5.949407815933227539e-01
-7.009330987930297852e-01
-8.096240162849426270e-01
-1.153722882270812988e+00
-1.621929764747619629e+00
-1.968877792358398438e+00
-2.343628168106079102e+00
-2.409844398498535156e+00
-2.334770441055297852e+00
-1.932463645935058594e+00
-1.392258882522583008e+00
-1.049358248710632324e+00
-1.068361878395080566e+00
-1.154317736625671387e+00
-1.502450585365295410e+00
-1.523513317108154297e+00
-1.325232982635498047e+00
-1.094753623008728027e+00
-9.374392628669738770e-01
-7.415663599967956543e-01
-6.705862283706665039e-01
-5.772180557250976562e-01
-6.316928267478942871e-01
-6.290904283523559570e-01
-6.490903496742248535e-01
-6.389304995536804199e-01
-5.956504344940185547e-01
-6.034983992576599121e-01
-6.757261753082275391e-01
-8.495192527770996094e-01
-1.084851384162902832e+00
-1.552946209907531738e+00
-1.935183405876159668e+00
-2.004549503326416016e+00
-1.592995047569274902e+00
-1.077613949775695801e+00
-4.275210499763488770e-01
2.824971079826354980e-01
8.567941784858703613e-01
8.653919696807861328e-01
5.520517230033874512e-01
-1.592193394899368286e-01
-9.064913988113403320e-01
-1.188352942466735840e+00
-1.384981989860534668e+00
-1.190510988235473633e+00
-1.068164944648742676e+00
-1.005206942558288574e+00
-8.054556250572204590e-01
-6.618190407752990723e-01
-6.187165975570678711e-01
-6.309086084365844727e-01
-6.184314489364624023e-01
-5.919781327247619629e-01
-6.805700063705444336e-01
-6.199629902839660645e-01
-7.029579281806945801e-01
-9.043852090835571289e-01
-1.131510138511657715e+00
-1.379355311393737793e+00
-1.342652440071105957e+00
-1.042113900184631348e+00
-5.751871466636657715e-01
9.548439830541610718e-02
8.200110793113708496e-01
1.496827721595764160e+00
1.957293391227722168e+00
1.975299000740051270e+00
1.453455328941345215e+00
4.572125971317291260e-01
-3.897311091423034668e-01
-8.775070905685424805e-01
-1.140985608100891113e+00
-1.100490093231201172e+00
-1.032482743263244629e+00
-1.058426260948181152e+00
-8.715541958808898926e-01
-7.400006055831909180e-01
-6.200687289237976074e-01
-6.563631296157836914e-01
-5.948298573493957520e-01
-6.885202527046203613e-01
-7.122272253036499023e-01
-6.817435026168823242e-01
-7.737217545509338379e-01
-8.987436890602111816e-01
-1.021596312522888184e+00
-9.871895909309387207e-01
-6.942721605300903320e-01
-9.269017726182937622e-02
6.709783077239990234e-01
1.155172109603881836e+00
1.574136972427368164e+00
1.669809103012084961e+00
1.986327290534973145e+00
2.047345638275146484e+00
1.792008399963378906e+00
1.098181605339050293e+00
1.772660315036773682e-01
-5.755816102027893066e-01
-8.995410203933715820e-01
-9.321435093879699707e-01
-8.672235012054443359e-01
-1.027912378311157227e+00
-9.147181510925292969e-01
-7.653840184211730957e-01
-5.706595182418823242e-01
-6.251688599586486816e-01
-6.188594102859497070e-01
-7.710559368133544922e-01
-7.627782821655273438e-01
-7.704352140426635742e-01
-8.613371849060058594e-01
-9.309306740760803223e-01
-1.004161119461059570e+00
-7.235085368156433105e-01
-1.903748363256454468e-01
5.618688464164733887e-01
1.264415621757507324e+00
1.613050341606140137e+00
1.517860770225524902e+00
1.460450053215026855e+00
1.461864590644836426e+00
1.593626141548156738e+00
1.604246973991394043e+00
1.396991610527038574e+00
6.237548589706420898e-01
-3.248804807662963867e-01
-8.893486261367797852e-01
-9.680802822113037109e-01
-8.462268114089965820e-01
-9.090349078178405762e-01
-8.740442395210266113e-01
-7.150092720985412598e-01
-5.891252756118774414e-01
-6.336890459060668945e-01
-6.738336086273193359e-01
-7.808147668838500977e-01
-8.060659766197204590e-01
-8.485002517700195312e-01
-9.372470974922180176e-01
-1.003084540367126465e+00
-9.024800658226013184e-01
-4.739119112491607666e-01
1.680236905813217163e-01
9.012346863746643066e-01
1.584712386131286621e+00
1.574894666671752930e+00
1.355082631111145020e+00
1.223923325538635254e+00
1.150862932205200195e+00
1.215647935867309570e+00
1.368085503578186035e+00
1.319359064102172852e+00
5.086755752563476562e-01
-3.071646094322204590e-01
-8.622952699661254883e-01
-1.047116756439208984e+00
-9.185700416564941406e-01
-9.452014565467834473e-01
-8.234840631484985352e-01
-7.024527788162231445e-01
-6.099823117256164551e-01
-6.556861400604248047e-01
-6.989663243293762207e-01
-7.452042102813720703e-01
-7.439550161361694336e-01
-7.665560841560363770e-01
-9.788851141929626465e-01
-9.413363337516784668e-01
-7.730647325515747070e-01
-2.433581650257110596e-01
5.056688785552978516e-01
1.245617747306823730e+00
1.673761367797851562e+00
1.517331719398498535e+00
1.107675313949584961e+00
1.064652800559997559e+00
1.127055764198303223e+00
1.279430270195007324e+00
1.517995119094848633e+00
1.368595242500305176e+00
3.186179995536804199e-01
-4.565075337886810303e-01
-1.118415355682373047e+00
-1.123978495597839355e+00
-9.696642756462097168e-01
-9.597030878067016602e-01
-6.918398737907409668e-01
-7.121197581291198730e-01
-6.269858479499816895e-01
-6.292328238487243652e-01
-6.723689436912536621e-01
-7.460587620735168457e-01
-7.199560999870300293e-01
-7.520824670791625977e-01
-9.701602458953857422e-01
-9.627673029899597168e-01
-6.871849894523620605e-01
-1.186123713850975037e-01
6.754114627838134766e-01
1.356198668479919434e+00
1.664079546928405762e+00
1.370717883110046387e+00
9.748888015747070312e-01
1.101590514183044434e+00
1.297588467597961426e+00
1.717428445816040039e+00
2.017595291137695312e+00
1.380649566650390625e+00
2.077808827161788940e-01
-6.240304112434387207e-01
-1.217344164848327637e+00
-1.180884361267089844e+00
-8.756698966026306152e-01
-8.794248700141906738e-01
-6.235278844833374023e-01
-5.850957632064819336e-01
-6.141166687011718750e-01
-6.111218333244323730e-01
-6.329404115676879883e-01
-6.970041990280151367e-01
-6.775361299514770508e-01
-8.197081685066223145e-01
-1.067663192749023438e+00
-1.081914186477661133e+00
-6.924175024032592773e-01
1.530835181474685669e-01
8.941908478736877441e-01
1.608491897583007812e+00
1.533694148063659668e+00
1.064530253410339355e+00
9.381486773490905762e-01
1.295019984245300293e+00
1.832263946533203125e+00
2.186561822891235352e+00
2.125315904617309570e+00
1.264328122138977051e+00
1.353344023227691650e-01
-7.248547077178955078e-01
-1.132393479347229004e+00
-1.141696214675903320e+00
-9.849783182144165039e-01
-9.010931849479675293e-01
-5.849895477294921875e-01
-5.871303081512451172e-01
-6.212468743324279785e-01
-6.463452577590942383e-01
-6.008549928665161133e-01
-6.577888727188110352e-01
-6.786082983016967773e-01
-8.736460804939270020e-01
-1.208092689514160156e+00
-1.180988311767578125e+00
-6.814361810684204102e-01
3.935488760471343994e-01
1.123931527137756348e+00
1.638196945190429688e+00
1.349795222282409668e+00
1.047414183616638184e+00
1.203042268753051758e+00
2.046398878097534180e+00
2.441454172134399414e+00
2.557630300521850586e+00
1.984271049499511719e+00
1.065470695495605469e+00
-2.188188731670379639e-01
-7.697747349739074707e-01
-1.064861297607421875e+00
-1.297423601150512695e+00
-1.113143324851989746e+00
-9.752041697502136230e-01
-5.950375199317932129e-01
-6.411759257316589355e-01
-6.342942118644714355e-01
-6.238857507705688477e-01
-6.357576847076416016e-01
-6.281281113624572754e-01
-6.534074544906616211e-01
-9.136610627174377441e-01
-1.238459587097167969e+00
-1.139764308929443359e+00
-5.236102938652038574e-01
4.507735967636108398e-01
1.230563998222351074e+00
1.491838693618774414e+00
1.353665590286254883e+00
1.224735736846923828e+00
1.893602609634399414e+00
2.680623531341552734e+00
2.927982330322265625e+00
2.644474029541015625e+00
1.833073019981384277e+00
6.079386472702026367e-01
-4.506576955318450928e-01
-9.219735860824584961e-01
-1.129465341567993164e+00
-1.346867680549621582e+00
-1.237216472625732422e+00
-1.072614312171936035e+00
-6.646637320518493652e-01
-6.811428070068359375e-01
-6.428512930870056152e-01
-6.046344041824340820e-01
-6.241348385810852051e-01
-5.912657976150512695e-01
-6.467025279998779297e-01
-9.031534790992736816e-01
-1.287052392959594727e+00
-1.065393805503845215e+00
-3.862130641937255859e-01
4.631017744541168213e-01
1.064203023910522461e+00
1.324197292327880859e+00
1.318098306655883789e+00
1.568781137466430664e+00
2.404694318771362305e+00
3.095219850540161133e+00
2.984421730041503906e+00
2.454315662384033203e+00
1.675288081169128418e+00
5.569168925285339355e-01
-2.704072892665863037e-01
-7.195775508880615234e-01
-1.042868852615356445e+00
-1.332889676094055176e+00
-1.227168560028076172e+00
-1.138218522071838379e+00
-8.178592920303344727e-01
-6.819971203804016113e-01
-6.045276522636413574e-01
-6.415680050849914551e-01
-6.169694662094116211e-01
-5.782887935638427734e-01
-6.445627212524414062e-01
-1.008125185966491699e+00
-1.431197881698608398e+00
-1.039632320404052734e+00
-3.063943684101104736e-01
2.726884484291076660e-01
8.367196917533874512e-01
9.006473422050476074e-01
1.161575078964233398e+00
1.801509976387023926e+00
2.592666864395141602e+00
3.033088207244873047e+00
2.744478940963745117e+00
2.238308906555175781e+00
1.467892527580261230e+00
7.230437397956848145e-01
1.647595316171646118e-02
-3.913083970546722412e-01
-1.061578392982482910e+00
-1.315637111663818359e+00
-1.275740861892700195e+00
-1.157685160636901855e+00
-9.261599779129028320e-01
-7.366462945938110352e-01
-6.181460022926330566e-01
-6.072722077369689941e-01
-6.304098367691040039e-01
-5.843497514724731445e-01
-7.328390479087829590e-01
-1.162865281105041504e+00
-1.400277137756347656e+00
-1.213746905326843262e+00
-5.440781712532043457e-01
1.165008842945098877e-01
3.505146503448486328e-01
4.142658412456512451e-01
9.032946228981018066e-01
1.714815139770507812e+00
2.331583738327026367e+00
2.650949001312255859e+00
2.496834754943847656e+00
1.848522663116455078e+00
1.145384788513183594e+00
6.489234566688537598e-01
2.431447431445121765e-02
-4.342647194862365723e-01
-1.222503542900085449e+00
-1.293777465820312500e+00
-1.232391953468322754e+00
-1.179286599159240723e+00
-9.657349586486816406e-01
-7.104058861732482910e-01
-6.054180264472961426e-01
-6.455609202384948730e-01
-6.326918005943298340e-01
-6.657013297080993652e-01
-8.571534752845764160e-01
-1.363255858421325684e+00
-1.538910746574401855e+00
-1.363836288452148438e+00
-7.986572980880737305e-01
-1.941606849431991577e-01
1.956906355917453766e-02
2.528005242347717285e-01
7.158337235450744629e-01
1.346566438674926758e+00
1.875747799873352051e+00
2.022802829742431641e+00
1.946462869644165039e+00
1.478441596031188965e+00
8.180716633796691895e-01
3.777645230293273926e-01
-2.318323850631713867e-01
-8.638537526130676270e-01
-1.226258158683776855e+00
-1.243125557899475098e+00
-1.232860684394836426e+00
-1.249440431594848633e+00
-1.013794064521789551e+00
-6.929039359092712402e-01
-6.124774217605590820e-01
-6.451334357261657715e-01
-6.139388680458068848e-01
-7.107340097427368164e-01
-9.623942971229553223e-01
-1.455509543418884277e+00
-1.667821407318115234e+00
-1.472276091575622559e+00
-8.858625292778015137e-01
-3.565121591091156006e-01
-7.828824967145919800e-02
2.121601104736328125e-01
5.208257436752319336e-01
9.999073147773742676e-01
1.097731590270996094e+00
1.327585577964782715e+00
1.299532055854797363e+00
9.819198846817016602e-01
5.080391764640808105e-01
1.919202804565429688e-01
-4.898721277713775635e-01
-1.172059416770935059e+00
-1.328934311866760254e+00
-1.198035597801208496e+00
-1.153221726417541504e+00
-1.172447919845581055e+00
-9.914377927780151367e-01
-6.539362668991088867e-01
-6.008196473121643066e-01
-6.236358880996704102e-01
-5.930120348930358887e-01
-6.504115462303161621e-01
-9.380123019218444824e-01
-1.379281044006347656e+00
-1.760851502418518066e+00
-1.467980027198791504e+00
-1.047931909561157227e+00
-4.990400671958923340e-01
5.722410976886749268e-02
2.765146195888519287e-01
5.270318984985351562e-01
8.024389147758483887e-01
9.111140370368957520e-01
1.236257791519165039e+00
1.131720781326293945e+00
9.093897938728332520e-01
4.390547275543212891e-01
-2.462952025234699249e-02
-7.747282981872558594e-01
-1.224406838417053223e+00
-1.208293676376342773e+00
-1.026944518089294434e+00
-1.023205280303955078e+00
-1.003380894660949707e+00
-8.171113729476928711e-01
-5.866981744766235352e-01
-6.346875429153442383e-01
-6.245270967483520508e-01
-5.967909693717956543e-01
-6.672357320785522461e-01
-8.424978852272033691e-01
-1.182883739471435547e+00
-1.533727288246154785e+00
-1.432290077209472656e+00
-1.136590003967285156e+00
-5.222436189651489258e-01
1.130580827593803406e-01
5.614106059074401855e-01
9.505738615989685059e-01
1.275567531585693359e+00
1.480777144432067871e+00
1.547502636909484863e+00
1.356448292732238770e+00
9.785009026527404785e-01
2.942926287651062012e-01
-5.298407077789306641e-01
-9.459671378135681152e-01
-1.006404995918273926e+00
-8.346477746963500977e-01
-7.769681811332702637e-01
-8.674115538597106934e-01
-8.619230389595031738e-01
-6.541531085968017578e-01
-5.658107995986938477e-01
-6.344382166862487793e-01
-6.192153692245483398e-01
-6.261321306228637695e-01
-6.169326305389404297e-01
-6.865154504776000977e-01
-9.505081772804260254e-01
-1.302597641944885254e+00
-1.297702193260192871e+00
-1.221767306327819824e+00
-8.285276889801025391e-01
-1.422059237957000732e-01
6.613172888755798340e-01
1.204445600509643555e+00
1.703413605690002441e+00
2.045240879058837891e+00
1.939752697944641113e+00
1.515531063079833984e+00
8.344548940658569336e-01
-4.856058955192565918e-02
-6.735976934432983398e-01
-9.882127046585083008e-01
-8.740319609642028809e-01
-7.101243734359741211e-01
-5.774632692337036133e-01
-6.822777390480041504e-01
-7.004945874214172363e-01
-5.176824927330017090e-01
-6.100177168846130371e-01
-6.042774319648742676e-01
-6.436358690261840820e-01
-6.381812691688537598e-01
-5.900526046752929688e-01
-6.424949765205383301e-01
-8.318979740142822266e-01
-1.050123453140258789e+00
-1.195858120918273926e+00
-1.335314989089965820e+00
-1.325098991394042969e+00
-8.786213397979736328e-01
-7.554069161415100098e-02
5.272756218910217285e-01
1.171187162399291992e+00
1.336511254310607910e+00
1.025558948516845703e+00
6.908010840415954590e-01
1.387814283370971680e-01
-7.213356494903564453e-01
-1.199808239936828613e+00
-1.298501372337341309e+00
-1.068150758743286133e+00
-8.793610334396362305e-01
-6.894367337226867676e-01
-6.364959478378295898e-01
-5.924031734466552734e-01
-5.584313273429870605e-01
-6.115134358406066895e-01
-6.472722291946411133e-01
-6.327267289161682129e-01
-6.218176484107971191e-01
-5.843843817710876465e-01
-6.320487260818481445e-01
-7.760378718376159668e-01
-9.188191294670104980e-01
-1.043912649154663086e+00
-1.203575372695922852e+00
-1.493101954460144043e+00
-1.488290429115295410e+00
-1.085125327110290527e+00
-6.652247905731201172e-01
-2.331649512052536011e-01
-1.759842783212661743e-01
-4.464681148529052734e-01
-6.658325195312500000e-01
-1.055272102355957031e+00
-1.422803640365600586e+00
-1.520093321800231934e+00
-1.397526025772094727e+00
-1.162199735641479492e+00
-9.566074013710021973e-01
-7.363978028297424316e-01
-6.399620771408081055e-01
-5.995718240737915039e-01
-5.683773159980773926e-01
-6.416397690773010254e-01
-6.272721886634826660e-01
-6.272722482681274414e-01
-6.454540491104125977e-01
-6.193227171897888184e-01
-5.950795412063598633e-01
-6.974294781684875488e-01
-7.914774417877197266e-01
-9.284114837646484375e-01
-1.052612066268920898e+00
-1.284630417823791504e+00
-1.397698998451232910e+00
-1.364921927452087402e+00
-1.243986964225769043e+00
-1.269676804542541504e+00
-1.590173244476318359e+00
-1.645458102226257324e+00
-1.646289587020874023e+00
-1.553377032279968262e+00
-1.627482533454895020e+00
-1.551200866699218750e+00
-1.352931261062622070e+00
-1.075894951820373535e+00
-8.781806826591491699e-01
-7.276971936225891113e-01
-5.720125436782836914e-01
-5.670232176780700684e-01
-6.185738444328308105e-01
-6.378959417343139648e-01
-6.399995088577270508e-01
-6.090903878211975098e-01
-6.327267289161682129e-01
-6.527267098426818848e-01
-6.418176293373107910e-01
-5.713356137275695801e-01
-7.188560366630554199e-01
-8.571496009826660156e-01
-9.327882528305053711e-01
-1.198560833930969238e+00
-1.390689611434936523e+00
-1.466915369033813477e+00
-1.588996887207031250e+00
-1.763095498085021973e+00
-1.888432502746582031e+00
-1.856480717658996582e+00
-1.718854546546936035e+00
-1.538303017616271973e+00
-1.365925312042236328e+00
-1.238288760185241699e+00
-1.039783835411071777e+00
-8.614973425865173340e-01
-7.844890952110290527e-01
-6.032797098159790039e-01
-6.217826604843139648e-01
-6.301245093345642090e-01
-6.315857172012329102e-01
-6.618176102638244629e-01
-6.454540491104125977e-01
-6.163631081581115723e-01
-6.199994683265686035e-01
-6.418176889419555664e-01
-6.254540681838989258e-01
-6.346873044967651367e-01
-5.955429077148437500e-01
-5.941514968872070312e-01
-6.741162538528442383e-01
-6.734730601310729980e-01
-7.517290711402893066e-01
-8.565406203269958496e-01
-9.330114722251892090e-01
-1.003026604652404785e+00
-1.012903094291687012e+00
-1.098582148551940918e+00
-9.953605532646179199e-01
-9.327920675277709961e-01
-9.037784934043884277e-01
-7.651665210723876953e-01
-6.839563250541687012e-01
-6.106955409049987793e-01
-5.789659023284912109e-01
-6.094830632209777832e-01
-6.247053146362304688e-01
-6.709085702896118164e-01
-6.236358880996704102e-01
-6.563631296157836914e-01
-6.072722077369689941e-01
