-3.311493694782257080e-01
3.511026859283447266e+00
8.749356120824813843e-02
3.752830028533935547e+00
1.755840539932250977e+00
4.919826507568359375e+00
7.817207813262939453e+00
5.522439002990722656e+00
8.669463545083999634e-02
5.287490844726562500e+00
-8.742090463638305664e-01
1.264029622077941895e+00
3.941026926040649414e-01
5.241781711578369141e+00
4.228112697601318359e+00
2.659427404403686523e+00
2.240827560424804688e+00
-6.084809780120849609e+00
1.517873406410217285e+00
-1.689958930015563965e+00
7.377724647521972656e-01
-2.350213050842285156e+00
1.083392143249511719e+00
1.065133213996887207e+00
1.258150488138198853e-01
7.948397159576416016e+00
-3.448598459362983704e-02
-1.154368162155151367e+00
1.833750247955322266e+00
-5.623641610145568848e-01
3.989244699478149414e+00
-1.330958485603332520e+00
-5.251232147216796875e+00
4.719711780548095703e+00
-7.058570981025695801e-01
1.797073721885681152e+00
-3.706591129302978516e-01
4.726452827453613281e-01
-2.911601543426513672e+00
5.023685455322265625e+00
5.683596134185791016e-01
-3.279314517974853516e+00
6.001451238989830017e-02
5.197717666625976562e+00
4.284390449523925781e+00
4.670487403869628906e+00
2.418947458267211914e+00
-3.962196588516235352e+00
3.086543560028076172e+00
8.300819993019104004e-01
5.581195354461669922e+00
2.806077599525451660e-01
-2.924125909805297852e+00
3.507529973983764648e+00
2.587204456329345703e+00
6.071335315704345703e+00
-1.413559615612030029e-01
5.962470531463623047e+00
-9.318040013313293457e-01
-5.847029685974121094e-01
2.764775991439819336e+00
2.782647132873535156e+00
1.214085578918457031e+00
2.408621549606323242e+00
1.897814720869064331e-01
6.277824044227600098e-01
-1.269093513488769531e+00
1.686947703361511230e+00
-4.526895523071289062e+00
-2.523712873458862305e+00
-2.982400894165039062e+00
-1.319942712783813477e+00
3.132432222366333008e+00
1.356784462928771973e+00
8.877440094947814941e-01
1.336845278739929199e+00
-7.196780443191528320e-01
-5.823359489440917969e-01
6.535840988159179688e+00
2.405562639236450195e+00
1.391245126724243164e+00
2.396768093109130859e+00
-7.171895027160644531e+00
2.535569667816162109e-01
2.037642717361450195e+00
3.725297927856445312e+00
-1.373290896415710449e+00
1.540882825851440430e+00
3.227128505706787109e+00
-1.800316691398620605e+00
1.131082177162170410e+00
-1.401320934295654297e+00
-1.381498575210571289e+00
3.841140031814575195e+00
1.059568762779235840e+00
-2.336622476577758789e-01
-1.051994085311889648e+00
3.671536222100257874e-02
-7.024923801422119141e+00
3.122382164001464844e+00
7.320969104766845703e-01
-2.850433290004730225e-01
6.061483621597290039e-01
-1.279965758323669434e+00
-7.682291030883789062e+00
-5.006034374237060547e+00
2.110671043395996094e+00
5.194638252258300781e+00
5.839788317680358887e-01
-3.300200700759887695e+00
3.963111162185668945e+00
-1.349126547574996948e-01
3.858381271362304688e+00
5.413946628570556641e+00
1.136510610580444336e+00
2.871442079544067383e+00
-3.896775841712951660e-01
-3.654166221618652344e+00
2.757646560668945312e+00
1.648515939712524414e+00
1.722851872444152832e+00
2.239215850830078125e+00
7.038599848747253418e-01
1.910859160125255585e-02
-1.442040205001831055e+00
1.892067790031433105e+00
2.395711183547973633e+00
8.925484657287597656e+00
-2.053877115249633789e+00
-1.760588407516479492e+00
1.275757551193237305e+00
4.958146095275878906e+00
-2.090030431747436523e+00
3.108119964599609375e+00
-9.324888229370117188e+00
-5.471032261848449707e-01
1.682992696762084961e+00
2.391419708728790283e-01
5.697813510894775391e+00
-6.908352971076965332e-01
-1.343430280685424805e-01
1.241566658020019531e+00
-1.323758244514465332e+00
-2.745544672012329102e+00
1.291734695434570312e+00
-2.797919273376464844e+00
3.516580164432525635e-01
5.835409641265869141e+00
-2.326735973358154297e+00
1.396111369132995605e+00
2.525030851364135742e+00
9.166160225868225098e-01
8.362607359886169434e-01
1.803662419319152832e+00
5.674341201782226562e+00
4.934222698211669922e+00
-1.298832535743713379e+00
-6.030676364898681641e-01
5.224201202392578125e+00
2.536137104034423828e+00
-2.622649908065795898e+00
1.983374804258346558e-01
-2.275669097900390625e+00
1.961552351713180542e-01
4.053577423095703125e+00
1.315164566040039062e+00
-1.050362467765808105e+00
-4.161931037902832031e+00
6.727177143096923828e+00
-9.649333953857421875e-01
8.963392376899719238e-01
7.605306148529052734e+00
5.869316458702087402e-01
-1.238825607299804688e+01
2.756352186203002930e+00
8.012972831726074219e+00
-1.666032820940017700e-01
4.519760131835937500e+00
-5.115466594696044922e+00
1.572963893413543701e-01
-1.401288151741027832e+00
2.141653537750244141e+00
-4.753557145595550537e-01
5.249453544616699219e+00
6.142262935638427734e+00
2.902047872543334961e+00
9.869878768920898438e+00
-2.513042449951171875e+00
1.400373816490173340e+00
5.748543739318847656e-01
2.322597026824951172e+00
1.696813583374023438e+00
-1.049738526344299316e+00
3.464461326599121094e+00
-3.709393739700317383e-01
1.194324851036071777e+00
2.739710092544555664e+00
3.172734260559082031e+00
3.921218156814575195e+00
3.067255020141601562e+00
-1.907015204429626465e+00
3.005119323730468750e+00
-1.766658574342727661e-01
4.136570453643798828e+00
-1.435284614562988281e+00
1.035791397094726562e+01
4.770038127899169922e-01
-8.475445210933685303e-02
-2.188410162925720215e-01
2.212102651596069336e+00
1.058138966560363770e+00
1.057215690612792969e+00
2.821848630905151367e+00
-2.667451381683349609e+00
-5.960845947265625000e-01
3.029085874557495117e+00
8.197790980339050293e-01
1.813928961753845215e+00
-3.750734806060791016e+00
-1.580151081085205078e+00
1.587230801582336426e+00
8.613915443420410156e-01
3.054719448089599609e+00
9.558768868446350098e-01
-1.330359935760498047e+00
