-4.540716111660003662e-02
-4.280423372983932495e-02
-4.629163444042205811e-02
-6.888329237699508667e-02
-8.594517409801483154e-02
-9.191724658012390137e-02
-9.053223580121994019e-02
-8.811510354280471802e-02
-8.552359044551849365e-02
-7.398095726966857910e-02
-6.513711065053939819e-02
-7.365468889474868774e-02
-1.269298419356346130e-02
-1.248963270336389542e-02
-1.637509651482105255e-02
-2.255464158952236176e-02
-1.809884607791900635e-01
-1.864067316055297852e-01
-1.986879706382751465e-01
-2.085479348897933960e-01
-2.065927088260650635e-01
-1.864888668060302734e-01
-1.582675874233245850e-01
-1.248739585280418396e-01
-1.011738404631614685e-01
-9.196930378675460815e-02
-9.398986399173736572e-02
-8.942795544862747192e-02
-4.243561625480651855e-02
-3.683695197105407715e-02
-3.592398762702941895e-02
-4.500376433134078979e-02
-6.027000769972801208e-02
-6.675621122121810913e-02
-7.437381148338317871e-02
-7.365558296442031860e-02
-6.566265225410461426e-02
-4.173891618847846985e-02
-2.575072087347507477e-02
-3.096373379230499268e-02
1.352916099131107330e-02
1.129206642508506775e-02
4.248993936926126480e-03
-9.347185841761529446e-04
-1.278741955757141113e-01
-1.510602533817291260e-01
-1.845884770154953003e-01
-2.083332687616348267e-01
-1.997416466474533081e-01
-1.730135530233383179e-01
-1.394067406654357910e-01
-1.069748848676681519e-01
-9.080364555120468140e-02
-9.021708369255065918e-02
-9.611237794160842896e-02
-8.699972927570343018e-02
-5.609894543886184692e-02
-4.261713474988937378e-02
-3.234239667654037476e-02
-3.649678453803062439e-02
-4.296091571450233459e-02
-5.173142626881599426e-02
-5.784259736537933350e-02
-5.890065059065818787e-02
-3.922006487846374512e-02
3.230091417208313942e-03
3.332889080047607422e-02
1.855213567614555359e-02
1.184269189834594727e-01
1.041434854269027710e-01
9.194274246692657471e-02
1.301303356885910034e-01
-3.041415475308895111e-03
-5.490414053201675415e-02
-1.288473904132843018e-01
-1.883860230445861816e-01
-1.778742820024490356e-01
-1.428441703319549561e-01
-1.170257106423377991e-01
-1.002859920263290405e-01
-9.657575190067291260e-02
-9.381732344627380371e-02
-9.220748394727706909e-02
-8.846933394670486450e-02
-6.158350408077239990e-02
-4.287845641374588013e-02
-2.971459366381168365e-02
-3.474116697907447815e-02
-4.106185957789421082e-02
-4.259233176708221436e-02
-4.375814273953437805e-02
-3.766880929470062256e-02
-3.652281593531370163e-03
3.506103157997131348e-02
2.178452163934707642e-02
-3.192485496401786804e-02
2.977322973310947418e-02
2.710954844951629639e-02
5.333674326539039612e-02
9.266015887260437012e-02
5.864730104804039001e-03
-6.464307010173797607e-02
-1.483349651098251343e-01
-1.933671981096267700e-01
-1.493660062551498413e-01
-9.329888969659805298e-02
-7.847195118665695190e-02
-7.559135556221008301e-02
-7.927692681550979614e-02
-7.592049986124038696e-02
-7.766917347908020020e-02
-9.296800196170806885e-02
-5.328535661101341248e-02
-3.435095027089118958e-02
-3.044109791517257690e-02
-4.039321094751358032e-02
-4.416577145457267761e-02
-2.793678827583789825e-02
-5.284252110868692398e-03
8.942160755395889282e-03
2.732893452048301697e-02
3.654604777693748474e-02
5.690489895641803741e-03
-3.659807518124580383e-02
1.456424407660961151e-02
3.548379242420196533e-02
5.767754092812538147e-02
6.402689218521118164e-02
2.760060317814350128e-02
-4.420465230941772461e-02
-1.139792650938034058e-01
-1.374752521514892578e-01
-9.230943769216537476e-02
-4.333497956395149231e-02
-2.621369622647762299e-02
-3.118286281824111938e-02
-6.114386022090911865e-02
-7.634171098470687866e-02
-9.066488593816757202e-02
-1.188395321369171143e-01
-6.154309585690498352e-02
-4.799030348658561707e-02
-5.439179763197898865e-02
-7.503087818622589111e-02
-8.677414804697036743e-02
-5.737515911459922791e-02
-2.957335114479064941e-02
-2.421353943645954132e-02
-1.268867682665586472e-02
-1.881157793104648590e-02
-4.894327744841575623e-02
-7.659067213535308838e-02
-6.152012571692466736e-02
-5.260097980499267578e-02
-3.589623421430587769e-02
-1.827708445489406586e-02
-2.014680206775665283e-02
-5.397116020321846008e-02
-8.248066157102584839e-02
-9.270521998405456543e-02
-6.994649022817611694e-02
-5.168917775154113770e-02
-5.767262727022171021e-02
-7.015252113342285156e-02
-9.476904571056365967e-02
-1.142253428697586060e-01
-1.344785988330841064e-01
-1.560668945312500000e-01
-6.954119354486465454e-02
-5.544448271393775940e-02
-6.323438137769699097e-02
-9.951114654541015625e-02
-1.057465299963951111e-01
-9.569809585809707642e-02
-8.419298380613327026e-02
-6.814213842153549194e-02
-6.081547960638999939e-02
-4.926247894763946533e-02
-6.902050971984863281e-02
-1.011276543140411377e-01
-9.690836817026138306e-02
-1.170777156949043274e-01
-9.952628612518310547e-02
-6.306696683168411255e-02
-7.941310107707977295e-02
-8.676777034997940063e-02
-7.868138700723648071e-02
-6.135224178433418274e-02
-5.341209471225738525e-02
-3.810788691043853760e-02
-6.109544262290000916e-02
-8.227077126502990723e-02
-1.273721009492874146e-01
-1.445387005805969238e-01
-1.700685322284698486e-01
-1.881297677755355835e-01
-6.089854240417480469e-02
-5.089590325951576233e-02
-6.230787932872772217e-02
-8.572243899106979370e-02
-9.018445760011672974e-02
-1.039862781763076782e-01
-9.396348893642425537e-02
-8.555590361356735229e-02
-6.685540080070495605e-02
-2.802823297679424286e-02
-3.264904767274856567e-02
-5.809147283434867859e-02
-5.415016785264015198e-02
-7.774972915649414062e-02
-3.957775607705116272e-02
-2.684971690177917480e-02
-6.039694696664810181e-02
-7.592125236988067627e-02
-7.334482669830322266e-02
-3.673954680562019348e-02
-1.676084101200103760e-02
7.634107489138841629e-03
5.919147748500108719e-03
-2.316280826926231384e-02
-9.318903088569641113e-02
-1.249158382415771484e-01
-1.666337549686431885e-01
-1.918815672397613525e-01
-5.447248369455337524e-02
-4.083845764398574829e-02
-2.775675244629383087e-02
-2.394537255167961121e-02
-6.240351498126983643e-02
-7.318428158760070801e-02
-7.070095837116241455e-02
-7.964585721492767334e-02
-4.835150763392448425e-02
3.419806889723986387e-04
2.675117366015911102e-02
2.604679204523563385e-02
1.190605573356151581e-02
-5.794907920062541962e-03
2.566538983955979347e-03
-8.321152068674564362e-03
-3.244914114475250244e-02
-3.784761205315589905e-02
-4.882845655083656311e-02
-1.414240710437297821e-02
1.985210366547107697e-02
5.061124637722969055e-02
5.201038345694541931e-02
2.906700223684310913e-02
-5.768695101141929626e-02
-9.683075547218322754e-02
-1.531382352113723755e-01
-1.898354291915893555e-01
-4.662367329001426697e-02
-2.993513271212577820e-02
-5.490443203598260880e-03
4.784837365150451660e-03
-2.147011272609233856e-02
-3.736006096005439758e-02
-6.982090324163436890e-02
-7.461254298686981201e-02
-4.081760719418525696e-02
2.843677625060081482e-02
8.334158360958099365e-02
8.916857838630676270e-02
6.001952290534973145e-02
4.310521483421325684e-02
7.789134979248046875e-03
4.913225769996643066e-03
-1.611228100955486298e-02
-1.960178092122077942e-02
-3.320952132344245911e-02
3.772741183638572693e-04
2.597262524068355560e-02
5.237075686454772949e-02
6.896676123142242432e-02
5.820621550083160400e-02
-2.592575736343860626e-02
-7.868940383195877075e-02
-1.454518437385559082e-01
-1.847158670425415039e-01
-5.061662569642066956e-02
-3.148324415087699890e-02
-1.811351976357400417e-03
3.016780875623226166e-02
1.501635368913412094e-02
-2.812746167182922363e-02
-6.899520754814147949e-02
-7.417395710945129395e-02
-5.346678942441940308e-02
5.169127136468887329e-03
7.974720746278762817e-02
9.707840532064437866e-02
6.719842553138732910e-02
2.187081612646579742e-02
-1.843284443020820618e-02
5.557770840823650360e-03
-4.171386733651161194e-02
-3.288447856903076172e-02
-3.424577787518501282e-02
-2.269947901368141174e-02
1.036874367855489254e-03
3.282590582966804504e-02
5.801228433847427368e-02
5.917771533131599426e-02
-3.124045021831989288e-02
-1.104784533381462097e-01
-1.635246574878692627e-01
-1.945106238126754761e-01
-5.728597939014434814e-02
-4.756299778819084167e-02
-2.504117600619792938e-02
2.249316684901714325e-02
2.130071818828582764e-02
-2.239775285124778748e-02
-5.282829701900482178e-02
-5.557909235358238220e-02
-7.202100008726119995e-02
-1.758014969527721405e-02
5.018762499094009399e-02
5.575076863169670105e-02
2.001161687076091766e-02
-3.039884753525257111e-02
-3.012082912027835846e-02
2.474677190184593201e-02
-3.185046091675758362e-02
-1.368356030434370041e-02
-3.542741388082504272e-02
-6.096925958991050720e-02
-2.835164591670036316e-02
8.899345062673091888e-03
3.521622717380523682e-02
4.109042137861251831e-02
-5.898795649409294128e-02
-1.558814197778701782e-01
-1.859617680311203003e-01
-1.964032799005508423e-01
-9.910800727084279060e-04
3.008362371474504471e-03
2.438728511333465576e-02
8.997137844562530518e-02
1.282955706119537354e-01
1.065691411495208740e-01
8.001350611448287964e-02
4.624007269740104675e-02
7.075673434883356094e-03
2.470017783343791962e-02
2.781565673649311066e-02
2.241040766239166260e-02
3.439192846417427063e-02
4.587060585618019104e-02
7.935560494661331177e-02
8.235917985439300537e-02
3.661838173866271973e-02
1.325242500752210617e-02
-2.267342247068881989e-02
-1.491610426455736160e-02
3.674634918570518494e-02
6.206632778048515320e-02
1.022696718573570251e-01
1.168801859021186829e-01
3.955437988042831421e-02
-3.810689598321914673e-02
-5.848101153969764709e-02
-5.646133050322532654e-02
-1.862761331722140312e-03
-4.729132051579654217e-04
1.138758752495050430e-02
6.207033991813659668e-02
1.212070211768150330e-01
1.068253442645072937e-01
8.648614585399627686e-02
5.386606976389884949e-02
3.222204744815826416e-02
3.874985501170158386e-02
2.168140932917594910e-02
-1.145635079592466354e-02
1.602719537913799286e-02
3.662308678030967712e-02
4.484260827302932739e-02
3.583715856075286865e-02
1.152256410568952560e-02
-4.544171318411827087e-02
-7.451299577951431274e-02
-4.166216403245925903e-02
7.675267755985260010e-03
2.745821140706539154e-02
6.509274244308471680e-02
7.558805495500564575e-02
7.672588806599378586e-03
-4.067027568817138672e-02
-5.435822904109954834e-02
-4.821024090051651001e-02
-1.856360933743417263e-03
-1.453948905691504478e-03
4.231108818203210831e-03
4.714316502213478088e-02
1.246822252869606018e-01
1.095722168684005737e-01
1.042613014578819275e-01
8.647003024816513062e-02
5.408780276775360107e-02
4.560190439224243164e-02
2.604188770055770874e-02
-2.254370413720607758e-02
-1.611304096877574921e-02
-1.785597763955593109e-02
-1.544152852147817612e-02
-2.735055983066558838e-02
-1.570250652730464935e-02
-8.938618004322052002e-02
-1.079465895891189575e-01
-6.297694891691207886e-02
1.858043600805103779e-03
2.611347474157810211e-02
5.341062694787979126e-02
7.013708353042602539e-02
1.848327741026878357e-02
-2.156844176352024078e-02
-4.132033511996269226e-02
-3.678050264716148376e-02
-1.711773686110973358e-03
-1.386490068398416042e-03
3.310472238808870316e-03
5.249887332320213318e-02
1.358608454465866089e-01
1.135283634066581726e-01
1.146208271384239197e-01
9.890838712453842163e-02
6.495456397533416748e-02
5.400206893682479858e-02
3.115471638739109039e-02
-1.231133379042148590e-02
-9.982392191886901855e-03
-2.732615731656551361e-02
-3.801686689257621765e-02
-4.517024755477905273e-02
-1.323606632649898529e-02
-7.521045953035354614e-02
-8.957072347402572632e-02
-4.958980530500411987e-02
3.459568321704864502e-02
6.088213622570037842e-02
8.867507427930831909e-02
1.032976731657981873e-01
6.680449098348617554e-02
2.854573540389537811e-02
-1.778528839349746704e-02
-2.866793423891067505e-02
-7.910799980163574219e-02
-6.994521617889404297e-02
-6.382592767477035522e-02
-4.966618865728378296e-02
9.742231108248233795e-03
1.842026971280574799e-02
1.482878532260656357e-02
6.613706937059760094e-04
-4.250679165124893188e-02
-7.242186367511749268e-02
-1.006664037704467773e-01
-1.193792894482612610e-01
-4.587126150727272034e-02
-7.440762966871261597e-02
-9.519270807504653931e-02
-9.270840883255004883e-02
4.948317073285579681e-03
-6.460303068161010742e-02
-7.759827375411987305e-02
-3.573163226246833801e-02
2.912732027471065521e-02
3.681727126240730286e-02
1.892588217742741108e-03
-4.262197017669677734e-02
-9.329070895910263062e-02
-1.433804929256439209e-01
-1.739597171545028687e-01
-1.782729029655456543e-01
-7.549689710140228271e-02
-6.891552358865737915e-02
-6.283911317586898804e-02
-3.527761250734329224e-02
1.402137707918882370e-02
1.963067101314663887e-03
-8.797397837042808533e-03
-1.958188414573669434e-02
-5.346127226948738098e-02
-1.009861752390861511e-01
-1.171668916940689087e-01
-1.419297456741333008e-01
-3.879929706454277039e-02
-5.460610240697860718e-02
-7.314165681600570679e-02
-7.481947541236877441e-02
1.039288844913244247e-02
-4.374910145998001099e-02
-6.269975751638412476e-02
-8.100829087197780609e-03
5.186558514833450317e-02
6.694121658802032471e-02
3.749083727598190308e-02
-1.735240221023559570e-03
-4.108062759041786194e-02
-7.874850928783416748e-02
-1.209417209029197693e-01
-1.497874259948730469e-01
-7.328459620475769043e-02
-6.596293300390243530e-02
-5.486088991165161133e-02
-2.643414400517940521e-02
-5.186585476621985435e-04
-2.398449927568435669e-02
-2.443149313330650330e-02
-2.225331030786037445e-02
-5.317355692386627197e-02
-8.279281109571456909e-02
-1.065586954355239868e-01
-1.354552656412124634e-01
-8.356239646673202515e-03
-2.265806868672370911e-02
-5.240352451801300049e-02
-2.200560830533504486e-02
3.157501667737960815e-02
-1.396806351840496063e-02
-4.218512400984764099e-02
8.137185941450297832e-04
5.362494662404060364e-02
8.595101535320281982e-02
5.860442295670509338e-02
1.613368093967437744e-02
-2.665152959525585175e-02
-5.378875881433486938e-02
-1.091899275779724121e-01
-1.617498248815536499e-01
-7.917208969593048096e-02
-6.908200681209564209e-02
-5.520354583859443665e-02
-2.925343438982963562e-02
-2.259491756558418274e-02
-4.278451576828956604e-02
-2.808689884841442108e-02
-3.610434709116816521e-03
-3.013746067881584167e-02
-5.582758411765098572e-02
-8.107538521289825439e-02
-1.267090886831283569e-01
-2.592748217284679413e-02
-2.406054362654685974e-02
-2.814118564128875732e-02
1.501746848225593567e-02
4.448390752077102661e-02
-2.893793163821101189e-03
-2.874698676168918610e-02
-1.146065350621938705e-02
3.635568916797637939e-02
7.750117033720016479e-02
5.628916621208190918e-02
5.423770286142826080e-03
-3.201379254460334778e-02
-6.613239645957946777e-02
-1.363893598318099976e-01
-2.017918229103088379e-01
-8.447549492120742798e-02
-7.321458309888839722e-02
-5.927319079637527466e-02
-3.009624034166336060e-02
-3.026098571717739105e-02
-3.973904624581336975e-02
-9.410602971911430359e-03
1.940919086337089539e-02
7.243711967021226883e-03
-2.849631197750568390e-02
-6.689761579036712646e-02
-1.190019398927688599e-01
-5.182475969195365906e-02
-6.348907202482223511e-02
-4.838840290904045105e-02
-5.226666573435068130e-03
2.336606755852699280e-02
-1.515579130500555038e-02
-4.122762382030487061e-02
-3.897073864936828613e-02
2.620224840939044952e-03
4.825328662991523743e-02
2.403253875672817230e-02
-3.199119493365287781e-02
-6.140230596065521240e-02
-9.342069178819656372e-02
-1.567478030920028687e-01
-2.184412181377410889e-01
-8.615631610155105591e-02
-8.518788218498229980e-02
-8.153972774744033813e-02
-5.236388370394706726e-02
-4.005270078778266907e-02
-3.511960431933403015e-02
-7.334799738600850105e-04
2.515994757413864136e-02
1.305053103715181351e-02
-1.298779528588056564e-02
-4.142773523926734924e-02
-7.523477822542190552e-02
-3.669162839651107788e-02
-6.107144430279731750e-02
-5.350601300597190857e-02
-2.506149746477603912e-02
-6.082213018089532852e-03
-2.347408048808574677e-02
-6.559790670871734619e-02
-6.663804501295089722e-02
-3.385975584387779236e-02
-5.381040275096893311e-03
-3.136772662401199341e-02
-8.493170887231826782e-02
-1.206219121813774109e-01
-1.449163109064102173e-01
-1.761808097362518311e-01
-2.204839885234832764e-01
-8.480233699083328247e-02
-8.542013168334960938e-02
-8.802894502878189087e-02
-7.259687036275863647e-02
-4.083494096994400024e-02
-3.167970851063728333e-02
6.063357926905155182e-03
3.736669942736625671e-02
3.297019377350807190e-02
1.939856633543968201e-02
-2.053542062640190125e-03
-1.663619279861450195e-02
-1.384983398020267487e-02
-3.707782924175262451e-02
-3.475220501422882080e-02
-2.154329791665077209e-03
-9.616534225642681122e-03
-1.769750937819480896e-02
-6.748434901237487793e-02
-8.598996698856353760e-02
-6.254257261753082275e-02
-5.204942822456359863e-02
-8.371853083372116089e-02
-1.474556624889373779e-01
-1.832648664712905884e-01
-1.885009557008743286e-01
-1.975024938583374023e-01
-2.287673652172088623e-01
-7.492066174745559692e-02
-7.727929204702377319e-02
-8.554973453283309937e-02
-7.854336500167846680e-02
-4.410073161125183105e-02
-1.948238536715507507e-02
1.348885707557201385e-02
4.119528457522392273e-02
4.798556864261627197e-02
4.398771747946739197e-02
2.707919850945472717e-02
4.621047992259263992e-03
2.713410882279276848e-03
-1.082646287977695465e-02
5.719523876905441284e-03
3.286432474851608276e-02
-1.514995656907558441e-02
-3.682902455329895020e-02
-7.205315679311752319e-02
-8.970811963081359863e-02
-9.209668636322021484e-02
-1.180664449930191040e-01
-1.475464999675750732e-01
-1.959759294986724854e-01
-2.229163199663162231e-01
-2.117185294628143311e-01
-1.885388195514678955e-01
-2.057305276393890381e-01
-8.399873226881027222e-02
-9.064393490552902222e-02
-8.746154606342315674e-02
-8.215261995792388916e-02
-7.691841572523117065e-02
-6.736069917678833008e-02
-3.746222332119941711e-02
-3.282064199447631836e-02
-4.737701639533042908e-02
-3.561007976531982422e-02
-2.862317301332950592e-02
-3.842779994010925293e-02
-5.093143787235021591e-03
5.340609233826398849e-03
1.442493032664060593e-02
1.040547341108322144e-02
-7.493054121732711792e-02
-9.974449872970581055e-02
-1.039312481880187988e-01
-7.604252547025680542e-02
-6.923336535692214966e-02
-9.195474535226821899e-02
-1.404428482055664062e-01
-1.780137568712234497e-01
-2.104739248752593994e-01
-1.685700267553329468e-01
-1.487409025430679321e-01
-1.765080988407135010e-01
-7.945987582206726074e-02
-8.337765187025070190e-02
-7.254745811223983765e-02
-6.995367258787155151e-02
-7.639647275209426880e-02
-8.208259940147399902e-02
-4.769871011376380920e-02
-3.729829937219619751e-02
-6.633684039115905762e-02
-7.728277891874313354e-02
-8.618362993001937866e-02
-7.405871897935867310e-02
1.866046898066997528e-02
2.443208359181880951e-02
1.159673370420932770e-02
-2.886006608605384827e-03
-1.083886697888374329e-01
-1.152481809258460999e-01
-9.055745601654052734e-02
-6.099418178200721741e-02
-6.188718974590301514e-02
-7.839183509349822998e-02
-1.089681014418601990e-01
-1.403915882110595703e-01
-1.588910222053527832e-01
-1.233277469873428345e-01
-1.251106262207031250e-01
-1.569261699914932251e-01
-7.741713523864746094e-02
-7.504503428936004639e-02
-6.543102115392684937e-02
-6.292594969272613525e-02
-7.546148449182510376e-02
-8.719132840633392334e-02
-6.793309003114700317e-02
-6.549920886754989624e-02
-7.585670799016952515e-02
-8.045426011085510254e-02
-8.828511089086532593e-02
-6.317953765392303467e-02
7.379159331321716309e-02
7.450280338525772095e-02
6.029277294874191284e-02
4.500158131122589111e-02
-1.086612865328788757e-01
-1.181122958660125732e-01
-1.111697629094123840e-01
-1.044669300317764282e-01
-1.041246056556701660e-01
-1.166502013802528381e-01
-1.287422776222229004e-01
-1.436775475740432739e-01
-1.436854749917984009e-01
-1.224060654640197754e-01
-1.279752701520919800e-01
-1.444711983203887939e-01
-6.762638688087463379e-02
-6.201653927564620972e-02
-5.853914842009544373e-02
-5.917065218091011047e-02
-8.342182636260986328e-02
-1.075813695788383484e-01
-1.124451234936714172e-01
-1.249285414814949036e-01
-1.423058360815048218e-01
-1.483359187841415405e-01
-1.376166790723800659e-01
-1.122780144214630127e-01
2.575269713997840881e-02
2.098883688449859619e-02
1.663070358335971832e-02
7.240667939186096191e-03
-1.623136848211288452e-01
-1.642816066741943359e-01
-1.543321013450622559e-01
-1.465326547622680664e-01
-1.351970881223678589e-01
-1.340361833572387695e-01
-1.305635273456573486e-01
-1.276781558990478516e-01
-1.244724467396736145e-01
-1.193139329552650452e-01
-1.209087446331977844e-01
-1.235153004527091980e-01
