6.868438422679901123e-02
3.336496278643608093e-02
1.712419837713241577e-02
3.360085934400558472e-02
-4.040755704045295715e-02
-4.060896113514900208e-03
-5.280458182096481323e-02
-6.134506111266091466e-05
-1.009939797222614288e-02
1.498261350207030773e-03
-1.263102423399686813e-02
2.741142921149730682e-02
8.251503854990005493e-02
-8.736456744372844696e-03
5.457063019275665283e-02
3.170683514326810837e-03
2.961657196283340454e-02
2.544982358813285828e-02
4.818644374608993530e-02
3.196868300437927246e-02
6.453891843557357788e-02
4.470791667699813843e-02
6.003035232424736023e-02
-1.191270188428461552e-03
-4.555848892778158188e-03
1.733157783746719360e-02
1.463380306959152222e-01
5.050012841820716858e-03
-1.291545946151018143e-02
1.333913300186395645e-02
6.182734295725822449e-02
7.653313875198364258e-02
9.932798892259597778e-02
4.848326742649078369e-02
-4.773729015141725540e-04
-6.997208110988140106e-03
1.127277165651321411e-01
4.462690651416778564e-02
7.640720903873443604e-02
-8.408556692302227020e-03
-1.530190557241439819e-02
-6.271441932767629623e-03
3.451154008507728577e-02
-5.764411762356758118e-03
7.330848369747400284e-03
-6.815821398049592972e-04
-6.618652492761611938e-03
3.304471448063850403e-02
2.026143111288547516e-02
7.064305827952921391e-04
-1.757172122597694397e-02
5.716069042682647705e-02
8.704143017530441284e-02
3.801302611827850342e-02
4.831908270716667175e-02
4.308907687664031982e-02
6.287908554077148438e-02
9.302323311567306519e-02
2.602849155664443970e-02
-4.354526847600936890e-02
-1.230610068887472153e-02
2.604042645543813705e-03
6.128757447004318237e-02
2.724278345704078674e-02
3.634960623458027840e-03
7.940591126680374146e-02
-5.064403521828353405e-04
7.258934527635574341e-02
3.517041727900505066e-02
8.658830821514129639e-02
-3.202543593943119049e-03
2.464134804904460907e-02
8.514714427292346954e-03
-4.903649911284446716e-03
4.897538572549819946e-02
8.815139532089233398e-02
-5.074444785714149475e-02
9.188501536846160889e-02
-2.046427130699157715e-02
8.164837211370468140e-02
-2.655456028878688812e-02
1.316352039575576782e-01
1.058385148644447327e-01
-4.341875389218330383e-02
4.368618130683898926e-03
3.882437571883201599e-02
6.786285340785980225e-02
6.604988127946853638e-03
2.602772088721394539e-03
4.305110499262809753e-02
5.233106203377246857e-03
1.468043029308319092e-02
1.667725271545350552e-03
9.501796215772628784e-03
1.485640299506485462e-03
-2.213680930435657501e-02
2.643203921616077423e-02
-9.122209995985031128e-02
-8.202576078474521637e-03
2.379633486270904541e-03
-2.412054501473903656e-02
1.821317896246910095e-02
-3.871195018291473389e-03
2.678146399557590485e-02
3.345408290624618530e-02
1.159479469060897827e-02
-4.179709404706954956e-02
-1.526459702290594578e-03
-4.340205341577529907e-03
-1.117548625916242599e-02
6.080160290002822876e-02
2.465997531544417143e-04
-7.016180455684661865e-02
6.805992126464843750e-02
-6.189328059554100037e-02
1.043935990310274065e-04
1.244835406541824341e-01
-1.077141333371400833e-02
4.182283580303192139e-02
-9.963492630049586296e-05
-4.689636640250682831e-03
8.107800036668777466e-02
1.731611415743827820e-02
7.516324520111083984e-03
-1.071415725164115429e-03
-7.129107136279344559e-03
-3.894138149917125702e-03
-3.716032579541206360e-02
-3.912128042429685593e-03
1.902795135974884033e-01
1.371993031352758408e-02
3.954427689313888550e-02
4.247144237160682678e-02
-3.291128575801849365e-02
-2.392587251961231232e-02
8.185620605945587158e-02
3.009958192706108093e-02
5.086216703057289124e-02
-2.601206360850483179e-04
-1.628764532506465912e-02
3.211463615298271179e-02
-2.133009002136532217e-05
7.369708269834518433e-02
4.500872164499014616e-04
