-2.092419005930423737e-02
4.898918177786981687e-06
-1.483597327023744583e-02
-1.506497990339994431e-02
3.574934555217623711e-03
-2.372254244983196259e-02
4.707848653197288513e-03
-9.924600832164287567e-03
-8.735859766602516174e-03
3.710270393639802933e-04
-1.933563686907291412e-02
3.137770574539899826e-03
-2.537856251001358032e-02
-2.224106527864933014e-02
-2.138259075582027435e-02
1.136553846299648285e-02
-1.516034826636314392e-03
-3.591903485357761383e-03
-2.133619226515293121e-02
1.799653205125650857e-06
2.235033136344100058e-08
7.248709965601562999e-10
-2.957415017590392381e-05
-1.427173335105180740e-02
-3.673774423077702522e-03
9.541696053929626942e-04
-4.240378737449645996e-03
-3.971039876341819763e-02
9.720712013105980986e-10
-4.437783733010292053e-03
6.289740213105687872e-07
2.581368898972868919e-04
7.712849229574203491e-02
-8.526665042154490948e-04
-3.361776936799287796e-03
9.282235056161880493e-03
-1.297255139797925949e-02
2.035345882177352905e-02
-2.536795474588871002e-02
-7.196471560746431351e-03
-9.069425985217094421e-03
-1.126309670507907867e-02
-2.201134338974952698e-02
3.064689053644542582e-07
-1.127110421657562256e-02
9.769290685653686523e-03
-1.184852421283721924e-02
-1.137729617767035961e-03
-5.837761797010898590e-03
-1.451533287763595581e-02
3.814111249056395536e-10
-1.459068804979324341e-02
-1.700142398476600647e-03
-1.089607831090688705e-02
-1.568408624734729528e-04
8.427988504990935326e-04
3.485655877739191055e-03
-6.631961558014154434e-03
1.150992920884164050e-05
-7.460110937245190144e-04
-1.913878880441188812e-02
-9.522252716124057770e-03
-9.977337904274463654e-03
-2.951898425817489624e-02
-1.692389324307441711e-02
-4.234245978295803070e-03
-5.687350872904062271e-03
1.463884213848132276e-08
2.733989978853657021e-10
-9.177293628454208374e-03
-2.041311003267765045e-02
2.739537972956895828e-03
-1.593615114688873291e-02
-1.149387471377849579e-02
3.635489614680409431e-03
-3.101916983723640442e-02
-4.512253683060407639e-03
1.673516817390918732e-04
3.376022446900606155e-03
-1.366255921311676502e-03
-2.243744954466819763e-02
-4.679237958043813705e-03
-2.215854637324810028e-02
4.868555003589847274e-10
-1.508571952581405640e-02
1.847454719245433807e-02
-9.786438196897506714e-03
2.668582834303379059e-02
-4.503781348466873169e-02
1.458275167287581553e-10
-2.209663204848766327e-02
6.375130423563746263e-10
5.643634940497577190e-04
3.624852513894438744e-03
1.097025248419924992e-10
-1.143937837332487106e-02
7.068667318144150613e-10
6.835424900054931641e-02
-1.825148612260818481e-02
-1.092503126710653305e-02
