-3.009802103042602539e-02
-2.854120545089244843e-02
-3.028155863285064697e-02
-2.947885543107986450e-02
-2.881649509072303772e-02
-2.810146845877170563e-02
-2.798184193670749664e-02
-2.919020503759384155e-02
-2.929558232426643372e-02
-2.879502810537815094e-02
-2.770430780947208405e-02
-2.881348505616188049e-02
-2.985827066004276276e-02
-2.931433171033859253e-02
-2.855471707880496979e-02
-2.875886112451553345e-02
-3.025392629206180573e-02
-2.942830137908458710e-02
-2.740694768726825714e-02
-2.966029569506645203e-02
-2.907074429094791412e-02
-2.835811488330364227e-02
-2.929784543812274933e-02
-2.864683605730533600e-02
-2.796466834843158722e-02
-2.831284515559673309e-02
-2.940110489726066589e-02
-2.998865954577922821e-02
-2.989819645881652832e-02
-2.788539230823516846e-02
-2.821902558207511902e-02
-2.809284068644046783e-02
-2.860866487026214600e-02
-2.793004736304283142e-02
-2.939397841691970825e-02
-2.744960971176624298e-02
-2.785173244774341583e-02
-2.756204083561897278e-02
-2.485562115907669067e-02
-2.417393401265144348e-02
-2.393316105008125305e-02
-2.523387223482131958e-02
-2.377675287425518036e-02
-2.633323892951011658e-02
-2.540064230561256409e-02
-2.512414753437042236e-02
-2.603913843631744385e-02
-2.762312628328800201e-02
-2.496566623449325562e-02
-2.717644348740577698e-02
-2.878173068165779114e-02
-3.078275918960571289e-02
-2.834247797727584839e-02
-2.767403610050678253e-02
-2.931929752230644226e-02
-2.944793552160263062e-02
-2.918774448335170746e-02
-3.026846796274185181e-02
-2.885776385664939880e-02
-2.906527742743492126e-02
-2.776110917329788208e-02
-2.892402186989784241e-02
-2.582448534667491913e-02
-2.431550621986389160e-02
-1.855194009840488434e-02
-1.697049848735332489e-02
-1.801604405045509338e-02
-2.244152873754501343e-02
-2.880649641156196594e-02
-2.905528992414474487e-02
-3.325517103075981140e-02
-3.621212020516395569e-02
-3.558528423309326172e-02
-3.292399644851684570e-02
-3.242197632789611816e-02
-3.160520642995834351e-02
-2.725786156952381134e-02
-2.358602918684482574e-02
-2.118990384042263031e-02
-2.853877656161785126e-02
-2.958500385284423828e-02
-2.912106364965438843e-02
-2.981202676892280579e-02
-3.005839698016643524e-02
-2.927901968359947205e-02
-2.757203765213489532e-02
-2.943600155413150787e-02
-2.992428094148635864e-02
-2.728216908872127533e-02
-2.457498572766780853e-02
-2.194445393979549408e-02
-1.396029442548751831e-02
-1.516851596534252167e-02
-1.850501447916030884e-02
-2.186729013919830322e-02
-2.558704465627670288e-02
-2.839059010148048401e-02
-3.099584206938743591e-02
-3.102820739150047302e-02
-3.365069627761840820e-02
-3.118093684315681458e-02
-2.973007783293724060e-02
-2.612058445811271667e-02
-2.415655739605426788e-02
-2.681651152670383453e-02
-2.126257121562957764e-02
-2.130064554512500763e-02
-2.018855512142181396e-02
-2.431499771773815155e-02
-2.743863314390182495e-02
-2.783351577818393707e-02
-2.895921654999256134e-02
-2.897739410400390625e-02
-2.832358144223690033e-02
-2.935216575860977173e-02
-2.779323421418666840e-02
-2.602442353963851929e-02
-1.721079088747501373e-02
-1.337357517331838608e-02
-1.674043014645576477e-02
-1.515704765915870667e-02
-1.756198331713676453e-02
-1.641984656453132629e-02
-1.465231087058782578e-02
-1.814557984471321106e-02
-1.257866155356168747e-02
-1.488976180553436279e-02
-1.822720840573310852e-02
-1.888384670019149780e-02
-1.587284728884696960e-02
-1.850072108209133148e-02
-1.889980956912040710e-02
-2.130820043385028839e-02
-1.777249202132225037e-02
-2.241336368024349213e-02
-2.129776589572429657e-02
-2.097722515463829041e-02
-2.334071509540081024e-02
-2.887606807053089142e-02
-2.990158088505268097e-02
-2.966692484915256500e-02
-2.874464355409145355e-02
-2.876353822648525238e-02
-2.875148132443428040e-02
-1.927135884761810303e-02
-1.524947769939899445e-02
-1.327818445861339569e-02
-9.803956374526023865e-03
-5.777487531304359436e-03
-5.414568353444337845e-03
-2.555616199970245361e-03
-5.545559339225292206e-03
-3.593844303395599127e-05
2.380653982982039452e-03
-3.525283187627792358e-03
-4.562952555716037750e-03
-6.677389610558748245e-03
-5.644760560244321823e-03
-7.470081560313701630e-03
-7.511265110224485397e-03
-9.060697630047798157e-03
-1.119026821106672287e-02
-1.755793020129203796e-02
-2.345373854041099548e-02
-2.634143084287643433e-02
-2.439800091087818146e-02
-2.648215740919113159e-02
-2.951249480247497559e-02
-2.712401933968067169e-02
-2.989906817674636841e-02
-2.910960279405117035e-02
-2.125036157667636871e-02
-1.824179850518703461e-02
-1.184758078306913376e-02
-7.400655653327703476e-03
3.972030710428953171e-03
5.401141941547393799e-03
2.602595195639878511e-04
-1.792850904166698456e-03
-1.566374092362821102e-03
4.896252416074275970e-03
1.764272339642047882e-03
-3.571916837245225906e-03
-3.282841760665178299e-03
-1.606686972081661224e-03
-3.382138675078749657e-03
-3.151754790451377630e-04
3.524569096043705940e-03
2.813917119055986404e-03
-2.726448234170675278e-03
-1.251377630978822708e-02
-2.183153107762336731e-02
-2.814317680895328522e-02
-2.873060479760169983e-02
-2.281881682574748993e-02
-2.808479964733123779e-02
-2.973001077771186829e-02
-2.858260832726955414e-02
-2.579148113727569580e-02
-2.178714610636234283e-02
-1.811963133513927460e-02
-7.308167405426502228e-03
2.824089257046580315e-03
1.015772949904203415e-02
7.030129432678222656e-03
2.816735766828060150e-03
1.818256801925599575e-03
1.012281794100999832e-02
1.401792839169502258e-02
7.053840439766645432e-03
-3.069927683100104332e-03
7.839211029931902885e-04
4.309384617954492569e-03
1.061673392541706562e-03
1.897218171507120132e-03
3.466292750090360641e-03
4.138650372624397278e-03
5.061230156570672989e-03
-8.343571680597960949e-04
-1.373827364295721054e-02
-2.789148874580860138e-02
-3.086100332438945770e-02
-2.299067564308643341e-02
-2.885081246495246887e-02
-2.919686213135719299e-02
-2.509646117687225342e-02
-2.079078368842601776e-02
-1.828438043594360352e-02
-1.308293081820011139e-02
-8.501966949552297592e-04
1.125122886151075363e-02
1.460443809628486633e-02
7.168760988861322403e-03
4.811347927898168564e-03
6.774257402867078781e-03
1.600548811256885529e-02
9.189772419631481171e-03
2.238349057734012604e-03
1.116392202675342560e-03
8.336782455444335938e-03
9.765844792127609253e-03
3.355609020218253136e-03
-2.028168644756078720e-03
2.780262380838394165e-03
8.488399907946586609e-03
1.046601030975580215e-02
3.399714129045605659e-03
-9.584183804690837860e-03
-2.148465625941753387e-02
-2.879714220762252808e-02
-2.197465300559997559e-02
-2.774624899029731750e-02
-2.741536684334278107e-02
-2.460606209933757782e-02
-2.141761779785156250e-02
-1.824316754937171936e-02
-8.179320022463798523e-03
5.708980374038219452e-03
1.451630331575870514e-02
1.301531866192817688e-02
1.158950012177228928e-02
8.389548398554325104e-03
1.392582710832357407e-02
1.394137181341648102e-02
7.350269239395856857e-03
6.676760502159595490e-03
1.190847437828779221e-02
1.441797055304050446e-02
1.303968112915754318e-02
3.211327595636248589e-03
7.836519507691264153e-04
1.555382739752531052e-03
1.309706363826990128e-02
1.426210347563028336e-02
1.032274868339300156e-02
-5.816079676151275635e-03
-1.981301605701446533e-02
-2.589099667966365814e-02
-2.268381230533123016e-02
-2.847332507371902466e-02
-3.075513616204261780e-02
-2.721725404262542725e-02
-2.019651420414447784e-02
-1.716354861855506897e-02
-5.009706132113933563e-03
5.944230593740940094e-03
1.474746968597173691e-02
1.364557445049285889e-02
1.038221456110477448e-02
9.948630817234516144e-03
1.292059011757373810e-02
1.179151702672243118e-02
5.668900907039642334e-03
6.859092041850090027e-03
1.283094566315412521e-02
1.391288079321384430e-02
1.071145478636026382e-02
4.155616741627454758e-03
3.319215029478073120e-03
1.125515904277563095e-02
1.365206576883792877e-02
1.813607290387153625e-02
1.064511481672525406e-02
-4.541446454823017120e-03
-1.671130210161209106e-02
-2.406456135213375092e-02
-2.282944507896900177e-02
-2.647649869322776794e-02
-2.945363707840442657e-02
-2.522898651659488678e-02
-2.232330664992332458e-02
-1.999916695058345795e-02
-1.020478084683418274e-02
-3.304911078885197639e-04
7.308845408260822296e-03
7.827462628483772278e-03
4.168934188783168793e-03
8.156091906130313873e-03
1.108876429498195648e-02
4.386114422231912613e-03
1.325624180026352406e-04
2.594823017716407776e-03
8.418882265686988831e-03
8.578276261687278748e-03
9.128788486123085022e-03
-1.502853818237781525e-03
5.457641091197729111e-03
1.047609746456146240e-02
2.128007449209690094e-02
1.624768041074275970e-02
1.120774541050195694e-02
2.911589108407497406e-04
-1.228632126003503799e-02
-1.957597397267818451e-02
-2.640690840780735016e-02
-2.951957844197750092e-02
-2.904865890741348267e-02
-2.766168303787708282e-02
-2.186998166143894196e-02
-1.821008510887622833e-02
-1.243759319186210632e-02
-6.111727561801671982e-03
2.032445743680000305e-03
3.897337941452860832e-03
-3.739908570423722267e-03
2.794306259602308273e-03
6.347313523292541504e-03
3.840647987090051174e-04
-1.895192544907331467e-03
3.655579872429370880e-03
2.063543070107698441e-05
3.826785832643508911e-03
-1.858884352259337902e-03
-3.974053077399730682e-03
-1.298109302297234535e-03
7.899873889982700348e-03
1.635517179965972900e-02
1.231380458921194077e-02
9.789757430553436279e-03
-2.146533224731683731e-04
-1.471725199371576309e-02
-1.800172589719295502e-02
-2.651179209351539612e-02
-2.998294495046138763e-02
-2.891233935952186584e-02
-2.926041744649410248e-02
-2.589566819369792938e-02
-1.618309132754802704e-02
-1.663477346301078796e-02
-1.002739556133747101e-02
-6.218411144800484180e-04
-3.977097803726792336e-04
-7.204397581517696381e-03
2.802215050905942917e-03
8.336666040122509003e-03
1.347927376627922058e-02
5.266477819532155991e-03
2.372386865317821503e-03
-7.689904421567916870e-03
-8.632265962660312653e-03
-1.363097224384546280e-02
-1.536190696060657501e-02
-7.651456631720066071e-03
2.774383174255490303e-03
1.124981883913278580e-02
5.702919326722621918e-03
2.836866071447730064e-03
-3.581051714718341827e-03
-1.624420098960399628e-02
-1.661567948758602142e-02
-2.521723136305809021e-02
-2.593808807432651520e-02
-2.899806387722492218e-02
-2.929644286632537842e-02
-2.586473897099494934e-02
-1.704569905996322632e-02
-1.515538804233074188e-02
-9.902846999466419220e-03
-4.286476876586675644e-03
-3.418789943680167198e-03
-1.300407573580741882e-02
-3.313462948426604271e-03
1.179914828389883041e-02
1.651089638471603394e-02
1.320562046021223068e-02
2.147959079593420029e-03
-3.958460409194231033e-03
-5.707562901079654694e-03
-1.321752555668354034e-02
-1.954236812889575958e-02
-9.647849015891551971e-03
-2.125955652445554733e-04
4.133772570639848709e-03
1.526384032331407070e-03
2.256807172670960426e-03
-5.257391836494207382e-03
-1.250069960951805115e-02
-1.527870632708072662e-02
-2.460572309792041779e-02
-2.925593033432960510e-02
-3.040018491446971893e-02
-2.975958585739135742e-02
-2.692598290741443634e-02
-1.727739349007606506e-02
-1.408440619707107544e-02
-1.017879322171211243e-02
-4.932886920869350433e-03
-9.293085895478725433e-03
-1.769256033003330231e-02
-1.141952723264694214e-02
4.329816903918981552e-03
8.558099158108234406e-03
1.193207572214305401e-03
-9.346413426101207733e-04
-7.600964047014713287e-03
-3.846542909741401672e-03
-3.540569916367530823e-03
-4.206745419651269913e-03
4.125238046981394291e-04
-3.016271512024104595e-05
-2.479918301105499268e-03
2.486263110768049955e-04
3.771652234718203545e-03
-2.984329126775264740e-03
-1.245228759944438934e-02
-1.610148511826992035e-02
-2.503233216702938080e-02
-2.884016372263431549e-02
-2.785018645226955414e-02
-2.973564714193344116e-02
-2.587434276938438416e-02
-1.774773187935352325e-02
-1.464931666851043701e-02
-1.431977190077304840e-02
-1.262347027659416199e-02
-1.700260676443576813e-02
-1.958262547850608826e-02
-6.896243896335363388e-03
7.483942899852991104e-04
-1.152310636825859547e-03
-3.089493606239557266e-03
-4.690323024988174438e-03
-6.716004107147455215e-03
9.262991370633244514e-04
8.692881674505770206e-04
7.375503773801028728e-04
2.762986114248633385e-03
6.300321314483880997e-03
-4.396166652441024780e-03
-1.461760373786091805e-03
2.815872663632035255e-03
-4.637544509023427963e-03
-1.332443207502365112e-02
-2.012221887707710266e-02
-2.230508439242839813e-02
-2.843494899570941925e-02
-2.904011309146881104e-02
-2.824232354760169983e-02
-2.542449720203876495e-02
-1.569100283086299896e-02
-1.780122332274913788e-02
-1.712662726640701294e-02
-1.260105427354574203e-02
-1.972390897572040558e-02
-1.608251407742500305e-02
-8.057810366153717041e-03
-1.881753676570951939e-03
2.199269365519285202e-03
8.552311337552964687e-04
-1.533803733764216304e-04
2.625661203637719154e-03
-2.306085661984980106e-05
-4.150123335421085358e-03
-4.175424575805664062e-03
5.323489196598529816e-03
7.887699641287326813e-03
-2.937871264293789864e-03
2.994178794324398041e-04
3.314601955935359001e-03
-4.149542655795812607e-03
-1.186315808445215225e-02
-2.126456610858440399e-02
-2.306140586733818054e-02
-2.838489226996898651e-02
-2.783539332449436188e-02
-2.859133668243885040e-02
-2.468378841876983643e-02
-1.692292839288711548e-02
-1.638405956327915192e-02
-1.233665458858013153e-02
-1.137558743357658386e-02
-1.545322965830564499e-02
-1.393346674740314484e-02
-4.685806576162576675e-03
2.017658902332186699e-03
7.184105925261974335e-03
4.644338041543960571e-03
1.139369606971740723e-02
5.237326957285404205e-03
2.622480969876050949e-03
2.338001504540443420e-03
6.412005051970481873e-03
1.318917609751224518e-02
1.212240662425756454e-02
-6.163690122775733471e-04
2.801081165671348572e-03
3.714388702064752579e-03
-1.697428291663527489e-03
-1.196340192109346390e-02
-1.947712339460849762e-02
-2.562031522393226624e-02
-2.767071872949600220e-02
-2.838446572422981262e-02
-2.880365028977394104e-02
-2.360121347010135651e-02
-1.738941110670566559e-02
-1.169511023908853531e-02
-4.101871047168970108e-03
-2.320280531421303749e-03
-1.232336554676294327e-02
-1.208393368870019913e-02
-6.742430850863456726e-03
1.694218954071402550e-03
7.469822186976671219e-03
1.663635112345218658e-02
1.460249815136194229e-02
1.219735946506261826e-02
1.429438032209873199e-02
1.854587905108928680e-02
2.317485213279724121e-02
2.058874815702438354e-02
8.269187994301319122e-03
5.063803866505622864e-03
1.193169504404067993e-02
5.666353274136781693e-03
-3.656534478068351746e-03
-1.377246808260679245e-02
-1.973422802984714508e-02
-2.365961857140064240e-02
-3.011244349181652069e-02
-3.212684392929077148e-02
-2.986715175211429596e-02
-2.178577147424221039e-02
-2.058685570955276489e-02
-1.247799675911664963e-02
-1.767000067047774792e-03
8.276486769318580627e-03
1.173105207271873951e-03
-4.875493701547384262e-03
-1.582400174811482430e-03
6.717577576637268066e-03
1.872775703668594360e-02
2.793723903596401215e-02
2.739314548671245575e-02
2.569827996194362640e-02
2.570423670113086700e-02
3.158215060830116272e-02
3.063605725765228271e-02
1.753298193216323853e-02
8.216690272092819214e-03
1.382402423769235611e-02
1.258607674390077591e-02
6.566560827195644379e-03
-5.083521362394094467e-03
-1.377572678029537201e-02
-1.796665415167808533e-02
-2.396319992840290070e-02
-3.075909614562988281e-02
-2.777820080518722534e-02
-2.717271447181701660e-02
-2.044817991554737091e-02
-1.827248930931091309e-02
-1.006156671792268753e-02
3.022446297109127045e-03
1.097772084176540375e-02
8.817303925752639771e-03
6.103161256760358810e-03
7.383478339761495590e-03
1.144066266715526581e-02
2.457618340849876404e-02
3.232026100158691406e-02
3.270187228918075562e-02
2.974900417029857635e-02
3.468391671776771545e-02
3.550934046506881714e-02
2.377396821975708008e-02
1.048160437494516373e-02
1.089838705956935883e-02
1.104658190160989761e-02
9.617983363568782806e-03
2.518442226573824883e-03
-7.817504927515983582e-03
-1.610212028026580811e-02
-1.846088655292987823e-02
-2.561383135616779327e-02
-2.908365428447723389e-02
-2.872357890009880066e-02
-2.912037447094917297e-02
-2.484987862408161163e-02
-1.757406815886497498e-02
-1.413628738373517990e-02
-5.348875652998685837e-03
5.867930594831705093e-03
6.844509858638048172e-03
5.573369562625885010e-03
8.180754259228706360e-03
1.410666014999151230e-02
1.797874458134174347e-02
2.742460742592811584e-02
2.693421952426433563e-02
2.551200240850448608e-02
2.318722568452358246e-02
1.702995970845222473e-02
7.737502455711364746e-03
5.096545908600091934e-03
3.354485146701335907e-03
3.133192891255021095e-03
-2.248424803838133812e-03
-9.581583552062511444e-03
-1.216817088425159454e-02
-1.659334264695644379e-02
-2.320550754666328430e-02
-2.811935171484947205e-02
-2.896515466272830963e-02
-2.959447540342807770e-02
-2.862584218382835388e-02
-2.679967507719993591e-02
-1.803493686020374298e-02
-2.022662386298179626e-02
-1.673170551657676697e-02
-1.102584414184093475e-02
-1.083915866911411285e-02
-1.062295865267515182e-02
-1.607941091060638428e-02
-1.722983270883560181e-02
-1.369608752429485321e-02
-8.076401427388191223e-03
-2.088598674163222313e-03
1.306102145463228226e-03
-2.043185289949178696e-03
-2.922110958024859428e-03
-8.082431741058826447e-03
-1.269935723394155502e-02
-1.099100522696971893e-02
-1.415447797626256943e-02
-1.435402221977710724e-02
-1.348717883229255676e-02
-1.336051244288682938e-02
-1.998120173811912537e-02
-2.697718702256679535e-02
-2.699641324579715729e-02
-2.898620441555976868e-02
-3.029883652925491333e-02
-2.838012948632240295e-02
-2.928743138909339905e-02
-2.485100738704204559e-02
-2.005811966955661774e-02
-2.151439711451530457e-02
-2.451224252581596375e-02
-3.034923411905765533e-02
-3.221579268574714661e-02
-3.672751039266586304e-02
-4.262585565447807312e-02
-4.436325281858444214e-02
-3.672694042325019836e-02
-2.844969555735588074e-02
-2.426329068839550018e-02
-2.272802591323852539e-02
-1.971544511616230011e-02
-2.027349174022674561e-02
-2.193984948098659515e-02
-2.579875290393829346e-02
-2.471705339848995209e-02
-2.159583196043968201e-02
-1.599510014057159424e-02
-2.034224756062030792e-02
-2.558822557330131531e-02
-2.655362337827682495e-02
-2.953408099710941315e-02
-2.806575596332550049e-02
-2.753912843763828278e-02
-2.841374464333057404e-02
-2.828571386635303497e-02
-2.922923490405082703e-02
-2.506975643336772919e-02
-2.264693193137645721e-02
-2.653567120432853699e-02
-2.790431492030620575e-02
-3.126489743590354919e-02
-3.598703071475028992e-02
-3.977658599615097046e-02
-3.627100959420204163e-02
-3.576340153813362122e-02
-3.493728116154670715e-02
-3.299541026353836060e-02
-3.036198951303958893e-02
-2.784679830074310303e-02
-2.912950888276100159e-02
-3.074711188673973083e-02
-3.155680000782012939e-02
-2.799402736127376556e-02
-2.223385125398635864e-02
-1.900872215628623962e-02
-2.232316136360168457e-02
-2.980089932680130005e-02
-2.876495197415351868e-02
-2.811980806291103363e-02
-2.945574745535850525e-02
-2.783720567822456360e-02
-2.919684350490570068e-02
-2.945502847433090210e-02
-2.879284135997295380e-02
-2.660339884459972382e-02
-2.635999023914337158e-02
-2.282218635082244873e-02
-2.581137977540493011e-02
-3.186940029263496399e-02
-3.207464516162872314e-02
-3.222991526126861572e-02
-3.290132805705070496e-02
-3.154471144080162048e-02
-3.171227499842643738e-02
-3.204415366053581238e-02
-3.484002128243446350e-02
-3.453705087304115295e-02
-3.373741358518600464e-02
-3.091288357973098755e-02
-2.744136750698089600e-02
-2.345979213714599609e-02
-2.208955213427543640e-02
-2.699701115489006042e-02
-2.626005932688713074e-02
-2.916647307574748993e-02
-3.000095300376415253e-02
-2.934839390218257904e-02
-2.826157025992870331e-02
-2.994529157876968384e-02
-2.995457500219345093e-02
-2.878212183713912964e-02
-2.919447422027587891e-02
-2.798406779766082764e-02
-3.043139912188053131e-02
-2.903122641146183014e-02
-2.618587948381900787e-02
-2.506878785789012909e-02
-2.388977073132991791e-02
-2.461688593029975891e-02
-2.570937573909759521e-02
-2.711836248636245728e-02
-2.651443518698215485e-02
-2.720716036856174469e-02
-2.792998962104320526e-02
-2.603799849748611450e-02
-2.121059410274028778e-02
-2.487080544233322144e-02
-2.647464722394943237e-02
-2.906942367553710938e-02
-2.667832747101783752e-02
-2.934934198856353760e-02
-2.829271368682384491e-02
-2.977748960256576538e-02
-2.833857387304306030e-02
-2.796948514878749847e-02
-2.923693694174289703e-02
