5.752789974212646484e+00
2.333363056182861328e+00
-2.954732418060302734e+00
5.490066051483154297e+00
1.210006237030029297e+01
4.255827903747558594e+00
2.827131509780883789e+00
-1.109588384628295898e+00
2.565184354782104492e+00
8.742490768432617188e+00
3.258889436721801758e+00
5.901747703552246094e+00
3.488111019134521484e+00
4.045443534851074219e+00
3.988792181015014648e+00
1.839541554450988770e+00
3.550051450729370117e+00
1.093611812591552734e+01
5.401378154754638672e+00
9.924590110778808594e+00
-2.629088640213012695e+00
4.091263771057128906e+00
7.577398300170898438e+00
-1.136524319648742676e+00
5.132772922515869141e+00
-2.032134532928466797e+00
4.076525688171386719e+00
4.215506553649902344e+00
9.653359413146972656e+00
-4.215552330017089844e+00
3.426913022994995117e+00
3.387556076049804688e+00
1.149128532409667969e+01
4.057339668273925781e+00
9.952775001525878906e+00
3.847957849502563477e+00
3.328214883804321289e+00
2.885026693344116211e+00
4.779857635498046875e+00
-1.288158059120178223e+00
2.519689321517944336e+00
3.839454889297485352e+00
3.202518463134765625e+00
-3.040962696075439453e+00
-5.415647029876708984e+00
9.760333061218261719e+00
4.460920810699462891e+00
2.819931268692016602e+00
8.935773849487304688e+00
-4.601389884948730469e+00
2.767609834671020508e+00
1.877944111824035645e+00
-2.764532327651977539e+00
5.583393573760986328e+00
-8.146925926208496094e+00
1.019365906715393066e+00
-2.004673004150390625e+00
1.153052687644958496e+00
1.406733512878417969e+00
-2.473476886749267578e+00
5.530351638793945312e+00
4.111163616180419922e+00
1.688336730003356934e+00
9.049979209899902344e+00
2.087369561195373535e-01
5.372613906860351562e+00
-9.364321827888488770e-01
-2.356145143508911133e+00
6.019776344299316406e+00
-3.053938627243041992e+00
5.112048149108886719e+00
2.996345520019531250e+00
3.154846668243408203e+00
5.582499027252197266e+00
1.892971038818359375e+00
1.104068160057067871e+00
5.996653079986572266e+00
-4.824407577514648438e+00
6.132300376892089844e+00
4.715124607086181641e+00
-2.367682456970214844e+00
3.021269321441650391e+00
-1.563031196594238281e+00
2.272828578948974609e+00
5.011605262756347656e+00
9.505911827087402344e+00
4.526030540466308594e+00
4.189795017242431641e+00
3.758306503295898438e-01
-1.886104226112365723e+00
6.235863685607910156e+00
3.241988658905029297e+00
-8.028038144111633301e-01
2.375370979309082031e+00
5.120725154876708984e+00
-4.347120285034179688e+00
6.431073188781738281e+00
4.897468090057373047e+00
7.255695462226867676e-01
2.813807487487792969e+00
-4.490137577056884766e+00
-5.222124576568603516e+00
-2.668462753295898438e+00
3.487984180450439453e+00
5.324171066284179688e+00
-2.729300022125244141e+00
4.737273216247558594e+00
2.705231428146362305e+00
-7.313495159149169922e+00
9.269942283630371094e+00
9.126762390136718750e+00
1.263732051849365234e+01
6.830822467803955078e+00
1.011296749114990234e+01
7.279578685760498047e+00
8.899555206298828125e+00
3.247364997863769531e+00
-3.571254968643188477e+00
4.807751178741455078e+00
8.064433097839355469e+00
6.068523406982421875e+00
1.717623136937618256e-02
4.018875598907470703e+00
2.681902170181274414e+00
-3.198624372482299805e+00
3.992062807083129883e+00
4.054604530334472656e+00
4.976715564727783203e+00
6.265224814414978027e-01
9.005549430847167969e+00
-3.538920640945434570e+00
-4.118216037750244141e+00
-1.030683517456054688e+00
5.104038238525390625e+00
2.975776195526123047e+00
5.309905052185058594e+00
4.744439423084259033e-01
2.801773071289062500e+00
5.218098640441894531e+00
1.829105377197265625e+00
-5.691772460937500000e+00
3.731437206268310547e+00
7.341071963310241699e-01
5.715949535369873047e+00
4.993479549884796143e-01
2.126151084899902344e+00
6.792620658874511719e+00
6.780027866363525391e+00
-4.364289760589599609e+00
3.233543872833251953e+00
4.504384994506835938e+00
2.986300230026245117e+00
-3.621068477630615234e+00
-1.326515913009643555e+00
2.484886646270751953e+00
1.376829147338867188e+01
1.285873413085937500e+00
7.024177074432373047e+00
9.037313461303710938e+00
-9.446011185646057129e-01
1.973371028900146484e+00
-2.206248521804809570e+00
4.197191715240478516e+00
2.742640733718872070e+00
3.364395856857299805e+00
4.189435482025146484e+00
-5.548041343688964844e+00
5.848602771759033203e+00
4.805883407592773438e+00
4.935524940490722656e+00
-2.500226974487304688e+00
3.612809181213378906e+00
2.205257892608642578e+00
-9.465101957321166992e-01
1.186321377754211426e+00
3.099637746810913086e+00
3.367571830749511719e+00
6.462915420532226562e+00
1.789976596832275391e+00
-3.445776939392089844e+00
4.949173927307128906e+00
6.722842216491699219e+00
6.639525413513183594e+00
7.959939956665039062e+00
-4.097794532775878906e+00
4.213619709014892578e+00
4.764525413513183594e+00
1.110777091979980469e+01
8.265229463577270508e-01
5.320915222167968750e+00
-3.007265090942382812e+00
-3.932595849037170410e-01
5.686240673065185547e+00
-8.737531661987304688e+00
5.562546730041503906e+00
2.287457466125488281e+00
4.574891090393066406e+00
6.891625881195068359e+00
3.793337583541870117e+00
9.330875396728515625e+00
1.218523859977722168e+00
1.630077213048934937e-01
-2.327960282564163208e-01
-8.154047131538391113e-01
7.517507076263427734e+00
6.372239112854003906e+00
-6.652309894561767578e-01
7.998982906341552734e+00
1.824052691459655762e+00
-4.151376724243164062e+00
9.521759033203125000e+00
-3.475833177566528320e+00
-4.089678764343261719e+00
3.859187841415405273e+00
9.584102630615234375e+00
2.580207109451293945e+00
-4.892416000366210938e+00
6.271886348724365234e+00
5.104464054107666016e+00
8.853700757026672363e-01
5.784216403961181641e+00
-1.996866345405578613e+00
-2.983783245086669922e+00
3.156800985336303711e+00
5.653906345367431641e+00
