7.625688886037096381e-05
2.503578725736588240e-04
4.739344003610312939e-04
-3.455001569818705320e-05
2.954985830001533031e-04
8.472505578538402915e-05
1.571081083966419101e-04
2.597617276478558779e-04
2.873359189834445715e-04
4.661471757572144270e-04
2.541281864978373051e-04
7.815606659278273582e-05
5.382267991080880165e-04
2.944735460914671421e-04
-3.959686364396475255e-05
4.548721481114625931e-04
-4.748934225062839687e-05
2.523358853068202734e-04
2.806773700285702944e-04
5.858999793417751789e-04
2.776706824079155922e-04
4.222817951813340187e-04
6.751196342520415783e-04
-6.999117613304406404e-05
3.386966418474912643e-04
6.096667493693530560e-04
3.510616807034239173e-05
1.380721514578908682e-04
1.956717169377952814e-04
1.233498333021998405e-04
2.807581622619181871e-04
7.972052844706922770e-05
1.209178026329027489e-05
2.627068024594336748e-04
1.441520435037091374e-04
4.871891287621110678e-04
4.152470792178064585e-04
3.623591037467122078e-04
8.197008719434961677e-05
1.180153776658698916e-04
3.343202115502208471e-04
1.132297911681234837e-04
-3.062665200559422374e-06
2.194288535974919796e-04
-4.951675146003253758e-05
2.776936162263154984e-04
1.250664081453578547e-05
-7.430780533468350768e-05
7.998914225026965141e-05
2.881799591705203056e-04
-1.330777449766173959e-04
2.415710878267418593e-05
2.344832755625247955e-04
-9.069385851034894586e-05
3.725212591234594584e-04
5.410328740254044533e-04
6.248770660022273660e-05
9.351883636554703116e-05
5.072682397440075874e-04
4.032502183690667152e-04
-1.124374539358541369e-04
-8.961513231042772532e-05
7.742498564766719937e-05
1.269571366719901562e-04
2.112908987328410149e-04
-1.634834043215960264e-04
-2.458340313751250505e-04
-1.202291459776461124e-04
-1.743479951983317733e-04
5.271564587019383907e-04
4.887439426966011524e-04
2.141881996067240834e-04
-1.393007987644523382e-04
4.767632344737648964e-04
-3.074587730225175619e-04
3.224399697501212358e-04
-9.380391566082835197e-05
5.258258315734565258e-04
4.251320933690294623e-05
1.548451473354361951e-05
1.457805774407461286e-04
-1.511509472038596869e-04
-1.703578163869678974e-04
1.224606385221704841e-04
4.359241575002670288e-04
5.191769741941243410e-05
-2.918435202445834875e-04
1.617253146832808852e-04
3.029516665264964104e-04
5.425177369033917785e-05
2.659350575413554907e-04
3.151245473418384790e-04
2.556546241976320744e-04
3.223789681214839220e-04
8.874792547430843115e-05
-2.424322883598506451e-04
2.832620812114328146e-04
3.584781370591372252e-04
-2.533749793656170368e-04
1.398430904373526573e-04
3.838840057142078876e-04
2.586758928373456001e-04
4.462880315259099007e-04
4.645420412998646498e-04
-2.886964939534664154e-04
3.549774701241403818e-04
4.067549307364970446e-04
3.259321965742856264e-04
3.921623647329397500e-05
2.601110027171671391e-04
7.477509643649682403e-05
1.177816193376202136e-05
-1.471459690947085619e-04
5.602529854513704777e-04
4.325095505919307470e-04
3.274184791735024191e-06
3.446124319452792406e-04
-2.799356298055499792e-04
3.497273137327283621e-04
-3.255994815845042467e-04
3.547545929905027151e-04
2.855207712855190039e-04
2.620546729303896427e-04
2.376181364525109529e-04
1.917985500767827034e-04
1.995340426219627261e-04
4.373591800685971975e-04
5.073466672911308706e-05
2.986083854921162128e-04
6.173241126816719770e-05
8.064133580774068832e-04
5.496750600286759436e-05
3.377248067408800125e-04
7.348269718931987882e-06
8.485571015626192093e-05
3.844188177026808262e-04
3.657951601780951023e-04
5.190302035771310329e-04
1.845817896537482738e-04
2.799954963847994804e-04
2.777829358819872141e-04
9.069091174751520157e-05
-1.799407909857109189e-04
-1.916191249620169401e-04
5.049040773883461952e-04
-2.317255712114274502e-05
1.926344411913305521e-04
-1.121836685342714190e-04
2.272792771691456437e-04
2.493251522537320852e-04
1.425522350473329425e-04
3.780591941904276609e-04
1.117318388423882425e-04
-2.089197369059547782e-04
-3.291780740255489945e-05
2.163550816476345062e-04
4.809181846212595701e-04
1.476128672948107123e-04
1.632258354220539331e-04
3.840779536403715611e-04
-1.496996701462194324e-04
-6.206377292983233929e-05
-8.691724360687658191e-05
2.331354335183277726e-04
1.775294949766248465e-04
2.759348426479846239e-04
2.099249541060999036e-04
5.010332824895158410e-05
2.244976931251585484e-04
2.045819419436156750e-04
1.900789648061618209e-04
3.488908987492322922e-04
-7.127545359253417701e-06
1.736812846502289176e-04
4.681115678977221251e-04
5.010767490603029728e-04
2.729710249695926905e-04
5.383666721172630787e-04
2.829708100762218237e-04
5.495209479704499245e-04
-9.794649668037891388e-05
2.227839559054700658e-06
-1.261005818378180265e-04
2.360919752391055226e-04
7.677407120354473591e-05
-1.097389540518634021e-04
1.126674542319960892e-04
2.113563823513686657e-04
2.122791775036603212e-04
2.423313271719962358e-04
3.505490603856742382e-04
-1.330259692622348666e-04
2.525896707084029913e-04
4.334011464379727840e-04
4.564802802633494139e-04
1.580900134285911918e-04
1.755529810907319188e-04
6.803697760915383697e-05
4.381337203085422516e-04
1.038797709043137729e-04
5.513667128980159760e-04
4.430369008332490921e-04
3.504679771140217781e-04
1.641037233639508486e-04
4.138960212003439665e-04
3.449138312134891748e-04
-6.158708129078149796e-04
2.482947020325809717e-04
4.382706720207352191e-06
2.380818041274324059e-04
2.541670110076665878e-04
1.707780174911022186e-04
4.020204651169478893e-04
-3.817504693870432675e-05
2.216638240497559309e-04
3.775583172682672739e-04
2.976258110720664263e-04
1.366912183584645391e-04
3.074347623623907566e-04
-3.102554474025964737e-04
1.819547906052321196e-04
-1.964501570910215378e-04
6.264786934480071068e-04
2.777442859951406717e-04
5.295985029079020023e-04
