2.880012616515159607e-04
-2.086081804009154439e-05
-8.398100180784240365e-05
2.468841266818344593e-04
3.594483132474124432e-04
-4.638558266378822736e-07
-5.480186082422733307e-04
4.334344703238457441e-05
-4.560083034448325634e-04
2.909263912442838773e-06
-4.244480514898896217e-04
7.004408689681440592e-05
-6.441415171138942242e-04
-5.354016320779919624e-04
5.730879493057727814e-04
2.664526618900708854e-05
9.168187389150261879e-04
-2.590507501736283302e-04
-1.181154584628529847e-04
3.274717309977859259e-04
-5.799294376629404724e-05
2.453876732033677399e-05
4.158837255090475082e-04
5.973365623503923416e-04
2.313684672117233276e-04
-1.420280023012310266e-04
-3.731441684067249298e-04
-1.673245424171909690e-04
3.460981588432332501e-06
5.290838889777660370e-04
-4.357407451607286930e-04
3.849530185107141733e-04
-3.203338419552892447e-04
-2.535451494622975588e-04
-2.185635385103523731e-04
-1.314166729571297765e-04
1.346385251963511109e-04
1.404191425535827875e-04
-2.718983450904488564e-04
-4.603364141075871885e-05
2.414497284917160869e-04
-6.254429990804055706e-06
6.217512418515980244e-04
3.035903500858694315e-04
1.534551993245258927e-04
8.012388570932671428e-05
7.142674876376986504e-04
-3.781711566261947155e-04
-1.427832321496680379e-04
-6.301296525634825230e-04
-2.134499954991042614e-04
6.206769612617790699e-04
-2.128791384166106582e-04
2.018779778154566884e-04
2.089975896524265409e-04
-3.527399967424571514e-04
1.639986003283411264e-04
1.957984350156039000e-04
9.103281627176329494e-05
6.104005733504891396e-04
2.110720924974884838e-05
3.810476628132164478e-04
-7.271923823282122612e-04
6.046433118171989918e-04
1.322801545029506087e-04
-2.639877202454954386e-04
3.122538328170776367e-05
-4.500210634432733059e-04
3.374691295903176069e-04
-1.497689518146216869e-04
-1.127995346905663610e-06
-2.190592058468610048e-04
3.533590643201023340e-04
4.932421725243330002e-04
-1.272455119760707021e-04
-7.233294309116899967e-05
4.255615058355033398e-04
-1.713206438580527902e-04
-1.384619245072826743e-04
-3.420143912080675364e-04
-1.447426529921358451e-05
2.415435119473841041e-05
-6.829940830357372761e-04
-1.785484346328303218e-05
-6.890683289384469390e-05
5.480690160766243935e-04
-2.954090596176683903e-04
2.331812138436362147e-04
4.954120959155261517e-05
2.569535281509160995e-04
1.670940218900796026e-05
2.991988731082528830e-04
1.000417032628320158e-04
-4.486871184781193733e-04
3.132873098365962505e-04
-3.237614509998820722e-05
2.793097810354083776e-04
1.818816381273791194e-04
-1.418604806531220675e-04
2.295794256497174501e-04
2.755269815679639578e-04
-2.855271668522618711e-05
-7.450525881722569466e-04
3.758441889658570290e-04
-4.696704272646456957e-04
2.095243544317781925e-04
-2.158648858312517405e-04
3.704101836774498224e-04
-2.770531573332846165e-04
6.823164585512131453e-05
-7.650063489563763142e-04
-4.905728274025022984e-04
-8.006935822777450085e-04
-5.424125265562906861e-05
-3.633640881162136793e-05
-5.953964137006551027e-05
-7.925701793283224106e-04
-9.608484688214957714e-04
-6.033044774085283279e-04
3.131429257337003946e-04
3.927352954633533955e-04
1.872045104391872883e-04
-1.954835024662315845e-04
-4.387825611047446728e-04
2.547675103414803743e-04
2.362942468607798219e-04
-3.955185529775917530e-04
-8.431259630015119910e-05
-6.314356141956523061e-05
-4.573768237605690956e-04
-4.276430699974298477e-04
4.765632911585271358e-04
2.887383452616631985e-04
1.717847771942615509e-04
-5.580262513831257820e-04
-7.680179260205477476e-05
-7.242940482683479786e-04
3.343489370308816433e-04
2.547802869230508804e-04
-3.658980713225901127e-04
3.039784205611795187e-04
5.984237068332731724e-04
1.574037887621670961e-04
2.761289069894701242e-04
-2.871903707273304462e-04
4.551315796561539173e-04
-4.098886711290106177e-05
2.625648921821266413e-04
4.242549475748091936e-04
-3.380956186447292566e-04
-3.166357637383043766e-04
1.969709119293838739e-04
-3.461725136730819941e-04
4.975074552930891514e-04
7.064611418172717094e-04
-4.298706771805882454e-04
2.736069145612418652e-04
-8.985890890471637249e-04
2.301349741173908114e-04
-4.879927146248519421e-04
-9.696756023913621902e-04
4.373623814899474382e-04
7.468404364772140980e-04
-2.955969539470970631e-04
4.839340399485081434e-04
5.535074742510914803e-04
1.361949543934315443e-04
2.233707928098738194e-04
4.975405172444880009e-04
-4.905964015051722527e-04
-9.145230869762599468e-04
-2.257761661894619465e-04
-8.550841594114899635e-04
-6.795260560465976596e-05
2.576043771114200354e-04
-6.111436960054561496e-05
3.219558275304734707e-04
-3.649519931059330702e-05
2.015155951085034758e-05
4.618648381438106298e-05
6.038084975443780422e-04
2.550245553720742464e-04
1.711807562969624996e-04
2.031686453847214580e-04
-3.613057197071611881e-04
-2.109290508087724447e-04
-6.273837643675506115e-04
-1.198010504595004022e-04
-7.571495370939373970e-04
7.088289130479097366e-04
7.240280683618038893e-05
9.907106141326949000e-05
-5.123147857375442982e-04
-4.517480847425758839e-04
-6.064154440537095070e-04
-5.680593676515854895e-05
-7.629591709701344371e-05
3.868936328217387199e-04
-3.385769960004836321e-04
-1.871172426035627723e-04
5.542789003811776638e-04
3.923900658264756203e-04
-2.048822498181834817e-04
1.959081710083410144e-04
-2.051922201644629240e-04
1.278711715713143349e-04
5.177378770895302296e-04
-7.317363633774220943e-04
-7.745203329250216484e-04
-3.907186619471758604e-04
9.806236630538478494e-05
-6.118679302744567394e-04
-1.538110227556899190e-04
2.225592907052487135e-04
2.732724242378026247e-04
-1.071351216523908079e-04
3.004271711688488722e-04
2.792476152535527945e-05
5.429059965535998344e-04
-6.506694626295939088e-05
2.833484031725674868e-04
-3.535788564477115870e-04
4.745871701743453741e-04
-1.491689326940104365e-04
5.944567601545713842e-05
