-1.818181772250682116e-04
-1.818181772250682116e-04
-2.272727142553776503e-04
-1.818181772250682116e-04
-2.272727142553776503e-04
-1.363636401947587729e-04
-2.272727142553776503e-04
-2.272727142553776503e-04
-3.181817883159965277e-04
-2.727272512856870890e-04
-1.818181772250682116e-04
-1.818181772250682116e-04
-2.727272512856870890e-04
4.545455158222466707e-05
-2.272727142553776503e-04
-1.818181772250682116e-04
-2.727272512856870890e-04
-2.272727142553776503e-04
-2.727272512856870890e-04
-3.181817883159965277e-04
-2.272727142553776503e-04
-3.181817883159965277e-04
-3.181817883159965277e-04
-1.818181772250682116e-04
-3.636363253463059664e-04
-1.818181772250682116e-04
-2.727272512856870890e-04
-2.727272512856870890e-04
-3.181817883159965277e-04
-9.090908861253410578e-05
-1.818181772250682116e-04
-2.727272512856870890e-04
-1.818181772250682116e-04
-2.272727142553776503e-04
-2.727272221818566322e-04
-4.090906295459717512e-04
-3.181816136930137873e-04
-1.363636401947587729e-04
-3.636358305811882019e-04
-3.636357141658663750e-04
-4.545447300188243389e-04
-5.909090978093445301e-04
-8.636358543299138546e-04
4.545456613413989544e-05
9.090761159313842654e-05
-6.363631109707057476e-04
-1.409091753885149956e-03
-6.363635184243321419e-04
-9.090912499232217669e-05
-5.909089813940227032e-04
-4.545454285107553005e-04
-1.818181772250682116e-04
-2.272727142553776503e-04
-3.181817883159965277e-04
-2.727272512856870890e-04
-2.727272512856870890e-04
-2.727272512856870890e-04
-1.818181772250682116e-04
-1.818181772250682116e-04
-1.818181772250682116e-04
-3.636363253463059664e-04
-2.272727142553776503e-04
-9.090906678466126323e-05
1.090905978344380856e-03
9.090874809771776199e-04
5.454477504827082157e-04
2.909080358222126961e-03
1.363625284284353256e-03
-4.545660340227186680e-04
-7.818188518285751343e-03
-6.227282341569662094e-03
-8.181825280189514160e-03
-1.109091378748416901e-02
-1.172727253288030624e-02
-1.218181662261486053e-02
-9.545457549393177032e-03
-8.363631553947925568e-03
-6.090920884162187576e-03
-1.590912928804755211e-03
-6.818178808316588402e-04
-1.227272907271981239e-03
-3.636363253463059664e-04
-3.636363253463059664e-04
-2.272727142553776503e-04
-2.727272512856870890e-04
-2.272727142553776503e-04
-5.454545025713741779e-04
-4.545454285107553005e-04
-7.275957614183425903e-12
1.818181481212377548e-04
7.272734073922038078e-04
9.090844541788101196e-04
1.545448089018464088e-03
6.181818433105945587e-03
8.318167179822921753e-03
1.186367310583591461e-02
1.272727362811565399e-02
1.027279999107122421e-02
7.909134030342102051e-03
1.027272548526525497e-02
7.590868044644594193e-03
7.318151649087667465e-03
8.954554796218872070e-03
5.409076809883117676e-03
1.909089158289134502e-03
1.454546931199729443e-03
-1.772731193341314793e-03
-1.363636110909283161e-03
-1.454545999877154827e-03
-5.454544443637132645e-04
-2.727272512856870890e-04
-1.818181772250682116e-04
-2.272727142553776503e-04
-2.272727142553776503e-04
-3.181817883159965277e-04
-7.727271877229213715e-04
5.454545025713741779e-04
6.363642169162631035e-04
1.590902567841112614e-03
7.272687507793307304e-04
8.681808598339557648e-03
2.227269113063812256e-02
4.136371240019798279e-02
5.168176069855690002e-02
7.327285408973693848e-02
5.649993941187858582e-02
4.381822422146797180e-02
2.772726491093635559e-02
2.427277900278568268e-02
3.068181313574314117e-02
2.009094320237636566e-02
2.368183434009552002e-02
1.849997788667678833e-02
1.559096761047840118e-02
8.545485325157642365e-03
3.590881358832120895e-03
1.909086597152054310e-03
-8.181818993762135506e-04
-4.545454285107553005e-04
-2.727272512856870890e-04
-2.727272512856870890e-04
-2.727272512856870890e-04
-7.727271877229213715e-04
-9.090909588849171996e-05
-1.363631308777257800e-04
-7.272754446603357792e-04
2.954522846266627312e-03
1.372727006673812866e-02
3.386367484927177429e-02
5.568191409111022949e-02
8.181815594434738159e-02
1.135455742478370667e-01
1.279090195894241333e-01
1.205906644463539124e-01
1.074546650052070618e-01
9.500004351139068604e-02
1.001361384987831116e-01
1.031816527247428894e-01
9.309098869562149048e-02
7.904545217752456665e-02
6.449995934963226318e-02
4.354553297162055969e-02
2.168188989162445068e-02
9.727287106215953827e-03
7.318185176700353622e-03
5.181820597499608994e-03
1.136364298872649670e-03
-7.275957614183425903e-12
-1.818181772250682116e-04
-2.727272512856870890e-04
-4.545453703030943871e-05
9.090905077755451202e-04
-8.181821904145181179e-04
5.636359564960002899e-03
1.881819218397140503e-02
4.618187621235847473e-02
7.472726702690124512e-02
1.054091453552246094e-01
1.300002187490463257e-01
1.456819623708724976e-01
1.597725600004196167e-01
1.444995701313018799e-01
1.247729882597923279e-01
1.258180439472198486e-01
1.316812187433242798e-01
1.418182849884033203e-01
1.483633220195770264e-01
1.448635458946228027e-01
1.263634711503982544e-01
8.836378902196884155e-02
5.622722953557968140e-02
2.809095196425914764e-02
1.977272517979145050e-02
8.909072726964950562e-03
3.590909298509359360e-03
7.275957614183425903e-12
-2.727272512856870890e-04
-1.818181772250682116e-04
9.458744898438453674e-11
-1.318181399255990982e-03
-2.863639965653419495e-03
9.090894833207130432e-03
3.281819820404052734e-02
6.631816923618316650e-02
9.922710061073303223e-02
1.210452467203140259e-01
1.269544810056686401e-01
1.307724863290786743e-01
1.147272884845733643e-01
8.309075236320495605e-02
6.281813234090805054e-02
8.045467734336853027e-02
9.222701191902160645e-02
1.132728829979896545e-01
1.402273625135421753e-01
1.518179774284362793e-01
1.479995995759963989e-01
1.196363717317581177e-01
8.140905201435089111e-02
4.590915143489837646e-02
2.750006876885890961e-02
1.000003237277269363e-02
2.272720914334058762e-03
-2.727272512856870890e-04
-2.727272512856870890e-04
-3.636363544501364231e-04
-9.090893581742420793e-05
-5.772732198238372803e-03
1.636356464587152004e-03
1.290906872600317001e-02
4.554546624422073364e-02
8.681806176900863647e-02
1.081819012761116028e-01
1.124995797872543335e-01
1.195453852415084839e-01
1.044091135263442993e-01
9.145431965589523315e-02
6.159092113375663757e-02
5.190911516547203064e-02
4.445465654134750366e-02
5.363624915480613708e-02
9.186360239982604980e-02
1.093181446194648743e-01
1.376817524433135986e-01
1.376361399888992310e-01
1.378635615110397339e-01
9.263644367456436157e-02
4.799995571374893188e-02
2.822729386389255524e-02
1.195458043366670609e-02
1.636362285353243351e-03
-1.363636401947587729e-04
-4.545455158222466707e-05
-3.181818174198269844e-04
-3.863639896735548973e-03
-5.500005092471837997e-03
1.636365079320967197e-03
2.240912616252899170e-02
6.154545396566390991e-02
1.005454584956169128e-01
1.122271344065666199e-01
1.160002052783966064e-01
1.084546968340873718e-01
8.781824260950088501e-02
8.831810951232910156e-02
6.504548341035842896e-02
4.945445433259010315e-02
3.722734376788139343e-02
4.795441403985023499e-02
8.809083700180053711e-02
9.881794452667236328e-02
1.161365285515785217e-01
1.371818482875823975e-01
1.375001072883605957e-01
1.021819412708282471e-01
5.318182334303855896e-02
2.927281893789768219e-02
1.150001585483551025e-02
3.318173345178365707e-03
6.818181136623024940e-04
-4.545455158222466707e-05
-8.636363199912011623e-04
-3.545458195731043816e-03
-4.181825555860996246e-03
4.636368714272975922e-03
4.104534164071083069e-02
8.045452088117599487e-02
1.139544919133186340e-01
1.219996884465217590e-01
1.258636265993118286e-01
1.039091274142265320e-01
1.067270562052726746e-01
1.065453588962554932e-01
8.086352050304412842e-02
6.913650035858154297e-02
5.040920898318290710e-02
7.831793278455734253e-02
1.103636026382446289e-01
1.110000982880592346e-01
1.157726645469665527e-01
1.436816304922103882e-01
1.344544142484664917e-01
1.131359636783599854e-01
5.822719633579254150e-02
2.827277407050132751e-02
1.222726609557867050e-02
2.181817544624209404e-03
-3.636363544501364231e-04
-1.818181772250682116e-04
1.818181481212377548e-04
-1.363637158647179604e-03
-1.318179653026163578e-03
9.954541921615600586e-03
5.313633754849433899e-02
9.490893036127090454e-02
1.221362724900245667e-01
1.409087479114532471e-01
1.348179429769515991e-01
1.314544379711151123e-01
1.276817321777343750e-01
1.267727613449096680e-01
8.400005102157592773e-02
8.822698146104812622e-02
8.227249979972839355e-02
1.027271002531051636e-01
1.380907446146011353e-01
1.319091469049453735e-01
1.185454726219177246e-01
1.362272053956985474e-01
1.360453665256500244e-01
1.112272962927818298e-01
6.963641196489334106e-02
2.036368474364280701e-02
1.122728455811738968e-02
1.681817579083144665e-03
-1.363636401947587729e-04
-1.818181772250682116e-04
3.181817592121660709e-04
7.272727089002728462e-04
4.772723652422428131e-03
2.100007422268390656e-02
6.059083715081214905e-02
1.021363809704780579e-01
1.344997584819793701e-01
1.459540873765945435e-01
1.544091403484344482e-01
1.388635486364364624e-01
1.384548544883728027e-01
1.104542315006256104e-01
7.200001925230026245e-02
9.081781655550003052e-02
9.781850129365921021e-02
9.940904378890991211e-02
1.374542266130447388e-01
1.204546838998794556e-01
1.142725124955177307e-01
1.281364411115646362e-01
1.229546368122100830e-01
1.061816960573196411e-01
6.272737681865692139e-02
1.822727359831333160e-02
4.681815393269062042e-03
1.272726454772055149e-03
-5.909090396016836166e-04
-2.272727142553776503e-04
-9.090908133657649159e-05
-9.090884122997522354e-05
3.727272152900695801e-03
1.795448176562786102e-02
5.895441025495529175e-02
1.012272611260414124e-01
1.391817778348922729e-01
1.451816260814666748e-01
1.449998468160629272e-01
1.434090286493301392e-01
1.335452049970626831e-01
9.563610702753067017e-02
4.336353018879890442e-02
8.654510974884033203e-02
8.290894329547882080e-02
8.527260273694992065e-02
1.329089850187301636e-01
9.509082138538360596e-02
1.084546521306037903e-01
1.307725310325622559e-01
1.243637800216674805e-01
9.159112721681594849e-02
5.831805616617202759e-02
2.518181502819061279e-02
7.136369124054908752e-03
1.999999862164258957e-03
3.181817883159965277e-04
-1.363636401947587729e-04
1.818181772250682116e-04
-9.090887760976329446e-05
3.909090999513864517e-03
1.649995893239974976e-02
7.150003314018249512e-02
1.189995184540748596e-01
1.464998573064804077e-01
1.424093097448348999e-01
1.371361464262008667e-01
1.320908516645431519e-01
1.303179711103439331e-01
7.172732055187225342e-02
7.036358118057250977e-02
8.509079366922378540e-02
7.145430892705917358e-02
8.909095078706741333e-02
1.283182948827743530e-01
1.079091951251029968e-01
1.265909522771835327e-01
1.407723277807235718e-01
1.296363323926925659e-01
9.386339783668518066e-02
6.104543060064315796e-02
2.527272701263427734e-02
4.272724036127328873e-03
1.409089658409357071e-03
-3.181817883159965277e-04
-3.181817883159965277e-04
-1.363636401947587729e-04
9.090907406061887741e-04
6.636369042098522186e-03
1.845452748239040375e-02
7.481826841831207275e-02
1.316816210746765137e-01
1.603182703256607056e-01
1.484090834856033325e-01
1.194996982812881470e-01
1.128636300563812256e-01
1.074545532464981079e-01
5.145453661680221558e-02
6.163623929023742676e-02
9.395442903041839600e-02
7.277267426252365112e-02
1.062724888324737549e-01
1.259999126195907593e-01
1.101816445589065552e-01
1.367726922035217285e-01
1.450911611318588257e-01
1.284091621637344360e-01
9.436366707086563110e-02
6.149994954466819763e-02
2.700004912912845612e-02
4.136352334171533585e-03
-4.545378033071756363e-05
-1.818181772250682116e-04
-2.727272512856870890e-04
-1.818181772250682116e-04
-1.818177697714418173e-04
6.818180438131093979e-03
1.386368647217750549e-02
7.609077543020248413e-02
1.349999308586120605e-01
1.665901839733123779e-01
1.496363878250122070e-01
1.244996190071105957e-01
1.281817108392715454e-01
1.195908933877944946e-01
7.736354321241378784e-02
8.195470273494720459e-02
9.854511916637420654e-02
1.052729785442352295e-01
1.286818683147430420e-01
1.145453453063964844e-01
1.225000992417335510e-01
1.287726163864135742e-01
1.405906379222869873e-01
1.256816387176513672e-01
9.890891611576080322e-02
5.959092080593109131e-02
2.445466443896293640e-02
2.499999944120645523e-03
1.318183611147105694e-03
-1.363636401947587729e-04
-1.818181772250682116e-04
-7.272726506926119328e-04
4.090909496881067753e-04
5.818170960992574692e-03
2.350003831088542938e-02
8.072730153799057007e-02
1.350000947713851929e-01
1.559546142816543579e-01
1.497273147106170654e-01
1.373178660869598389e-01
1.281363666057586670e-01
1.213181912899017334e-01
9.440901130437850952e-02
1.009544134140014648e-01
1.358636766672134399e-01
1.440912038087844849e-01
1.332271695137023926e-01
9.400036931037902832e-02
1.043636724352836609e-01
1.235453337430953979e-01
1.296820938587188721e-01
1.132726222276687622e-01
9.522708505392074585e-02
5.472711846232414246e-02
1.799997128546237946e-02
1.363645424135029316e-04
2.272729179821908474e-04
-1.818181772250682116e-04
-2.727272512856870890e-04
-2.727272512856870890e-04
3.636368201114237309e-04
2.818162320181727409e-03
2.295459620654582977e-02
7.418169826269149780e-02
1.283636540174484253e-01
1.561817973852157593e-01
1.329546272754669189e-01
1.196364611387252808e-01
1.149089708924293518e-01
1.087272688746452332e-01
8.495476096868515015e-02
9.277266263961791992e-02
1.048633903264999390e-01
9.313619881868362427e-02
7.559087127447128296e-02
7.940886169672012329e-02
1.015453785657882690e-01
1.183181554079055786e-01
1.251362562179565430e-01
1.171362251043319702e-01
8.895448595285415649e-02
4.931814968585968018e-02
1.572726666927337646e-02
-4.090910661034286022e-04
3.181815845891833305e-04
2.727272512856870890e-04
-1.363636401947587729e-04
-2.272727142553776503e-04
-1.909096143208444118e-03
4.545367846731096506e-05
1.663639768958091736e-02
6.009088829159736633e-02
1.198182106018066406e-01
1.550456136465072632e-01
1.432729661464691162e-01
1.135909631848335266e-01
9.409073740243911743e-02
7.886361330747604370e-02
5.740917846560478210e-02
4.800011217594146729e-02
6.190908700227737427e-02
4.059088975191116333e-02
5.904553085565567017e-02
8.063620328903198242e-02
1.167273148894309998e-01
1.365457624197006226e-01
1.354997903108596802e-01
1.137271896004676819e-01
7.686369866132736206e-02
3.431814536452293396e-02
7.318187505006790161e-03
-8.636375423520803452e-04
5.093170329928398132e-11
-2.272727142553776503e-04
-2.272727142553776503e-04
-1.363636256428435445e-04
-2.545458497479557991e-03
-3.090936457738280296e-03
6.363594904541969299e-03
4.472729191184043884e-02
1.037270650267601013e-01
1.413637399673461914e-01
1.476816534996032715e-01
1.324545443058013916e-01
9.968186914920806885e-02
7.259062677621841431e-02
4.363635182380676270e-02
2.968181669712066650e-02
3.604547306895256042e-02
5.072723701596260071e-02
8.659092336893081665e-02
1.269090771675109863e-01
1.539546102285385132e-01
1.624544858932495117e-01
1.502268314361572266e-01
1.051364094018936157e-01
5.422729626297950745e-02
1.881820149719715118e-02
-1.181825413368642330e-03
-2.954550087451934814e-03
-1.136363716796040535e-03
-1.363636401947587729e-04
-1.818181772250682116e-04
-3.181817883159965277e-04
-2.909095492213964462e-03
-4.636383615434169769e-03
-1.318219816312193871e-03
2.259090729057788849e-02
7.245444506406784058e-02
1.262727528810501099e-01
1.463638544082641602e-01
1.505906432867050171e-01
1.225910484790802002e-01
9.540909528732299805e-02
7.549986988306045532e-02
5.936351045966148376e-02
7.968194782733917236e-02
1.020908653736114502e-01
1.385910212993621826e-01
1.632724553346633911e-01
1.746821254491806030e-01
1.713179349899291992e-01
1.340453177690505981e-01
7.981809228658676147e-02
2.786352671682834625e-02
7.636358495801687241e-03
-1.272735302336513996e-03
-1.590909552760422230e-03
-5.454545607790350914e-04
-3.181817883159965277e-04
-2.727272512856870890e-04
-2.272727142553776503e-04
-1.590910484082996845e-03
-5.227279383689165115e-03
-7.318226154893636703e-03
2.363645471632480621e-03
3.563632443547248840e-02
7.263623178005218506e-02
1.144090741872787476e-01
1.386362612247467041e-01
1.412725001573562622e-01
1.464094370603561401e-01
1.414543688297271729e-01
1.339545696973800659e-01
1.252724230289459229e-01
1.406363844871520996e-01
1.535454839468002319e-01
1.493183821439743042e-01
1.566361188888549805e-01
1.268178373575210571e-01
9.477265924215316772e-02
4.827284440398216248e-02
1.586365140974521637e-02
7.227273657917976379e-03
-4.545486881397664547e-04
-9.090908570215106010e-04
-9.545453940518200397e-04
-2.272727142553776503e-04
-2.727272512856870890e-04
-2.272727142553776503e-04
-3.636362962424755096e-04
-1.909091137349605560e-03
-2.045464469119906425e-03
1.727262977510690689e-03
1.554544642567634583e-02
3.072730638086795807e-02
4.672712832689285278e-02
6.136361882090568542e-02
6.381803005933761597e-02
8.331816643476486206e-02
1.020452380180358887e-01
1.018634662032127380e-01
9.431806206703186035e-02
9.145423769950866699e-02
9.004538506269454956e-02
8.695433288812637329e-02
8.286352455615997314e-02
6.263627856969833374e-02
4.513644427061080933e-02
2.781814150512218475e-02
1.054545305669307709e-02
3.090908750891685486e-03
8.636366692371666431e-04
2.272726851515471935e-04
-4.090908914804458618e-04
-2.272727142553776503e-04
-2.272727142553776503e-04
-3.181817883159965277e-04
-1.363636256428435445e-04
-4.545455449260771275e-04
1.363634248264133930e-03
3.409077180549502373e-03
5.818167701363563538e-03
1.004546321928501129e-02
9.818167425692081451e-03
1.690914295613765717e-02
2.490910887718200684e-02
3.118184208869934082e-02
4.281821846961975098e-02
4.254546016454696655e-02
3.236369788646697998e-02
2.454546838998794556e-02
1.936366036534309387e-02
2.336369268596172333e-02
2.390909567475318909e-02
2.077277004718780518e-02
1.454548351466655731e-02
9.636361151933670044e-03
5.909102037549018860e-03
1.590913860127329826e-03
6.363635184243321419e-04
-2.272727142553776503e-04
-1.818181772250682116e-04
-3.636363253463059664e-04
-3.181817883159965277e-04
-2.272727142553776503e-04
-2.272727142553776503e-04
-4.545453703030943871e-05
1.272727618925273418e-03
2.045449335128068924e-03
-2.090912545099854469e-03
-3.000022843480110168e-03
-8.727284148335456848e-03
-2.136365976184606552e-03
-6.272738799452781677e-03
-2.363658277317881584e-03
-7.500017993152141571e-03
-7.454555947333574295e-03
-8.636387065052986145e-03
-1.718177832663059235e-02
-1.595451682806015015e-02
-5.181832704693078995e-03
-3.681831760331988335e-03
-7.954553700983524323e-03
-2.136361785233020782e-03
-4.090893198736011982e-04
3.181819920428097248e-04
-6.363637512549757957e-04
-4.545454285107553005e-04
-4.090908623766154051e-04
-2.727272512856870890e-04
-2.727272512856870890e-04
-2.727272512856870890e-04
-2.272727142553776503e-04
-2.272727142553776503e-04
-2.727272512856870890e-04
2.727272803895175457e-04
-2.272724814247339964e-04
-3.045461839064955711e-03
-6.590922828763723373e-03
-8.590903133153915405e-03
-1.299996115267276764e-02
-1.495453156530857086e-02
-2.149997092783451080e-02
-2.404539100825786591e-02
-1.931815780699253082e-02
-1.890907622873783112e-02
-1.922726072371006012e-02
-1.500000059604644775e-02
-3.181828418746590614e-03
-4.545561387203633785e-04
-1.045455108396708965e-03
-1.545456121675670147e-03
9.090922540053725243e-04
8.636363199912011623e-04
-7.275957614183425903e-12
-3.181817883159965277e-04
-3.181817883159965277e-04
-2.727272512856870890e-04
-3.181817883159965277e-04
-3.636363253463059664e-04
-4.090908623766154051e-04
-2.727272512856870890e-04
-2.727272512856870890e-04
-1.363636401947587729e-04
-3.181817883159965277e-04
-2.727270184550434351e-04
-6.363632273860275745e-04
-8.636362617835402489e-04
-1.000000047497451305e-03
6.363632855936884880e-04
-4.090899310540407896e-04
3.181752981618046761e-04
-9.091036190511658788e-05
-6.363700376823544502e-04
-2.500002505257725716e-03
-4.999991506338119507e-04
9.545368957333266735e-04
9.091028914554044604e-05
-5.909089231863617897e-04
2.272727433592081070e-04
4.545455158222466707e-05
5.454545025713741779e-04
-2.727272512856870890e-04
-3.181817883159965277e-04
-2.727272512856870890e-04
-2.727272512856870890e-04
-1.818181772250682116e-04
