1.947519194800406694e-04
4.575961156660923734e-06
-3.264043334638699889e-05
2.416007919237017632e-04
1.879381015896797180e-04
-6.789068265788955614e-06
-2.126401232089847326e-04
7.462176654371432960e-06
-3.617723414208739996e-04
8.452306792605668306e-05
-5.285807856125757098e-05
2.338203776162117720e-04
-5.136490217410027981e-04
-3.697915235534310341e-04
2.905781439039856195e-04
2.227782970294356346e-04
2.877522492781281471e-04
-1.971642268472351134e-05
-1.559766315040178597e-05
1.687356998445466161e-04
9.662200318416580558e-05
2.689409484446514398e-05
2.813192841131240129e-04
3.761575790122151375e-04
1.796549622667953372e-04
-1.196827288367785513e-04
-1.142699038609862328e-04
-3.131733101326972246e-04
2.254851424368098378e-04
3.102234040852636099e-04
-1.546969288028776646e-04
1.297996495850384235e-04
-1.930714206537231803e-04
-5.398539360612630844e-05
1.350227394141256809e-04
1.732401688059326261e-05
1.889104605652391911e-04
1.428040122846141458e-04
-6.451347144320607185e-05
8.027955482248216867e-05
1.705182949081063271e-04
1.112340123654576018e-05
4.989446606487035751e-04
1.226742024300619960e-04
1.110922385123558342e-04
1.450975396437570453e-04
4.183189885225147009e-04
-1.633326901355758309e-04
-1.351637329207733274e-04
-2.496880770195275545e-04
-3.593234869185835123e-04
3.893155662808567286e-04
1.587844017194584012e-04
-2.546723990235477686e-04
1.187868692795746028e-04
-1.276169932680204511e-04
8.572050865041092038e-05
-5.977454566163942218e-05
1.117165666073560715e-04
2.850850287359207869e-04
2.043323183897882700e-04
1.520681980764493346e-04
-3.246449923608452082e-04
9.650349966250360012e-05
-8.310635894304141402e-05
-1.860888369265012443e-05
-7.163824921008199453e-05
-1.299278810620307922e-04
3.029007348231971264e-04
-1.423722424078732729e-04
-1.908658159663900733e-04
-5.170935401110909879e-05
2.321309584658592939e-04
2.411250316072255373e-04
5.264864739729091525e-05
1.981261448236182332e-05
2.387936983723193407e-04
5.711633275495842099e-05
-2.030197647400200367e-04
-6.103928899392485619e-05
2.914964170486200601e-05
1.335817505605518818e-04
-1.980476226890459657e-04
-1.445613888790830970e-04
-1.953467835846822709e-05
2.976268006023019552e-04
-4.201007250230759382e-04
2.312582946615293622e-04
1.838603056967258453e-04
7.850550173316150904e-05
1.198531754198484123e-04
1.029875420499593019e-04
1.218735123984515667e-04
-1.222785067511722445e-04
2.239110617665573955e-04
-3.704481423483230174e-05
1.104047914850525558e-04
1.443856453988701105e-04
5.991962461848743260e-05
-2.584280737210065126e-04
2.193450927734375000e-04
-2.499580659787170589e-05
-2.652716066222637892e-04
1.271038490813225508e-04
-3.057948779314756393e-04
1.553771289763972163e-04
-4.129234730498865247e-05
6.041612141416408122e-05
-7.795627607265487313e-05
5.203663386055268347e-05
-1.392964913975447416e-04
-2.468598831910640001e-04
-2.564094029366970062e-04
1.529228175058960915e-04
2.769314596662297845e-05
-7.956971239764243364e-05
-4.221374983899295330e-04
-3.384019073564559221e-04
-3.185576497344300151e-05
2.305903908563777804e-04
1.422442437615245581e-04
1.835945731727406383e-04
-8.198706200346350670e-05
-2.809444849845021963e-04
1.541976816952228546e-04
-1.358048666588729247e-05
-1.438535837223753333e-04
2.720858174143359065e-05
-9.063739707926288247e-05
-1.236177631653845310e-04
-6.537867739098146558e-05
2.498913963790982962e-04
7.817519508535042405e-05
6.281326204771175981e-05
-3.871628141496330500e-04
5.155594772077165544e-05
-2.370638394495472312e-04
2.461186159052886069e-05
7.863769860705360770e-05
-1.020454656099900603e-04
1.491071161581203341e-04
2.753938897512853146e-04
2.645512868184596300e-04
9.322749247075989842e-05
-1.683837763266637921e-04
1.882879878394305706e-04
1.843020982050802559e-05
2.560942666605114937e-04
1.061239308910444379e-04
-8.510108455084264278e-05
-7.271315553225576878e-05
8.721202175365760922e-05
-8.879365486791357398e-05
2.008379960898309946e-04
2.477470843587070704e-04
-2.316635946044698358e-04
1.781281462172046304e-04
-4.101484955754131079e-04
1.701557630440220237e-04
-1.940798392752185464e-04
-4.464862286113202572e-04
2.340078208362683654e-04
3.159983025398105383e-04
-7.332560198847204447e-05
2.153862005798146129e-04
2.021275868173688650e-04
-1.004075693344930187e-05
2.232098040622076951e-06
2.483729622326791286e-04
-8.290445839520543814e-05
-3.100219764746725559e-04
-2.685333893168717623e-04
-4.380140162538737059e-04
-6.381201274052727968e-06
1.051314611686393619e-04
1.443048386136069894e-04
1.318484719377011061e-04
-1.514913947175955400e-05
9.339240205008536577e-05
1.186595254694111645e-04
3.200074424967169762e-04
6.654640310443937778e-05
2.256008738186210394e-04
9.035570656124036759e-06
-1.099075743695721030e-04
-1.685993811406660825e-05
-2.521798887755721807e-04
-4.722510129795409739e-05
-4.091594601050019264e-04
3.678340872284024954e-04
2.168505743611603975e-04
9.783963832887820899e-06
-5.735918239224702120e-05
-8.884890849003568292e-05
-2.989978238474577665e-04
1.459015720683964901e-06
-3.713649857672862709e-05
2.099383418681100011e-04
-1.258332049474120140e-04
-2.510725753381848335e-04
1.971237506950274110e-04
7.774351252010092139e-05
1.072675877367146313e-04
2.787306148093193769e-04
-4.156179056735709310e-05
2.030789764830842614e-04
2.424851845717057586e-04
-3.502721374388784170e-04
-2.989956992678344250e-04
-7.560967787867411971e-05
5.931303167017176747e-05
-2.290237316628918052e-04
-2.274250437039881945e-04
9.932984539773315191e-05
2.308546681888401508e-04
1.291889566346071661e-05
-1.471018549636937678e-05
6.291986210271716118e-05
2.514531079214066267e-04
5.892535227758344263e-06
2.723038778640329838e-04
-3.205317480023950338e-04
2.638482546899467707e-04
-7.148028089432045817e-05
4.282681402401067317e-05
