-3.969254066760186106e-06
7.158301013987511396e-05
3.829992783721536398e-05
-1.617080852156504989e-04
1.257137919310480356e-04
1.697195257293060422e-04
1.256160612683743238e-04
-4.254135274095460773e-05
1.673339284025132656e-04
1.161629697890020907e-04
-9.620164928492158651e-05
1.091411686502397060e-04
2.660948848642874509e-05
5.502042404259555042e-05
1.007163809845224023e-04
1.535080373287200928e-04
8.858399087330326438e-05
1.588709274074062705e-04
1.087879427359439433e-04
1.381865004077553749e-04
1.369785022689029574e-04
2.742324431892484426e-04
1.522091915830969810e-04
1.215027514263056219e-04
1.018431939883157611e-04
2.107968903146684170e-04
4.695040479418821633e-05
-3.822163489530794322e-05
1.258132688235491514e-04
-1.412903075106441975e-04
-9.831496754486579448e-06
1.041145660565234721e-04
1.448893090127967298e-05
1.026238605845719576e-04
3.853009548038244247e-05
2.131024084519594908e-04
1.983771944651380181e-04
1.936550397658720613e-04
-2.855533239198848605e-06
4.183927012491039932e-05
8.991530921775847673e-05
-5.843600956723093987e-05
1.315268018515780568e-04
2.786902769003063440e-05
1.851795968832448125e-05
9.911281813401728868e-05
2.945596861536614597e-05
7.947903213789686561e-05
-9.651276195654645562e-05
2.064875006908550858e-04
-6.805161683587357402e-05
-1.886384852696210146e-04
4.125162377022206783e-05
7.983078103279694915e-05
8.902324771042913198e-05
3.055634151678532362e-04
-2.488548307155724615e-05
9.127691009780392051e-05
1.518953358754515648e-04
1.176071455120109022e-04
1.289152569370344281e-04
1.659860718064010143e-04
-1.540589146316051483e-04
-9.421565482625737786e-05
1.358437584713101387e-04
-2.431976463412865996e-05
-7.349702354986220598e-05
1.316229172516614199e-04
-1.903238444356247783e-04
3.912078318535350263e-05
8.254849672084674239e-05
2.859349478967487812e-05
6.114426651038229465e-05
1.025108795147389174e-04
-1.199058096972294152e-04
5.615218105958774686e-05
8.907652954803779721e-05
1.778547302819788456e-04
-4.408021777635440230e-05
-1.384610659442842007e-04
9.186990064335986972e-05
-1.085936673916876316e-04
-1.778861951606813818e-05
-1.149661184172146022e-04
-1.200327533297240734e-04
-1.263793383259326220e-04
-1.166774527519010007e-04
1.343570620520040393e-04
-9.318031516158953309e-05
6.896696049807360396e-06
1.636317610973492265e-04
2.092483482556417584e-04
-4.801929026143625379e-05
-1.026918180286884308e-04
2.703169957385398448e-05
7.148567237891256809e-05
9.148850222118198872e-05
9.499523002887144685e-05
-1.419433101546019316e-05
1.182947744382545352e-04
1.701964938547462225e-04
9.743964619701728225e-05
1.423706708010286093e-04
2.828065189532935619e-04
4.144184640608727932e-05
4.443318175617605448e-05
6.680473597953096032e-05
6.580318586202338338e-05
-3.581816781661473215e-05
4.290619108360260725e-05
7.227536843856796622e-05
9.607294487068429589e-05
-1.427667448297142982e-04
2.240081084892153740e-04
8.795794565230607986e-05
-1.824104838306084275e-04
-8.787680599198210984e-06
7.994128827704116702e-05
1.672618382144719362e-04
-8.634674304630607367e-05
-2.336430043214932084e-05
6.875079998280853033e-05
9.054486145032569766e-05
1.283104793401435018e-04
1.326317287748679519e-04
-1.201752002089051530e-05
-7.281020225491374731e-05
-1.072360391844995320e-04
-1.167208665719954297e-05
1.372217957396060228e-04
2.135200775228440762e-04
3.948522135033272207e-05
8.735081064514815807e-05
9.934751687978859991e-06
9.259331272915005684e-05
1.200723709189333022e-04
1.301431184401735663e-04
9.919612784869968891e-05
7.980916052474640310e-06
2.449108069413341582e-05
-4.028623152407817543e-05
-5.830868030898272991e-05
2.997268165927380323e-05
-1.309199706156505272e-05
2.450114698149263859e-04
-1.373430714011192322e-04
-6.412333459593355656e-05
-2.593027784314472228e-05
1.899209019029513001e-04
-6.627577022300101817e-06
8.458179217996075749e-05
2.080604754155501723e-04
4.456050191947724670e-06
-1.652398786973208189e-04
-1.273716188734397292e-04
2.174077599192969501e-05
9.348426829092204571e-05
2.309092451469041407e-05
1.465280074626207352e-04
1.261364377569407225e-04
-1.871460262918844819e-04
-2.954920319098164327e-06
6.889834912726655602e-05
2.074874282698146999e-05
8.097899990389123559e-05
7.433319115079939365e-05
4.979185177944600582e-05
-1.568700681673362851e-04
1.365412026643753052e-04
1.989706288441084325e-05
1.487227127654477954e-04
2.075555385090410709e-04
-8.679644088260829449e-05
3.839078635792247951e-05
5.783655797131359577e-05
1.240962155861780047e-04
9.894506365526467562e-05
2.582406159490346909e-04
5.890556712984107435e-05
5.805170439998619258e-05
-2.244113420601934195e-04
1.482681000197771937e-05
-1.399857574142515659e-04
-5.021437755203805864e-05
-3.675872358144260943e-05
-5.527979374164715409e-05
3.528147499309852719e-05
7.430937694152817130e-05
-1.342789328191429377e-04
1.298405259149149060e-04
6.663901149295270443e-05
1.250288823939627036e-05
2.208179284934885800e-05
1.991132594412192702e-04
1.176792866317555308e-04
2.361091537750326097e-05
6.298396328929811716e-05
-9.218323975801467896e-05
6.749512976966798306e-05
9.619351476430892944e-05
1.664727169554680586e-04
1.517260534455999732e-04
1.296766713494434953e-04
2.582016531960107386e-05
1.548425934743136168e-04
-8.144214370986446738e-05
-1.082140443031676114e-04
1.178695674752816558e-04
1.516289739811327308e-05
-4.398686360218562186e-05
-1.459614140912890434e-04
1.549821172375231981e-05
3.985192233812995255e-05
2.248587952635716647e-05
9.367846359964460135e-05
1.670255296630784869e-04
1.979424705496057868e-04
2.850269083864986897e-05
6.269512959988787770e-05
2.485861841705627739e-05
1.940902584465220571e-04
-8.144697494572028518e-05
2.313636214239522815e-04
1.191931951325386763e-04
4.037608596263453364e-05
